  -0.01937,   0.00312,   0.00482,  -0.02319,   0.02519,   0.01118,  -0.02404,  -0.03041,  -0.01513,   0.01797,  -0.00028,   0.00736,   0.00397,   0.00397,   0.01500,   0.01330,   0.01118,   0.00397,   0.01585,   0.00100,   0.00864,   0.00312,  -0.00537,  -0.02192,  -0.01301,  -0.02107,  -0.00579,   0.02688,  -0.02149,  -0.00919,   0.02731,   0.00015,   0.00227,   0.00142,  -0.00707,   0.00439,   0.02646,  -0.00749,   0.01076,  -0.03423,   0.00524,   0.00906,   0.01712,  -0.01852,  -0.01640,   0.01628,   0.02264,  -0.00155,   0.00015,  -0.00622,  -0.01301,   0.01755,  -0.02701,  -0.00282,  -0.00622,  -0.00028,  -0.01428,   0.01967,   0.00567,   0.00906,   0.01076,  -0.00240,  -0.00876,   0.01033,  -0.01301,  -0.00028,  -0.02065,   0.00651,   0.03877,  -0.03253,  -0.03635,  -0.00791,  -0.00155,  -0.00876,   0.01118,  -0.00494,   0.01246,  -0.00028,  -0.01089,  -0.00112,  -0.01725,   0.00821,   0.00694,   0.00864,  -0.00622,  -0.00876,   0.00015,   0.00354,   0.00567,  -0.00197,   0.02604,  -0.01428,   0.02816,   0.00312,  -0.02234,   0.00991,  -0.00282,  -0.00749,  -0.02489,   0.00821,   0.01203,  -0.00452,  -0.01173,   0.00779,  -0.01428,   0.00736,  -0.00537,   0.01415,   0.01925,  -0.00367,  -0.02828,  -0.00876,   0.00906,  -0.01216,   0.00270,   0.03495,  -0.01640,   0.01373,   0.01797,   0.02816,  -0.01598,   0.00906,   0.01076,  -0.01004,  -0.01683,  -0.02149,   0.01246,  -0.00070,   0.01967,   0.01033,  -0.01683,   0.01203,   0.01500,  -0.03338,   0.00991,   0.00694,   0.01033,  -0.00791,   0.00142,  -0.01089,   0.02052,   0.00949,   0.01118,   0.01373,  -0.00452,   0.01076,  -0.00749,  -0.01258,   0.01033,  -0.00410,   0.03537,   0.01373,  -0.00410,   0.02391,  -0.02107,   0.00397,  -0.00367,   0.01458,  -0.00452,   0.01755,   0.01288,   0.00779,   0.00185,  -0.00367,  -0.00112,   0.01415,  -0.00282,   0.00524,   0.00439,  -0.01089,  -0.01937,   0.00397,  -0.03210,   0.00270,  -0.00749,  -0.00028,  -0.00579,  -0.02489,   0.00906,  -0.01258,  -0.00919,  -0.02659,  -0.01089,  -0.01258,  -0.00707,   0.02901,  -0.01555,  -0.02616,   0.00439,  -0.00452,   0.01840,  -0.02022,  -0.01555,  -0.00961,  -0.00834,   0.00439,  -0.00834,  -0.00537,  -0.01004,  -0.00876,  -0.00452,   0.01585,   0.01628,  -0.01768,  -0.01089,   0.00354,   0.00864,   0.02094,  -0.00282,   0.00779,   0.01118,   0.02307,  -0.02998,  -0.01386,  -0.00749,  -0.00112,  -0.00367,   0.01500,  -0.00834,   0.01755,  -0.03805,  -0.01046,   0.03070,  -0.02234,   0.03580,  -0.00664,  -0.00367,   0.02094,   0.00524,   0.01967,  -0.00622,   0.02137,  -0.00622,   0.00694,  -0.00452,  -0.02744,   0.02519,  -0.00367,   0.02391,   0.05277,   0.01203,  -0.01089,  -0.01683,  -0.02319,   0.01033,  -0.00707,   0.01840,  -0.00070,   0.00524,  -0.01810,   0.02222,  -0.02744,  -0.00155,  -0.01301,   0.01712,   0.00567,  -0.00707,   0.00142,   0.00524,   0.01840,   0.00015,   0.00397,  -0.01216,   0.00864,   0.01543,   0.00057,  -0.00834,   0.00270,  -0.00494,   0.00864,   0.03283,  -0.00791,   0.01118,   0.02476,  -0.00919,  -0.01004,   0.03749,  -0.02149,  -0.00537,  -0.01768,   0.00439,   0.00694,  -0.02404,  -0.00197,   0.01118,  -0.02192,   0.01500,  -0.00876,   0.03113,  -0.01810,   0.00567,  -0.01640,   0.01670,   0.01882,  -0.02913,  -0.00070,  -0.01555,   0.00736,   0.00015,   0.01161,  -0.02786,   0.00100,  -0.00961,   0.01925,   0.01458,  -0.01131,  -0.00579,  -0.02234,   0.00227,  -0.00367,  -0.01004,   0.00779,  -0.02107,  -0.01852,   0.00651,   0.01118,   0.00057,   0.01458,   0.01755,   0.00354,  -0.00834,   0.00821,   0.00609,   0.01415,  -0.00537,   0.00864,   0.01076,   0.01840,   0.03367,   0.01203,   0.00991,  -0.01810,   0.01925,  -0.01343,   0.01755,  -0.00791,  -0.00282,  -0.01555,  -0.00452,   0.00609,  -0.00452,  -0.01768,  -0.00876,  -0.03465,   0.00100,   0.00270,   0.00142,  -0.01131,   0.00736,  -0.01683,  -0.00664,   0.02264,   0.02604,  -0.00537,   0.00482,   0.02519,  -0.01216,   0.03707,   0.01330,   0.00864,  -0.01937,   0.00694,  -0.01004,  -0.00707,   0.02434,  -0.02447,   0.00482,   0.00779,  -0.01386,   0.00736,  -0.00494,   0.00312,  -0.02956,  -0.00070,  -0.02022,  -0.01980,   0.00185,  -0.00664,   0.00906,  -0.00325,   0.00439,  -0.00028,  -0.02659,   0.01246,  -0.00749,  -0.00494,  -0.01131,   0.00949,   0.01543,   0.01118,  -0.01428,  -0.00028,   0.01118,   0.00057,  -0.00028,  -0.01301,   0.00949,  -0.01046,   0.00100,  -0.02022,  -0.00452,   0.00270,   0.00524,  -0.00494,  -0.00494,   0.00949,   0.02349,  -0.01216,  -0.01301,   0.00736,   0.01161,   0.01670,   0.01925,   0.00354,   0.00482,   0.02052,   0.01500,  -0.00834,  -0.03253,   0.00057,  -0.02404,   0.00651,   0.00821,   0.00864,   0.01840,  -0.03126,  -0.00876,  -0.00197,   0.01288,  -0.01937,  -0.00367,  -0.00410,  -0.00155,   0.01033,  -0.02489,   0.00609,   0.00270,  -0.00410,  -0.00112,  -0.03295,   0.01628,  -0.01768,   0.00567,   0.01670,   0.00312,  -0.00410,   0.01118,  -0.02149,   0.02434,  -0.00112,   0.01203,   0.03283,   0.00142,  -0.01810,   0.00354,  -0.00197,   0.01797,   0.01543,   0.00100,   0.00609,   0.01246,   0.01628,   0.00991,  -0.01810,  -0.00579,  -0.00749,   0.01330,   0.01076,   0.00524,   0.01330,  -0.00876,  -0.04229,   0.00482,  -0.00112,   0.01967,  -0.00410,   0.00991,   0.02943,  -0.01258,   0.03028,  -0.01004,   0.00864,  -0.01173,  -0.01598,  -0.00197,   0.00949,   0.00821,  -0.00070,   0.01670,  -0.00664,  -0.01343,  -0.00834,  -0.01004,   0.02222,   0.00524,   0.02391,   0.00015,   0.01161,   0.04131,  -0.00070,   0.00185,  -0.00325,   0.00439,  -0.02022,  -0.00452,   0.00439,   0.00694,  -0.00112,  -0.00749,   0.00227,  -0.01598,   0.00057,  -0.02956,   0.00779,  -0.00622,   0.01967,  -0.00070,   0.01797,  -0.03465,  -0.01386,   0.00694,  -0.01258,  -0.01343,   0.01670,  -0.02319,   0.01330,  -0.02192,   0.01628,  -0.01640,   0.01246,   0.00864,  -0.01725,   0.01033,   0.00142,  -0.00197,   0.02137,   0.00567,  -0.01386,  -0.02192,   0.01925,  -0.00707,  -0.00282,   0.01670,  -0.02277,   0.01288,  -0.00240,  -0.00919,   0.03155,   0.00609,  -0.02234,  -0.03550,   0.01925,   0.02052,   0.01288,  -0.00070,  -0.01640,   0.02688,   0.00057,   0.00439,   0.00864,   0.00736,   0.00736,   0.01033,  -0.01598,  -0.01386,  -0.01937,   0.00567,   0.02307,   0.03452,  -0.02701,  -0.00622,  -0.00919,  -0.01343,   0.00354,   0.00057,  -0.00537,   0.00354,  -0.01725,   0.00736,   0.01458,  -0.04568,  -0.00282,  -0.03253,  -0.00919,   0.00864,   0.01458,   0.01118,  -0.00452,  -0.00791,   0.01373,  -0.01683,  -0.00240,  -0.02616,   0.01373,  -0.00664,  -0.01301,  -0.00622,   0.00185,  -0.00834,   0.00609,  -0.01173,  -0.00664,  -0.01004,  -0.01216,   0.01076,   0.01373,  -0.00876,  -0.01598,  -0.01004,   0.00312,  -0.00240,   0.00906,  -0.00919,   0.00482,  -0.02107,  -0.00707,  -0.01386,  -0.01470,  -0.00112,  -0.00452,  -0.00622,   0.00821,  -0.00664,   0.01500,  -0.01301,  -0.00791,   0.01628,  -0.01004,   0.01246,   0.01203,  -0.00537,   0.00651,   0.01415,   0.00482,  -0.01895,  -0.01131,   0.01500,   0.00864,   0.02519,  -0.01173,  -0.00622,   0.02222,   0.01670,  -0.00791,  -0.00494,   0.00439,   0.00609,  -0.00622,  -0.01513,  -0.00197,   0.01458,  -0.00410,   0.00694,   0.00270,  -0.02107,  -0.00919,   0.02688,  -0.04441,  -0.01131,  -0.02531,   0.00821,   0.00057,   0.00270,   0.01458,  -0.00028,  -0.01258,   0.01330,   0.00439,  -0.00749,  -0.00579,   0.00312,  -0.00494,   0.03495,   0.00991,  -0.00452,   0.00736,   0.02391,   0.00227,  -0.01301,  -0.00537,   0.00057,   0.00906,   0.02009,   0.01373,   0.02986,   0.01118,   0.00482,   0.01288,   0.01712,  -0.00282,   0.00397,  -0.00070,  -0.02234,   0.00991,   0.01076,   0.00949,  -0.00325,   0.00057,  -0.00622,  -0.01555,   0.00439,   0.00821,   0.01246,  -0.02192,  -0.00240,   0.00312,  -0.00367,   0.02052,  -0.00834,   0.00651,  -0.00961,   0.01967,   0.00057,   0.00057,   0.01500,   0.01882,  -0.01683,   0.00015,  -0.01470,   0.02137,  -0.02065,  -0.01725,   0.00015,   0.00057,   0.00482,  -0.01810,  -0.00282,  -0.01131,   0.01755,   0.00397,  -0.00155,  -0.01555,   0.02264,   0.01585,   0.04768,   0.00270,   0.01755,   0.00991,  -0.00622,   0.00100,   0.04004,  -0.01810,  -0.01513,  -0.02319,   0.01288,  -0.01004,   0.00312,   0.00142,   0.00991,  -0.00197,   0.01967,   0.02561,   0.00439,  -0.00240,   0.01925,   0.01628,  -0.01895,  -0.00494,   0.00227,   0.00609,   0.00439,   0.01670,  -0.00579,   0.01670,  -0.01810,  -0.01089,   0.00057,  -0.03932,  -0.00707,  -0.01301,  -0.00070,   0.01203,   0.01458,   0.01118,   0.00100,  -0.01301,   0.01925,  -0.02404,   0.00736,   0.01033,  -0.00367,  -0.00579,   0.00779,  -0.00282,  -0.01428,  -0.00876,  -0.01683,   0.00397,  -0.01683,  -0.00367,  -0.00325,   0.02052,  -0.00664,   0.01967,  -0.02107,   0.00906,   0.00651,   0.00991,  -0.02531,  -0.00707,   0.01288,   0.03113,  -0.00961,   0.01670,   0.00736,  -0.00749,   0.01033,   0.00906,   0.00397,   0.00651,  -0.01598,  -0.02192,   0.01373,   0.01628,   0.01415,   0.00864,  -0.04102,   0.00991,   0.01415,   0.00821,   0.02222,  -0.01216,  -0.01216,  -0.01258,   0.00567,   0.00354,   0.00906,  -0.00410,  -0.00579,  -0.01555,  -0.01470,  -0.00664,   0.01670,  -0.00240,   0.00482,   0.01288,  -0.03083,   0.00270,  -0.00622,  -0.00410,  -0.01725,   0.00567,   0.03028,  -0.00579,  -0.01301,  -0.00876,   0.01840,   0.01797,  -0.00410,  -0.02065,  -0.00579,   0.01543,   0.02773,   0.01925,   0.00185,  -0.04484,   0.00439,  -0.00452,  -0.03465,   0.02222,   0.01458,   0.00821,  -0.02786,  -0.00240,   0.01415,  -0.03932,   0.01118,   0.00015,   0.01500,   0.01288,  -0.00410,   0.01500,  -0.01216,  -0.00707,   0.02137,   0.03410,  -0.01301,  -0.00961,   0.01076,  -0.01301,  -0.00367,   0.02222,   0.01246,  -0.02956,  -0.01216,  -0.00664,  -0.00155,   0.03283,  -0.02022,   0.00312,   0.01543,  -0.01640,  -0.00961,  -0.01683,  -0.02828,   0.01543,   0.01925,  -0.00791,   0.01330,   0.03749,   0.02519,   0.01033,  -0.02913,  -0.02447,  -0.00197,   0.00439,   0.01543,  -0.01937,  -0.00791,   0.01755,   0.01203,  -0.00028,   0.01543,   0.00270,   0.01118,  -0.01173,  -0.01089,   0.01670,  -0.00028,   0.00227,  -0.00112,  -0.00579,  -0.01428,  -0.00622,  -0.00961,   0.02476,  -0.00919,  -0.00494,   0.03452,  -0.01513,   0.01500,  -0.00622,   0.00227,  -0.01725,  -0.01980,   0.00227,   0.00057,  -0.00579,  -0.00410,  -0.02404,   0.00906,  -0.01555,   0.00057,   0.02688,   0.01543,  -0.00282,  -0.00664,   0.02519,  -0.03338,   0.01246,  -0.01216,  -0.01598,   0.00821,   0.00779,  -0.00112,  -0.00961,   0.03155,  -0.00367,  -0.01640,   0.02943
   0.00142,   0.00015,   0.00142,  -0.02192,  -0.00961,   0.01246,   0.01543,  -0.00367,   0.02052,  -0.01810,  -0.00282,   0.01330,  -0.02234,   0.00609,  -0.02065,  -0.01216,  -0.01470,  -0.01173,  -0.00028,   0.01246,  -0.03210,  -0.00028,  -0.01216,  -0.00834,   0.04301,   0.00270,   0.00779,   0.01797,  -0.00494,   0.01033,  -0.00112,   0.02307,   0.00270,   0.00185,   0.02307,  -0.00452,  -0.00028,  -0.02149,  -0.00325,   0.01628,  -0.01598,   0.00057,   0.00227,   0.00439,  -0.00876,  -0.00749,  -0.00579,  -0.00282,   0.00439,   0.00779,   0.01076,   0.02349,   0.02476,   0.00482,   0.03028,  -0.00410,   0.01882,  -0.01258,   0.03410,  -0.01810,   0.01118,  -0.00664,  -0.02871,   0.03113,   0.00142,   0.00949,   0.01330,  -0.00325,   0.00015,  -0.00961,  -0.00410,  -0.01046,  -0.01810,  -0.00494,   0.00312,  -0.02489,   0.03580,  -0.02234,  -0.01725,  -0.00028,  -0.00155,   0.00439,  -0.00537,  -0.01428,  -0.02404,  -0.00622,  -0.00240,  -0.01089,  -0.00155,  -0.01555,  -0.00410,  -0.00664,   0.00439,  -0.00494,   0.00397,  -0.00240,   0.01203,  -0.01046,  -0.00028,  -0.02404,  -0.02277,   0.01288,  -0.01343,  -0.02149,   0.02264,   0.00949,  -0.00452,  -0.01768,   0.00185,   0.03198,  -0.01216,  -0.00579,  -0.02447,  -0.02022,   0.00567,  -0.00537,   0.00142,  -0.00367,  -0.02234,   0.02943,  -0.00112,   0.01585,   0.01033,  -0.01301,  -0.00070,  -0.01216,   0.02137,  -0.00155,  -0.00452,   0.01033,  -0.00834,   0.02094,   0.00270,   0.02094,   0.01330,   0.00524,  -0.01004,  -0.00579,  -0.01513,  -0.00664,  -0.01216,   0.00736,   0.00821,   0.01033,   0.00651,  -0.00410,   0.01755,  -0.01810,  -0.01640,  -0.01343,  -0.02149,  -0.01683,   0.00312,  -0.00028,  -0.01343,  -0.00622,  -0.02404,   0.01246,   0.00227,   0.02137,  -0.01216,   0.00949,  -0.00197,  -0.01513,  -0.01004,   0.00312,   0.00185,   0.00567,  -0.00282,  -0.00961,   0.03495,  -0.00537,  -0.05120,  -0.01937,   0.00567,  -0.00961,   0.00949,  -0.01216,  -0.04059,   0.00609,  -0.00537,   0.01076,  -0.00155,  -0.02065,  -0.01895,  -0.01470,  -0.00070,  -0.01386,   0.02858,  -0.00664,   0.00524,  -0.02107,   0.00227,   0.00142,   0.01161,  -0.02489,   0.01712,   0.00142,  -0.00876,  -0.00749,   0.00185,  -0.00155,  -0.00834,   0.02137,  -0.00494,  -0.00367,  -0.00961,   0.00397,   0.00312,   0.01585,   0.00142,  -0.01513,  -0.00155,   0.01033,   0.03580,  -0.01004,  -0.01598,  -0.00325,  -0.01258,   0.00142,  -0.01895,   0.00906,   0.00227,  -0.02065,   0.01543,  -0.00367,  -0.01768,  -0.02362,   0.00821,  -0.01386,  -0.00410,   0.00439,  -0.00707,   0.00567,   0.01118,   0.00354,  -0.00622,  -0.01937,  -0.00112,  -0.01131,  -0.00537,   0.00439,   0.02688,   0.03028,  -0.01598,  -0.00452,   0.01033,   0.00439,   0.01330,  -0.00028,  -0.00197,   0.03283,  -0.00919,  -0.01131,   0.02264,  -0.02913,  -0.02828,  -0.00070,   0.01033,   0.00057,   0.01628,  -0.00282,   0.01076,  -0.00452,   0.01967,  -0.01173,  -0.01810,   0.01840,   0.00142,  -0.01428,  -0.00282,  -0.00112,  -0.00622,  -0.00367,   0.00397,  -0.01598,   0.02179,  -0.03635,  -0.02956,   0.01161,   0.01458,   0.01330,  -0.01428,   0.03113,  -0.00622,   0.01882,   0.00694,  -0.01428,  -0.00452,   0.01628,  -0.00664,  -0.00791,   0.00609,   0.00439,   0.00185,  -0.03465,  -0.02192,  -0.02616,   0.02646,  -0.00876,  -0.01852,   0.03410,   0.00142,   0.00779,   0.00821,  -0.00452,  -0.00919,  -0.00494,  -0.01428,  -0.01089,   0.02943,   0.00694,  -0.01301,   0.02179,  -0.00834,   0.00949,   0.01585,  -0.00707,  -0.00664,  -0.00240,  -0.00410,   0.01585,   0.00651,  -0.02659,   0.01246,  -0.00452,  -0.03507,  -0.02022,   0.03792,  -0.00834,  -0.00834,  -0.01386,  -0.01725,  -0.02277,   0.00100,   0.01288,  -0.03126,  -0.00028,   0.01755,   0.01500,   0.01076,  -0.01470,  -0.00791,  -0.01301,  -0.02022,  -0.01470,   0.00015,  -0.01216,   0.02434,  -0.01683,   0.02476,   0.00057,  -0.02022,   0.00270,  -0.01980,   0.00270,  -0.01004,  -0.00155,   0.00100,  -0.01470,   0.00482,   0.02137,   0.00142,  -0.02489,  -0.00494,  -0.02404,   0.01925,   0.02009,   0.00142,   0.00609,  -0.00919,  -0.00494,   0.00864,   0.01797,   0.00991,  -0.01046,  -0.02277,  -0.01131,   0.00609,  -0.02404,  -0.00622,   0.00227,  -0.02489,   0.02731,  -0.01004,  -0.00707,  -0.00919,   0.01203,   0.00227,   0.02264,   0.02519,  -0.02404,   0.01246,   0.02307,  -0.00579,  -0.00070,  -0.00070,  -0.02107,  -0.00537,   0.00397,   0.00694,   0.02943,  -0.02404,   0.00354,   0.01373,   0.00991,   0.01840,  -0.01301,  -0.02065,  -0.02744,  -0.00112,   0.00397,   0.02773,  -0.00876,  -0.00155,   0.00354,  -0.02531,  -0.00155,   0.02264,  -0.01386,   0.00185,   0.00354,   0.01670,   0.00142,   0.02476,   0.01203,   0.01925,  -0.01683,   0.01161,  -0.00112,  -0.02192,  -0.00325,  -0.02277,   0.00736,   0.00694,   0.00779,  -0.02192,  -0.00919,   0.02476,  -0.00282,  -0.01895,  -0.00537,  -0.02404,   0.01458,   0.00779,   0.00015,  -0.00410,  -0.00325,   0.00312,  -0.00749,   0.02646,   0.02901,  -0.00028,  -0.00410,   0.00991,   0.00015,   0.03537,   0.01033,  -0.00197,  -0.02362,   0.01967,  -0.00664,  -0.00749,  -0.01598,   0.00736,   0.02137,   0.01670,  -0.02022,  -0.00707,   0.00015,   0.00736,   0.01076,   0.01161,   0.01458,  -0.00367,  -0.00834,   0.00354,   0.00524,  -0.03720,  -0.00749,  -0.00791,   0.01628,  -0.03677,   0.01161,  -0.01555,   0.00185,   0.00779,   0.00864,   0.02858,  -0.00749,   0.01118,   0.00864,   0.00567,  -0.00579,   0.01246,  -0.00282,   0.00991,  -0.00961,  -0.02192,   0.00270,  -0.00197,  -0.01216,  -0.00664,   0.01161,   0.00100,  -0.00452,   0.01373,   0.00354,   0.01033,   0.01373,   0.01967,   0.00864,  -0.01089,  -0.00876,   0.00609,   0.00949,  -0.00112,  -0.03338,  -0.02574,   0.02901,  -0.01131,  -0.01980,   0.00524,  -0.03126,   0.00651,  -0.02192,   0.01458,   0.02094,   0.00949,  -0.00197,   0.00524,   0.01585,   0.01288,   0.00991,  -0.00791,   0.00651,   0.01628,   0.00397,   0.00609,  -0.02489,  -0.00919,  -0.01895,   0.00821,  -0.00367,  -0.01598,   0.01755,   0.00906,   0.00312,  -0.00876,   0.00821,  -0.00537,   0.00609,   0.01500,   0.00312,  -0.01216,   0.03028,   0.00482,   0.03877,   0.00567,   0.00736,   0.00185,   0.00312,  -0.02192,  -0.02786,  -0.02616,   0.00779,   0.00524,  -0.00282,  -0.00240,  -0.00622,  -0.01004,  -0.00282,  -0.00707,  -0.00791,   0.01415,   0.01246,   0.00312,  -0.00028,  -0.00961,  -0.01725,   0.01246,  -0.01089,   0.00354,  -0.02404,  -0.01386,   0.00651,   0.01033,   0.01246,   0.01203,  -0.00367,  -0.00240,  -0.00876,  -0.01513,  -0.00791,   0.00567,  -0.00197,   0.00991,  -0.01258,   0.02052,   0.01246,  -0.00240,   0.02009,  -0.01852,  -0.02447,  -0.01640,   0.00821,   0.01288,   0.01967,   0.02986,  -0.00494,   0.00906,  -0.03253,  -0.00579,  -0.00155,   0.02816,  -0.00070,  -0.00282,  -0.01173,   0.01500,  -0.02319,   0.00991,  -0.01470,   0.00736,   0.01755,  -0.00410,   0.00227,  -0.00961,   0.00779,  -0.01725,  -0.00749,  -0.01301,   0.02222,   0.00439,   0.00864,  -0.03423,  -0.00325,  -0.02531,   0.01118,  -0.00579,  -0.00325,   0.01288,  -0.03677,   0.00015,   0.00100,  -0.00749,   0.01415,   0.00524,  -0.00749,  -0.02404,   0.02349,  -0.00325,   0.01373,  -0.01089,  -0.00664,  -0.00537,  -0.00876,  -0.00834,   0.01330,   0.02731,   0.00991,  -0.01343,   0.00354,   0.01925,   0.00227,  -0.00579,   0.00779,  -0.01258,   0.00694,   0.00270,   0.00270,   0.00142,  -0.01131,   0.00736,  -0.02744,  -0.00112,   0.00354,  -0.01555,   0.00312,   0.02094,   0.02391,  -0.02744,  -0.01173,   0.01797,  -0.01428,   0.01118,  -0.00197,  -0.01386,  -0.01598,   0.01882,   0.02264,  -0.02447,  -0.00707,   0.00439,   0.01925,  -0.01004,  -0.00112,  -0.02404,  -0.01046,   0.01712,  -0.00919,   0.02646,  -0.00452,   0.00015,  -0.00240,  -0.02362,  -0.01428,  -0.01301,   0.00015,  -0.02447,   0.01415,   0.00991,  -0.00452,   0.00015,  -0.01089,   0.00270,   0.02349,   0.00482,  -0.00876,   0.00057,  -0.01131,  -0.01301,  -0.02234,   0.01415,   0.01797,  -0.01470,  -0.00664,  -0.01173,   0.00524,   0.02391,   0.00567,  -0.00197,  -0.00622,   0.01076,   0.00185,   0.02094,   0.00524,   0.00821,  -0.00367,   0.00779,   0.00821,  -0.00622,  -0.02149,   0.02519,   0.01330,  -0.02956,   0.01330,  -0.02404,   0.03792,   0.00821,   0.01288,  -0.01895,  -0.00707,  -0.00282,   0.00057,   0.02688,   0.01712,   0.02391,  -0.01937,   0.00821,  -0.00240,   0.02519,   0.01076,  -0.00919,   0.02731,   0.00100,  -0.01301,   0.01543,  -0.00664,  -0.00197,   0.01076,  -0.00834,   0.01415,   0.00185,   0.01882,   0.00100,   0.00694,  -0.00707,  -0.00070,  -0.01598,  -0.02447,   0.00567,   0.01415,   0.01628,  -0.00876,  -0.01555,  -0.01683,   0.01585,  -0.00579,   0.01118,  -0.00791,   0.04046,   0.02009,  -0.00749,   0.01967,  -0.01640,   0.00694,   0.00949,  -0.01640,  -0.00028,   0.01033,   0.00312,  -0.01004,   0.00312,   0.01033,   0.00567,  -0.03295,  -0.00112,  -0.00494,   0.00567,   0.00949,  -0.00834,  -0.01258,   0.00736,  -0.00325,   0.01033,  -0.00791,  -0.00707,  -0.00494,  -0.02956,   0.00142,   0.01797,  -0.01216,  -0.00197,  -0.01810,   0.02264,  -0.01683,   0.01500,   0.00185,   0.00015,  -0.00367,  -0.01216,   0.00142,  -0.00155,   0.01203,   0.01161,   0.03919,   0.01415,   0.00312,  -0.02277,   0.02349,   0.01246,  -0.00240,   0.00482,   0.00906,   0.01203,   0.01415,   0.01670,   0.01118,  -0.00070,   0.00312,   0.00439,  -0.00155,   0.01330,   0.01797,  -0.00155,   0.00651,   0.00015,  -0.00155,   0.01246,   0.00694,  -0.01173,  -0.00282,  -0.00664,   0.00821,   0.04386,   0.01161,  -0.02956,  -0.01980,  -0.04399,   0.01246,   0.01500,  -0.00664,   0.00736,  -0.00325,  -0.00961,  -0.00707,   0.01246,   0.00015,   0.01373,  -0.02277,  -0.00452,  -0.00325,   0.00185,   0.00270,  -0.02913,   0.00142,  -0.03932,  -0.02234,   0.00354,  -0.00876,   0.01033,  -0.00834,  -0.00494,   0.00227,   0.00270,   0.01330,   0.00821,   0.02307,  -0.01513,  -0.00664,  -0.02234,  -0.01258,   0.03622,  -0.00537,  -0.00240,   0.00057,  -0.01258,  -0.01640,  -0.03932,  -0.00028,   0.01118,   0.00439,   0.01628,  -0.01683,   0.00439,   0.00354,   0.00821,  -0.01640,   0.00651,   0.01373,   0.01755,  -0.02362,   0.01118,  -0.00197,   0.03410,  -0.03168,   0.03070,  -0.02659,  -0.00028,  -0.01004,  -0.01852,   0.01203,  -0.00367,   0.00397,  -0.01301,   0.02519,   0.01925,  -0.00070,   0.00821,  -0.00240,   0.02858,  -0.02065,   0.01118,   0.02773,   0.03028,  -0.03507,  -0.00410,   0.00821,   0.00270,  -0.00961,  -0.01386,   0.03580,  -0.00410,   0.00694,  -0.02192,   0.02009,  -0.00622,  -0.00664,  -0.00579,   0.02476
  -0.02362,  -0.00537,   0.00354,   0.01543,   0.01288,  -0.00749,   0.01330,  -0.01810,  -0.01555,   0.01755,   0.00439,   0.01458,   0.00524,  -0.01089,  -0.03126,  -0.01301,   0.00100,   0.00609,  -0.00197,  -0.00197,   0.00949,  -0.01131,   0.00270,   0.01755,  -0.00749,   0.00057,   0.01670,  -0.03507,   0.03240,   0.00100,   0.01712,  -0.02828,   0.00227,   0.01076,   0.01373,  -0.02107,  -0.02447,   0.01755,   0.01458,   0.00057,   0.03198,  -0.02404,   0.03155,   0.00015,  -0.00664,   0.00227,   0.00015,   0.01033,  -0.00367,  -0.00834,  -0.00367,  -0.01301,  -0.01852,  -0.00494,   0.02137,  -0.00325,  -0.00664,   0.01246,   0.01882,   0.01373,   0.00397,   0.04004,   0.01246,   0.00227,   0.00227,   0.03198,  -0.01089,   0.00567,   0.02646,   0.01288,   0.00312,  -0.01428,   0.00779,  -0.01555,   0.01712,   0.03792,  -0.00749,  -0.00876,   0.01585,   0.00227,   0.00779,  -0.00112,   0.01076,  -0.01258,  -0.00707,  -0.01980,   0.00609,  -0.00664,   0.00439,   0.02604,   0.01373,   0.02561,  -0.00707,  -0.00791,  -0.00749,   0.03070,   0.00567,  -0.01937,  -0.01598,  -0.01768,   0.01246,   0.00015,   0.01330,  -0.01852,   0.00354,  -0.03253,   0.00651,  -0.01216,   0.01628,  -0.00537,   0.00100,   0.00015,   0.00906,  -0.01089,  -0.01004,  -0.00410,  -0.00197,   0.02349,  -0.01004,  -0.02489,   0.02179,  -0.01004,  -0.00367,  -0.00494,  -0.02149,   0.00949,  -0.00197,  -0.01258,   0.01712,  -0.00919,   0.01076,  -0.00876,  -0.00579,  -0.02956,   0.02434,  -0.00664,  -0.01598,  -0.01089,   0.02137,  -0.01131,  -0.00282,  -0.01428,   0.01458,  -0.01046,  -0.03041,   0.02137,  -0.01089,   0.00015,   0.00991,  -0.02744,  -0.01258,  -0.01004,  -0.00197,  -0.02022,   0.01118,   0.01373,  -0.01725,   0.01033,  -0.00707,   0.00906,  -0.01683,   0.00439,   0.01033,  -0.00791,  -0.01258,  -0.00028,   0.00482,  -0.01386,   0.02901,  -0.02998,  -0.02998,  -0.00876,   0.01076,   0.00736,   0.01628,  -0.02616,  -0.01046,  -0.03041,  -0.01470,  -0.00155,   0.00057,   0.01288,  -0.01810,  -0.02277,   0.01415,   0.00354,  -0.01216,   0.00779,   0.01288,   0.00312,   0.00312,   0.01925,  -0.00070,  -0.01301,   0.02179,  -0.00112,  -0.00155,   0.02222,  -0.00664,  -0.00452,  -0.00494,  -0.01640,  -0.01810,  -0.00579,   0.00142,  -0.00749,  -0.01980,  -0.00791,  -0.01301,  -0.00834,   0.03198,   0.01585,  -0.02362,  -0.00537,  -0.01173,   0.01840,   0.01755,  -0.01258,   0.00482,   0.01373,   0.00354,   0.00779,   0.00439,   0.00354,  -0.00494,   0.00312,  -0.00537,  -0.00325,   0.01500,   0.00312,  -0.00494,   0.00524,  -0.00494,   0.00906,   0.00609,   0.01330,  -0.00494,  -0.04102,   0.00312,  -0.00579,   0.00227,   0.00100,  -0.01980,   0.00100,   0.00142,   0.00736,  -0.02659,  -0.00537,   0.00651,  -0.00876,  -0.00834,   0.00906,  -0.01046,  -0.01725,  -0.01513,  -0.00876,   0.02773,   0.00482,   0.00524,   0.00821,   0.01330,   0.01203,  -0.00664,   0.00270,   0.00949,   0.00312,  -0.01937,   0.00991,  -0.01089,   0.00354,   0.01288,   0.00312,  -0.01173,  -0.00070,  -0.02659,   0.00270,  -0.02828,   0.01712,  -0.01555,  -0.02319,   0.00100,  -0.01640,  -0.01386,  -0.02447,  -0.01683,  -0.00325,   0.00100,  -0.00240,  -0.00919,  -0.00197,   0.02179,   0.01246,  -0.00664,   0.00609,  -0.01513,  -0.01725,  -0.00197,   0.01585,  -0.00876,   0.01628,  -0.01598,   0.02094,  -0.00791,   0.01373,   0.01076,   0.00439,   0.02094,   0.01373,   0.03028,  -0.02701,   0.00524,   0.00270,   0.01161,  -0.02574,  -0.00197,  -0.01004,   0.01203,  -0.03041,   0.00609,  -0.00749,  -0.00919,  -0.02701,  -0.02956,   0.01288,  -0.00579,   0.01288,  -0.00070,   0.00354,  -0.00749,  -0.00240,  -0.02192,   0.00736,   0.01415,  -0.01258,   0.00227,   0.00057,  -0.01386,   0.00524,   0.01203,   0.00312,   0.00142,  -0.02616,   0.00609,  -0.01004,  -0.01173,   0.01203,   0.02222,   0.01076,  -0.00664,   0.02009,   0.02773,  -0.00537,  -0.00876,  -0.00579,  -0.00919,   0.02349,   0.00142,  -0.01004,  -0.00367,  -0.03210,   0.00906,   0.00991,  -0.01513,  -0.01768,  -0.01301,  -0.00155,   0.00354,  -0.01683,  -0.00367,  -0.00622,  -0.01386,   0.00354,  -0.01895,   0.01712,   0.02222,   0.03580,  -0.00537,   0.04725,   0.02094,   0.01585,  -0.01089,  -0.01937,   0.00270,  -0.00410,  -0.01089,   0.02434,   0.02307,   0.02391,   0.00736,   0.02476,   0.00015,  -0.01725,  -0.01004,   0.00185,  -0.01216,  -0.03423,   0.02137,  -0.01598,  -0.00112,  -0.00452,   0.02816,   0.01161,  -0.00834,  -0.00537,  -0.00197,   0.01288,  -0.02574,  -0.01131,  -0.00791,  -0.02065,  -0.00282,   0.00227,   0.00524,   0.01033,   0.01373,  -0.00791,  -0.00494,  -0.00028,   0.00906,  -0.01216,   0.00100,   0.00991,  -0.00537,  -0.00028,  -0.00579,  -0.01640,  -0.00070,  -0.00197,  -0.02362,  -0.00028,   0.00439,  -0.01343,  -0.02786,  -0.00749,   0.02052,  -0.00282,   0.01118,   0.00057,   0.00312,  -0.01173,  -0.01640,  -0.01470,   0.00227,   0.02222,   0.03070,   0.02222,  -0.00707,   0.02094,  -0.04059,  -0.00325,  -0.00197,   0.03707,  -0.01555,  -0.01216,   0.00270,   0.01925,   0.02646,   0.01246,   0.01330,  -0.01513,   0.00991,   0.00057,  -0.01598,   0.00185,   0.00779,  -0.02701,  -0.01216,   0.00991,  -0.00791,   0.00609,  -0.00028,   0.00397,   0.01628,   0.02391,  -0.00325,  -0.00622,  -0.01513,  -0.00961,   0.01458,   0.01628,   0.00821,  -0.00367,   0.00057,  -0.00155,  -0.00876,  -0.03507,  -0.00664,   0.02604,  -0.02998,  -0.00112,   0.02009,  -0.02531,   0.00567,  -0.00197,  -0.01301,   0.01373,  -0.02404,  -0.00707,   0.02646,  -0.01725,   0.00651,   0.00906,   0.00736,  -0.02616,  -0.00028,  -0.00112,  -0.00282,   0.01161,   0.00354,   0.00482,  -0.00155,  -0.02956,   0.00142,   0.01203,   0.00100,  -0.00325,   0.00779,   0.00312,   0.00312,   0.02137,  -0.01173,   0.00991,  -0.00155,   0.00397,   0.02307,  -0.00961,   0.01882,   0.00821,  -0.00876,  -0.00579,  -0.00664,  -0.01555,  -0.01131,   0.00354,  -0.00834,   0.00991,   0.00015,   0.02264,  -0.00749,   0.00100,  -0.00197,  -0.00494,   0.00057,   0.00906,  -0.03210,  -0.00410,  -0.00919,   0.00906,  -0.00834,   0.00354,  -0.00367,  -0.00537,   0.00949,   0.00524,   0.01882,  -0.00410,  -0.00707,   0.00864,  -0.00494,  -0.01852,  -0.03974,  -0.02362,   0.02434,   0.01203,  -0.00197,   0.00397,  -0.01089,  -0.00410,  -0.01301,  -0.02022,  -0.01046,   0.00227,  -0.01046,   0.00736,  -0.00282,  -0.00961,   0.03028,   0.00270,   0.00779,   0.02434,  -0.01937,   0.01033,  -0.01089,   0.01543,  -0.00197,  -0.02065,   0.01203,   0.01925,  -0.00961,  -0.00367,   0.02137,  -0.01004,   0.01033,   0.01330,   0.01246,  -0.00240,   0.03283,  -0.00028,  -0.00452,   0.01882,  -0.01725,  -0.01301,   0.00185,  -0.01131,   0.01118,   0.00057,  -0.01131,  -0.00410,   0.00651,   0.00694,  -0.00197,   0.02688,   0.03240,  -0.00028,  -0.00367,   0.02094,  -0.00070,  -0.00197,  -0.00367,   0.00227,   0.00651,   0.02391,   0.00524,   0.00312,   0.01458,  -0.01640,   0.00397,   0.00312,  -0.01428,   0.01118,   0.01628,  -0.00749,  -0.02574,   0.00821,   0.00482,   0.00482,   0.00821,   0.02731,  -0.02022,  -0.01386,   0.00524,   0.02307,  -0.01343,   0.00651,   0.00906,   0.01882,   0.02773,  -0.00791,  -0.02149,   0.03325,  -0.00834,  -0.00919,   0.00567,  -0.00707,  -0.00155,   0.00057,   0.00694,   0.01543,   0.03155,  -0.02192,  -0.00367,   0.00779,   0.00312,   0.00185,  -0.00707,  -0.00537,   0.00694,  -0.00961,  -0.00112,   0.01288,   0.01458,   0.02391,  -0.00537,  -0.00919,  -0.01768,   0.00142,   0.01161,  -0.00325,   0.00397,  -0.00749,  -0.01725,   0.02137,   0.02307,  -0.01513,   0.01925,  -0.00876,  -0.00707,   0.03665,  -0.00834,   0.01161,  -0.01216,  -0.01683,   0.00524,  -0.01980,  -0.00961,  -0.00791,  -0.00028,   0.00015,   0.01543,   0.00397,  -0.00070,  -0.00240,  -0.01513,  -0.01513,  -0.00919,   0.01288,  -0.00622,   0.00397,   0.02179,   0.02137,   0.01033,   0.02561,  -0.00112,   0.01246,   0.00015,  -0.00282,   0.00906,   0.00312,  -0.01513,   0.01543,  -0.02786,   0.00270,  -0.01640,   0.00821,  -0.01004,   0.00482,   0.00651,  -0.00919,   0.00651,  -0.00155,  -0.01131,  -0.00749,   0.00609,   0.00736,   0.00524,  -0.01852,  -0.00155,  -0.01386,  -0.00282,   0.02307,  -0.00112,   0.01373,  -0.00410,   0.00524,  -0.01258,  -0.01173,  -0.01173,  -0.01216,  -0.01301,   0.00354,  -0.01046,  -0.01513,   0.03665,   0.01033,   0.00609,   0.00736,  -0.01937,  -0.02022,  -0.00622,  -0.01470,   0.00185,   0.00227,   0.00015,  -0.01301,   0.00185,  -0.00070,  -0.01768,   0.00312,  -0.01640,  -0.02828,  -0.01768,   0.00482,   0.00609,   0.01203,  -0.00961,   0.01288,  -0.00452,   0.01415,  -0.00240,  -0.00197,   0.01712,  -0.01004,  -0.03465,  -0.02616,  -0.00325,  -0.01598,  -0.00282,  -0.00325,   0.00185,  -0.00325,  -0.02489,  -0.01258,   0.00057,  -0.00664,  -0.01768,   0.01033,  -0.01301,  -0.00876,  -0.00876,  -0.01513,   0.00312,   0.00524,   0.00482,   0.01288,  -0.02192,   0.00779,  -0.01937,   0.01755,   0.00949,  -0.01216,   0.00609,   0.02731,  -0.00707,   0.00015,  -0.02489,  -0.01216,   0.01500,  -0.01004,   0.01161,  -0.01386,   0.00694,   0.02094,  -0.03635,  -0.00452,   0.00949,   0.02094,   0.01203,  -0.00240,   0.01628,   0.01840,  -0.00028,   0.00185,  -0.00028,   0.02094,   0.00906,  -0.00961,   0.01161,   0.00609,  -0.01640,  -0.03889,   0.00270,   0.02307,   0.00439,   0.00142,   0.00524,   0.00185,  -0.00919,   0.00864,   0.00227,  -0.01895,  -0.00961,  -0.00112,   0.00651,  -0.00452,  -0.02786,  -0.00579,  -0.00834,   0.01670,   0.02009,   0.02476,  -0.02319,  -0.00155,   0.00567,  -0.00537,  -0.00282,   0.00015,   0.02688,  -0.01343,   0.00482,  -0.02616,   0.01797,  -0.00791,  -0.01810,   0.01797,   0.00567,   0.00100,   0.00651,  -0.00325,  -0.00791,  -0.01046,  -0.02192,  -0.00197,  -0.01301,   0.01118,   0.02009,  -0.00070,  -0.00876,   0.00142,   0.00991,   0.03792,  -0.01768,   0.01033,   0.00991,  -0.01046,  -0.01513,  -0.00494,  -0.00282,  -0.00579,   0.01161,  -0.03465,  -0.00664,  -0.00028,  -0.01428,  -0.01598,  -0.00791,   0.01203,  -0.00664,   0.00609,  -0.00070,  -0.03550,  -0.01470,  -0.00410,  -0.02447,  -0.00494,   0.01755,  -0.01937,  -0.00155,   0.00312,  -0.01640,  -0.01004,  -0.02404,  -0.00876,   0.00439,  -0.01937,   0.02094,   0.00270,   0.00354,   0.00312,   0.01033,  -0.01301,  -0.02574,   0.00609,  -0.00197,   0.02646,  -0.00325,  -0.00749,  -0.00452,  -0.00240,   0.00312,   0.01967,   0.01203,   0.00949,  -0.00282,   0.01118,  -0.03126,  -0.00070,   0.00185,  -0.00070,  -0.00494,  -0.00155,  -0.01513,   0.00397,  -0.03507,  -0.00664,   0.00312,  -0.01301,   0.03834,  -0.00070,  -0.01598,  -0.02192
  -0.02149,  -0.02107,   0.00694,   0.00397,   0.01076,   0.01033,   0.02688,  -0.02744,   0.01246,  -0.00494,   0.00100,  -0.00240,  -0.00452,  -0.00579,   0.02646,   0.01797,   0.00609,   0.02052,  -0.00028,   0.00864,  -0.00791,  -0.00410,   0.00864,   0.01755,  -0.01046,  -0.00791,  -0.00961,   0.02561,   0.02858,   0.01840,  -0.00070,  -0.02744,  -0.02107,   0.01246,  -0.00325,  -0.00834,  -0.00197,  -0.00919,  -0.02065,   0.00227,   0.00779,  -0.00707,   0.01458,   0.00736,  -0.01428,   0.01373,   0.03325,   0.01882,  -0.01131,   0.00057,   0.01755,  -0.02319,   0.00524,   0.01203,   0.00227,  -0.01173,  -0.00749,   0.01755,   0.00949,  -0.01683,   0.01500,  -0.01895,  -0.00112,  -0.00282,   0.02986,  -0.00707,  -0.00537,   0.00694,  -0.00197,  -0.00494,   0.00057,   0.00270,   0.00949,  -0.01173,   0.00694,  -0.00367,  -0.00494,   0.00864,  -0.01470,   0.00185,  -0.00240,  -0.00452,   0.00015,  -0.00579,   0.00227,   0.00312,  -0.02489,   0.00057,   0.02349,   0.00100,   0.04598,   0.00439,  -0.00367,  -0.00961,   0.00651,   0.00651,  -0.01640,  -0.00112,  -0.01470,   0.00567,   0.00057,  -0.00155,  -0.01513,   0.01585,   0.02137,  -0.01386,  -0.00791,  -0.00579,  -0.02192,   0.02264,  -0.03889,   0.00779,   0.00100,  -0.02107,   0.00694,   0.00397,  -0.03592,  -0.00240,  -0.00876,  -0.02022,   0.01415,  -0.01004,   0.02264,  -0.00791,   0.00354,   0.03155,  -0.00282,   0.01628,   0.01161,  -0.01980,   0.01755,  -0.02022,  -0.02234,   0.01203,  -0.00791,   0.01373,  -0.00197,   0.00736,  -0.00579,   0.01458,   0.00694,  -0.00155,  -0.00749,   0.00821,   0.01161,   0.04004,  -0.00791,   0.00057,  -0.02616,  -0.01640,   0.00779,   0.02391,   0.01670,  -0.01470,   0.02688,  -0.01810,   0.01288,   0.00057,   0.03283,  -0.00622,   0.00694,   0.01967,  -0.02531,  -0.02447,   0.02646,   0.01755,  -0.00367,   0.00949,   0.00354,   0.00015,  -0.01004,  -0.01004,  -0.00791,   0.00567,   0.00015,  -0.01046,   0.02731,  -0.01173,   0.01967,   0.02858,   0.02052,  -0.00622,   0.02094,  -0.03338,  -0.00494,   0.01203,  -0.00155,   0.01712,  -0.00919,   0.00609,   0.00609,   0.02094,   0.01628,   0.00651,  -0.00070,   0.00524,   0.00270,  -0.02022,  -0.01768,  -0.02786,  -0.00537,  -0.00707,   0.00270,   0.01076,   0.01628,  -0.01428,  -0.00240,   0.00270,   0.00227,  -0.00579,   0.01373,  -0.01513,   0.00651,  -0.03507,  -0.02277,  -0.01513,  -0.02234,  -0.01004,  -0.01513,   0.00821,  -0.00919,   0.00057,   0.01203,   0.00057,   0.02561,   0.01967,  -0.00367,   0.00821,  -0.04229,   0.01203,  -0.01725,   0.00906,  -0.02022,  -0.00155,   0.01288,  -0.00452,  -0.01683,  -0.01683,   0.01712,   0.00015,  -0.00028,   0.00015,  -0.00155,   0.00100,  -0.00834,  -0.03041,   0.01288,   0.01500,   0.01118,   0.00397,   0.00227,  -0.02447,  -0.00919,   0.00142,  -0.00240,  -0.00579,   0.00270,  -0.00155,   0.02179,   0.01033,   0.01415,   0.00779,   0.01797,  -0.00876,  -0.03126,  -0.01513,  -0.00579,  -0.01768,   0.01330,  -0.02489,  -0.01046,   0.02009,   0.01670,   0.01076,  -0.00240,  -0.01768,  -0.00028,  -0.00282,   0.03622,  -0.01683,   0.04004,  -0.00155,  -0.02659,  -0.03338,   0.00015,   0.03070,  -0.00707,  -0.01428,  -0.00240,  -0.01131,  -0.02192,   0.01288,   0.01373,   0.00354,   0.01755,  -0.02616,  -0.01131,   0.02094,  -0.00028,   0.00185,   0.01967,   0.00609,   0.00185,   0.00397,   0.00057,  -0.01216,   0.01288,  -0.01428,   0.01543,  -0.02913,   0.00482,   0.00567,  -0.00028,  -0.00028,   0.00312,   0.01925,  -0.01768,  -0.00155,   0.01585,  -0.00749,  -0.01513,   0.00354,  -0.00791,   0.00694,   0.00949,   0.01373,  -0.00070,  -0.01513,  -0.00452,   0.01033,   0.03367,  -0.01725,  -0.01768,  -0.00452,   0.01203,  -0.02065,   0.01203,   0.00567,   0.01415,  -0.00707,   0.00524,   0.00736,  -0.00664,   0.00142,   0.00185,   0.03028,  -0.00876,   0.01203,   0.01797,   0.01670,  -0.01937,  -0.01046,   0.00227,   0.00779,  -0.00410,  -0.00919,   0.00567,   0.01628,  -0.00494,  -0.03677,   0.00694,   0.00524,   0.01967,   0.00482,  -0.01131,  -0.02149,  -0.00919,   0.00185,   0.00270,  -0.01937,   0.00185,  -0.00876,  -0.02149,   0.00354,   0.01033,   0.00100,   0.00227,   0.02731,  -0.02149,  -0.01768,   0.00482,   0.01118,  -0.01725,   0.01628,   0.00524,  -0.00240,  -0.00028,  -0.00240,   0.00567,  -0.01810,   0.00524,   0.01415,  -0.01046,  -0.01131,   0.02307,   0.01288,  -0.00410,  -0.00028,   0.01882,   0.00057,  -0.03720,   0.01161,   0.00057,   0.00779,  -0.01131,   0.00524,  -0.01937,   0.02179,  -0.01046,   0.01076,  -0.00452,  -0.01343,   0.00821,   0.00482,   0.01203,   0.02901,  -0.00537,   0.02688,  -0.02065,  -0.00367,  -0.00749,   0.00354,  -0.01470,   0.01203,  -0.01810,   0.02688,   0.01161,  -0.00028,  -0.00664,   0.01246,   0.00185,   0.01500,   0.01118,   0.01967,   0.00567,  -0.02489,  -0.00452,   0.00439,   0.02646,  -0.00622,   0.00949,  -0.00622,  -0.01173,   0.01415,   0.02052,  -0.00452,  -0.00282,  -0.01555,  -0.00707,  -0.00070,  -0.01258,   0.00779,  -0.02234,   0.00482,   0.00270,  -0.00707,  -0.00282,  -0.00919,  -0.01386,   0.00779,  -0.01640,   0.00694,  -0.00325,  -0.00494,  -0.00112,   0.00609,  -0.01980,  -0.01046,   0.00354,   0.01288,   0.00439,  -0.01980,  -0.00325,   0.01670,  -0.03041,   0.00142,   0.00949,   0.00991,  -0.01725,  -0.00325,  -0.00579,   0.03240,   0.00864,  -0.00325,  -0.04144,  -0.00070,   0.02519,   0.01882,   0.00312,  -0.00112,   0.01076,   0.00651,   0.03113,  -0.01428,   0.00694,   0.00312,   0.01246,  -0.00325,   0.01755,   0.00015,  -0.00367,   0.02137,   0.00694,   0.00609,  -0.01428,   0.02307,  -0.00452,  -0.01895,   0.01076,  -0.00749,   0.00609,   0.01712,  -0.01852,  -0.02616,   0.01458,  -0.01343,  -0.00919,  -0.00410,  -0.00749,  -0.00240,  -0.01683,   0.02222,   0.01330,  -0.02828,  -0.00579,  -0.00070,  -0.00282,  -0.02871,  -0.03338,  -0.02065,  -0.00325,  -0.02149,  -0.00622,   0.00694,   0.00100,  -0.00961,  -0.01343,   0.03325,  -0.03253,   0.01458,  -0.00791,  -0.00537,   0.00227,   0.00015,   0.00779,  -0.00707,  -0.00112,   0.01543,  -0.00112,  -0.00282,   0.01033,  -0.01258,   0.01755,   0.00821,  -0.01470,  -0.02913,   0.00821,  -0.04399,  -0.01089,  -0.00494,  -0.04102,   0.00949,  -0.00664,  -0.00028,   0.00524,  -0.01046,   0.03749,   0.01373,   0.05447,   0.00015,   0.02137,  -0.01089,  -0.00834,   0.01585,  -0.00325,  -0.02616,  -0.00028,   0.01373,   0.00567,  -0.01089,  -0.00537,  -0.01428,  -0.00197,   0.01076,   0.01670,  -0.01173,   0.00312,   0.01882,  -0.01258,  -0.00494,   0.01330,   0.00609,   0.00567,   0.01967,   0.00991,   0.03792,  -0.02404,   0.00312,  -0.01386,   0.01670,  -0.00240,  -0.00664,   0.01628,   0.00482,  -0.01386,  -0.00028,   0.01712,   0.01755,   0.00779,  -0.00707,  -0.00070,  -0.02319,   0.00100,   0.02137,  -0.00028,   0.01967,   0.02264,  -0.02404,  -0.00791,  -0.01895,  -0.00155,  -0.00622,   0.02137,   0.00524,   0.01458,  -0.00791,  -0.00876,  -0.00707,   0.00142,   0.00991,   0.00270,  -0.00791,   0.00397,   0.02519,   0.00100,   0.02307,   0.02052,   0.00142,  -0.00325,  -0.00537,   0.00694,  -0.00579,  -0.01386,  -0.00452,  -0.02531,  -0.00961,  -0.02022,  -0.01598,   0.02731,  -0.02362,  -0.00028,   0.01076,   0.00482,  -0.03253,   0.03070,  -0.00155,  -0.00919,  -0.00452,   0.01882,  -0.00112,   0.01882,   0.00354,   0.01330,  -0.02362,   0.01415,   0.00567,   0.00694,  -0.02447,   0.01246,   0.02561,   0.00142,   0.00270,   0.03028,   0.00651,   0.00482,   0.01755,   0.00736,   0.00439,   0.00651,  -0.01513,  -0.01258,   0.00864,  -0.01683,  -0.01895,  -0.00197,  -0.01343,  -0.01555,   0.02009,   0.00100,   0.00991,   0.00482,   0.00821,   0.00779,  -0.01173,   0.01967,  -0.00112,   0.00270,   0.01543,  -0.01258,   0.01670,   0.02264,   0.00439,  -0.00112,   0.00864,  -0.00240,   0.00906,  -0.02107,   0.02519,   0.00864,   0.00354,   0.01161,   0.01330,   0.02476,   0.01288,   0.02901,   0.00100,  -0.00749,  -0.00367,   0.01076,  -0.01598,  -0.00707,   0.01628,  -0.01046,  -0.00494,  -0.00919,  -0.01852,   0.00142,   0.01712,  -0.00664,   0.00736,  -0.00410,   0.01203,   0.00949,  -0.01046,   0.00906,  -0.01555,   0.01670,   0.00821,   0.02052,  -0.03126,   0.00185,   0.00015,  -0.00537,   0.02094,   0.00015,   0.00524,   0.00227,  -0.02404,   0.00524,   0.00227,   0.03283,   0.01330,   0.00142,   0.02264,   0.00567,   0.00779,  -0.01343,  -0.02149,  -0.01513,  -0.00240,   0.00651,  -0.01428,  -0.01513,   0.00779,   0.01755,  -0.01513,  -0.04017,   0.00015,  -0.00197,  -0.00876,  -0.01216,   0.00736,  -0.00919,  -0.02362,  -0.00664,   0.01161,   0.01373,   0.02773,   0.00991,  -0.00028,  -0.00367,  -0.02319,   0.01628,   0.01585,   0.00354,  -0.00919,   0.00779,   0.01925,  -0.00876,   0.00779,   0.00397,  -0.01555,   0.00227,   0.01628,   0.00949,   0.01543,  -0.00749,  -0.01768,  -0.00325,  -0.00961,   0.01033,   0.01288,  -0.00919,   0.00439,   0.01288,  -0.01513,  -0.01640,   0.03707,   0.02434,   0.00864,   0.01373,   0.00439,   0.00609,   0.00779,   0.01882,  -0.01386,   0.00864,   0.00736,   0.00142,  -0.01089,  -0.01640,  -0.00240,  -0.03592,   0.00227,   0.01543,  -0.00325,   0.03622,  -0.00197,  -0.00325,   0.01203,   0.02009,  -0.01640,   0.00906,   0.01161,  -0.01470,  -0.04441,   0.00609,   0.02179,   0.00821,  -0.00155,   0.00524,   0.01203,   0.01330,  -0.01768,   0.01755,  -0.00494,   0.00991,  -0.00410,   0.01033,   0.00185,  -0.02362,  -0.01004,   0.00949,   0.01628,  -0.03423,   0.00142,   0.02349,   0.00651,  -0.01004,   0.00821,  -0.00325,  -0.01513,   0.00057,   0.00567,   0.00057,  -0.01980,   0.01712,  -0.00452,  -0.02234,   0.02307,   0.03070,  -0.01428,   0.01628,  -0.01046,  -0.02574,  -0.02022,   0.00567,  -0.02701,   0.02094,   0.01670,  -0.02022,   0.00227,   0.00270,   0.01373,   0.00779,  -0.02404,   0.01797,  -0.00622,  -0.00112,  -0.00325,   0.01712,   0.00057,  -0.01768,   0.00694,   0.00185,   0.04768,  -0.00494,   0.02094,  -0.00664,   0.01033,  -0.02404,  -0.03380,   0.00142,   0.00482,  -0.00494,   0.00397,   0.01033,   0.00142,   0.03155,  -0.00452,  -0.00579,  -0.02362,  -0.00112,  -0.01683,  -0.01768,  -0.00197,   0.02519,   0.00100,   0.00609,  -0.00197,   0.02646,   0.01288,  -0.00537,   0.00567,  -0.01386,   0.01458,  -0.01470,   0.00100,   0.02009,   0.00609,  -0.00325,  -0.01258,  -0.01725,   0.01925,  -0.00791,  -0.00282,  -0.00410,  -0.00834,  -0.01173,  -0.03380,   0.01500,   0.01500,  -0.01386,   0.02137,  -0.00282,   0.00397,  -0.00452,  -0.00282,   0.00142,  -0.01173,  -0.00664,   0.01118,  -0.01258,  -0.02998,  -0.01768,  -0.01768,   0.01288,   0.01076,  -0.04229,   0.02179
   0.00906,  -0.00240,   0.02901,  -0.01725,   0.01330,   0.01330,   0.01246,   0.00057,   0.01246,   0.02858,   0.02816,  -0.01343,  -0.00367,  -0.02149,  -0.03253,   0.01161,   0.01670,  -0.03380,   0.00397,  -0.00155,  -0.02659,   0.01628,   0.01712,   0.00227,   0.01288,  -0.01937,  -0.00749,   0.02179,   0.00482,  -0.01046,   0.00227,   0.00397,   0.01670,  -0.01004,  -0.00961,  -0.00664,  -0.00155,  -0.00367,   0.00609,  -0.00876,  -0.01386,   0.01585,  -0.00579,  -0.00876,  -0.01555,  -0.00664,  -0.00961,   0.00057,   0.00609,  -0.00494,   0.01967,   0.00057,  -0.02362,  -0.02192,   0.00100,   0.02731,  -0.00325,  -0.01173,  -0.00494,   0.01755,  -0.00155,  -0.02489,  -0.01131,   0.00779,  -0.00325,   0.00821,   0.00015,   0.00270,   0.02688,  -0.01513,  -0.00876,   0.00991,   0.02604,   0.00949,  -0.01598,  -0.01937,  -0.01216,  -0.00749,  -0.01980,  -0.00919,   0.00949,   0.00142,  -0.05120,  -0.02744,   0.01161,   0.02561,  -0.00961,   0.01712,  -0.01470,   0.03155,  -0.01301,   0.00015,  -0.00622,  -0.00494,  -0.00749,   0.00100,   0.00567,   0.01076,  -0.01089,  -0.01343,  -0.03847,   0.01288,   0.00524,  -0.00112,  -0.01810,   0.00270,  -0.02447,  -0.01852,   0.01585,  -0.00537,   0.00949,   0.01033,   0.02561,   0.03155,  -0.02065,   0.02434,   0.00397,  -0.03677,   0.00651,   0.00354,   0.02731,  -0.01301,  -0.00749,  -0.00410,  -0.00452,   0.01203,  -0.02447,   0.01585,   0.01670,   0.02222,  -0.00197,   0.00227,  -0.01428,  -0.01258,   0.02688,  -0.00410,   0.01967,   0.00779,  -0.00155,  -0.00325,  -0.02022,   0.02943,  -0.01980,   0.01203,   0.00821,  -0.00622,   0.01161,   0.01882,   0.02434,   0.00439,  -0.01216,  -0.00707,  -0.00749,  -0.00112,   0.03113,   0.00270,   0.00185,   0.00864,  -0.00749,  -0.03295,  -0.00452,   0.01925,  -0.00876,   0.02519,   0.00651,   0.02688,   0.03113,   0.01712,  -0.01640,  -0.00791,  -0.00961,   0.01330,   0.01543,   0.00354,  -0.00410,   0.01925,  -0.00070,   0.03070,   0.00609,  -0.01301,  -0.00197,   0.01246,   0.00312,   0.02222,  -0.02234,  -0.01428,   0.00651,   0.02604,   0.00524,  -0.00622,   0.00354,  -0.00791,   0.00015,   0.01967,   0.00949,  -0.00070,   0.00185,  -0.01640,   0.00482,  -0.01386,  -0.01895,  -0.02447,  -0.00240,  -0.01089,   0.00567,   0.01882,  -0.00749,   0.00312,  -0.01640,   0.00736,  -0.00791,   0.00821,  -0.01895,   0.01458,   0.00100,  -0.01046,   0.02986,   0.00312,  -0.00961,  -0.01937,   0.01118,   0.01033,   0.00821,   0.02943,   0.00482,  -0.00961,  -0.01598,   0.00015,   0.00779,   0.00270,  -0.02956,  -0.02489,  -0.00707,   0.02349,   0.00524,   0.00100,  -0.01343,  -0.00876,  -0.00791,   0.01330,  -0.00791,  -0.00452,   0.00354,  -0.00622,  -0.02065,  -0.02065,  -0.01640,   0.00949,   0.00482,  -0.01301,  -0.00749,   0.01161,  -0.02234,   0.00779,  -0.00494,  -0.00367,   0.00779,   0.03919,  -0.01343,   0.01288,  -0.00707,  -0.00028,  -0.00240,  -0.01173,  -0.01725,   0.00397,  -0.01004,  -0.00240,   0.01076,  -0.01216,  -0.00070,  -0.01131,   0.00567,  -0.00325,  -0.02192,   0.00397,   0.01628,  -0.00197,  -0.00791,   0.00694,   0.01203,   0.00821,  -0.00622,  -0.01980,  -0.00282,  -0.00452,  -0.00537,   0.03537,  -0.00070,  -0.02277,  -0.00961,  -0.01555,  -0.00579,  -0.04059,  -0.01598,   0.00270,  -0.00070,  -0.02659,   0.00779,  -0.01513,   0.00736,   0.00015,  -0.00749,  -0.01258,  -0.00707,   0.00057,  -0.02319,   0.00524,   0.04216,  -0.01386,   0.00524,  -0.01980,   0.00906,  -0.01004,   0.00949,   0.00864,  -0.01937,   0.00779,  -0.01555,   0.01670,  -0.00791,  -0.00749,   0.03113,  -0.03253,   0.00354,   0.01033,   0.01500,   0.00142,   0.00864,   0.00482,  -0.00240,   0.01712,  -0.01640,  -0.02701,  -0.00876,  -0.01046,   0.02391,   0.02264,  -0.02362,   0.00142,  -0.01598,   0.00185,   0.00567,   0.02264,  -0.00791,   0.01415,  -0.01513,  -0.01640,   0.01033,  -0.00961,  -0.01131,  -0.01386,  -0.02786,   0.02519,  -0.02404,  -0.00112,  -0.01852,   0.01330,   0.00312,  -0.01598,   0.01882,   0.00439,   0.00015,  -0.01470,  -0.01386,   0.00524,   0.03283,   0.01330,  -0.00070,  -0.00240,   0.00609,  -0.04484,  -0.01173,   0.02604,  -0.01004,   0.01500,  -0.00452,  -0.01343,  -0.00622,   0.00694,   0.01585,   0.00482,   0.01840,  -0.00452,  -0.00579,  -0.00240,   0.02222,   0.02052,  -0.00919,   0.02009,  -0.01089,  -0.00367,   0.01033,   0.01500,  -0.01810,  -0.01004,   0.00227,   0.00142,   0.01246,   0.03070,  -0.03041,  -0.01725,  -0.02234,   0.00312,  -0.00410,   0.00482,   0.03749,   0.00821,  -0.03465,  -0.00367,   0.00779,   0.02519,   0.00779,   0.00312,   0.01712,  -0.01258,   0.00779,   0.00354,  -0.00622,   0.00524,   0.01330,  -0.02234,  -0.02149,   0.03070,  -0.00494,   0.00439,  -0.02871,  -0.00028,  -0.02362,   0.01840,  -0.01937,   0.02009,  -0.03762,  -0.01386,   0.01246,  -0.01216,  -0.01258,  -0.01343,   0.00312,  -0.04399,  -0.00367,   0.00354,  -0.00579,  -0.01046,   0.00397,   0.02009,   0.00142,   0.02222,   0.00227,  -0.01428,  -0.03847,  -0.00410,   0.01543,   0.00736,  -0.02065,  -0.01598,  -0.00155,  -0.00070,  -0.01258,   0.02646,   0.00991,  -0.00919,  -0.00622,   0.01076,   0.02179,  -0.00112,  -0.01089,   0.02222,  -0.01810,  -0.02234,  -0.00112,   0.00142,  -0.00197,   0.03367,   0.00651,   0.00227,  -0.02871,  -0.01852,   0.00949,  -0.02107,  -0.00834,   0.02307,   0.01925,  -0.00410,  -0.01768,   0.02561,  -0.00155,  -0.01810,   0.00694,  -0.00664,  -0.03762,  -0.01173,   0.03198,   0.01033,  -0.01046,   0.02307,   0.00864,   0.00100,  -0.01768,   0.01373,   0.00439,   0.02901,   0.02009,  -0.00240,  -0.00494,   0.00397,  -0.03083,   0.01288,   0.00906,  -0.00919,   0.00482,  -0.01004,   0.00694,   0.00482,  -0.00622,  -0.00410,   0.00439,   0.01500,  -0.00367,  -0.01131,  -0.00707,  -0.01428,   0.00100,   0.00821,  -0.01258,   0.00482,  -0.03465,  -0.01301,   0.01500,   0.01670,  -0.00791,   0.00015,   0.02137,   0.02052,   0.01415,  -0.02913,   0.00227,  -0.00325,  -0.03762,   0.01033,   0.00397,  -0.00579,  -0.00961,  -0.00707,  -0.01428,   0.00354,  -0.02319,   0.02222,  -0.00749,   0.00694,   0.01543,  -0.00961,  -0.00325,   0.00609,  -0.02659,   0.00991,  -0.00537,  -0.00707,  -0.00579,   0.00651,  -0.00240,  -0.00537,  -0.00240,  -0.00876,   0.00779,   0.00015,   0.01033,  -0.01301,   0.03240,  -0.00028,  -0.01046,  -0.00834,  -0.01598,  -0.02065,  -0.00282,   0.02688,   0.00779,   0.00779,   0.00142,  -0.00240,   0.00397,   0.00439,  -0.00707,   0.00057,  -0.00410,   0.00736,  -0.01258,   0.00354,   0.00651,   0.02434,  -0.00155,  -0.01852,  -0.00834,   0.04386,  -0.01768,  -0.00834,  -0.00537,  -0.00028,   0.01203,   0.01161,  -0.01343,   0.00949,   0.00100,  -0.01513,  -0.00070,   0.00227,  -0.02277,   0.01967,  -0.01004,  -0.00367,   0.00397,  -0.02277,   0.01330,   0.00991,   0.00524,   0.01585,  -0.02871,   0.01415,  -0.01768,  -0.00707,   0.01500,   0.00270,  -0.01513,  -0.00707,  -0.01089,  -0.00919,  -0.01555,  -0.01004,  -0.01046,  -0.00664,  -0.00494,  -0.01216,   0.00397,   0.01203,   0.00609,  -0.00452,   0.00991,  -0.00197,  -0.01725,   0.00227,   0.00142,   0.02731,  -0.03338,   0.00651,   0.02858,   0.01373,   0.00057,  -0.01343,  -0.01386,  -0.00494,   0.02773,  -0.00070,  -0.00876,   0.00227,  -0.00410,   0.01373,  -0.00961,  -0.01046,  -0.00282,   0.00906,   0.00015,   0.00482,   0.00906,   0.01712,   0.00439,   0.01797,   0.00524,  -0.02192,  -0.00325,   0.01246,  -0.00537,  -0.00155,   0.00567,  -0.02404,  -0.02574,  -0.00537,  -0.02998,   0.00524,  -0.00410,  -0.02531,  -0.02489,  -0.01683,   0.00270,   0.00142,  -0.00410,   0.00524,  -0.00749,  -0.01937,   0.01076,   0.04428,  -0.00155,   0.01755,   0.01415,   0.00821,  -0.01683,   0.00567,  -0.01555,  -0.01046,  -0.01555,  -0.00197,  -0.01513,   0.02688,  -0.00622,   0.01712,   0.01840,   0.00439,  -0.00664,  -0.00664,  -0.02149,  -0.01937,   0.00864,   0.04174,  -0.00325,   0.00015,   0.00185,  -0.00579,   0.02222,   0.00142,   0.01967,  -0.01937,  -0.02956,  -0.01301,  -0.00155,  -0.00197,  -0.01768,   0.01161,  -0.03380,   0.00439,   0.00270,   0.01882,  -0.00197,  -0.01343,   0.02094,  -0.00834,  -0.00112,  -0.00876,   0.02009,   0.01076,  -0.00367,   0.00821,  -0.00919,  -0.02107,  -0.01555,   0.02773,   0.00736,   0.00609,  -0.01046,  -0.00325,   0.01415,   0.00015,   0.00694,   0.00609,   0.00482,  -0.00919,  -0.00028,  -0.02065,  -0.00579,   0.02264,   0.00015,   0.00906,  -0.00791,   0.03155,   0.00354,   0.01076,  -0.00325,   0.00991,   0.00227,  -0.01683,   0.01076,   0.02264,   0.01246,  -0.02234,  -0.01301,   0.00694,  -0.01301,   0.01585,  -0.01173,   0.02688,   0.00694,  -0.01725,   0.00482,  -0.00791,  -0.01513,   0.02307,   0.00906,   0.01076,   0.00439,  -0.02277,  -0.01513,  -0.00622,  -0.00070,   0.00864,   0.00991,   0.00185,  -0.01852,   0.01203,   0.01882,  -0.00876,  -0.00579,   0.00185,  -0.02065,   0.00567,   0.01373,   0.00227,   0.00057,  -0.01725,  -0.00622,   0.01161,   0.00906,   0.00185,  -0.01937,   0.02476,   0.01543,  -0.00070,   0.00524,   0.01458,  -0.01555,   0.02179,   0.00100,   0.00694,  -0.00749,   0.00694,  -0.01810,   0.01373,   0.02731,  -0.02574,   0.00185,   0.00482,  -0.00961,   0.00312,  -0.00919,   0.02264,   0.00991,   0.00906,   0.00142,   0.02434,  -0.00240,  -0.00791,  -0.03720,  -0.01470,  -0.00112,   0.02646,  -0.01937,  -0.00707,  -0.00028,  -0.01258,   0.00567,  -0.02362,   0.02773,   0.01543,   0.00651,  -0.01980,   0.02434,  -0.00791,  -0.00452,   0.01500,   0.00100,   0.00142,   0.02646,  -0.00664,  -0.01173,   0.01118,   0.00609,   0.00439,   0.00057,   0.02349,  -0.00494,   0.00354,   0.02307,   0.00397,   0.02094,   0.00142,  -0.02616,  -0.01555,   0.00694,  -0.00028,   0.01203,  -0.01216,   0.02052,   0.01840,   0.02094,   0.00227,   0.01500,   0.00439,  -0.01895,  -0.02022,   0.00270,  -0.01089,  -0.01810,   0.01076,  -0.00791,   0.00142,   0.02816,   0.02391,  -0.01725,   0.00482,   0.01628,  -0.00197,   0.00270,  -0.01004,   0.01246,  -0.00622,   0.01161,  -0.00240,  -0.00622,   0.02391,  -0.00919,  -0.01216,   0.00100,   0.00779,   0.01585,   0.01967,  -0.02022,  -0.02489,  -0.01428,   0.00312,   0.00991,  -0.02192,  -0.00028,   0.02646,  -0.02531,  -0.01683,   0.00057,  -0.02234,   0.00821,   0.00270,   0.00949,  -0.01470,  -0.00282,   0.00524,   0.00142,   0.01161,   0.02349,  -0.01301,   0.02094,   0.01755,   0.00227,  -0.02828,  -0.02701,   0.00057,   0.02773,   0.02986,   0.02476,   0.00524,   0.01500,   0.01203,   0.01458,  -0.02701,   0.00057,   0.00100,  -0.00961,  -0.00112,   0.00142,   0.02009,   0.00482,   0.01203,  -0.00367,  -0.01768,  -0.01937,   0.00482
  -0.01173,   0.01373,  -0.01640,   0.00779,  -0.01173,  -0.00028,   0.00142,  -0.03423,  -0.00452,   0.01797,   0.01033,  -0.01683,   0.01925,   0.00142,  -0.01555,  -0.00452,  -0.00622,   0.01797,  -0.00664,  -0.02744,  -0.02913,  -0.01173,   0.01330,   0.03834,   0.01967,  -0.00325,  -0.01046,  -0.00410,  -0.01428,   0.00779,   0.03070,  -0.01089,  -0.02701,  -0.00282,  -0.00791,   0.00864,  -0.01683,  -0.01173,  -0.00622,   0.00736,  -0.01640,   0.02604,  -0.01895,  -0.02404,  -0.02489,  -0.01470,  -0.00579,   0.01670,  -0.00961,   0.01330,   0.01585,  -0.01895,  -0.00961,   0.00270,   0.01840,   0.00694,  -0.00749,   0.00439,  -0.00282,  -0.02786,   0.00312,  -0.03423,  -0.00452,  -0.00028,   0.00864,   0.01373,   0.00397,  -0.00410,  -0.00282,  -0.01768,   0.02222,  -0.00579,   0.01585,   0.01712,   0.02052,  -0.02871,  -0.00112,   0.00227,   0.00439,  -0.00622,  -0.01089,   0.00567,   0.00270,   0.00142,  -0.00070,  -0.02659,   0.00312,  -0.00197,  -0.00452,   0.00015,   0.01712,  -0.00155,  -0.02998,  -0.00876,  -0.00070,  -0.00664,   0.04216,   0.00779,   0.00567,  -0.01386,   0.00439,   0.00482,  -0.01470,  -0.00494,   0.01161,   0.01458,  -0.01513,  -0.03974,   0.01925,  -0.02701,   0.02264,   0.00482,   0.01288,  -0.02149,   0.00354,  -0.01555,   0.02009,  -0.01640,  -0.00028,   0.00100,  -0.00367,   0.01076,   0.00864,  -0.02277,   0.00227,  -0.00919,   0.01458,  -0.01980,  -0.04314,   0.00227,  -0.00112,   0.01712,   0.00567,  -0.00537,  -0.00834,   0.00651,  -0.00367,   0.01670,   0.00227,  -0.02786,  -0.03974,  -0.00494,  -0.00325,  -0.00282,  -0.01004,   0.02179,  -0.00791,  -0.02956,   0.00227,   0.00651,  -0.02362,  -0.01258,  -0.00282,   0.00694,   0.01543,  -0.00537,   0.00736,   0.02222,  -0.00579,   0.00100,   0.01925,   0.00906,  -0.00112,   0.00864,  -0.00791,   0.03198,  -0.00028,   0.00651,  -0.00028,  -0.00240,  -0.01173,  -0.00325,   0.01246,  -0.01683,   0.01203,  -0.02234,   0.01628,   0.02264,   0.00567,   0.00439,  -0.01216,  -0.00494,   0.02391,  -0.01555,   0.00057,  -0.01555,   0.00227,  -0.00834,  -0.02659,   0.02391,   0.03028,   0.00397,  -0.03805,   0.01458,   0.02179,   0.01118,  -0.00240,  -0.01640,  -0.00367,  -0.01640,   0.00821,  -0.00112,   0.00354,  -0.00410,  -0.02701,  -0.00112,   0.01628,  -0.00240,  -0.00452,   0.00821,  -0.02574,  -0.01470,   0.01288,  -0.00028,  -0.01513,  -0.01046,   0.04344,  -0.00282,   0.00524,   0.01118,  -0.00367,  -0.00155,   0.01118,  -0.03507,  -0.00070,   0.01500,  -0.00112,  -0.01810,  -0.02362,  -0.00155,   0.00949,  -0.00876,   0.00779,   0.00015,  -0.01004,  -0.00112,   0.00312,   0.02137,  -0.00579,   0.02349,   0.01797,   0.00482,   0.01203,   0.00057,   0.01882,   0.00567,  -0.00410,  -0.00410,  -0.00452,  -0.00876,  -0.01810,  -0.01513,   0.00227,  -0.00876,  -0.02277,  -0.01258,  -0.00579,  -0.00410,  -0.02234,  -0.00919,   0.00142,   0.00991,  -0.02065,   0.02561,  -0.02362,  -0.01980,   0.01033,   0.00567,   0.01840,  -0.00834,   0.00227,   0.00651,  -0.01258,  -0.00155,  -0.03889,   0.00015,  -0.00240,   0.00227,  -0.01173,   0.00482,  -0.01216,   0.00312,   0.00312,  -0.00325,   0.00185,  -0.02065,  -0.00537,   0.01670,   0.00864,  -0.00410,  -0.00494,  -0.00961,   0.00057,   0.02137,   0.00864,  -0.00707,  -0.00876,  -0.00367,  -0.03253,   0.00482,  -0.01301,  -0.03168,  -0.01428,  -0.00112,  -0.02149,  -0.01343,  -0.02149,  -0.00155,   0.01882,  -0.01046,   0.00864,  -0.00410,   0.02646,   0.03155,   0.02179,   0.02858,  -0.00961,   0.00142,  -0.00579,  -0.00919,   0.01288,  -0.01428,  -0.00876,   0.00142,  -0.00325,  -0.00452,  -0.01004,   0.00100,  -0.00410,   0.03622,   0.00991,   0.01840,   0.00906,  -0.01725,  -0.02234,   0.01500,  -0.00325,   0.02561,   0.00142,   0.00694,  -0.00028,   0.00524,   0.00439,  -0.01725,   0.02349,   0.02434,   0.01246,   0.00439,  -0.00494,  -0.01937,   0.00057,  -0.00282,  -0.00070,   0.00100,   0.02009,  -0.00876,   0.01288,  -0.01470,   0.00609,  -0.01683,  -0.00791,  -0.02107,  -0.01513,   0.01076,  -0.00919,   0.01246,   0.00015,   0.00991,  -0.00876,   0.02519,   0.02052,  -0.00452,  -0.01980,   0.00651,  -0.01470,   0.02179,  -0.02234,  -0.00537,   0.00864,   0.00100,  -0.00410,  -0.00834,   0.00015,  -0.00367,  -0.01768,   0.00779,   0.02094,  -0.00494,   0.02561,   0.01033,  -0.01089,   0.00482,   0.01246,   0.01670,   0.02391,  -0.02913,  -0.00410,  -0.00919,  -0.01555,   0.00015,  -0.00579,   0.01203,   0.02264,  -0.00537,  -0.01301,   0.01755,  -0.00707,  -0.01004,   0.00567,  -0.01173,   0.01033,  -0.01810,  -0.01810,   0.00142,  -0.00282,   0.00991,   0.00524,   0.00821,  -0.02531,  -0.00876,   0.00609,   0.02307,  -0.00410,  -0.00070,  -0.00749,  -0.00155,   0.01415,   0.02349,  -0.03380,   0.00354,  -0.00961,  -0.01301,  -0.00410,  -0.01683,  -0.00494,   0.00312,   0.02264,  -0.00197,  -0.01640,   0.00864,  -0.01089,  -0.00325,   0.00609,   0.00142,  -0.00834,  -0.02447,  -0.00749,  -0.00876,  -0.02489,  -0.00537,  -0.01428,   0.00057,  -0.03550,  -0.00622,  -0.00537,  -0.00749,   0.02052,   0.01670,   0.00906,   0.00991,   0.00439,   0.03028,  -0.00240,  -0.00282,  -0.01640,   0.02773,  -0.00622,  -0.00240,   0.00821,  -0.01386,   0.00397,   0.01755,   0.00482,  -0.00197,  -0.00876,  -0.01343,  -0.01131,  -0.01555,  -0.00325,   0.00354,   0.00397,   0.01840,  -0.02234,  -0.01598,  -0.00919,   0.00609,  -0.03635,  -0.02786,  -0.01470,  -0.00834,   0.01415,  -0.02404,  -0.01725,  -0.02277,   0.01246,   0.02476,  -0.00919,  -0.00961,   0.02901,  -0.00367,   0.00779,   0.01118,  -0.00240,   0.00312,  -0.02574,  -0.00664,  -0.00240,   0.00609,   0.00609,  -0.01386,   0.01076,   0.00991,  -0.02022,   0.02858,  -0.02956,  -0.00919,  -0.00791,   0.01118,  -0.01470,  -0.00622,  -0.00155,  -0.00282,   0.00185,  -0.02744,   0.01458,  -0.02149,   0.02391,   0.01373,   0.02604,  -0.01131,  -0.00961,   0.00354,  -0.02786,   0.01076,   0.01840,   0.01840,  -0.04017,   0.00567,   0.01076,   0.02179,   0.02773,   0.01967,  -0.01301,   0.00227,   0.02943,  -0.01046,   0.00694,  -0.02701,  -0.00240,  -0.00240,   0.02222,  -0.00325,  -0.01046,  -0.02277,   0.00439,   0.00270,  -0.02744,  -0.02913,  -0.00834,  -0.00876,   0.00015,  -0.01131,  -0.00155,  -0.02531,   0.00015,   0.01246,  -0.01980,  -0.01131,   0.01458,  -0.01089,  -0.02956,  -0.02362,  -0.00537,   0.02731,   0.00821,  -0.00749,  -0.00112,   0.00142,  -0.01004,   0.00949,  -0.00961,  -0.01428,  -0.00876,   0.00142,  -0.02234,   0.03198,  -0.01980,   0.00015,   0.01500,  -0.00961,  -0.00410,  -0.00325,   0.00567,  -0.02404,   0.00694,  -0.03083,   0.02646,  -0.02701,  -0.01513,  -0.00367,   0.00864,  -0.02065,  -0.02022,   0.01670,  -0.00155,   0.00736,   0.01246,   0.00736,  -0.01301,  -0.01258,  -0.01598,  -0.01004,  -0.00070,   0.03537,  -0.00791,  -0.01046,  -0.00452,   0.02604,  -0.01640,  -0.02701,   0.00057,   0.00821,   0.00397,  -0.00155,  -0.00622,  -0.00282,   0.00100,   0.02349,   0.00312,   0.02519,   0.00227,  -0.02616,  -0.00664,   0.01755,   0.00312,   0.02052,   0.00949,  -0.00028,   0.02476,   0.01076,   0.00949,  -0.02022,  -0.00367,   0.00821,  -0.00240,  -0.01386,  -0.01343,   0.00524,  -0.01089,   0.02094,  -0.00325,   0.01882,   0.02943,  -0.00282,   0.02009,   0.00100,  -0.01980,  -0.01131,   0.01755,   0.00779,  -0.00452,  -0.01852,  -0.01258,   0.01500,   0.01076,   0.01330,  -0.01386,   0.00567,  -0.00197,  -0.00240,  -0.00197,  -0.00791,  -0.00749,   0.01628,   0.01373,  -0.02065,  -0.00622,   0.00270,   0.00227,  -0.02319,   0.02137,  -0.01301,   0.00142,   0.01330,  -0.01513,  -0.01640,  -0.01555,  -0.00622,   0.03367,  -0.01046,   0.00949,  -0.01216,   0.00991,   0.00609,  -0.03720,   0.02986,   0.01840,  -0.01343,  -0.01428,   0.00439,   0.02264,  -0.01386,  -0.00664,   0.00567,   0.00354,   0.02943,  -0.02107,   0.01670,   0.00949,  -0.00919,   0.02858,   0.01585,   0.01458,   0.02009,  -0.00028,  -0.00707,   0.03028,   0.00142,  -0.00664,   0.01161,   0.01712,  -0.01852,  -0.02065,   0.00227,   0.00567,  -0.00410,  -0.00282,   0.02094,  -0.00155,  -0.01768,  -0.01852,  -0.03168,   0.00354,  -0.01810,   0.01203,   0.01118,  -0.00452,  -0.00325,  -0.01725,   0.00524,   0.00651,   0.01967,   0.00439,   0.02009,   0.00142,   0.00439,   0.00949,  -0.02744,  -0.00112,   0.01033,   0.01118,   0.00821,  -0.01640,   0.03580,  -0.01980,  -0.02956,   0.02901,  -0.00028,   0.00142,   0.01840,  -0.02107,  -0.00197,   0.02179,  -0.01131,  -0.02362,  -0.00155,  -0.01004,   0.00991,  -0.01089,   0.00864,  -0.00876,  -0.02319,   0.03792,  -0.00749,   0.01373,   0.02179,   0.01797,  -0.01216,  -0.01513,  -0.02107,  -0.00197,  -0.01513,  -0.00749,   0.01882,   0.01628,  -0.00112,   0.03665,   0.02943,  -0.01216,   0.00270,   0.00100,  -0.00622,  -0.02362,   0.00227,  -0.01598,  -0.00240,   0.04725,  -0.01386,  -0.02531,   0.01033,   0.00651,  -0.00749,  -0.01555,  -0.01725,   0.00821,  -0.00112,  -0.00664,  -0.04696,   0.00312,  -0.00707,   0.01458,  -0.00240,   0.00821,   0.00609,  -0.00537,   0.03410,   0.01670,  -0.01470,  -0.01598,  -0.01386,  -0.01004,  -0.00876,   0.00736,  -0.00749,  -0.00579,  -0.01895,   0.01288,   0.02052,   0.02222,   0.01203,  -0.00197,  -0.01810,   0.01203,   0.04301,   0.00694,  -0.01640,   0.00227,  -0.00749,  -0.01004,  -0.01258,  -0.01386,  -0.00707,  -0.00410,  -0.03974,   0.00015,   0.01543,   0.00482,   0.00397,  -0.01768,  -0.01046,   0.00991,  -0.00155,   0.00651,   0.01458,   0.02646,   0.02349,   0.03198,   0.00736,   0.00439,  -0.00070,  -0.02065,  -0.00537,   0.01288,  -0.01131,  -0.01470,  -0.00070,  -0.01470,   0.00057,  -0.00876,  -0.00197,  -0.00494,   0.01330,  -0.01598,   0.01415,  -0.00537,   0.01246,  -0.00919,  -0.00707,   0.00142,   0.00270,  -0.03338,  -0.00579,  -0.00961,   0.00397,  -0.00876,  -0.01810,   0.01840,   0.00821,   0.00312,   0.00015,  -0.00197,  -0.02574,  -0.00664,  -0.02913,  -0.00749,   0.00651,   0.03028,   0.00949,   0.02604,   0.00185,   0.02307,  -0.01131,  -0.00919,   0.02009,  -0.00155,   0.02519,  -0.01004,   0.00779,  -0.03210,   0.01458,  -0.01937,   0.01076,   0.01203,  -0.00197,  -0.02065,  -0.01343,  -0.00155,   0.01161,   0.00694,   0.01033,  -0.01810,  -0.02065,  -0.01046,  -0.01598,  -0.00452,  -0.00240,   0.02137,  -0.01937,  -0.00961,   0.00906,  -0.04017,  -0.02404,   0.00397,  -0.00282,   0.00439,   0.00439,   0.01670,  -0.01852,  -0.02786,   0.01161,   0.00015,   0.00397,  -0.00579,   0.01628,  -0.00240,  -0.00876,  -0.00155,   0.00312,  -0.01386,  -0.00452,   0.01288,   0.01161,  -0.00876,  -0.01555,   0.00906,  -0.01895,   0.03665,  -0.02277,  -0.01216,   0.01203
   0.02688,  -0.00452,   0.01076,  -0.02786,  -0.01089,  -0.01640,  -0.00961,   0.00057,  -0.00367,  -0.01683,   0.00651,  -0.00155,   0.00354,   0.00524,   0.03537,  -0.00070,   0.00397,   0.00439,   0.02391,   0.01076,  -0.01555,   0.00270,  -0.00494,   0.00100,   0.01670,  -0.00664,  -0.00834,   0.00736,   0.01415,   0.01033,  -0.01810,  -0.00664,  -0.00240,  -0.00664,  -0.00367,   0.00821,  -0.01513,  -0.00876,  -0.00070,   0.00354,  -0.01173,  -0.00367,  -0.01343,  -0.01089,   0.01628,   0.02264,   0.01840,  -0.02107,  -0.00579,  -0.00834,  -0.00070,  -0.00028,   0.01076,  -0.00155,   0.01118,   0.00567,  -0.00325,   0.02349,   0.00439,   0.00991,  -0.00155,  -0.00707,  -0.00155,   0.01755,  -0.00707,   0.00821,  -0.01173,   0.02943,   0.01076,   0.00991,  -0.00791,   0.00142,  -0.00452,   0.01203,   0.00609,  -0.00367,  -0.00197,   0.00482,   0.00270,   0.01118,   0.00524,   0.00694,   0.00906,   0.00567,  -0.00961,   0.01500,   0.02137,  -0.00112,  -0.00834,  -0.00155,   0.00312,   0.00609,   0.02901,  -0.01937,   0.01840,   0.00057,   0.01500,   0.00864,   0.01118,   0.02986,  -0.01852,  -0.02786,   0.00567,  -0.00112,   0.00524,  -0.01301,   0.00142,   0.01161,   0.01628,  -0.00070,   0.00057,  -0.01683,   0.00864,  -0.01470,   0.02137,   0.01373,   0.01033,  -0.01980,  -0.00791,  -0.00622,  -0.00919,  -0.00112,  -0.00494,  -0.03423,  -0.00961,  -0.01386,  -0.01216,  -0.02319,   0.03070,  -0.00112,   0.01967,   0.00439,  -0.00367,   0.00312,   0.01712,  -0.00876,  -0.02404,  -0.03550,   0.00015,  -0.00749,  -0.00834,   0.01330,   0.01840,  -0.00664,   0.00694,  -0.01895,   0.00482,  -0.00282,   0.00524,   0.00864,  -0.01258,   0.00482,  -0.00155,  -0.00155,  -0.01131,  -0.00028,   0.02858,   0.03452,  -0.01343,  -0.01173,   0.01628,  -0.00240,  -0.00622,  -0.00664,  -0.00410,   0.00949,   0.01925,   0.01840,   0.00482,  -0.02192,   0.02434,  -0.01004,   0.00567,  -0.00919,  -0.01343,   0.01543,   0.00949,   0.00864,   0.02986,  -0.02022,  -0.02913,  -0.01852,  -0.00664,  -0.01555,  -0.01598,   0.00354,  -0.00919,  -0.01301,  -0.00579,  -0.02022,   0.00482,   0.01373,   0.00270,   0.00779,   0.00185,  -0.02828,  -0.02319,  -0.00367,   0.00270,  -0.01301,  -0.01173,   0.00057,  -0.02659,  -0.01004,  -0.03635,  -0.00197,   0.00227,   0.00906,  -0.00664,   0.01882,   0.00991,  -0.01683,   0.00694,   0.02858,  -0.01980,   0.00270,   0.01543,  -0.01640,  -0.00282,   0.00270,  -0.01046,  -0.00240,   0.00270,  -0.01386,  -0.00325,   0.03283,   0.02646,  -0.03126,   0.01500,  -0.00537,  -0.00876,   0.00057,  -0.01640,   0.01458,   0.03537,   0.01330,   0.03028,  -0.00537,  -0.00197,   0.00567,   0.00609,  -0.00155,   0.00354,   0.02646,   0.02222,  -0.00325,  -0.01725,   0.02307,  -0.00325,   0.01585,  -0.01852,   0.03707,   0.02604,  -0.00622,   0.00651,   0.00397,   0.00354,  -0.02701,   0.00821,  -0.00112,   0.01415,   0.00439,   0.00991,  -0.01428,   0.00397,  -0.01513,   0.03028,   0.00524,  -0.01131,  -0.03295,  -0.02065,  -0.00410,   0.01797,  -0.04271,   0.02052,   0.01840,   0.01288,   0.01288,  -0.02744,  -0.02489,   0.01288,  -0.01895,   0.02731,   0.01076,  -0.01428,  -0.00664,  -0.00579,   0.02222,   0.00949,   0.01161,   0.00864,   0.03283,  -0.02531,  -0.00791,   0.01670,   0.01712,   0.02519,  -0.02404,   0.00354,  -0.00028,  -0.02234,   0.02052,   0.01628,  -0.00240,   0.00270,   0.00821,   0.01161,   0.00057,  -0.03465,   0.00694,   0.00949,  -0.00919,  -0.00537,  -0.00791,  -0.00282,  -0.00367,  -0.00919,  -0.00749,   0.00100,  -0.00834,  -0.00791,  -0.00325,   0.00270,  -0.00749,   0.00397,  -0.00410,   0.02094,   0.01161,  -0.01216,  -0.00919,  -0.00707,   0.03240,  -0.00325,  -0.01725,   0.01797,   0.00142,   0.01373,   0.00354,  -0.01258,  -0.00240,   0.01161,  -0.00622,  -0.01598,  -0.02192,  -0.02192,   0.02604,   0.00864,   0.01288,  -0.02192,  -0.00622,  -0.00622,   0.01967,   0.03834,   0.03198,  -0.01810,   0.00779,  -0.01895,   0.01330,  -0.03974,  -0.02234,   0.00354,   0.02094,   0.03240,  -0.01386,   0.00397,  -0.00070,  -0.00410,   0.00354,  -0.00664,   0.00439,  -0.01216,  -0.00791,   0.00439,  -0.01004,  -0.02022,   0.00100,  -0.01258,  -0.01004,  -0.02234,   0.00567,  -0.02574,   0.01033,   0.00270,   0.00227,   0.00651,  -0.01343,   0.00651,   0.02476,  -0.00494,   0.00991,   0.00991,  -0.02744,   0.00312,   0.00906,  -0.00155,  -0.00367,  -0.00876,   0.01628,  -0.01852,   0.00864,   0.03410,   0.00609,   0.00991,  -0.00240,  -0.03805,   0.01925,   0.00906,  -0.00155,  -0.00622,  -0.00240,   0.02179,   0.00100,   0.01585,   0.01288,   0.02901,  -0.00537,  -0.00707,  -0.01937,   0.01840,  -0.01683,  -0.01089,  -0.02022,  -0.00452,  -0.00537,   0.00779,   0.00142,  -0.01470,   0.00057,   0.00482,  -0.01173,  -0.01895,   0.01203,  -0.02234,  -0.00197,   0.00779,   0.00949,   0.00991,  -0.00155,  -0.00452,  -0.02786,  -0.01810,  -0.01768,  -0.03720,   0.00015,  -0.01301,   0.03367,  -0.00791,   0.02094,   0.00057,   0.00991,   0.00354,   0.01288,   0.00906,  -0.01640,   0.01246,   0.02052,   0.02094,   0.02349,   0.00482,  -0.00834,  -0.00240,  -0.01173,   0.00991,   0.02519,   0.00057,  -0.01980,   0.01076,   0.00142,   0.00991,  -0.01895,   0.02986,  -0.00834,   0.00100,   0.01755,   0.02179,   0.02561,  -0.02362,   0.00864,  -0.00155,   0.00397,  -0.00240,   0.00736,  -0.01470,   0.00015,   0.01712,   0.00015,   0.01118,  -0.01173,   0.00609,   0.01076,  -0.00240,  -0.01725,  -0.01046,   0.00185,   0.01882,   0.00524,  -0.00155,   0.00949,   0.02986,  -0.00579,   0.00397,  -0.00919,  -0.03677,   0.00312,  -0.02234,   0.00354,   0.00397,   0.00354,  -0.00112,   0.00609,  -0.01768,   0.00439,  -0.00240,  -0.02913,  -0.00494,  -0.00876,   0.02009,  -0.02744,   0.01882,   0.00439,   0.02773,  -0.01258,   0.00015,  -0.00197,   0.00142,  -0.00707,  -0.01089,  -0.02828,   0.00524,   0.02094,  -0.02828,  -0.00961,  -0.00749,  -0.00791,   0.02009,  -0.01768,  -0.00240,   0.01543,   0.00397,   0.00609,  -0.03720,   0.00991,  -0.00452,  -0.00876,  -0.00112,   0.02349,  -0.01640,  -0.02616,  -0.03168,   0.02349,  -0.01258,  -0.00112,  -0.04059,  -0.00325,  -0.00028,   0.01712,  -0.00367,  -0.01089,  -0.01173,   0.01288,   0.04344,   0.03749,   0.00142,   0.01500,  -0.01937,   0.00312,   0.00949,  -0.00112,  -0.01980,   0.00736,  -0.00240,  -0.01513,   0.03155,  -0.00579,  -0.00791,   0.02264,   0.01670,   0.02179,   0.03622,   0.01330,  -0.02531,  -0.01216,   0.00821,  -0.01301,  -0.01640,  -0.00028,  -0.00452,   0.00821,   0.00991,   0.00015,  -0.01895,  -0.00325,   0.00651,  -0.01258,  -0.00452,  -0.02319,   0.00227,   0.00439,  -0.01386,   0.00270,   0.03070,  -0.01725,   0.01840,   0.00736,   0.01925,   0.00015,   0.01415,  -0.01683,  -0.01343,  -0.01555,  -0.00919,   0.01543,  -0.02659,   0.00227,   0.01246,   0.00779,   0.00567,  -0.02022,  -0.00325,   0.03580,  -0.01131,   0.00100,   0.00906,  -0.00876,   0.00270,  -0.05375,  -0.00452,  -0.00664,   0.00651,  -0.00579,   0.01628,  -0.01768,   0.00567,   0.01500,  -0.00452,  -0.00919,   0.01882,  -0.01725,  -0.01428,   0.00864,   0.01585,   0.00651,   0.03028,   0.01628,  -0.01046,  -0.00622,   0.00439,  -0.01131,  -0.02065,  -0.01258,   0.00567,   0.00864,   0.01458,   0.01670,   0.00991,   0.01840,  -0.01555,   0.01585,  -0.00155,   0.03070,  -0.00282,  -0.01895,  -0.01046,  -0.00919,  -0.02489,   0.00949,   0.00270,  -0.01131,  -0.00791,  -0.01386,   0.03537,  -0.01428,   0.01712,   0.01458,   0.01543,  -0.00876,   0.03410,  -0.01343,  -0.00197,  -0.01343,  -0.01343,   0.01033,   0.03495,  -0.04611,  -0.00749,   0.00227,  -0.01852,  -0.00919,   0.00142,  -0.00410,  -0.01852,  -0.02659,  -0.00197,   0.01670,  -0.01046,  -0.01725,   0.00439,  -0.01301,   0.01161,   0.00015,   0.00651,  -0.00197,   0.00270,  -0.01513,  -0.00622,  -0.00876,   0.01712,  -0.00664,  -0.00367,  -0.00537,   0.01415,   0.00227,  -0.01004,  -0.00664,  -0.00707,  -0.01937,  -0.02786,  -0.03253,  -0.01937,  -0.01343,  -0.02616,  -0.03041,  -0.01598,   0.00142,  -0.01131,  -0.00155,   0.00524,  -0.00028,   0.00227,  -0.01725,   0.02052,  -0.00834,   0.01330,   0.00864,   0.00906,   0.00312,  -0.01937,   0.00057,  -0.00240,  -0.00155,   0.00906,  -0.02447,  -0.01555,   0.00227,  -0.00070,   0.01118,  -0.00410,   0.01118,  -0.02871,  -0.02319,   0.00949,  -0.01343,  -0.00155,   0.00779,  -0.00197,  -0.00622,   0.02604,   0.00397,   0.02476,   0.01925,  -0.00707,  -0.03338,  -0.01725,  -0.03041,  -0.01046,  -0.02065,  -0.00537,   0.01033,   0.00482,  -0.00282,   0.01967,   0.02816,   0.01373,  -0.00155,   0.02773,  -0.01258,  -0.01470,  -0.02022,   0.00821,  -0.00579,   0.01288,  -0.01004,   0.01246,  -0.02277,  -0.01216,   0.01458,   0.00949,   0.03919,   0.00397,   0.00949,  -0.01131,   0.00651,  -0.01258,   0.01161,  -0.00622,  -0.00197,   0.00609,  -0.00876,   0.00354,   0.00142,  -0.02192,  -0.01980,  -0.01810,  -0.00961,  -0.00876,  -0.00028,   0.02434,  -0.01555,  -0.01343,   0.02264,   0.01076,  -0.03380,   0.02391,   0.02222,   0.00482,   0.00736,  -0.01598,   0.02307,   0.00821,   0.00524,   0.02434,   0.01118,  -0.02574,   0.00821,  -0.00028,   0.00439,  -0.02786,  -0.01428,  -0.01640,   0.01882,   0.01458,  -0.02744,  -0.00876,  -0.00197,   0.01246,  -0.00197,   0.00142,   0.00312,  -0.00579,   0.01628,   0.00821,  -0.00834,  -0.00919,   0.00821,  -0.00410,   0.00864,   0.00439,  -0.02998,   0.01670,  -0.02786,  -0.01980,   0.01797,   0.00949,  -0.02234,  -0.01640,   0.01670,   0.01161,  -0.00749,   0.02901,   0.01288,  -0.00028,  -0.00876,  -0.01046,   0.03325,   0.00397,  -0.00367,   0.00864,  -0.01980,  -0.01004,  -0.00579,  -0.00622,  -0.01725,   0.00439,   0.01118,   0.00015,   0.00736,   0.00864,   0.01755,   0.01585,   0.00354,   0.01628,   0.02052,  -0.00834,  -0.03041,   0.00397,  -0.00834,  -0.02871,   0.00312,  -0.00664,  -0.00452,  -0.00876,  -0.00791,   0.00227,  -0.03083,   0.00524,  -0.01683,  -0.02828,   0.02604,   0.01373,   0.00312,  -0.00579,  -0.01725,   0.01628,  -0.00791,   0.00312,   0.04259,   0.01415,  -0.01768,  -0.00112,  -0.00622,   0.00354,   0.00312,   0.01246,  -0.00197,  -0.00707,  -0.00791,  -0.00919,  -0.00240,  -0.00622,   0.00949,  -0.01768,  -0.00919,  -0.00791,  -0.00240,   0.01585,  -0.01470,  -0.00155,  -0.02701,   0.01203,  -0.00028,  -0.00537,  -0.02447,   0.00779,  -0.00452,   0.01033,  -0.00240,   0.01203,   0.00100,   0.00397,  -0.01216,  -0.00240,   0.01033,  -0.01046,   0.01500,   0.01797,  -0.00452,  -0.00791,  -0.01683,  -0.00070,  -0.01131,   0.00270,   0.00057,  -0.03847,   0.01330,   0.00270,  -0.02956,   0.01246,   0.01628,   0.01925,   0.00057
  -0.00112,  -0.02319,   0.00609,  -0.00325,  -0.00876,  -0.01301,  -0.03635,  -0.01640,  -0.02744,  -0.01980,   0.00567,  -0.01555,   0.03283,  -0.00494,   0.03919,   0.02094,  -0.02107,  -0.00579,   0.00779,  -0.01301,   0.00991,  -0.02956,   0.00609,   0.00354,   0.02901,   0.01712,   0.00609,   0.00142,  -0.01089,   0.00609,   0.00185,   0.00142,  -0.00919,  -0.01258,   0.01543,   0.01118,   0.00864,   0.01246,  -0.00197,   0.01076,   0.01076,   0.00397,   0.00991,   0.00397,   0.00312,  -0.01046,   0.00397,   0.01967,   0.01246,   0.00142,   0.00609,   0.00312,   0.00567,   0.00227,   0.01628,  -0.03507,   0.00185,  -0.01089,   0.01670,   0.02052,   0.00779,   0.01415,   0.00185,  -0.03253,   0.00821,  -0.01810,  -0.00112,  -0.03210,  -0.00876,  -0.01852,   0.01585,  -0.00155,   0.01161,   0.02391,  -0.00919,   0.01118,  -0.00112,   0.00694,  -0.00961,  -0.01216,  -0.00452,   0.00694,  -0.02277,   0.01076,   0.00227,   0.01161,   0.00609,  -0.00876,  -0.01258,  -0.01131,   0.01033,  -0.02234,  -0.01428,   0.01373,  -0.01301,  -0.00834,   0.00270,   0.01967,  -0.01089,  -0.01258,   0.01118,   0.00736,   0.01458,  -0.00579,   0.00185,   0.01246,  -0.00494,   0.02052,  -0.01852,   0.00142,  -0.01046,   0.00397,  -0.01386,  -0.00834,  -0.01768,  -0.00707,  -0.01555,   0.00694,   0.00609,  -0.00155,  -0.00028,   0.00864,  -0.00155,  -0.00919,  -0.02149,   0.00779,  -0.00579,  -0.02107,  -0.00791,   0.00694,   0.00779,   0.00100,   0.00270,   0.00821,   0.00270,  -0.01343,   0.00185,   0.00821,   0.00524,   0.00185,  -0.00028,   0.00736,  -0.02192,  -0.03083,   0.00864,  -0.01513,   0.00821,  -0.01301,  -0.01555,  -0.00579,  -0.01046,  -0.00707,  -0.01343,   0.00142,   0.04259,  -0.01555,  -0.02447,  -0.00537,  -0.00070,   0.00439,   0.04259,  -0.00155,   0.00312,  -0.02065,   0.02349,   0.00651,   0.01925,  -0.01513,  -0.00028,   0.01246,  -0.02659,   0.00949,  -0.01258,   0.00312,  -0.00664,   0.00821,  -0.01725,  -0.00367,   0.02349,  -0.00325,   0.00736,   0.01967,   0.01712,   0.02307,   0.01840,   0.01967,   0.02052,  -0.01937,  -0.01089,  -0.01216,  -0.00112,  -0.00452,   0.00185,   0.01330,  -0.00834,  -0.01301,   0.01203,  -0.00112,   0.00100,   0.01458,   0.01203,   0.01330,   0.00100,   0.01585,  -0.00919,  -0.01173,  -0.00112,  -0.04568,  -0.01173,  -0.00028,   0.02858,  -0.01470,   0.01118,   0.02137,  -0.01046,   0.00609,   0.01246,   0.00397,  -0.00876,   0.00482,  -0.01343,   0.00015,   0.04216,  -0.01258,   0.01288,   0.02816,  -0.00707,  -0.02319,   0.01543,   0.00100,  -0.01301,  -0.00494,  -0.00749,   0.00015,  -0.00410,  -0.00325,  -0.01216,   0.01330,   0.01712,   0.01882,  -0.01004,   0.01161,   0.00185,  -0.00070,  -0.02277,   0.01670,   0.00100,  -0.01513,  -0.01004,   0.03198,  -0.00876,  -0.00028,  -0.00452,  -0.00791,   0.00439,   0.00227,  -0.01258,   0.01246,   0.01118,   0.00949,  -0.01386,  -0.00452,  -0.00579,  -0.01980,  -0.00452,  -0.00197,   0.01543,  -0.01768,  -0.01852,   0.02222,  -0.00240,   0.02604,   0.00354,  -0.01216,  -0.02956,  -0.01937,   0.01330,   0.01161,  -0.01428,  -0.00537,   0.04131,  -0.00240,   0.00354,   0.02816,   0.00185,   0.00736,  -0.00537,  -0.01089,  -0.00749,   0.01330,  -0.01004,  -0.01216,   0.01755,   0.00439,  -0.00919,   0.03325,   0.01755,   0.01161,   0.00354,  -0.00919,  -0.00919,  -0.01810,  -0.00537,  -0.01768,  -0.00410,   0.02816,   0.00270,   0.00651,  -0.00282,   0.00821,  -0.01640,   0.00015,  -0.00410,  -0.01470,  -0.00325,   0.01330,   0.00142,  -0.01470,  -0.03295,  -0.00367,  -0.01725,  -0.00452,   0.01033,   0.00609,   0.01161,  -0.00070,  -0.00961,  -0.01768,  -0.00070,  -0.01810,  -0.02701,  -0.02319,   0.01033,  -0.01640,  -0.01173,   0.00270,  -0.00028,   0.00439,   0.01500,  -0.01046,   0.00651,  -0.00155,   0.00651,  -0.00325,   0.00991,   0.02986,   0.01373,   0.01628,  -0.00537,  -0.02489,  -0.00919,   0.01585,  -0.01555,   0.00609,   0.00057,  -0.00622,  -0.03423,  -0.00240,  -0.00749,  -0.00282,   0.00439,   0.00354,   0.02094,  -0.00070,  -0.01470,  -0.00707,   0.00185,   0.00142,  -0.00282,  -0.01640,  -0.02192,   0.01882,  -0.00876,   0.00057,  -0.00791,   0.02307,  -0.01683,  -0.00112,   0.00100,  -0.01768,  -0.01895,  -0.01555,  -0.00622,   0.00821,   0.02094,  -0.00961,  -0.00367,   0.01330,  -0.01301,  -0.00919,   0.00227,  -0.02277,  -0.00791,  -0.00070,  -0.00155,   0.01967,  -0.01852,  -0.01173,   0.01330,   0.01628,  -0.02659,  -0.01555,   0.03113,  -0.00155,   0.01118,   0.00694,   0.00100,   0.01373,  -0.00452,   0.00100,   0.00142,   0.01330,   0.00949,  -0.02404,  -0.01131,  -0.00834,   0.01118,   0.01203,  -0.00155,  -0.03126,  -0.01598,  -0.02362,  -0.02701,  -0.01343,  -0.02786,  -0.01046,   0.00227,  -0.01598,   0.00821,  -0.01810,   0.00821,   0.00651,  -0.02065,   0.01076,  -0.00876,   0.02307,  -0.00579,  -0.00452,  -0.00197,   0.00270,   0.01118,  -0.01004,   0.01161,  -0.01683,   0.00524,   0.00949,   0.02943,   0.01203,  -0.00579,   0.01330,  -0.03041,  -0.00452,  -0.00749,   0.00864,  -0.00028,   0.00270,  -0.00579,   0.00397,   0.01330,   0.01118,  -0.03889,   0.02052,   0.01118,  -0.00876,  -0.01131,  -0.00961,   0.00482,   0.00821,  -0.02065,  -0.01258,  -0.01640,   0.00609,   0.02307,   0.01415,   0.01373,   0.01925,  -0.00410,  -0.00410,  -0.00876,  -0.01895,   0.01246,  -0.00410,   0.00567,   0.02009,  -0.00325,  -0.01470,  -0.00707,  -0.02574,  -0.03847,  -0.00579,  -0.00961,   0.00227,   0.00694,  -0.01173,   0.00227,  -0.02319,  -0.00070,   0.03452,  -0.00622,  -0.00834,   0.00312,   0.00694,  -0.01937,  -0.00961,   0.00015,  -0.01258,  -0.00240,  -0.01046,   0.00609,  -0.03253,   0.00991,  -0.00028,   0.01330,  -0.00707,   0.00482,  -0.01470,  -0.02574,   0.00694,   0.00609,  -0.00155,  -0.01768,   0.00270,   0.02816,  -0.02447,  -0.01937,  -0.03465,  -0.01216,   0.00524,   0.01330,  -0.03380,  -0.02362,   0.00991,   0.01458,   0.02137,   0.02519,   0.01967,  -0.01470,  -0.00961,   0.01712,   0.00524,  -0.00112,   0.00439,  -0.00070,   0.01712,  -0.00367,   0.01203,  -0.01513,   0.01755,   0.00991,   0.01500,   0.00651,  -0.00452,   0.01585,   0.02137,   0.02307,   0.01755,   0.02349,  -0.00961,   0.00694,   0.00694,   0.00057,   0.01500,   0.01840,  -0.01004,   0.00779,  -0.00791,   0.00270,   0.01033,  -0.00537,   0.00991,   0.00694,  -0.00537,  -0.00070,  -0.01258,  -0.01046,   0.00736,   0.00524,   0.02391,  -0.00367,  -0.01513,   0.01203,  -0.02234,  -0.01555,   0.00694,  -0.00367,  -0.03295,  -0.01131,  -0.00919,  -0.01216,   0.02816,   0.01118,   0.01500,   0.01203,   0.00397,  -0.02107,  -0.01810,  -0.02022,   0.00100,   0.00015,   0.03155,   0.00227,   0.00015,  -0.00834,   0.00100,   0.00142,  -0.02616,  -0.00876,   0.01797,   0.01033,  -0.00749,   0.01925,  -0.00112,  -0.00240,   0.00270,  -0.01386,  -0.01683,   0.00991,   0.02137,   0.02391,   0.00100,   0.00694,   0.00779,   0.01797,  -0.02065,  -0.00961,   0.00779,   0.00227,   0.01712,  -0.01980,  -0.03805,   0.01288,  -0.01089,  -0.00112,  -0.00070,   0.00100,   0.01797,   0.00354,   0.00270,   0.01967,   0.00227,   0.02986,   0.01118,  -0.00325,  -0.02234,   0.01585,   0.00821,   0.00567,   0.00439,  -0.00961,  -0.00155,   0.01288,  -0.00579,  -0.00112,  -0.00325,  -0.01258,  -0.01343,   0.00439,   0.02391,  -0.00876,  -0.04441,   0.00354,  -0.00919,   0.02222,   0.00651,  -0.00367,   0.01076,  -0.01173,  -0.01131,  -0.00749,  -0.00494,  -0.00622,   0.01033,   0.01330,   0.00015,  -0.02149,  -0.02616,  -0.00494,   0.00439,   0.00015,   0.01840,  -0.01852,   0.02179,  -0.01258,   0.01246,   0.01161,  -0.01216,  -0.00579,  -0.00452,  -0.00919,  -0.00452,   0.04598,   0.01076,   0.00185,  -0.00664,   0.03495,  -0.01683,   0.00397,  -0.01810,  -0.00325,   0.00312,  -0.01343,  -0.01089,   0.01288,  -0.00410,  -0.02828,  -0.03083,   0.01118,   0.00609,  -0.00579,  -0.02149,  -0.00834,  -0.00494,   0.02009,  -0.03338,  -0.00494,  -0.01173,   0.01033,   0.00991,   0.00482,   0.00142,   0.00312,  -0.00070,  -0.00282,  -0.00028,   0.02476,   0.01925,  -0.00367,   0.01670,   0.00015,   0.03325,   0.01755,  -0.01173,  -0.02149,  -0.00749,   0.01755,   0.02519,  -0.01131,   0.02009,   0.02604,  -0.00622,  -0.01852,   0.00015,  -0.02998,   0.01161,   0.01246,   0.01076,   0.01712,   0.00949,  -0.00155,  -0.00961,   0.00439,   0.01118,  -0.04229,   0.00227,   0.00142,  -0.01513,  -0.02489,   0.03410,  -0.00112,   0.01161,   0.00821,  -0.00240,   0.00185,   0.00821,   0.01033,   0.01076,   0.01246,  -0.00834,  -0.03168,  -0.02447,   0.00439,  -0.03550,   0.01246,  -0.02998,  -0.01173,  -0.00749,   0.02901,   0.00567,  -0.00494,   0.00949,  -0.00494,  -0.01470,   0.00779,  -0.00282,  -0.00537,  -0.02871,  -0.00452,   0.00015,   0.02858,  -0.01725,  -0.00707,   0.00270,  -0.01640,  -0.00494,  -0.01089,   0.01288,   0.02009,   0.02052,   0.03580,   0.00821,  -0.01852,  -0.00876,  -0.00749,   0.01925,   0.00397,  -0.00325,  -0.00749,  -0.00707,  -0.00749,   0.04004,   0.00949,  -0.00749,   0.01755,  -0.00240,  -0.00537,  -0.02065,   0.01118,  -0.01131,   0.00651,  -0.03126,  -0.02786,  -0.01089,  -0.01683,  -0.00749,  -0.01768,   0.01076,   0.02731,  -0.00707,  -0.02404,  -0.00197,  -0.00876,   0.00185,  -0.00494,   0.01288,  -0.00791,  -0.00876,   0.00397,  -0.01386,   0.00906,  -0.00325,   0.02307,  -0.00579,  -0.00919,   0.00949,   0.00057,   0.00567,   0.02264,  -0.00834,  -0.01301,  -0.02234,   0.01543,   0.00567,   0.00185,  -0.02065,  -0.01173,  -0.00410,   0.00057,  -0.01216,   0.00949,  -0.00155,   0.00991,   0.01373,   0.00694,   0.01670,   0.00015,   0.00821,   0.01882,   0.00567,  -0.02319,   0.00694,  -0.00579,   0.00949,  -0.00028,   0.01840,  -0.00155,   0.02391,  -0.01513,  -0.00919,   0.00227,  -0.00664,   0.00821,   0.02688,   0.00397,  -0.01258,  -0.01980,   0.00906,  -0.01937,  -0.02447,   0.00015,   0.01033,  -0.01937,  -0.01386,  -0.00112,   0.00694,  -0.02447,   0.00821,  -0.01216,   0.02052,  -0.01895,   0.01161,   0.02604,   0.00524,   0.00736,  -0.04653,  -0.02871,  -0.01131,  -0.00791,  -0.01046,  -0.00155,  -0.02531,   0.00991,   0.03580,  -0.00155,   0.02137,   0.00312,  -0.02149,  -0.00240,   0.00949,  -0.02786,   0.01712,   0.00397,   0.01330,   0.02391,   0.00991,   0.00482,   0.00397,   0.02222,   0.00609,  -0.02107,  -0.01258,   0.02222,   0.00397,   0.00864,  -0.01895,   0.00906,   0.00949,  -0.01895,   0.01161,   0.02476,   0.01967,  -0.00834,  -0.01937,   0.01246,  -0.01725,   0.01246,   0.00227,   0.01797,   0.00694,  -0.00791,  -0.01004,   0.00609,  -0.01089,  -0.02489,  -0.00876,  -0.01258,   0.00100,   0.00439,   0.01118,   0.00057,   0.02307
   0.01076,  -0.01852,  -0.00410,   0.01161,  -0.00876,  -0.00622,  -0.00834,   0.02986,  -0.01683,   0.00651,   0.04598,  -0.01428,  -0.02149,  -0.00749,  -0.01046,   0.00482,   0.01161,   0.02476,   0.03665,   0.00142,   0.00397,   0.01415,   0.00397,  -0.00410,  -0.01725,   0.00609,  -0.01386,  -0.01089,  -0.01173,   0.02009,   0.00991,   0.01925,   0.00142,   0.00015,   0.03028,   0.00142,   0.00142,   0.00100,   0.00779,  -0.02065,  -0.00961,  -0.00664,   0.01712,  -0.00664,   0.00482,  -0.01683,  -0.00494,   0.00015,  -0.02319,   0.01925,  -0.00112,  -0.02828,   0.01203,   0.01755,   0.00270,   0.00736,  -0.04102,  -0.01683,   0.01840,  -0.00197,  -0.01640,   0.00397,   0.02519,  -0.01428,   0.01543,  -0.03338,   0.00567,  -0.01216,  -0.00876,   0.00609,   0.02688,   0.00736,  -0.00707,  -0.00070,   0.01712,   0.01840,  -0.03635,   0.01288,   0.00142,   0.01628,  -0.00834,  -0.02192,   0.02519,   0.00397,   0.00142,   0.03792,  -0.00876,  -0.00410,   0.00736,   0.01925,   0.02264,   0.01161,   0.00609,  -0.00707,   0.02137,  -0.01004,   0.01585,   0.02222,   0.03198,   0.00185,   0.03028,  -0.00749,  -0.00155,  -0.00876,  -0.00707,   0.02773,  -0.00070,   0.01840,  -0.00197,   0.01161,   0.00100,   0.00312,   0.00100,  -0.00367,   0.00100,   0.00185,   0.01755,  -0.03592,  -0.00919,  -0.01895,  -0.00791,   0.01967,  -0.01555,  -0.02998,   0.00100,   0.00991,   0.00651,   0.00270,   0.01076,   0.01161,   0.01500,   0.03410,  -0.00112,   0.01797,  -0.00961,   0.00991,  -0.01852,   0.00270,   0.00482,  -0.00919,   0.00906,   0.02307,   0.00270,   0.00736,   0.00312,  -0.00494,  -0.03465,  -0.00070,   0.02773,  -0.00240,  -0.01258,   0.01797,  -0.01980,   0.00015,  -0.01683,   0.00609,   0.00949,  -0.01555,   0.02137,   0.01246,  -0.02319,   0.03070,  -0.00367,   0.01543,   0.01161,   0.02773,  -0.01386,   0.02434,  -0.01555,  -0.01810,  -0.02489,  -0.02107,  -0.00325,   0.00906,  -0.00579,   0.01118,   0.00736,  -0.00155,  -0.00452,   0.01458,   0.01373,  -0.01555,   0.00906,   0.01500,   0.04386,   0.00864,   0.01585,  -0.00325,   0.00142,  -0.01004,  -0.00112,   0.00185,  -0.00325,  -0.01216,   0.00057,   0.01925,  -0.00494,  -0.00367,  -0.01386,  -0.01216,  -0.00664,   0.00312,  -0.00537,   0.01840,  -0.00834,   0.00779,  -0.01089,   0.00864,  -0.00452,   0.01161,  -0.01089,  -0.00707,  -0.01555,   0.01925,   0.01288,  -0.00707,   0.01585,   0.01670,   0.03240,  -0.01428,  -0.00325,  -0.00579,   0.02094,   0.01076,   0.02391,   0.00991,  -0.01089,  -0.01598,  -0.01216,  -0.00791,   0.02561,  -0.02871,   0.02137,   0.03113,   0.00609,   0.02434,   0.00651,  -0.00070,  -0.02531,   0.01161,  -0.01470,   0.01033,  -0.01131,  -0.03295,   0.01543,   0.01161,  -0.00622,  -0.00664,   0.02222,  -0.00112,   0.02009,   0.02009,  -0.01343,   0.00609,   0.02137,  -0.01131,  -0.00961,   0.03834,  -0.00240,   0.00015,   0.01712,   0.01330,  -0.01046,  -0.01470,  -0.00028,   0.00694,  -0.00834,  -0.00028,  -0.02192,  -0.00112,   0.00991,  -0.00367,   0.01670,  -0.00410,  -0.01258,  -0.00919,  -0.00325,   0.00864,   0.00864,  -0.00367,  -0.04017,  -0.00961,   0.01500,   0.01246,  -0.00028,   0.00100,   0.03367,   0.00991,  -0.00070,   0.00142,  -0.02319,  -0.03465,   0.01458,  -0.00494,   0.01500,   0.02604,   0.04683,   0.00312,   0.02307,  -0.00240,  -0.00749,  -0.00197,   0.01967,  -0.01980,   0.00736,  -0.00112,  -0.01258,  -0.00112,   0.00736,   0.02349,   0.01882,  -0.01470,  -0.01470,   0.00524,  -0.00282,   0.00057,  -0.00197,   0.00524,  -0.00410,   0.00015,  -0.00664,   0.01670,  -0.01725,   0.00821,   0.01670,  -0.00494,  -0.01768,  -0.00155,   0.00354,   0.00651,  -0.01895,   0.01161,  -0.01725,  -0.01598,   0.01415,  -0.00112,   0.00524,   0.01330,   0.00270,   0.00651,  -0.00410,  -0.00622,  -0.00622,   0.00906,  -0.00494,  -0.00494,   0.01585,  -0.00537,  -0.00028,  -0.01258,  -0.00367,   0.02901,   0.03113,   0.02646,   0.00651,  -0.02065,  -0.00325,  -0.00494,   0.00227,   0.00609,   0.00439,  -0.01004,   0.00100,  -0.01004,  -0.00707,  -0.00749,  -0.00707,  -0.00579,   0.00439,   0.00821,   0.00185,   0.00354,  -0.00622,  -0.01343,  -0.02659,   0.01118,  -0.00961,  -0.00197,  -0.00961,   0.02646,   0.00567,   0.01118,  -0.01725,   0.00821,   0.00354,   0.02307,   0.01373,   0.01840,  -0.00028,  -0.00028,   0.01967,  -0.01046,   0.00482,  -0.01343,   0.02179,  -0.02362,  -0.00664,  -0.00579,  -0.01004,  -0.02616,   0.00015,  -0.01937,   0.01925,  -0.00112,  -0.01046,  -0.01216,  -0.00367,  -0.00919,  -0.01513,  -0.00537,   0.00949,  -0.01640,   0.02137,   0.01373,  -0.01301,  -0.00282,  -0.01301,  -0.03041,  -0.01640,   0.03580,   0.02094,  -0.00197,   0.03410,   0.01246,   0.00227,   0.01967,  -0.00240,  -0.00707,   0.00397,  -0.01598,  -0.01852,   0.02137,   0.00270,   0.00227,   0.03495,   0.00227,  -0.00834,  -0.00834,  -0.00961,  -0.02022,   0.01670,  -0.01343,   0.00100,  -0.03380,  -0.00622,  -0.00197,  -0.00452,   0.00694,  -0.00961,   0.01967,  -0.01513,   0.01585,   0.00270,  -0.02701,   0.00312,   0.01543,  -0.01089,   0.00312,   0.03749,   0.00694,   0.00779,   0.01755,   0.00270,   0.02434,  -0.00325,  -0.00112,  -0.00325,  -0.00834,  -0.02234,   0.01500,  -0.01937,  -0.02616,  -0.00961,  -0.02616,   0.01246,   0.00736,   0.00949,   0.02222,   0.00949,  -0.03550,  -0.01343,   0.01118,  -0.02616,  -0.00707,   0.01585,   0.00142,   0.00651,   0.01288,   0.02519,   0.00779,  -0.02871,  -0.01555,   0.02179,   0.00482,   0.00906,  -0.02659,  -0.00579,   0.01755,  -0.00622,  -0.00197,  -0.01980,  -0.00664,   0.00906,   0.00227,  -0.00537,  -0.01089,   0.02688,  -0.02956,   0.01288,  -0.00112,  -0.01980,  -0.02277,  -0.00834,   0.01373,  -0.00961,  -0.01852,   0.01161,   0.01712,  -0.01598,   0.02561,  -0.01301,  -0.01598,   0.00864,  -0.01513,  -0.00707,  -0.01640,   0.01628,  -0.00834,   0.01288,  -0.01343,  -0.01004,   0.01628,  -0.01852,  -0.01895,   0.01628,   0.04428,   0.00227,  -0.01810,   0.01288,  -0.00834,  -0.00537,   0.00397,   0.00524,   0.00142,  -0.01768,   0.00185,   0.00057,  -0.01301,   0.00779,   0.00864,   0.03113,  -0.01725,   0.01330,   0.00906,   0.00991,  -0.00707,  -0.00070,   0.00651,  -0.01683,   0.01712,  -0.01980,  -0.00325,  -0.01343,  -0.01555,  -0.00112,   0.00991,  -0.00070,   0.00100,  -0.00282,  -0.02404,   0.00949,  -0.01428,  -0.01683,   0.00142,   0.00354,  -0.01258,  -0.00367,  -0.00791,  -0.01173,   0.00057,  -0.00622,  -0.02744,  -0.01470,   0.01755,   0.02604,  -0.01470,   0.02094,  -0.00410,  -0.01980,  -0.00579,   0.00906,   0.00567,  -0.01470,   0.01373,   0.00651,  -0.00834,  -0.00028,   0.00694,   0.00779,  -0.00961,  -0.00707,  -0.00749,  -0.00537,  -0.00919,  -0.00240,   0.00185,  -0.00791,  -0.00155,  -0.00876,  -0.01555,  -0.01555,  -0.01173,   0.00864,  -0.03253,  -0.00622,   0.01882,   0.00312,   0.00057,   0.00482,  -0.00919,   0.00185,   0.01203,   0.00609,  -0.01386,   0.00991,   0.00439,  -0.01470,  -0.01852,   0.00779,   0.01330,  -0.03635,   0.00567,  -0.00240,   0.02179,  -0.01470,  -0.01598,  -0.00325,   0.00567,  -0.00282,  -0.00707,   0.00906,  -0.01131,  -0.00282,  -0.00664,   0.01670,  -0.01386,  -0.02531,   0.01246,   0.01628,   0.00439,   0.00567,  -0.01089,   0.00864,  -0.01852,  -0.01555,  -0.00579,   0.02179,  -0.01980,  -0.01470,   0.03495,  -0.01046,  -0.01089,   0.02222,  -0.00028,  -0.00791,  -0.00961,   0.01246,   0.00312,  -0.01810,  -0.00112,  -0.01046,  -0.01046,  -0.00070,  -0.00197,  -0.01725,  -0.01386,   0.01330,   0.00906,   0.00949,   0.01415,   0.00567,  -0.02404,   0.02731,  -0.01513,   0.00312,   0.01585,   0.01203,   0.00482,   0.04641,  -0.01768,   0.01543,  -0.01683,  -0.00112,   0.00779,   0.02094,   0.00567,   0.02561,  -0.01937,  -0.02149,   0.00057,  -0.00961,   0.00736,  -0.00452,   0.00270,   0.00821,  -0.00197,  -0.01004,   0.00482,   0.02052,   0.01670,   0.02943,  -0.02744,   0.00821,   0.02349,   0.00567,  -0.02234,   0.02604,   0.00567,  -0.00367,   0.01246,   0.00057,   0.00397,   0.01712,   0.00439,   0.02222,  -0.02192,  -0.02149,  -0.02489,  -0.00155,  -0.00240,   0.01882,  -0.00664,   0.00736,  -0.02234,   0.00227,   0.00821,   0.01161,  -0.00410,   0.02179,   0.00609,  -0.00410,   0.00397,   0.00651,   0.00185,  -0.00452,   0.00100,   0.01840,   0.01118,  -0.01386,   0.00270,   0.00439,   0.01415,  -0.02531,   0.01203,   0.00482,   0.01373,   0.02816,   0.02604,  -0.01046,   0.00270,  -0.00537,   0.01373,  -0.00622,  -0.03932,  -0.00410,  -0.00494,  -0.00112,  -0.04314,  -0.01004,   0.00057,   0.00185,   0.02349,  -0.02701,  -0.00197,  -0.00537,   0.01033,   0.01161,   0.01161,   0.00949,   0.01882,   0.00354,   0.00270,   0.00227,   0.01246,   0.01330,  -0.00155,  -0.00707,  -0.04314,   0.00057,   0.00185,  -0.00579,   0.00864,  -0.05035,  -0.00537,   0.02561,   0.00609,   0.03070,   0.01033,  -0.00240,  -0.01343,   0.01500,  -0.00579,   0.01755,  -0.01343,   0.00397,   0.00779,  -0.04950,   0.01161,   0.01585,   0.01925,  -0.02362,   0.00736,   0.00609,  -0.01810,  -0.00961,   0.02264,  -0.02277,   0.01840,  -0.00112,   0.00354,  -0.00325,   0.02264,   0.02137,  -0.01980,   0.00736,   0.00609,  -0.00664,  -0.00367,   0.03070,   0.01543,   0.01033,   0.00142,   0.00142,  -0.01513,  -0.00749,  -0.00325,  -0.00367,  -0.01046,  -0.00028,  -0.01216,  -0.01640,  -0.00707,  -0.00367,   0.00142,   0.01288,  -0.02065,  -0.01343,  -0.02447,  -0.00325,  -0.01428,  -0.02362,   0.01118,   0.03198,   0.01585,  -0.00707,   0.04089,  -0.00410,   0.00057,   0.03410,  -0.00240,  -0.00410,   0.00779,  -0.02234,  -0.00240,  -0.01258,  -0.01598,   0.00142,  -0.03932,   0.00991,   0.00100,   0.00354,  -0.03847,  -0.01004,   0.01161,   0.02434,   0.01203,   0.00694,   0.00524,  -0.00155,  -0.00325,  -0.00707,   0.00991,  -0.02234,  -0.02319,   0.00142,  -0.00112,   0.02688,   0.00015,   0.00991,   0.01076,   0.02391,  -0.01343,  -0.01683,  -0.00707,   0.02009,   0.00736,   0.02052,  -0.00961,  -0.00410,   0.00821,  -0.00325,  -0.01513,   0.00227,   0.02094,   0.01330,   0.00227,  -0.01980,   0.00270,   0.00354,  -0.00155,   0.00185,  -0.03635,  -0.02956,   0.01246,   0.00906,   0.00227,   0.00779,  -0.00197,   0.01840,   0.00312,   0.00821,   0.00100,   0.00821,  -0.00410,  -0.01004,  -0.00707,  -0.01258,   0.00015,  -0.00791,   0.00482,   0.00779,   0.02646,  -0.01937,   0.02773,   0.01288,  -0.01980,  -0.01428,  -0.00282,  -0.01937,  -0.01768,   0.02858,   0.00482,  -0.00579,  -0.00282,   0.00057,  -0.00664,   0.00270,   0.00142,  -0.01980,  -0.01725,   0.00015,   0.00906,   0.01076,   0.00524,  -0.01131,   0.00227,  -0.01046,  -0.01598,   0.01203,  -0.00240
