  -0.06845,   0.00931,   0.00740,  -0.00280,  -0.00981,   0.02015,  -0.00917,  -0.00917,  -0.01491,  -0.01619,  -0.05188,  -0.00917,   0.01568,   0.03927,   0.00485,  -0.00854,   0.01696,  -0.00535,   0.00804,   0.03863,   0.00676,   0.02907,  -0.02256,   0.00039,   0.00867,   0.00676,  -0.00726,  -0.03276,  -0.00854,  -0.04359,  -0.01682,  -0.01555,   0.03991,  -0.00344,   0.02015,  -0.01491,  -0.01427,  -0.03786,   0.04819,  -0.01810,   0.03672,   0.02333,  -0.01810,   0.03672,  -0.01937,   0.01568,  -0.02638,   0.01696,  -0.03085,  -0.03276,   0.02333,   0.00357,  -0.00408,   0.00549,  -0.03786,   0.00294,   0.02206,   0.01314,   0.03672,  -0.00280,   0.07624,   0.02971,   0.02270,   0.03991,   0.04309,   0.05520,   0.05648,  -0.00153,   0.00294,   0.01823,   0.01632,   0.00549,   0.02780,   0.01823,  -0.05443,   0.00549,  -0.00726,  -0.01746,  -0.01364,   0.00166,  -0.01236,   0.00485,  -0.01236,   0.01760,   0.02270,   0.01887,   0.00867,  -0.03085,  -0.04296,  -0.02383,  -0.01810,   0.01760,   0.02142,  -0.01874,   0.05712,  -0.06208,  -0.00662,  -0.00216,  -0.02320,  -0.02702,   0.04309,  -0.02893,   0.01186,  -0.01937,  -0.00917,  -0.01364,  -0.00153,  -0.00089,   0.02843,   0.00549,   0.02333,  -0.02383,   0.03289,   0.02588,   0.00102,  -0.00153,   0.03035,  -0.00025,  -0.01491,   0.00549,  -0.07164,   0.02333,   0.01568,   0.00804,   0.01632,  -0.00025,  -0.01682,   0.01568,  -0.02065,   0.02652,  -0.01810,   0.00166,  -0.03786,   0.00421,   0.04501,  -0.02065,  -0.04551,   0.00294,   0.05584,   0.01696,  -0.05124,   0.03736,  -0.01555,   0.00804,   0.00230,   0.03608,  -0.01300,  -0.01236,  -0.02001,  -0.02065,   0.05584,   0.02333,   0.00421,   0.02971,  -0.01045,   0.00867,   0.01823,   0.03226,  -0.00280,   0.02971,   0.01632,  -0.01236,  -0.01427,   0.02588,   0.01059,   0.00485,   0.00230,  -0.03276,  -0.00981,  -0.02766,  -0.02766,   0.00102,  -0.02320,  -0.02638,  -0.01810,  -0.01045,   0.04054,  -0.02192,   0.01122,  -0.02129,  -0.01555,   0.01951,   0.00485,  -0.04869,   0.00039,  -0.02511,  -0.02001,  -0.00153,  -0.07164,   0.05393,   0.01122,   0.00740,  -0.03531,   0.02397,  -0.00089,   0.04628,   0.00357,   0.02716,  -0.03148,  -0.04041,  -0.05316,  -0.01236,   0.01632,  -0.01172,  -0.04487,   0.00676,   0.01377,   0.01122,   0.02015,   0.04246,  -0.01364,   0.00867,  -0.00280,   0.02907,   0.00931,  -0.00153,   0.00357,   0.01887,  -0.00662,   0.04246,   0.02142,   0.00549,  -0.02638,   0.02142,  -0.00917,   0.03799,   0.01441,   0.03035,   0.00039,   0.03608,   0.00166,   0.00294,  -0.00981,   0.03608,   0.00804,  -0.03021,  -0.02320,  -0.00025,  -0.00025,   0.00931,   0.01951,   0.03417,   0.02843,  -0.01491,   0.00230,  -0.05443,  -0.04168,   0.00357,  -0.01300,  -0.01491,  -0.00471,  -0.00662,  -0.02192,   0.02716,   0.00676,  -0.03403,   0.02461,   0.02270,   0.04373,   0.03226,  -0.05889,  -0.03786,  -0.00025,  -0.00599,   0.00612,   0.02843,   0.04246,  -0.05634,   0.02525,   0.03736,   0.05712,  -0.01045,  -0.03085,  -0.02320,  -0.03531,   0.04309,   0.01505,   0.02206,   0.01760,   0.00549,  -0.04232,  -0.02447,   0.00549,   0.00485,  -0.01109,   0.00612,  -0.00662,  -0.01937,   0.01823,   0.02971,   0.00549,   0.01823,   0.01441,  -0.00917,  -0.02256,   0.01314,  -0.03276,   0.01951,   0.03672,   0.06158,   0.00230,   0.02588,  -0.03850,   0.01377,  -0.01874,   0.00294,  -0.02320,   0.00421,  -0.00981,  -0.00089,  -0.05124,   0.00102,  -0.00535,   0.03927,  -0.00917,  -0.01810,   0.00804,  -0.01364,   0.01696,   0.01568,   0.02270,   0.01568,  -0.00790,  -0.04869,   0.00612,   0.03226,  -0.00089,  -0.03403,   0.02907,   0.02907,   0.00039,   0.01568,  -0.02383,   0.03035,  -0.00025,   0.02971,  -0.03340,  -0.02447,   0.01568,  -0.01555,  -0.00280,   0.00995,   0.00931,   0.02716,   0.00039,   0.00102,  -0.02065,  -0.00599,  -0.01045,  -0.01109,  -0.01427,  -0.01555,  -0.05698,   0.01186,   0.01250,   0.01505,  -0.02638,  -0.01172,  -0.04232,   0.00804,   0.01505,  -0.00344,   0.00995,   0.03991,   0.00612,  -0.00408,   0.02015,  -0.00790,  -0.01236,  -0.02383,   0.02461,  -0.02702,   0.04182,  -0.01109,   0.01250,   0.02270,  -0.01555,   0.00166,   0.02716,   0.00867,  -0.01746,   0.03098,  -0.02001,   0.00039
  -0.01300,  -0.03467,  -0.04105,  -0.02256,  -0.01236,   0.00676,   0.01568,  -0.02638,   0.03353,   0.00804,   0.00166,   0.04309,  -0.00216,  -0.02129,   0.03544,  -0.00599,  -0.03595,   0.02907,  -0.01619,  -0.00917,   0.03672,   0.03035,   0.00039,   0.00549,   0.01696,   0.01760,   0.02907,  -0.03212,   0.00230,   0.01059,   0.03226,   0.04756,  -0.00535,  -0.00408,   0.03226,   0.02971,   0.00294,   0.01568,   0.00421,   0.00039,  -0.01746,   0.02333,   0.04309,  -0.01682,  -0.02192,   0.03162,  -0.00216,  -0.01427,   0.01823,   0.02206,   0.00421,  -0.04614,   0.02078,   0.00867,  -0.01746,   0.05202,   0.02716,   0.01377,  -0.00280,   0.01250,   0.01377,   0.03226,  -0.01810,   0.00995,  -0.02575,  -0.02575,   0.02780,   0.00740,  -0.01619,  -0.00981,  -0.01682,   0.00931,  -0.04168,  -0.00216,  -0.00599,   0.00102,  -0.00471,   0.00039,   0.00612,   0.01696,   0.02461,   0.00549,  -0.01427,  -0.01427,  -0.00471,  -0.01810,   0.02270,   0.00931,  -0.03658,  -0.00471,   0.02843,  -0.02192,   0.00676,  -0.00216,  -0.01491,   0.00995,  -0.02192,   0.03927,  -0.02830,  -0.03340,   0.04564,   0.02015,  -0.02192,  -0.03531,  -0.04869,  -0.02129,  -0.02702,   0.01377,   0.02971,  -0.01427,  -0.01045,   0.01823,  -0.01109,   0.00485,  -0.00471,   0.01696,   0.01186,  -0.00917,  -0.00854,   0.00867,  -0.00599,  -0.01427,   0.00867,  -0.00726,  -0.02129,  -0.03085,  -0.03085,   0.04054,  -0.01555,  -0.01172,  -0.01682,  -0.03913,   0.03863,  -0.00344,   0.00995,  -0.02511,   0.00166,   0.01632,   0.01632,  -0.00599,   0.00102,  -0.00726,   0.01059,  -0.01300,  -0.01619,  -0.00599,  -0.01746,  -0.04487,  -0.01491,  -0.05953,  -0.00854,   0.01696,  -0.04296,   0.05903,  -0.02575,   0.01059,   0.02652,  -0.00790,   0.01314,  -0.06017,  -0.00854,   0.01951,  -0.00280,   0.02843,   0.01505,   0.03162,   0.00485,  -0.02320,   0.00102,  -0.03212,  -0.02702,   0.05265,  -0.00917,   0.00294,   0.00612,   0.00549,   0.00039,   0.00294,  -0.02511,  -0.03212,   0.02397,  -0.02383,   0.01887,  -0.01300,  -0.00726,  -0.02511,  -0.01619,  -0.02383,  -0.04806,   0.00549,  -0.02638,   0.01441,  -0.02383,  -0.01045,  -0.00153,   0.00485,  -0.00981,   0.00612,  -0.02065,  -0.02638,   0.02142,  -0.00917,   0.00740,   0.03353,  -0.04105,   0.01696,  -0.00089,  -0.00471,  -0.00854,   0.01122,  -0.02575,  -0.03722,  -0.04359,   0.01122,  -0.02575,   0.02907,   0.01823,   0.02525,   0.02078,  -0.03531,   0.04692,  -0.01045,   0.03927,   0.01377,  -0.01172,  -0.02001,  -0.02320,   0.02078,   0.00931,  -0.00408,  -0.00344,  -0.02702,  -0.02511,   0.00549,  -0.03021,   0.02015,  -0.02192,   0.00357,  -0.02893,   0.00039,  -0.01682,  -0.03977,   0.02652,  -0.04105,  -0.00535,   0.03289,  -0.02129,   0.05138,   0.01122,  -0.02511,   0.00294,  -0.03913,  -0.01045,   0.02142,   0.01250,   0.02780,   0.00740,   0.00995,  -0.00726,  -0.00216,   0.01951,   0.02078,  -0.02830,  -0.01937,  -0.00726,   0.03353,   0.03035,  -0.01364,  -0.02065,   0.04501,  -0.00025,  -0.02830,  -0.00089,  -0.05507,  -0.00854,  -0.01491,   0.00612,  -0.03021,   0.01696,   0.00995,  -0.02256,  -0.00471,   0.00039,   0.02206,  -0.01746,  -0.04296,  -0.03085,  -0.02065,  -0.04551,   0.01823,  -0.00726,   0.00740,  -0.03085,   0.00612,   0.00102,   0.00357,  -0.04423,   0.00485,  -0.02256,  -0.06017,   0.00230,  -0.04296,  -0.02129,  -0.02893,  -0.00408,  -0.03722,   0.02971,  -0.02065,  -0.03531,   0.02716,   0.01186,  -0.02256,   0.02652,  -0.04296,   0.03799,  -0.00471,  -0.00599,   0.00931,  -0.03531,  -0.03786,  -0.03977,  -0.01619,  -0.01045,  -0.00854,  -0.03403,  -0.01364,   0.02270,   0.01250,   0.02588,   0.01696,   0.01441,  -0.04933,   0.01632,   0.00421,   0.00230,   0.00804,  -0.02320,   0.00421,   0.00676,   0.00166,  -0.01874,  -0.00153,  -0.02830,  -0.01172,   0.01505,   0.00294,   0.05329,  -0.00854,   0.01696,   0.04501,   0.00612,   0.01760,   0.00931,  -0.03403,   0.00676,  -0.03531,  -0.01937,  -0.02129,  -0.01045,   0.01186,   0.01760,   0.02716,  -0.03212,  -0.02256,   0.02015,   0.04501,  -0.01746,  -0.00535,  -0.01491,  -0.00089,   0.02015,   0.02270,  -0.01746,  -0.01810,   0.02333,  -0.05443,  -0.00535,  -0.01172,   0.01314,   0.01696,  -0.01364,  -0.00025,   0.00102,  -0.00216
  -0.03085,  -0.00854,  -0.02511,   0.02971,  -0.02001,  -0.02702,  -0.00535,   0.02270,   0.04756,   0.00740,   0.02971,  -0.04614,   0.02078,   0.03544,  -0.01619,  -0.01682,  -0.02766,  -0.01555,   0.00931,  -0.00471,   0.00612,  -0.00790,  -0.00280,   0.00740,  -0.01746,   0.02971,  -0.00153,  -0.04041,   0.01441,  -0.00535,  -0.02511,   0.00740,  -0.03021,   0.01441,  -0.00981,   0.00804,   0.01441,  -0.01682,  -0.00216,   0.00294,  -0.05316,   0.02780,   0.00549,   0.00294,  -0.01682,   0.02333,  -0.00981,  -0.01045,  -0.01427,   0.04246,   0.04947,  -0.01619,   0.02270,  -0.02766,   0.00166,   0.03672,   0.03098,  -0.00726,   0.02588,   0.01951,   0.02971,   0.00804,  -0.03085,  -0.00854,  -0.00854,   0.02015,  -0.00790,   0.02078,  -0.01236,  -0.00599,  -0.04359,   0.00357,  -0.00089,   0.01250,  -0.01874,  -0.01364,   0.02078,  -0.01619,  -0.02001,  -0.02001,  -0.01172,   0.01314,  -0.00089,   0.03353,  -0.02766,   0.03035,   0.02461,   0.04054,  -0.02320,   0.04309,  -0.02893,  -0.02447,   0.04246,  -0.02065,  -0.04742,   0.03544,  -0.04806,   0.00421,  -0.01874,  -0.00726,   0.00294,  -0.06909,  -0.00408,  -0.01491,   0.01632,   0.03481,  -0.00216,   0.05903,   0.04692,  -0.01236,  -0.01172,  -0.00535,  -0.03658,   0.00549,  -0.02192,   0.02333,  -0.02065,   0.00485,  -0.03658,  -0.01109,   0.02525,   0.01505,   0.01760,   0.00867,  -0.01300,   0.00357,  -0.01810,   0.00804,  -0.00790,  -0.01172,   0.01122,  -0.04933,   0.00166,   0.04437,   0.00166,   0.00357,  -0.01746,   0.00357,   0.05584,  -0.02383,  -0.04487,   0.00931,  -0.00471,   0.01505,   0.00676,  -0.00662,  -0.01555,  -0.02638,  -0.00216,   0.00421,   0.00549,  -0.00535,   0.05329,  -0.01810,   0.01186,   0.01696,  -0.02192,  -0.02766,   0.00039,   0.00421,  -0.01172,  -0.00025,  -0.01491,   0.01186,   0.00230,  -0.01491,  -0.02766,  -0.01427,   0.04373,  -0.01045,  -0.01937,  -0.01172,   0.03991,  -0.02702,   0.00740,   0.01122,   0.04564,  -0.02320,   0.02461,   0.01441,  -0.02638,   0.03162,  -0.01300,  -0.00471,   0.02461,  -0.02320,  -0.00089,  -0.00089,   0.00676,   0.00485,   0.00102,  -0.00854,  -0.00280,  -0.01364,  -0.03658,  -0.01364,  -0.04806,  -0.01619,  -0.04105,  -0.03913,  -0.02383,   0.01951,  -0.00344,   0.05520,  -0.01427,  -0.00153,   0.02780,   0.03544,   0.03863,  -0.04487,  -0.03467,   0.02078,  -0.00280,  -0.03403,   0.01059,   0.01696,   0.04373,   0.02333,  -0.02447,   0.01250,  -0.01619,  -0.01427,   0.00549,   0.01632,   0.01696,   0.01250,   0.02843,   0.03927,   0.00485,  -0.01937,  -0.03403,  -0.00471,   0.02652,  -0.03403,  -0.00089,  -0.01236,   0.06668,   0.01441,   0.01186,   0.01314,   0.02206,  -0.00471,   0.02588,  -0.02893,  -0.02129,   0.02142,   0.02907,   0.00804,  -0.01045,   0.02078,   0.00804,  -0.04232,   0.00039,  -0.00089,  -0.01045,   0.02397,  -0.02065,   0.01568,   0.03417,  -0.04296,   0.03162,   0.03481,   0.02843,  -0.01236,  -0.03276,  -0.03148,  -0.03913,   0.00740,  -0.00790,   0.00995,   0.00039,   0.02270,  -0.05188,  -0.00662,   0.02015,  -0.03595,  -0.01555,  -0.00854,   0.01505,   0.04054,  -0.01810,   0.05329,   0.00676,  -0.00153,   0.00230,   0.01059,   0.03863,   0.02461,  -0.03913,   0.00485,  -0.02065,  -0.01364,  -0.02638,  -0.01172,  -0.01427,   0.00612,   0.00230,   0.00166,   0.00485,   0.00485,   0.00995,   0.00612,  -0.03085,   0.00166,   0.00039,   0.01505,   0.01887,   0.03035,   0.04118,   0.00867,   0.03799,  -0.03212,  -0.04551,  -0.01364,   0.03672,   0.04501,   0.00166,   0.00102,   0.01823,  -0.02638,   0.03417,   0.00549,   0.00357,   0.01632,  -0.04296,   0.00421,  -0.01300,  -0.03850,   0.01568,  -0.04806,   0.00039,   0.02142,  -0.04869,  -0.02256,   0.00804,  -0.00216,   0.01314,  -0.00280,   0.03289,  -0.01874,   0.00294,  -0.01810,  -0.00599,  -0.00854,   0.00804,   0.01760,   0.01186,   0.00357,  -0.00089,  -0.01937,   0.00867,   0.02843,  -0.00662,   0.00421,  -0.01810,   0.00740,  -0.00535,  -0.00153,  -0.01109,  -0.00854,  -0.00599,   0.01314,   0.01632,  -0.00471,  -0.01491,   0.02078,  -0.00854,  -0.01172,  -0.00662,  -0.01172,  -0.01682,   0.02461,  -0.00726,   0.00102,  -0.00089,  -0.00025,  -0.01874,   0.04246,  -0.00535,  -0.01364,  -0.03531,  -0.05762,   0.03289,   0.01122
  -0.01491,   0.00931,   0.00804,   0.00166,  -0.02766,   0.01059,  -0.02383,  -0.04041,  -0.02830,   0.02461,  -0.01236,   0.08453,  -0.00408,  -0.00726,  -0.03276,   0.01632,   0.03608,  -0.00025,   0.01632,   0.02716,  -0.00408,   0.01632,  -0.01619,  -0.00280,   0.00294,  -0.00662,  -0.04359,   0.01823,  -0.00153,   0.03098,  -0.01555,  -0.00153,   0.01250,   0.01059,  -0.03977,  -0.00726,  -0.03148,   0.00995,  -0.04742,   0.02270,  -0.04742,   0.02206,  -0.00790,  -0.00344,   0.02525,  -0.03212,   0.00485,  -0.02830,   0.00867,   0.04947,   0.01887,  -0.02320,   0.05520,   0.00357,  -0.03340,   0.04564,  -0.02957,   0.01377,  -0.00854,  -0.02129,   0.00549,   0.00294,  -0.02192,  -0.00662,   0.05202,  -0.02447,   0.02843,   0.00166,  -0.00344,   0.05584,  -0.03467,  -0.05316,  -0.02383,   0.00421,   0.03991,  -0.01682,  -0.03913,  -0.01682,  -0.04678,  -0.02766,  -0.00726,  -0.04487,   0.01823,   0.00740,   0.01887,  -0.00599,  -0.05443,  -0.04997,   0.03353,  -0.01045,   0.02716,  -0.03340,   0.00740,  -0.00790,  -0.00981,   0.01441,   0.02780,  -0.00981,   0.05457,   0.01186,   0.01760,  -0.00025,   0.01951,   0.04692,  -0.02447,  -0.01555,   0.03544,   0.00676,  -0.01555,   0.01059,  -0.00089,  -0.02383,   0.00931,  -0.01555,   0.04309,  -0.03595,  -0.00854,  -0.01109,   0.04054,   0.01887,   0.00294,  -0.01427,   0.00549,  -0.00599,   0.03353,  -0.05316,  -0.01491,  -0.00153,   0.03481,  -0.01300,   0.00549,  -0.03021,  -0.01300,  -0.01746,  -0.01682,  -0.01874,  -0.05316,   0.03417,  -0.00408,  -0.01491,   0.00995,   0.02333,  -0.02256,   0.02142,  -0.01172,   0.00931,  -0.02129,  -0.01172,   0.00676,   0.04947,   0.00039,  -0.03212,   0.01122,   0.00294,  -0.01427,  -0.01682,   0.02525,  -0.03531,   0.01377,  -0.00408,  -0.03085,   0.03226,  -0.04232,   0.01696,   0.03544,   0.00931,  -0.01364,  -0.04105,  -0.03085,  -0.02001,  -0.03276,  -0.01810,  -0.00471,   0.01696,  -0.02129,   0.00995,   0.01760,   0.00549,   0.05903,   0.02333,   0.01314,  -0.03531,  -0.00917,  -0.03276,   0.03417,   0.03226,   0.00421,  -0.00917,  -0.00471,  -0.01682,   0.03035,  -0.00790,  -0.00917,   0.00931,  -0.01746,   0.02716,   0.03417,  -0.01172,   0.00995,  -0.02766,  -0.00216,   0.00804,   0.00421,  -0.00153,  -0.01300,   0.02142,   0.02015,   0.02907,  -0.03021,   0.00740,  -0.01300,  -0.01045,   0.00867,  -0.01236,   0.01377,   0.00102,  -0.02001,  -0.04423,  -0.03786,  -0.00854,   0.01760,  -0.01491,   0.00995,   0.02142,  -0.04423,  -0.01427,   0.01122,   0.00676,  -0.04105,  -0.02129,  -0.04168,   0.03098,  -0.00408,   0.03863,   0.01186,   0.01951,  -0.01746,  -0.00662,   0.00102,  -0.02702,  -0.02702,  -0.03085,   0.03226,   0.02206,  -0.00408,   0.03736,  -0.00153,  -0.03148,  -0.00599,   0.00357,  -0.03531,  -0.02129,   0.02333,   0.01568,  -0.03913,   0.04309,  -0.00280,   0.02270,  -0.02383,   0.02015,  -0.00471,   0.04309,  -0.01109,   0.00102,   0.02907,   0.00230,  -0.03977,  -0.02129,  -0.03148,   0.02907,   0.06668,   0.00039,  -0.01682,  -0.03276,   0.04883,  -0.00854,  -0.00599,   0.01887,   0.00039,   0.00421,  -0.03977,   0.02142,  -0.01236,  -0.01810,  -0.00280,   0.01505,   0.01377,   0.00931,   0.00995,   0.03481,   0.00039,   0.00039,  -0.00535,   0.02142,  -0.02766,  -0.01364,  -0.01937,   0.00102,   0.01377,  -0.01427,   0.01887,   0.02142,  -0.03085,   0.00867,  -0.00662,   0.00931,   0.01887,   0.00931,   0.01951,  -0.00025,   0.00102,  -0.01619,  -0.00089,   0.03353,  -0.02001,   0.00612,   0.03289,  -0.04487,  -0.04041,   0.02525,   0.00421,   0.00102,  -0.00471,   0.00867,  -0.01810,  -0.01236,  -0.04933,  -0.02001,  -0.02702,  -0.01555,  -0.00726,   0.03927,  -0.02065,   0.02206,   0.02015,  -0.02001,  -0.00726,  -0.01172,   0.00740,   0.03417,   0.01441,  -0.01172,   0.00166,   0.01059,  -0.04168,  -0.02893,  -0.00153,  -0.00854,  -0.00726,  -0.02001,  -0.00280,  -0.00917,   0.01059,  -0.03913,   0.01823,   0.01314,  -0.02575,   0.01122,  -0.00854,   0.04819,   0.00357,  -0.00089,  -0.02447,   0.00230,   0.00931,  -0.03913,  -0.00471,   0.00166,   0.00485,   0.04692,   0.00421,   0.02015,  -0.02001,   0.00740,   0.00102,   0.03991,  -0.02065,  -0.00089,   0.01186,  -0.00153,  -0.02129,   0.03799,   0.00421,  -0.00280
   0.02780,  -0.06590,  -0.03085,  -0.02766,  -0.00981,   0.01823,  -0.03722,  -0.01874,   0.01377,  -0.01300,   0.00039,   0.03226,   0.02397,   0.03417,   0.02716,  -0.01746,  -0.00790,  -0.04168,   0.02015,  -0.00153,  -0.02001,   0.03672,  -0.02893,  -0.01810,   0.03353,   0.03035,  -0.03531,   0.00931,   0.03353,   0.00230,   0.00612,  -0.02129,  -0.04742,  -0.00790,   0.04054,   0.03353,   0.01696,   0.00931,   0.01377,  -0.02830,   0.05265,   0.00230,  -0.01109,  -0.04423,  -0.03212,   0.00039,   0.03226,  -0.01810,  -0.00726,  -0.02575,  -0.02957,  -0.00726,  -0.01236,  -0.02893,   0.01059,  -0.04997,   0.01377,  -0.00216,   0.00230,   0.03608,  -0.01427,   0.00039,  -0.05507,   0.00039,   0.02206,   0.00485,  -0.00726,   0.01696,  -0.00153,   0.01122,   0.03226,  -0.00153,   0.02525,   0.01122,   0.02078,  -0.02129,  -0.00025,   0.00931,   0.02078,   0.00421,  -0.00153,  -0.01874,  -0.01810,   0.06349,  -0.01364,   0.01632,  -0.01874,   0.00357,  -0.02383,   0.01122,   0.04819,   0.00612,  -0.00153,   0.03672,   0.04756,  -0.03021,  -0.00471,  -0.01937,  -0.02192,   0.01568,  -0.00280,   0.03736,   0.00357,  -0.00025,   0.02971,  -0.03212,  -0.05316,  -0.02702,  -0.01491,   0.02333,  -0.03212,  -0.00599,  -0.01682,   0.03672,  -0.04296,  -0.04168,  -0.01682,  -0.02320,  -0.02893,  -0.02192,   0.02780,  -0.03467,  -0.00025,   0.00230,  -0.01937,  -0.00981,   0.01823,   0.05202,  -0.01619,   0.00485,   0.01632,   0.03035,  -0.03085,   0.02588,  -0.01555,  -0.01109,   0.00485,   0.02270,  -0.01810,  -0.00280,  -0.03658,  -0.02129,  -0.00535,  -0.00025,   0.01059,   0.00804,   0.00549,   0.03608,   0.01441,  -0.01109,  -0.02957,   0.02843,  -0.01109,  -0.00471,   0.01059,   0.01377,   0.02525,  -0.02511,   0.00676,  -0.00280,  -0.03148,  -0.02830,  -0.01427,   0.00357,   0.00740,   0.00357,  -0.01236,  -0.02256,  -0.00408,  -0.02192,   0.02015,  -0.01300,  -0.00599,   0.01059,  -0.01874,   0.04182,  -0.02129,  -0.03977,   0.01696,  -0.01045,   0.02078,  -0.01236,  -0.03403,  -0.00790,  -0.02320,  -0.02830,   0.00740,  -0.00535,   0.00357,   0.01250,  -0.01491,  -0.01555,  -0.00726,   0.01887,   0.03353,   0.00931,  -0.04933,   0.00485,  -0.00025,   0.02015,   0.00485,  -0.04487,  -0.04105,  -0.03340,   0.00357,  -0.07228,  -0.00535,  -0.01045,  -0.01491,  -0.01491,   0.00294,   0.01314,   0.00294,  -0.00216,   0.02333,   0.01823,   0.04819,  -0.01619,   0.01441,  -0.00726,   0.03162,  -0.00216,  -0.00662,  -0.02830,  -0.02001,   0.04246,   0.00740,   0.01059,   0.01441,  -0.04806,  -0.03977,   0.00357,   0.02461,   0.05520,  -0.02957,  -0.02065,  -0.00726,   0.00421,   0.03035,   0.01696,   0.02971,  -0.00726,   0.02270,  -0.00726,  -0.01555,  -0.02638,   0.01887,  -0.00216,   0.00676,   0.01186,  -0.01682,   0.01441,   0.02015,   0.02843,   0.03481,  -0.04359,   0.00549,   0.02270,   0.00357,   0.04054,  -0.01236,  -0.02065,   0.00549,  -0.01619,   0.00294,  -0.03722,  -0.00344,   0.00676,   0.00166,   0.01122,  -0.00790,   0.00230,   0.02461,  -0.01236,   0.02333,  -0.00535,  -0.01172,  -0.02830,  -0.04551,  -0.01045,  -0.00917,   0.00039,   0.02971,   0.00357,  -0.02893,  -0.02065,  -0.00535,  -0.00599,  -0.03021,  -0.01810,  -0.01810,  -0.00726,  -0.00344,   0.01059,   0.04437,   0.00421,   0.03608,   0.00357,  -0.00408,   0.05520,   0.06795,   0.00804,  -0.03340,   0.01505,  -0.02511,  -0.01810,   0.03035,  -0.00280,   0.00230,   0.01951,   0.00166,   0.03098,   0.02206,  -0.02766,   0.01314,  -0.00726,  -0.02192,  -0.00216,   0.02078,   0.01122,   0.03417,  -0.01300,   0.00676,  -0.03403,   0.00230,   0.01441,   0.00931,  -0.00408,   0.00485,  -0.01874,  -0.03148,  -0.00535,  -0.01236,  -0.00471,   0.00931,   0.03863,  -0.03403,  -0.00599,  -0.00599,  -0.01364,   0.02461,  -0.03276,  -0.03467,  -0.02129,  -0.03658,   0.02142,  -0.02447,  -0.01109,   0.02907,   0.00676,   0.01122,  -0.01619,  -0.00662,   0.02270,   0.01250,  -0.00726,  -0.04423,  -0.00981,  -0.01364,   0.00804,  -0.04296,  -0.00025,  -0.03467,  -0.00790,   0.02206,   0.03289,   0.02270,   0.01568,  -0.02766,   0.01377,  -0.00535,   0.05265,  -0.06208,   0.05903,   0.00102,  -0.01491,  -0.00535,  -0.02001,  -0.00662,  -0.00025,   0.01186,   0.01632,   0.00867,   0.00931
   0.01441,   0.00294,   0.02843,  -0.01300,   0.01951,  -0.04614,   0.00102,   0.00485,   0.02461,  -0.01746,   0.00102,  -0.03276,  -0.03403,  -0.07228,  -0.00025,  -0.01937,   0.06859,   0.01441,   0.03226,  -0.02320,   0.00931,   0.00357,  -0.00535,  -0.02129,  -0.03722,   0.00294,   0.00357,   0.00421,   0.01059,   0.00740,   0.00867,   0.02142,   0.01696,  -0.01172,  -0.02575,   0.01059,  -0.03595,   0.00485,  -0.00089,   0.02270,   0.01122,  -0.00344,  -0.02575,  -0.04806,   0.03927,   0.01951,  -0.03595,  -0.04296,  -0.00408,  -0.01364,  -0.01810,  -0.02957,   0.03799,   0.02078,  -0.00344,   0.01632,  -0.02893,   0.05839,   0.00867,   0.03353,  -0.01491,  -0.00726,  -0.00790,  -0.01555,  -0.00790,   0.02461,   0.02270,   0.02461,   0.00995,   0.00166,   0.02461,   0.01951,  -0.03021,  -0.00216,   0.05967,  -0.01300,   0.01823,   0.02333,  -0.00153,   0.04246,  -0.01109,   0.02206,   0.02397,  -0.03913,   0.01696,   0.01377,   0.02588,  -0.01300,   0.02780,   0.00230,  -0.00025,  -0.01427,   0.01505,   0.01887,  -0.03340,   0.01186,   0.01951,   0.01441,  -0.00344,   0.03098,   0.01122,  -0.00854,   0.00357,  -0.02511,   0.00867,  -0.00535,  -0.02256,   0.01441,   0.00166,  -0.00408,  -0.02702,  -0.02638,   0.02780,   0.04628,  -0.00344,  -0.01300,  -0.01491,   0.04054,  -0.00662,   0.02843,  -0.01172,  -0.02256,   0.01823,  -0.02192,   0.03672,   0.03736,   0.02078,   0.00867,  -0.02766,  -0.00025,   0.01951,  -0.05634,   0.00995,   0.02907,  -0.01491,  -0.01300,   0.02588,   0.01887,  -0.00216,  -0.01810,   0.02525,  -0.06272,  -0.01491,   0.01951,   0.01951,   0.01951,  -0.02575,  -0.00535,  -0.00854,   0.04883,  -0.00790,  -0.01619,  -0.00408,   0.00867,  -0.00025,  -0.01172,  -0.02511,  -0.00599,   0.02525,  -0.00153,   0.00357,   0.03481,  -0.00089,  -0.01427,  -0.00153,   0.01314,   0.05074,   0.00294,   0.00102,  -0.03276,   0.00676,   0.02843,  -0.02001,  -0.02575,   0.02525,  -0.00599,  -0.00790,   0.00612,  -0.00216,  -0.01682,  -0.01300,   0.01887,   0.02015,  -0.01427,  -0.01555,  -0.01300,  -0.01300,   0.01568,   0.01250,   0.01059,  -0.00153,  -0.02830,  -0.01236,  -0.00471,   0.01059,  -0.03595,   0.00549,   0.06285,  -0.02383,   0.02142,   0.01186,  -0.02001,  -0.02192,   0.02270,   0.00549,   0.01186,   0.02142,   0.04437,   0.02333,   0.01951,   0.01696,   0.01887,  -0.00280,  -0.02766,  -0.01172,   0.02206,   0.05584,  -0.01810,   0.02206,   0.02971,   0.03736,   0.03544,   0.04054,   0.00676,   0.00102,  -0.00981,  -0.00089,  -0.01236,   0.01377,  -0.00662,  -0.00981,  -0.03148,   0.04756,   0.00294,  -0.00153,  -0.00662,   0.05265,   0.00166,   0.00612,  -0.01555,  -0.00599,   0.03863,  -0.01619,  -0.01364,   0.03226,   0.00676,  -0.02511,  -0.02638,  -0.02893,  -0.03722,  -0.02766,   0.04756,   0.01122,   0.04118,   0.01505,   0.04819,  -0.00854,   0.00931,  -0.01874,   0.02142,   0.01059,   0.00931,  -0.02192,  -0.03658,   0.01122,   0.00549,  -0.00726,   0.00676,  -0.03977,   0.01760,   0.00931,   0.01377,   0.00740,   0.01760,  -0.02129,  -0.01874,   0.03162,  -0.00790,   0.00931,   0.00294,  -0.01746,  -0.00981,  -0.00216,   0.01441,  -0.00790,   0.00995,   0.04309,   0.00230,  -0.00153,  -0.03658,  -0.00662,  -0.02065,  -0.00790,  -0.00344,  -0.00471,  -0.01045,  -0.01364,  -0.02447,  -0.01109,   0.00102,   0.01887,   0.00867,   0.00421,   0.02270,  -0.02383,  -0.01491,   0.02780,   0.00676,   0.01568,  -0.00917,  -0.00917,  -0.01810,   0.02780,  -0.01874,   0.02461,   0.03035,   0.02270,  -0.03977,   0.01441,  -0.00280,  -0.00153,   0.02780,   0.02525,   0.03608,   0.01314,  -0.00726,  -0.00599,  -0.00089,  -0.03722,   0.02907,   0.01122,  -0.01619,  -0.00662,   0.00867,  -0.02129,  -0.02702,   0.03863,   0.03098,  -0.04423,   0.00995,  -0.00535,  -0.03021,   0.00740,  -0.00726,   0.01505,  -0.01619,   0.03035,   0.00549,  -0.04041,   0.02015,   0.01760,   0.00931,   0.00039,  -0.03531,   0.03799,  -0.02830,   0.00102,   0.01314,  -0.01427,  -0.00471,   0.03544,   0.02780,  -0.01682,  -0.01364,  -0.03531,  -0.01555,   0.00612,  -0.03276,  -0.01109,  -0.04997,   0.03672,  -0.02192,  -0.06017,   0.00485,  -0.00344,   0.02588,   0.00676,   0.01059,  -0.01810,  -0.00089,  -0.01810,   0.04437,  -0.00981,   0.00230
   0.03035,   0.00166,  -0.00662,  -0.01364,  -0.00790,  -0.00216,  -0.01236,   0.02142,   0.01696,  -0.00662,   0.03035,  -0.00344,  -0.00089,  -0.02766,   0.01823,   0.01505,   0.02971,  -0.01746,  -0.00471,   0.03353,   0.03863,  -0.01364,  -0.01555,   0.03481,   0.00485,   0.01505,   0.00039,  -0.02383,   0.01505,   0.00421,   0.03226,   0.02780,   0.00357,  -0.00917,  -0.00408,   0.02716,  -0.02893,   0.01059,   0.02270,  -0.02320,   0.00676,  -0.01874,  -0.01874,   0.00421,  -0.00790,  -0.00216,   0.01760,   0.01887,  -0.01109,  -0.00981,  -0.01491,  -0.01810,  -0.01746,   0.00549,  -0.01364,  -0.05188,  -0.01746,   0.03481,   0.05648,  -0.00089,  -0.02638,   0.04819,  -0.00153,   0.01887,   0.01951,   0.00931,   0.01696,   0.01823,  -0.00280,  -0.01109,  -0.02638,   0.05010,   0.01186,   0.00421,  -0.01491,  -0.02320,  -0.01619,   0.03863,   0.01059,  -0.00917,  -0.02766,  -0.01364,  -0.02001,  -0.01172,   0.00995,   0.01441,   0.00740,  -0.03658,  -0.03786,   0.00230,   0.00612,   0.03481,  -0.03467,  -0.00917,  -0.01619,  -0.00344,   0.00039,   0.00612,   0.01441,  -0.00153,   0.01250,   0.01441,   0.03672,   0.01250,  -0.01937,  -0.03595,   0.01186,  -0.00599,   0.00102,   0.00357,  -0.00917,   0.00549,  -0.00854,  -0.02447,  -0.01937,   0.00102,   0.01887,  -0.01172,   0.02780,  -0.02830,  -0.01746,  -0.03722,  -0.02320,   0.00421,   0.03098,  -0.00471,  -0.00153,  -0.00854,   0.01887,  -0.00025,  -0.00153,  -0.00726,   0.01823,   0.00676,  -0.01364,  -0.01045,  -0.00981,  -0.03085,   0.02971,  -0.00280,   0.01186,   0.01250,  -0.02511,  -0.03722,  -0.00790,   0.02652,   0.03417,   0.02907,  -0.02065,  -0.04232,  -0.03658,  -0.05953,   0.04054,  -0.01746,  -0.03595,  -0.00662,   0.00230,   0.00294,   0.00676,   0.01632,  -0.00153,   0.02078,  -0.00790,  -0.02129,   0.00485,  -0.01874,  -0.00280,  -0.00280,  -0.03467,  -0.01236,  -0.02830,  -0.04359,  -0.00408,   0.03098,   0.02078,  -0.00280,  -0.00153,  -0.02001,   0.02588,   0.02843,   0.00867,  -0.00153,   0.05138,  -0.00471,  -0.03850,  -0.05379,   0.03736,  -0.01364,  -0.01746,   0.00102,  -0.05252,  -0.03148,  -0.03340,  -0.01682,   0.01377,  -0.00790,   0.01696,   0.01823,   0.00102,   0.01186,  -0.06017,  -0.02511,  -0.03658,   0.02333,  -0.02766,   0.00867,  -0.01810,   0.01696,   0.00230,  -0.02001,   0.01632,  -0.00344,   0.01505,  -0.01300,  -0.01427,   0.02397,   0.02142,  -0.00344,  -0.01810,  -0.00471,   0.00995,  -0.02192,  -0.00981,  -0.03722,  -0.01937,   0.00740,   0.02716,   0.01760,   0.00102,   0.02780,  -0.02129,   0.03481,  -0.00917,   0.00166,  -0.00153,   0.00230,  -0.03658,  -0.06845,  -0.00726,  -0.02702,   0.01186,   0.00612,  -0.02575,  -0.04168,  -0.00471,  -0.02702,  -0.00917,  -0.02383,  -0.00854,  -0.00981,  -0.04232,   0.02397,  -0.04997,   0.03417,   0.06285,  -0.02192,  -0.04359,  -0.01109,   0.02971,   0.00421,   0.07879,   0.02397,  -0.02511,  -0.04296,   0.04756,  -0.04678,  -0.00344,   0.04309,  -0.00025,   0.01632,   0.04246,  -0.01172,   0.04373,  -0.04869,   0.00931,  -0.01619,   0.03417,   0.00485,  -0.00726,  -0.02192,  -0.01682,  -0.00535,   0.01250,  -0.02383,   0.02206,   0.00931,  -0.01746,   0.02206,   0.00804,   0.00294,  -0.02129,  -0.00344,   0.00549,  -0.03722,   0.00102,  -0.00854,  -0.02001,   0.03162,  -0.03085,   0.03991,   0.01186,  -0.00280,  -0.00917,   0.00485,  -0.03531,   0.00357,   0.01505,  -0.02447,  -0.00917,  -0.00599,  -0.03595,  -0.00535,  -0.05252,   0.03353,   0.00421,  -0.01109,  -0.03977,   0.00804,  -0.01236,   0.00676,  -0.00726,  -0.01236,  -0.04933,   0.00039,   0.00995,  -0.00981,  -0.00025,   0.02015,  -0.03212,  -0.01427,   0.03672,   0.01632,   0.03863,  -0.02320,   0.00612,  -0.02511,  -0.01109,   0.01823,   0.02461,   0.00485,  -0.05316,  -0.01172,   0.00421,   0.04501,  -0.01364,   0.01823,   0.05839,   0.02078,  -0.00854,   0.02780,  -0.04614,  -0.00344,   0.01505,   0.00421,   0.02270,  -0.01045,  -0.03595,   0.02716,   0.01632,  -0.02830,  -0.03722,   0.03035,   0.04564,   0.01887,  -0.02320,  -0.00917,  -0.01300,  -0.02129,  -0.00216,  -0.02830,   0.01059,   0.02716,   0.06222,  -0.03786,  -0.00344,  -0.00599,  -0.00089,  -0.05507,  -0.01619,  -0.01109,  -0.00854,   0.00485,  -0.00153,  -0.04869
  -0.00599,  -0.04551,  -0.00599,   0.00357,  -0.02702,  -0.00726,  -0.01427,  -0.01619,  -0.04869,   0.03098,  -0.00599,   0.02397,   0.00995,   0.01314,   0.00931,   0.01505,   0.02843,   0.03289,   0.00549,  -0.01746,   0.02461,   0.01186,  -0.00599,   0.04501,   0.02142,   0.00485,   0.02078,  -0.02893,   0.03226,  -0.02511,   0.01059,   0.00166,  -0.00025,   0.05648,   0.01250,   0.04947,   0.03608,   0.03481,  -0.02957,   0.02907,   0.02142,  -0.00153,   0.00166,   0.03544,  -0.00662,  -0.01300,   0.01951,   0.01823,   0.02461,   0.03226,   0.00166,   0.01441,  -0.00790,  -0.01172,   0.04246,  -0.00025,  -0.03021,  -0.01236,  -0.04678,   0.00357,  -0.01810,   0.02142,   0.05903,   0.00740,  -0.02702,   0.00102,  -0.02766,   0.00740,   0.05329,   0.02206,  -0.01682,   0.00676,   0.00357,  -0.00153,   0.01823,  -0.02192,  -0.03850,  -0.00726,   0.00485,   0.01122,   0.00867,  -0.02383,   0.01059,   0.01887,  -0.02065,  -0.01491,   0.02716,   0.01059,  -0.01172,  -0.02256,   0.02270,  -0.00535,   0.03608,  -0.01236,   0.00230,  -0.02065,   0.01122,  -0.01109,   0.01314,  -0.01109,   0.00867,   0.00549,   0.01951,  -0.05061,   0.00039,  -0.00471,   0.01314,   0.03417,  -0.00280,  -0.02320,  -0.03850,  -0.05762,   0.02461,  -0.03786,   0.00166,   0.01250,  -0.03722,  -0.05316,   0.00485,  -0.00854,  -0.02575,   0.03863,   0.00485,  -0.04678,   0.01760,   0.02843,  -0.05698,   0.01122,   0.02525,  -0.04551,   0.01951,   0.01250,  -0.04933,   0.03162,   0.00421,   0.03289,  -0.00344,  -0.01109,   0.02397,  -0.00471,  -0.00216,   0.01377,  -0.02129,   0.02588,   0.00102,  -0.02830,   0.04118,   0.03672,   0.00230,   0.00230,   0.01568,   0.00549,   0.02206,   0.00804,   0.01760,   0.01059,   0.00357,   0.05329,  -0.00726,  -0.00917,  -0.01045,   0.01377,   0.01696,  -0.01427,  -0.00917,  -0.02511,  -0.01172,   0.00166,   0.01887,  -0.00854,  -0.03977,   0.01505,  -0.03085,   0.00166,  -0.00662,  -0.00981,  -0.05188,  -0.02702,  -0.00471,   0.00166,   0.05967,  -0.02575,  -0.02511,   0.02078,  -0.01172,   0.04756,   0.01951,   0.08835,   0.01059,   0.00867,   0.04246,  -0.02065,  -0.00790,   0.04054,   0.01250,  -0.00535,  -0.03403,  -0.04105,   0.02142,   0.00039,  -0.01236,  -0.00280,  -0.03212,  -0.05124,   0.04692,  -0.02001,  -0.02702,  -0.02638,   0.02780,   0.00804,   0.00867,  -0.02383,  -0.03212,  -0.01682,   0.00421,   0.00867,  -0.01682,   0.02206,   0.03289,  -0.03021,   0.04756,  -0.03212,   0.00931,   0.05839,   0.02588,   0.00485,   0.00357,   0.00230,  -0.01682,  -0.01109,  -0.01746,   0.00612,  -0.00917,  -0.00216,  -0.00917,  -0.01109,  -0.01746,  -0.05826,   0.01568,  -0.00599,   0.01887,  -0.00535,   0.02843,  -0.02702,   0.03544,   0.00485,   0.02907,   0.00166,  -0.01364,  -0.04232,   0.02270,   0.04947,   0.00485,  -0.02957,   0.03289,  -0.01555,  -0.01619,  -0.02447,  -0.03148,   0.01186,   0.02652,  -0.01937,   0.00421,  -0.01364,  -0.00344,  -0.00917,  -0.00089,  -0.00153,   0.00485,  -0.01300,  -0.01746,   0.01951,   0.00230,   0.01250,  -0.07419,  -0.00599,   0.00804,  -0.02383,   0.03035,  -0.00025,  -0.03467,   0.02716,  -0.02320,  -0.04105,  -0.01045,  -0.00216,   0.01887,   0.02461,   0.00230,  -0.03148,   0.01059,  -0.03340,   0.02907,   0.01823,  -0.01236,  -0.04296,   0.04819,  -0.03531,   0.00931,  -0.02192,   0.00549,  -0.00854,   0.02525,  -0.00726,   0.01696,   0.00166,  -0.01682,   0.04246,  -0.01619,  -0.00216,   0.01568,   0.00421,   0.02078,   0.06668,  -0.03403,  -0.00025,  -0.00854,   0.04118,  -0.01236,   0.02015,  -0.01555,   0.00230,  -0.04806,  -0.02320,  -0.01172,   0.00485,  -0.00854,   0.01314,   0.01377,  -0.00471,   0.00867,  -0.02702,   0.01696,  -0.01427,  -0.02192,   0.03481,  -0.00153,  -0.00025,   0.00102,  -0.01682,   0.04756,  -0.05443,   0.01059,   0.01951,  -0.00025,   0.00931,  -0.00662,  -0.01172,   0.02397,  -0.02192,  -0.01172,   0.02588,   0.01314,   0.02843,   0.02461,  -0.02065,  -0.01874,  -0.00153,   0.00039,   0.00549,   0.00039,  -0.03977,  -0.01682,   0.00230,  -0.01300,  -0.05316,  -0.00535,   0.01887,  -0.01682,   0.01122,  -0.01810,   0.00549,  -0.00599,   0.01059,  -0.03786,   0.02588,   0.04182,  -0.00726,   0.00676,   0.01314,  -0.01300,   0.02333,  -0.00599,  -0.03722
  -0.01746,   0.02461,   0.02333,  -0.02957,   0.01250,   0.00549,   0.01186,  -0.02830,   0.02397,  -0.01236,  -0.02702,   0.00039,   0.03417,  -0.01236,   0.02461,  -0.00599,   0.02652,  -0.05762,  -0.03212,   0.03544,   0.00421,  -0.03021,  -0.01364,  -0.02893,   0.00931,   0.03226,   0.02333,   0.02716,  -0.02001,  -0.01045,  -0.00216,  -0.02065,  -0.02192,  -0.01427,  -0.00408,  -0.00408,   0.00294,   0.00357,  -0.00471,   0.00995,   0.00102,   0.02971,   0.00485,   0.02907,   0.01250,  -0.01937,  -0.01172,   0.00804,  -0.03340,  -0.00726,  -0.00854,  -0.01172,   0.02588,   0.02843,   0.00166,   0.01951,   0.01250,  -0.01045,  -0.02575,   0.02971,  -0.00662,  -0.01937,   0.02206,   0.00166,   0.00867,   0.03289,  -0.01236,   0.02397,   0.01760,  -0.00089,   0.04947,   0.04309,  -0.01874,  -0.00917,  -0.05124,  -0.03021,   0.02461,  -0.01491,   0.00230,  -0.02192,  -0.00662,  -0.05507,  -0.01364,  -0.02766,   0.00549,   0.04692,   0.02270,  -0.02001,  -0.04806,  -0.00408,  -0.01491,  -0.02638,  -0.02065,   0.04246,  -0.03786,  -0.01937,   0.00995,   0.02461,  -0.00344,  -0.00599,  -0.00981,   0.06540,   0.02525,   0.03162,  -0.04423,   0.02525,  -0.03148,  -0.01746,   0.02142,   0.00549,  -0.00471,  -0.00408,  -0.00981,  -0.01491,  -0.01109,  -0.01874,   0.04054,  -0.03977,  -0.00344,  -0.00216,  -0.01555,  -0.02957,  -0.06973,  -0.00471,  -0.01300,  -0.00917,   0.04054,  -0.03913,   0.01951,   0.00612,   0.00867,  -0.00790,   0.04373,  -0.00408,   0.01122,  -0.04296,  -0.00153,  -0.00089,  -0.00471,  -0.00025,  -0.01300,   0.01250,  -0.01364,  -0.00535,   0.01250,  -0.00917,  -0.01427,   0.00931,  -0.01746,  -0.01236,  -0.00216,   0.00294,  -0.00408,  -0.00280,   0.00102,  -0.04041,   0.00549,   0.01823,   0.01186,   0.04501,  -0.01619,   0.04118,   0.01760,   0.02780,   0.04628,   0.00485,  -0.03913,  -0.03021,  -0.02511,  -0.00153,   0.01632,  -0.02256,   0.01760,  -0.00089,   0.00549,   0.04373,   0.01377,   0.02907,   0.02333,   0.01760,   0.03544,  -0.02702,   0.02206,  -0.02065,   0.03035,  -0.00471,   0.00549,  -0.02511,  -0.01236,  -0.02957,  -0.01682,  -0.00344,  -0.01491,  -0.03021,   0.01505,   0.01250,  -0.05124,   0.01250,  -0.01045,  -0.01491,   0.01059,   0.02588,   0.05839,   0.00294,   0.00294,   0.01951,  -0.00535,  -0.04105,  -0.02320,   0.07688,   0.05074,   0.02015,   0.04309,   0.00102,  -0.05953,   0.00102,   0.01441,  -0.02511,   0.06477,   0.01186,   0.00867,  -0.00790,   0.03481,   0.06477,  -0.03021,   0.00485,   0.03736,   0.00421,  -0.01172,  -0.00153,  -0.01045,   0.00995,   0.00804,   0.03481,  -0.02383,  -0.02447,   0.03991,  -0.00471,   0.00166,  -0.01682,   0.00230,   0.01951,  -0.00726,  -0.00471,   0.00294,   0.01951,   0.00740,  -0.04869,   0.04182,   0.02780,   0.01377,  -0.04296,  -0.00599,  -0.01109,   0.02206,   0.01760,   0.02588,   0.03162,   0.02843,   0.03289,   0.02716,   0.04947,   0.00549,   0.03289,   0.00931,   0.02078,   0.02907,   0.02716,  -0.01045,   0.02015,  -0.00599,  -0.02893,   0.00612,   0.02142,  -0.00726,   0.03799,  -0.00153,  -0.02065,   0.02525,   0.01760,   0.02015,  -0.03212,  -0.02447,  -0.00089,   0.03098,  -0.00280,  -0.02065,  -0.01172,  -0.04168,   0.03672,   0.02588,  -0.02129,   0.00485,  -0.00280,   0.00166,  -0.02447,   0.01122,  -0.00981,  -0.01045,   0.02206,  -0.01619,  -0.02001,   0.01059,   0.02397,  -0.01172,   0.00995,   0.01059,  -0.01300,   0.01823,   0.00931,   0.02461,   0.05010,   0.02652,   0.00166,   0.00166,  -0.02256,   0.00294,  -0.06654,  -0.00471,   0.00485,  -0.02001,   0.03417,   0.02907,   0.02206,  -0.02320,   0.00102,   0.01887,   0.02843,  -0.02001,  -0.02893,  -0.00153,  -0.00471,  -0.00790,   0.02907,  -0.02830,  -0.02447,   0.01441,   0.02525,  -0.05379,   0.03162,  -0.06973,  -0.00216,  -0.03212,   0.01760,  -0.01300,  -0.01937,  -0.00280,  -0.00726,   0.02907,   0.01122,  -0.01172,  -0.02511,   0.02397,  -0.00599,   0.01568,  -0.05316,   0.01760,  -0.00854,  -0.01045,  -0.01874,   0.04309,   0.02333,  -0.02320,  -0.00790,   0.03481,   0.01696,   0.00166,   0.01377,  -0.04551,   0.00740,   0.01505,   0.01186,   0.01760,   0.02716,   0.03098,   0.01377,  -0.03021,  -0.05124,  -0.03085,  -0.01874,   0.00931,   0.03799,  -0.02766,   0.01441
