   0.04714,  -0.03068,   0.02836,   0.02388,  -0.07540,   0.01852,   0.00063,   0.00063,  -0.01189,   0.01852,  -0.07540,   0.02836,   0.00242,  -0.04499,  -0.00832,  -0.01368,   0.04446,   0.01673,  -0.00205,   0.01583,   0.04446,  -0.03515,  -0.01547,  -0.00742,   0.03193,   0.03193,   0.03998,   0.03551,   0.02299,  -0.00921,   0.01673,   0.04177,   0.01226,   0.03462,   0.04714,  -0.00921,  -0.05125,   0.02746,  -0.05304,  -0.00563,  -0.05483,  -0.04588,   0.01762,  -0.02889,  -0.01010,   0.03820,   0.03730,  -0.03157,   0.00242,   0.00600,  -0.00832,  -0.01637,   0.00421,   0.01315,   0.02746,   0.01136,   0.00421,   0.03641,  -0.02263,   0.03820,   0.00778,   0.00778,  -0.00027,   0.01405,  -0.00653,   0.00152,   0.04982,  -0.00384,  -0.00384,   0.02925,  -0.00474,  -0.01815,  -0.00563,  -0.00832,   0.01405,   0.04625,   0.04356,  -0.02799,   0.01673,  -0.05393,  -0.00295,  -0.04052,  -0.00474,   0.04982,   0.04535,   0.02657,   0.06771,  -0.04499,   0.00421,   0.03193,  -0.02710,  -0.01010,   0.02031,  -0.00563,  -0.00384,  -0.03783,  -0.05662,   0.04803,   0.02836,   0.02031,  -0.04767,   0.01315,   0.02388,  -0.04857,   0.00510,   0.00689,   0.06592,  -0.03068,   0.02746,   0.00063,  -0.01637,   0.04893,   0.01136,  -0.06824,   0.00689,   0.01315,  -0.01010,   0.03283,   0.06235,  -0.02531,  -0.00116,   0.02120,  -0.03247,   0.01405,  -0.00563,  -0.04320,   0.03283,   0.05072,   0.00778,   0.02925,   0.07487,  -0.00295,   0.00421,   0.00331,   0.01762,   0.00868,  -0.01547,   0.05161,   0.01315,  -0.06109,   0.07487,   0.02925,  -0.06824,  -0.04767,   0.00152,   0.06503,  -0.01010,   0.01136,   0.05251,   0.01583,  -0.07361,  -0.03426,   0.00063,   0.01852,  -0.03157,   0.00242,   0.07397,  -0.00832,  -0.02710,  -0.09776,   0.01762,   0.01494,  -0.00384,  -0.00295,  -0.06109,  -0.03157,  -0.01010,  -0.02710,  -0.01189,  -0.04946,   0.03462,   0.04803,  -0.02978,   0.03998,  -0.03426,   0.02746,   0.06503,   0.01673,  -0.03604,  -0.00653,  -0.01726,  -0.00653,   0.04356,  -0.04946,   0.01673,  -0.04857,  -0.07182,  -0.02263,   0.01136,   0.01405,   0.00063,   0.01047
  -0.05930,  -0.00384,  -0.06198,  -0.02531,   0.01583,  -0.01905,   0.02388,   0.03551,   0.00868,   0.02299,  -0.00832,  -0.02621,   0.03372,  -0.05483,   0.01405,  -0.01994,  -0.00205,   0.01047,  -0.03426,  -0.03694,  -0.05304,   0.01941,   0.01136,   0.02746,  -0.06019,  -0.00921,  -0.00295,  -0.03783,  -0.00832,  -0.00474,   0.02836,   0.07129,   0.01852,  -0.02889,  -0.00653,   0.04088,   0.03193,   0.03998,  -0.06556,   0.06413,   0.02299,  -0.01547,  -0.03426,  -0.07987,  -0.02173,  -0.01726,  -0.01010,   0.00600,   0.01941,  -0.00384,  -0.01189,   0.01405,  -0.04678,  -0.00295,  -0.01010,  -0.03783,   0.02567,  -0.00832,   0.03462,   0.01315,  -0.03336,   0.00868,   0.02478,  -0.00742,  -0.05841,   0.01852,  -0.03068,  -0.01458,   0.04714,  -0.05036,  -0.05125,  -0.01637,  -0.05572,   0.03462,   0.04267,  -0.05125,  -0.06288,   0.03820,   0.01762,   0.00510,  -0.02621,   0.00957,  -0.00205,  -0.01458,   0.03372,  -0.05483,   0.01226,   0.05340,  -0.01368,  -0.05393,  -0.03247,  -0.00116,   0.03998,   0.04088,   0.04803,  -0.05841,  -0.03336,  -0.00653,  -0.05304,  -0.02084,  -0.05125,   0.01315,   0.02478,  -0.03783,  -0.00116,  -0.00742,   0.03998,   0.00063,   0.02746,   0.02746,  -0.01368,  -0.04499,  -0.03068,  -0.02263,   0.00778,   0.01405,   0.05251,   0.03015,   0.03641,   0.07397,  -0.00027,  -0.04141,   0.02657,  -0.00832,  -0.01815,   0.03820,   0.00242,  -0.06467,   0.00063,   0.00510,  -0.09239,  -0.02084,  -0.08524,  -0.00921,  -0.04231,   0.09097,   0.03641,   0.02210,  -0.00742,  -0.02442,  -0.02531,   0.00510,  -0.01279,  -0.06109,  -0.07719,  -0.06467,   0.00689,   0.08560,   0.00868,  -0.05304,   0.06592,   0.02299,  -0.01100,   0.04088,   0.00510,  -0.02799,  -0.03783,   0.06861,   0.02567,   0.04356,  -0.02621,   0.01852,  -0.01189,  -0.03157,  -0.02621,   0.02210,  -0.06735,   0.07397,  -0.00653,   0.00421,   0.01047,  -0.01368,   0.07934,   0.03909,  -0.04320,   0.01226,   0.01762,   0.02567,   0.04714,   0.06771,   0.03462,   0.02478,   0.05519,   0.01494,  -0.05483,  -0.00027,   0.00778,   0.04535,  -0.00384,  -0.01100,   0.02925,  -0.04052
   0.03193,   0.01583,   0.00421,   0.02120,   0.00421,  -0.06914,   0.01673,   0.03372,   0.03015,  -0.01726,   0.06503,   0.04893,   0.00421,  -0.03873,   0.00778,   0.02657,  -0.01279,  -0.01637,  -0.01547,  -0.01905,   0.04714,   0.05161,  -0.04946,  -0.01547,  -0.00384,   0.02746,   0.02746,   0.06413,  -0.02442,   0.01941,  -0.04857,   0.01494,   0.02210,  -0.01368,  -0.01100,  -0.01189,   0.02746,   0.04177,  -0.02084,  -0.02263,  -0.03604,   0.04356,  -0.04588,  -0.02084,   0.00510,   0.04267,  -0.01458,   0.05072,  -0.01458,  -0.04141,  -0.00653,  -0.07272,  -0.00563,  -0.06377,   0.01941,   0.04446,  -0.02710,  -0.00116,   0.01405,  -0.00027,   0.00778,   0.00421,  -0.01010,  -0.00742,  -0.02710,   0.02925,  -0.01010,   0.05161,   0.05608,  -0.00116,   0.01136,   0.03551,   0.02388,  -0.00832,   0.03730,  -0.00832,   0.01226,  -0.03962,  -0.02084,   0.06235,  -0.00295,   0.00600,   0.04982,   0.03283,  -0.03783,  -0.00742,  -0.00653,   0.00957,   0.00510,   0.02478,  -0.05125,  -0.02889,   0.03641,  -0.08256,  -0.04946,   0.01494,  -0.02799,   0.03641,   0.03283,   0.03551,  -0.01905,   0.02657,  -0.05483,  -0.02352,   0.06056,  -0.03157,   0.00063,   0.01583,  -0.04946,   0.01494,  -0.01458,   0.03820,  -0.02352,  -0.05036,  -0.00563,  -0.01458,   0.01226,  -0.00832,   0.00063,   0.06771,  -0.03873,  -0.00116,   0.02925,   0.01136,  -0.01279,   0.06682,  -0.01637,  -0.04767,   0.02210,  -0.01189,  -0.07451,   0.00600,  -0.00563,  -0.00832,   0.00510,   0.02925,   0.03015,   0.01852,   0.03372,   0.01226,  -0.02173,  -0.03604,   0.03015,  -0.04320,   0.02120,  -0.03068,   0.04982,   0.03462,  -0.04678,  -0.00653,  -0.01100,  -0.02889,  -0.03515,  -0.00474,   0.01762,  -0.00832,  -0.03426,  -0.00116,   0.11244,   0.10081,  -0.04857,  -0.03247,  -0.00295,   0.08202,   0.02746,   0.03372,   0.00778,  -0.01815,  -0.04946,  -0.03336,   0.01583,  -0.00921,   0.01583,   0.06145,  -0.03783,   0.01941,   0.01136,   0.03462,  -0.00832,  -0.03426,  -0.02621,   0.00868,   0.03551,  -0.01637,   0.03820,   0.01583,  -0.06556,   0.06771,  -0.04141,   0.01852,   0.00600,  -0.01905
   0.03193,  -0.01100,  -0.00205,  -0.02442,  -0.01994,  -0.04409,  -0.01815,  -0.02889,   0.02031,  -0.01010,   0.03909,  -0.01637,  -0.01815,   0.00957,  -0.01010,  -0.00653,   0.01673,   0.00510,  -0.00563,  -0.01010,  -0.01726,   0.03909,  -0.01100,  -0.10939,  -0.00384,  -0.01010,   0.02120,   0.06145,  -0.03247,  -0.04857,  -0.02978,   0.03462,  -0.06198,   0.03641,   0.00778,   0.04714,  -0.05036,   0.03998,  -0.01279,  -0.01994,  -0.01726,  -0.07093,   0.01405,   0.03641,   0.01136,   0.00957,  -0.04678,   0.01047,  -0.00563,   0.03015,  -0.05393,  -0.02978,   0.06682,  -0.03336,   0.03820,   0.03641,  -0.05214,   0.02567,  -0.01189,  -0.04320,   0.03193,   0.01852,   0.00063,   0.02746,   0.06324,  -0.01279,   0.00778,  -0.00832,   0.01136,  -0.01189,  -0.02352,  -0.05751,  -0.00474,  -0.01905,  -0.03157,  -0.04231,   0.02031,  -0.01547,   0.06235,  -0.07003,   0.01583,   0.02388,   0.00957,  -0.03068,  -0.08166,   0.05966,   0.05787,   0.02299,  -0.03783,   0.02210,  -0.06288,  -0.03515,  -0.00205,  -0.10313,   0.01941,  -0.06198,  -0.00027,  -0.00474,  -0.00563,  -0.04231,  -0.00027,   0.01315,   0.01583,   0.01583,   0.00689,   0.05340,  -0.02084,   0.07218,  -0.02263,   0.03193,   0.00600,   0.00778,   0.00331,  -0.01905,  -0.03962,  -0.01547,   0.02478,  -0.00295,  -0.03873,  -0.04052,  -0.01458,   0.00600,   0.02925,   0.00689,   0.00421,  -0.06288,  -0.03604,  -0.03783,  -0.00742,  -0.01010,  -0.01815,  -0.03783,   0.01136,  -0.03336,  -0.00384,  -0.05662,  -0.02799,  -0.01815,   0.03372,   0.00778,   0.02478,   0.00868,   0.02388,  -0.00474,   0.05787,  -0.03694,  -0.01994,   0.03372,   0.01315,  -0.00653,  -0.01994,   0.02299,   0.01852,   0.06324,   0.00421,  -0.00742,   0.04267,  -0.00027,   0.05787,  -0.00742,   0.02210,  -0.04052,   0.01583,   0.00331,   0.00510,  -0.01010,  -0.02263,   0.05877,  -0.01547,  -0.00116,   0.02925,   0.06056,   0.08471,  -0.04857,  -0.00027,   0.00957,   0.02567,  -0.02084,   0.04446,   0.02836,  -0.00474,  -0.06556,  -0.00563,  -0.06019,  -0.01905,   0.03104,   0.05161,   0.04177,  -0.03783,  -0.00205,  -0.01547,  -0.05393
  -0.00384,   0.01583,   0.04714,   0.08113,  -0.02263,   0.03104,   0.03104,   0.01852,   0.02925,   0.02925,  -0.01279,   0.01941,   0.00510,   0.03015,  -0.01994,   0.00600,   0.02478,  -0.02978,   0.02210,   0.04535,   0.03462,  -0.01994,   0.00689,  -0.04052,   0.06771,   0.03015,  -0.05393,  -0.00474,   0.09186,   0.04267,  -0.01905,  -0.02352,   0.01226,   0.04982,  -0.05572,  -0.00563,   0.00957,  -0.03783,   0.07666,   0.00778,   0.00063,  -0.01189,  -0.00832,   0.03462,  -0.01637,  -0.02710,  -0.00832,   0.02388,  -0.05214,  -0.01637,   0.01494,   0.00421,  -0.05036,   0.03462,  -0.00116,   0.01047,  -0.05036,  -0.01100,  -0.03694,   0.02210,  -0.04678,  -0.02531,   0.02031,   0.01494,   0.01583,   0.08381,   0.00778,  -0.06288,   0.05966,   0.04714,  -0.03515,   0.02031,  -0.04946,  -0.03962,   0.00600,  -0.05751,   0.02210,   0.02031,  -0.01100,   0.02478,   0.04356,   0.02388,   0.01315,  -0.05393,   0.00778,  -0.06824,   0.01941,   0.03730,  -0.02799,  -0.04231,  -0.00653,   0.06592,   0.00778,  -0.02531,  -0.00295,  -0.01905,   0.02388,  -0.04320,  -0.02263,   0.00689,   0.01315,  -0.03962,  -0.05662,  -0.00921,   0.00778,   0.00421,  -0.00116,  -0.02263,   0.04803,   0.02120,   0.05787,  -0.01279,  -0.00653,  -0.01010,   0.08113,   0.04177,  -0.00295,   0.05430,   0.00242,  -0.01994,  -0.02084,   0.00510,  -0.00295,  -0.05930,  -0.01637,  -0.01189,   0.05072,  -0.02621,   0.08113,  -0.11386,  -0.05483,   0.06324,  -0.01637,   0.05608,   0.01583,  -0.03873,  -0.00027,   0.02836,  -0.00563,  -0.01458,   0.03551,  -0.07272,   0.02746,  -0.00205,  -0.00653,  -0.01726,   0.00600,   0.00063,  -0.07898,  -0.00295,   0.02210,  -0.04857,   0.00957,  -0.01815,  -0.01547,  -0.01726,   0.05072,  -0.02978,   0.02746,   0.07308,   0.04267,  -0.02263,  -0.01994,  -0.01100,   0.01136,   0.01852,   0.09812,  -0.00295,  -0.01458,   0.00421,  -0.00563,   0.04356,  -0.05214,   0.00778,  -0.03247,  -0.00205,  -0.00116,   0.05608,   0.00063,  -0.03247,  -0.00027,   0.01852,   0.01405,  -0.00832,   0.00957,  -0.00742,   0.02746,  -0.00384,   0.02120,  -0.04946,   0.00063,  -0.01368
  -0.03247,  -0.00295,  -0.02442,  -0.01010,   0.01762,  -0.01547,   0.01315,  -0.05304,  -0.03515,   0.00063,   0.01583,   0.00331,   0.01762,  -0.03604,   0.03820,  -0.00027,   0.04535,   0.03193,  -0.03336,  -0.01010,   0.00242,   0.00868,  -0.04588,   0.00600,   0.02657,  -0.01905,   0.06503,  -0.04231,   0.05072,  -0.01100,   0.01494,  -0.00384,   0.04446,   0.03372,  -0.02263,   0.04714,   0.01941,   0.04625,  -0.05751,   0.00242,  -0.00742,  -0.04857,  -0.05036,  -0.04409,  -0.00027,  -0.01726,   0.00152,  -0.01905,   0.02657,   0.07755,   0.00331,   0.00868,   0.02925,  -0.03694,   0.02388,  -0.02173,  -0.01547,  -0.05572,   0.00957,  -0.04499,  -0.04320,  -0.00474,  -0.02263,   0.00331,   0.02657,  -0.03962,   0.01762,   0.08560,   0.00868,   0.00600,  -0.00205,  -0.01547,  -0.04231,  -0.03694,  -0.05662,  -0.00116,   0.00242,  -0.03426,  -0.04588,   0.07755,   0.03193,   0.00063,   0.02746,   0.09723,   0.06950,  -0.01726,  -0.01100,   0.00868,  -0.02621,   0.01405,  -0.01100,   0.01047,  -0.01368,  -0.02084,   0.01047,   0.00331,  -0.06109,  -0.05930,  -0.01815,   0.04535,   0.00421,  -0.03962,  -0.06377,  -0.01905,   0.04803,   0.03730,   0.02478,   0.03015,   0.00957,  -0.01010,   0.00510,  -0.02084,   0.00510,  -0.05214,   0.05519,   0.02031,  -0.01189,  -0.01815,   0.00152,   0.01405,   0.04267,  -0.00563,  -0.04767,  -0.05214,   0.02567,   0.08471,   0.00868,   0.02299,  -0.00295,   0.07397,  -0.01994,  -0.00563,  -0.03336,   0.03551,   0.03015,  -0.03962,   0.02746,   0.01583,  -0.04141,   0.00242,   0.03730,  -0.03336,  -0.05214,   0.02567,  -0.01100,  -0.01368,  -0.04141,  -0.00474,   0.03998,   0.06503,   0.02031,  -0.04499,  -0.04141,  -0.03426,   0.02031,  -0.00027,  -0.05304,   0.00331,  -0.04857,   0.00510,  -0.04320,  -0.00653,   0.02299,   0.00331,   0.03730,   0.02210,   0.00600,   0.04535,  -0.01726,   0.03015,  -0.01189,   0.00510,   0.03551,   0.07934,  -0.00832,  -0.08792,   0.00778,  -0.02442,   0.04356,   0.01315,   0.01136,  -0.04588,  -0.05662,  -0.03515,   0.02925,   0.00600,  -0.01458,   0.03909,   0.02657,   0.04088,   0.03551,  -0.00921
   0.01941,  -0.02710,   0.06592,  -0.01368,   0.04535,  -0.01726,   0.00152,  -0.03426,  -0.02621,  -0.01815,   0.00331,  -0.05125,  -0.03157,   0.02299,   0.00331,   0.00778,  -0.01458,   0.08918,  -0.03157,  -0.00742,  -0.02710,  -0.02889,  -0.03962,  -0.01815,   0.02657,  -0.02889,   0.03283,  -0.00474,   0.01941,  -0.04231,  -0.05393,  -0.04857,   0.03104,  -0.06109,  -0.02889,   0.05072,  -0.02173,   0.05340,  -0.04409,   0.04982,   0.00510,  -0.01905,   0.02210,  -0.02621,  -0.01279,   0.04177,   0.02746,   0.03462,   0.03283,   0.00689,  -0.02799,   0.01405,   0.02210,  -0.00921,  -0.04320,  -0.05125,  -0.02173,  -0.01100,   0.01405,  -0.02173,   0.05519,   0.01136,   0.01047,   0.01762,   0.03015,  -0.00205,   0.04714,  -0.01547,   0.02388,   0.00957,   0.00063,  -0.00384,   0.00242,  -0.06198,   0.02567,   0.00778,   0.08471,  -0.01368,  -0.02978,  -0.03604,  -0.02799,  -0.02531,   0.07576,   0.01852,   0.06682,   0.06771,   0.00331,   0.03551,   0.00242,  -0.05841,  -0.00653,   0.00957,  -0.00295,  -0.02263,   0.03641,  -0.06377,  -0.00563,  -0.00742,  -0.01637,   0.10707,  -0.01726,  -0.00742,  -0.00027,  -0.02084,   0.02925,   0.02836,  -0.01368,  -0.04320,   0.04625,   0.03372,  -0.02978,  -0.02263,   0.01405,  -0.04052,   0.04446,   0.01136,   0.04088,   0.02746,  -0.01368,   0.00600,   0.04803,   0.00510,   0.05519,   0.00242,  -0.00295,   0.02657,   0.01315,  -0.01100,  -0.01637,  -0.06377,   0.02657,  -0.02442,  -0.01100,   0.03015,   0.04714,   0.03462,  -0.01010,   0.00957,  -0.01189,  -0.00384,  -0.00027,   0.03641,   0.04356,   0.00689,   0.02746,   0.04088,  -0.01726,  -0.02710,  -0.01189,  -0.01637,   0.04625,  -0.03515,  -0.02978,   0.02388,   0.00242,   0.01583,  -0.01100,   0.00152,   0.00421,  -0.03694,  -0.02799,   0.06324,   0.05519,  -0.00116,   0.00331,  -0.01994,  -0.00832,   0.02746,  -0.02710,  -0.05751,   0.00152,  -0.00474,  -0.02889,   0.04982,   0.02657,  -0.05036,   0.04535,  -0.00832,   0.03015,  -0.02263,  -0.01994,  -0.00295,   0.02031,  -0.01726,   0.03193,   0.02657,  -0.00832,   0.01494,  -0.09418,   0.02746,   0.04714,   0.01583
   0.01941,   0.01494,  -0.04588,   0.01047,  -0.03604,  -0.06646,  -0.01010,  -0.03962,  -0.07540,  -0.03247,   0.04446,   0.00510,   0.01673,  -0.03426,  -0.04857,   0.00957,  -0.01637,  -0.03247,   0.00778,   0.03462,  -0.03336,  -0.07272,   0.01226,  -0.00474,  -0.02352,   0.03551,   0.00152,  -0.03157,   0.02210,   0.02925,   0.01941,  -0.02263,  -0.05662,  -0.01547,   0.00957,   0.04625,   0.02031,  -0.08613,  -0.01458,  -0.02442,   0.00421,   0.03283,  -0.02710,  -0.03962,  -0.00205,   0.01762,   0.00510,   0.01315,  -0.03783,  -0.01547,   0.03104,   0.00242,  -0.01547,   0.02031,   0.06771,   0.05877,   0.01673,  -0.02263,   0.01405,  -0.00205,   0.06056,  -0.01279,   0.01852,  -0.01279,   0.03820,   0.03909,  -0.01994,  -0.06377,   0.03372,   0.07487,   0.01941,  -0.04052,  -0.08434,  -0.10492,   0.02746,  -0.01368,  -0.02442,   0.04893,  -0.00295,   0.03909,   0.01405,   0.04803,  -0.02799,  -0.00295,  -0.01815,   0.00600,   0.00421,  -0.01189,   0.00063,  -0.03694,  -0.01458,   0.01941,   0.02299,   0.00421,   0.00331,   0.02746,   0.05161,   0.00510,   0.04714,  -0.03426,  -0.01368,  -0.01368,   0.00421,  -0.02442,  -0.06377,   0.02478,   0.00689,   0.04267,   0.03283,  -0.01547,  -0.05751,   0.02746,   0.04267,  -0.03783,   0.00600,  -0.00205,   0.04088,   0.07040,  -0.00474,   0.02388,  -0.00653,  -0.01368,   0.02746,   0.03104,   0.03551,   0.02657,   0.03283,  -0.03426,  -0.02442,   0.03104,   0.02210,   0.02836,   0.09365,   0.04803,  -0.00653,  -0.00653,   0.00689,  -0.02084,  -0.00921,  -0.00474,   0.03015,  -0.01458,   0.04893,   0.00689,  -0.00474,  -0.02352,   0.00063,   0.03015,   0.03998,   0.00331,   0.10349,   0.01941,   0.02567,   0.03998,  -0.01368,  -0.02352,   0.01047,   0.02925,  -0.02084,   0.03283,   0.05340,   0.02478,  -0.02889,  -0.02531,  -0.00295,   0.05340,  -0.04052,  -0.04320,   0.05698,   0.01762,   0.01852,  -0.02173,   0.01762,  -0.00921,  -0.03336,   0.06413,  -0.01458,   0.01405,   0.00778,   0.01494,   0.00331,   0.03372,  -0.05125,   0.03909,   0.03283,  -0.06377,  -0.04409,  -0.00384,  -0.04767,  -0.04499,  -0.02531,   0.05340
   0.04893,  -0.02442,  -0.04946,   0.07308,  -0.06467,   0.01494,  -0.00205,  -0.02799,   0.01136,  -0.01458,   0.04088,   0.02478,   0.06056,   0.00510,   0.00421,  -0.00027,   0.07308,  -0.00474,  -0.02799,  -0.06198,  -0.06109,   0.03462,  -0.00384,   0.01762,   0.02657,  -0.02352,   0.02746,   0.01852,  -0.01726,   0.01047,  -0.09329,  -0.03068,   0.04893,  -0.03694,  -0.05214,   0.06056,   0.03730,   0.04982,   0.00421,  -0.01100,   0.07576,   0.00600,  -0.01458,  -0.00027,  -0.07272,  -0.01458,  -0.02263,   0.01136,   0.05161,  -0.02978,   0.01315,  -0.00205,   0.05072,   0.03104,   0.01315,   0.00600,   0.03462,   0.03104,   0.03551,   0.00778,   0.01852,  -0.01905,   0.03641,   0.01226,   0.03820,  -0.02710,   0.01136,  -0.00027,  -0.02978,  -0.00384,  -0.00653,  -0.00563,   0.01136,   0.00421,   0.02567,  -0.03515,  -0.02621,  -0.09329,  -0.00205,  -0.02621,  -0.01994,  -0.01279,  -0.03873,  -0.00205,   0.06413,  -0.01994,   0.01583,  -0.00027,  -0.02352,  -0.00742,   0.01494,   0.03462,  -0.05841,  -0.00742,  -0.00742,  -0.00921,   0.00421,  -0.04767,   0.03193,   0.02836,   0.01941,   0.00957,  -0.01905,   0.00778,   0.03998,   0.03909,   0.00152,  -0.01547,  -0.01637,   0.06682,  -0.05304,  -0.04231,   0.00510,   0.07308,  -0.01547,   0.02925,   0.00868,   0.04535,  -0.01100,   0.03730,   0.02299,  -0.07003,  -0.03157,  -0.00384,   0.02388,   0.02299,   0.03372,   0.01136,   0.01136,  -0.01010,  -0.03157,  -0.03157,  -0.02710,   0.01405,   0.02657,   0.00868,  -0.02531,  -0.05483,   0.01583,  -0.01994,   0.04267,   0.02567,   0.02746,   0.03551,  -0.00205,  -0.00295,  -0.02442,  -0.05662,   0.00778,   0.03551,  -0.05304,  -0.01010,   0.05161,  -0.01189,   0.00331,  -0.00027,  -0.04320,   0.00957,   0.01583,  -0.02084,   0.02299,   0.08560,  -0.02084,  -0.00384,   0.02031,  -0.01458,   0.11244,   0.01852,   0.02210,  -0.03068,  -0.01994,   0.01941,  -0.03694,   0.00510,   0.02031,  -0.04857,  -0.01189,   0.01673,   0.00957,   0.02478,  -0.01547,   0.05608,   0.04088,   0.04356,  -0.00921,  -0.02352,   0.03372,   0.01941,  -0.00027,  -0.00295,  -0.04678,  -0.11565
