  -0.01681,   0.02363,  -0.01137,  -0.00172,  -0.00353,  -0.00172,   0.00371,  -0.00232,  -0.00655,  -0.01741,  -0.00594,  -0.00655,  -0.00051,   0.02122,  -0.02163,  -0.00292,  -0.01198,  -0.00353,   0.01880,   0.01639,   0.00492,   0.00734,   0.02242,  -0.05121,  -0.03370,   0.01639,   0.01639,   0.00673,  -0.01017,  -0.00775,   0.01579,  -0.02767,   0.01880,   0.00492,   0.00553,   0.00794,  -0.02405,  -0.00655,  -0.03491,  -0.00292,  -0.02405,   0.01277,  -0.01077,   0.01216,   0.00854,   0.00009,   0.00311,  -0.01017,  -0.04940,   0.02906,   0.01035,  -0.03672,  -0.00232,   0.02725,   0.01941,   0.00130,  -0.01137,   0.00673,  -0.03431,  -0.01379,  -0.00172,   0.01096,  -0.05664,  -0.01439,   0.00613,  -0.03431,  -0.02888,   0.00975,  -0.03129,   0.03631,   0.01096,  -0.00715,   0.01337,  -0.03370,   0.01337,  -0.00896,  -0.01017,  -0.00172,   0.02967,   0.01699,   0.02303,   0.00854,   0.00794,   0.01639,   0.03268,  -0.00715,   0.02061,   0.01579,   0.00130,  -0.04215,  -0.00534,  -0.01077,  -0.00775,  -0.01560,  -0.00051,   0.00009,  -0.00956,  -0.00111,  -0.01379,   0.01096,  -0.00232,  -0.00473,   0.01156,  -0.01560,   0.00371,   0.00492,   0.00915,   0.04657,   0.00432,   0.02363,   0.00130,   0.01820,  -0.00232,  -0.03008,  -0.01681,   0.01277,  -0.01379,  -0.00051,   0.03329,  -0.01439,  -0.00534,  -0.02827,   0.02967,  -0.01681,   0.02423,   0.01156,   0.00371,  -0.03069,  -0.00655,   0.01277,  -0.02405,   0.02484,  -0.00232,   0.02122,   0.01579,   0.02242,   0.01337,   0.03329,  -0.01318,  -0.00292,   0.02846,  -0.02405,  -0.02948,   0.04053,  -0.00534,  -0.00534,  -0.02465,   0.03087,   0.02303,  -0.00292,   0.00070,  -0.02767,   0.01760,  -0.01922,   0.00794,  -0.01499,  -0.01077,  -0.02163,  -0.01198,   0.01699,   0.00613,  -0.01741,   0.02182,   0.01941,  -0.01379,   0.00794,   0.00371,   0.01035,   0.00854,   0.00613,   0.00251,  -0.00655,  -0.02103,  -0.01681,  -0.00655,  -0.01017,   0.01216,   0.00673,  -0.00836,   0.00492,   0.03751,   0.03148,   0.02725,  -0.00655,  -0.01137,   0.00070,  -0.00232,  -0.00353,   0.00251,  -0.01499,   0.00190,   0.01458,  -0.00594,   0.04898,  -0.02224,   0.00492,   0.00854,  -0.01922,   0.00492,   0.00070,   0.01820,  -0.01379,   0.02786,  -0.00715,   0.00613,   0.02906,  -0.01922,  -0.00715,  -0.01801,   0.00311,   0.01216,  -0.02767,   0.02544,   0.01880,   0.02423,   0.01699,   0.00311,  -0.07112,   0.01397,  -0.04095,  -0.00836,  -0.01681,  -0.01198,   0.00190,   0.01820,   0.00673,  -0.00896,   0.00794,  -0.02888,  -0.01620,   0.01337,  -0.00655,   0.02665,   0.00251,  -0.07354,  -0.00896,   0.03631,   0.00492,  -0.02224,  -0.01379,  -0.01318,  -0.01801,  -0.00232,  -0.01318,   0.02242,   0.00613,   0.00311,  -0.03310,  -0.03974,  -0.00232,  -0.02525,   0.00553,  -0.01439,   0.01699,   0.00311,   0.01639,   0.00854,   0.02061,  -0.04095,  -0.00956,  -0.00655,  -0.01620,  -0.03491,  -0.03250,  -0.00292,  -0.02344,  -0.00051,   0.03872,  -0.04034,   0.00371,   0.00492,  -0.01137,   0.03027,   0.02001,  -0.00353,   0.00070,  -0.03733,   0.00190,   0.00975,  -0.02465,  -0.03672,  -0.00413,  -0.01439,  -0.03974,   0.01277,  -0.02344,  -0.01801,  -0.03008,  -0.04215,   0.00492,   0.01156,  -0.01862,  -0.03069,  -0.02163,   0.00432,  -0.02586,  -0.01862,  -0.03551,  -0.00655,  -0.03914,  -0.00956,  -0.01318,   0.00613,  -0.02043,  -0.03069,   0.03027,   0.00190,  -0.00232,   0.00794,   0.03691,  -0.01198,  -0.02103,   0.04657,  -0.01560,  -0.02767,   0.01337,   0.00311,  -0.00715,  -0.01681,   0.00673,  -0.01077,  -0.02344,  -0.00353,  -0.02344,   0.01216,  -0.00232,   0.03208,  -0.01258,   0.01699,   0.02484,   0.04294,   0.01760,   0.00130,  -0.00232,   0.00009,  -0.03129,   0.03751,   0.00190,   0.00975,  -0.00051,   0.01880,  -0.02043,  -0.01439,   0.02484,  -0.01198,  -0.02043,  -0.01862,  -0.01077,  -0.00353,  -0.01560,  -0.00111,  -0.01017,  -0.03129,  -0.01017,   0.03449,  -0.02224,   0.00070,  -0.01077,   0.01216,   0.00009,  -0.00775,   0.02303,  -0.03914,  -0.00956,  -0.01318,  -0.00896,   0.01579,   0.00070,  -0.03431,  -0.01801,  -0.01862,   0.00553,   0.04596,  -0.02525,   0.00251,   0.01639,   0.00371,  -0.02586,   0.00432,   0.02061,  -0.01801,   0.03449,  -0.00715,  -0.02103,  -0.01499,  -0.00534,   0.02605,   0.00251,   0.04777,  -0.02284,   0.00251,   0.00673,   0.00070,  -0.03551,   0.01579,   0.00794,   0.00734,  -0.00473,   0.01579,   0.00311,  -0.01862,  -0.01379,  -0.01077,  -0.03008,   0.01035,   0.01518,  -0.02344,   0.03208,   0.01277,   0.02001,  -0.00353,   0.03087,  -0.01258,  -0.00836,  -0.01620,   0.01096,   0.03872,  -0.01862,   0.02182,   0.00311,   0.03329,  -0.01620,   0.01760,   0.00190,   0.02967,   0.00553,  -0.00956,  -0.01198,   0.02122,   0.03389,   0.01699,  -0.01017,  -0.00956,   0.03027,  -0.01681,   0.02544,  -0.00836,   0.01156,  -0.04396,  -0.03551,  -0.00836,   0.05441,  -0.02344,  -0.01017,  -0.00715,   0.00432,   0.00915,  -0.01560,   0.00311,   0.01337,   0.01518,   0.02303,  -0.03733,   0.00854,  -0.00655,  -0.00232,  -0.00655,   0.00794,   0.00553,   0.00190,   0.01277,  -0.01258,   0.02544,  -0.01017,   0.01277,   0.00130,   0.01579,  -0.03551,  -0.04336,   0.01035,  -0.01499,  -0.02465,  -0.04759,  -0.05000,   0.02242,  -0.00353,  -0.04155,   0.01458,  -0.01681,  -0.00111,  -0.01258,  -0.00775,   0.01820,  -0.01379,   0.01096,   0.01458,  -0.00051,   0.00975,   0.01096,   0.02122,  -0.00715,  -0.00353,  -0.04698,  -0.00594,   0.01277,  -0.00353,   0.03812,  -0.01439,   0.00794,   0.00371,   0.00432,  -0.01862,   0.01156,  -0.01318,   0.01518,  -0.05060,  -0.04759,   0.01216,   0.02484,   0.00070,  -0.00111,   0.00251,  -0.03008,   0.00432,  -0.00896,   0.00673,   0.01941,   0.00371,   0.01760,   0.02544,   0.01579,   0.01820,  -0.00775,  -0.02646,  -0.03189,   0.01096,   0.02242,  -0.02043,  -0.01077,  -0.02163,   0.01337,   0.02846,   0.00553,   0.00251,  -0.00594,   0.02665,  -0.00111,   0.02967,   0.00070,   0.00432,  -0.02103,  -0.01318,  -0.00111,  -0.00232,  -0.00413,  -0.00473,  -0.01439,   0.01096,   0.02665,  -0.01198,  -0.02224,   0.01518,   0.01880,   0.01397,  -0.01620,  -0.02224,   0.01579,   0.02423,   0.02363,   0.00975,   0.02242,  -0.02405,   0.00794,   0.02242,   0.01035,   0.01579,   0.00975,  -0.00111,   0.00553,  -0.00172,  -0.03551,   0.00492,   0.00673,   0.00673,  -0.01862,   0.02182
  -0.01318,  -0.02767,  -0.02827,   0.00009,  -0.00534,  -0.00353,   0.00492,  -0.00111,  -0.01982,  -0.00534,  -0.01560,   0.00070,  -0.03008,   0.00070,  -0.01741,   0.01216,   0.00613,   0.00794,   0.01760,  -0.01318,  -0.03551,  -0.01922,  -0.02465,  -0.00715,   0.00673,  -0.01560,  -0.00051,   0.02182,  -0.02707,  -0.01077,  -0.00413,  -0.01439,  -0.03370,   0.05562,   0.01397,  -0.01077,  -0.00172,   0.01096,  -0.00111,   0.00009,   0.00673,  -0.02344,   0.00613,  -0.04517,   0.00432,  -0.02707,   0.01760,   0.01880,   0.00190,  -0.01379,  -0.00956,   0.01941,   0.03268,   0.00190,  -0.02344,   0.00794,  -0.01379,   0.01579,   0.00190,   0.01277,   0.01277,  -0.02344,  -0.02103,  -0.01620,   0.02544,   0.02544,   0.01458,  -0.02224,   0.02182,   0.02725,   0.00251,   0.04053,   0.00130,  -0.02405,  -0.01922,   0.01458,   0.00975,  -0.01379,  -0.01681,  -0.02344,  -0.00956,   0.00794,   0.00432,   0.00432,  -0.00292,   0.01096,  -0.01681,  -0.01741,  -0.01681,  -0.03974,  -0.01801,   0.02242,  -0.02646,  -0.01499,   0.00009,   0.01518,  -0.00292,   0.06105,   0.02967,   0.00311,  -0.02465,   0.01156,   0.00492,  -0.01258,   0.00009,   0.01277,   0.01096,  -0.00655,   0.00613,   0.00673,   0.01156,  -0.02163,  -0.01499,   0.00311,   0.02242,   0.02182,  -0.05181,   0.00190,  -0.01077,  -0.01137,   0.00915,   0.03087,  -0.01801,  -0.02707,  -0.00473,  -0.02586,  -0.00956,   0.02001,   0.03329,   0.01880,  -0.00051,   0.01156,  -0.02405,   0.02182,  -0.01499,   0.04415,   0.02544,  -0.00473,   0.02544,  -0.01379,   0.01760,   0.00673,   0.01458,  -0.00594,  -0.00836,  -0.00775,  -0.01862,  -0.01258,  -0.03974,   0.00371,   0.01156,  -0.00655,   0.04657,  -0.01379,  -0.02103,   0.00311,   0.01880,   0.01880,  -0.00413,   0.00915,  -0.00111,   0.00130,   0.00190,  -0.01560,  -0.01379,  -0.02405,   0.00432,  -0.00473,   0.00251,  -0.03250,   0.02122,   0.01216,   0.00553,  -0.03250,   0.01096,   0.00915,  -0.00292,  -0.02284,  -0.00534,   0.01277,   0.01579,  -0.02103,   0.00251,   0.02846,  -0.02827,   0.04777,  -0.04034,  -0.00232,  -0.01379,  -0.01258,  -0.00594,   0.00492,   0.00734,  -0.00111,  -0.04215,  -0.03491,   0.01337,   0.01458,  -0.00292,   0.02725,   0.00070,   0.04415,   0.00734,  -0.02284,   0.01156,   0.00130,  -0.00594,  -0.00836,  -0.01439,  -0.04698,  -0.03612,   0.02605,   0.00311,  -0.05724,  -0.02827,   0.00553,   0.00915,  -0.02767,   0.00130,   0.00613,   0.00492,   0.01096,   0.00854,   0.00613,   0.01397,  -0.00715,  -0.02163,  -0.01137,  -0.02707,   0.01518,   0.00432,  -0.01077,   0.01096,   0.00371,   0.01941,   0.00613,   0.01639,   0.02001,   0.04475,  -0.01137,   0.02967,  -0.00655,  -0.01258,   0.01216,   0.00854,   0.00190,  -0.00534,  -0.02888,  -0.02103,  -0.02344,  -0.01560,   0.02423,  -0.01258,  -0.02948,   0.01337,   0.00009,   0.02001,   0.01639,   0.00734,   0.03329,   0.00553,   0.01458,   0.01216,  -0.01198,   0.01699,   0.00311,   0.03087,   0.03449,  -0.03189,  -0.02888,   0.00251,   0.01518,   0.01579,  -0.00896,  -0.03612,   0.00794,  -0.00534,   0.00613,   0.00553,   0.00130,   0.01397,   0.02122,  -0.02224,   0.04717,  -0.04034,  -0.00594,  -0.02344,   0.01760,  -0.00473,   0.03872,  -0.03914,  -0.02707,  -0.01077,  -0.04034,  -0.01620,  -0.00594,  -0.00594,   0.03148,  -0.03310,   0.01458,   0.01518,  -0.00353,   0.02061,  -0.01017,   0.01579,  -0.02646,   0.03993,   0.00492,  -0.02224,  -0.05121,   0.02665,  -0.02284,  -0.00413,  -0.02224,  -0.04095,  -0.00232,   0.00432,   0.00854,   0.01579,   0.01760,  -0.04155,   0.00734,  -0.02888,  -0.01439,   0.01096,   0.00492,  -0.01439,   0.01216,   0.02303,  -0.04095,  -0.01318,  -0.02163,  -0.02646,   0.01579,  -0.01379,  -0.00353,   0.01035,  -0.02344,   0.01337,   0.00915,   0.02605,   0.00311,   0.01277,   0.02786,  -0.00956,   0.02544,  -0.00413,  -0.00051,   0.00009,   0.02484,   0.00673,   0.02303,   0.05019,  -0.00353,   0.02303,   0.00673,  -0.00353,   0.04294,  -0.00655,  -0.00896,  -0.03008,  -0.00896,   0.01760,   0.01156,   0.02665,  -0.00594,   0.06105,   0.02242,  -0.01318,   0.01337,   0.02242,   0.00311,  -0.01560,  -0.00594,   0.00190,  -0.00051,   0.00613,  -0.00051,  -0.01681,  -0.02344,   0.02303,   0.00009,   0.00432,   0.03691,   0.01277,   0.00553,  -0.00353,   0.01397,   0.00070,  -0.02344,  -0.00956,   0.00432,  -0.01560,  -0.02646,  -0.01379,   0.01035,  -0.00896,  -0.02284,   0.00854,   0.00130,   0.01458,  -0.00775,   0.00371,  -0.00413,   0.01096,   0.02725,   0.00613,  -0.02284,   0.00311,  -0.01318,   0.00613,   0.00553,   0.02605,  -0.02948,   0.01337,   0.01277,  -0.02043,  -0.00473,  -0.01439,   0.01941,  -0.01379,  -0.01862,   0.00190,  -0.02405,  -0.00292,   0.01035,   0.00673,  -0.00232,   0.00251,  -0.02284,  -0.01318,  -0.00172,   0.01277,  -0.03793,  -0.01318,   0.00854,  -0.03370,  -0.01379,  -0.00232,   0.01096,  -0.01681,  -0.01137,   0.01156,  -0.01499,  -0.01439,   0.01760,   0.02544,   0.02122,   0.01035,  -0.02103,   0.01458,   0.03087,  -0.00594,   0.01820,   0.00915,   0.01277,   0.01035,  -0.02284,   0.01156,  -0.00172,  -0.00775,  -0.00775,   0.02484,  -0.00172,  -0.02163,   0.01699,   0.03087,   0.01579,  -0.02103,   0.00190,   0.01518,  -0.01017,  -0.02103,  -0.03733,  -0.00353,  -0.02767,  -0.00292,   0.01277,  -0.02465,  -0.03370,   0.01880,   0.00915,   0.02484,  -0.00836,  -0.00896,  -0.01681,  -0.00896,   0.03268,   0.02122,   0.02001,   0.01397,  -0.02707,  -0.01801,  -0.00292,   0.00130,  -0.02405,   0.02303,   0.02544,  -0.01741,   0.01699,  -0.02888,  -0.01560,  -0.01620,  -0.00836,  -0.01801,   0.01458,   0.01941,  -0.00353,  -0.02707,  -0.01198,   0.01216,  -0.01862,   0.03027,  -0.00836,  -0.03551,   0.01458,   0.01458,  -0.00956,  -0.02465,  -0.00594,   0.01096,   0.00734,   0.02846,   0.00311,   0.00190,  -0.01982,   0.02665,  -0.01137,   0.00251,  -0.01982,  -0.01318,   0.00432,  -0.02103,   0.00251,   0.00613,  -0.01439,   0.00432,  -0.01017,   0.02725,  -0.04819,  -0.01258,  -0.01077,   0.01518,  -0.01681,   0.01216,  -0.02525,  -0.00594,  -0.00594,  -0.00232,  -0.02103,   0.04234,  -0.01137,  -0.00353,   0.03932,   0.00975,   0.03027,   0.02001,   0.02001,  -0.01741,  -0.01620,   0.00553,  -0.02525,  -0.01137,   0.00553,  -0.01681,  -0.00655,   0.00553,   0.01277,   0.01820,   0.00553,   0.03872,   0.00130,   0.02061,  -0.01017,  -0.00473,   0.04475
   0.01277,  -0.01681,   0.02242,  -0.02646,   0.01096,   0.01699,   0.00492,  -0.04759,   0.01277,   0.02182,   0.02363,   0.00854,  -0.03914,  -0.01198,   0.03631,   0.01096,   0.00553,  -0.01922,  -0.01862,   0.00975,  -0.00111,   0.00432,  -0.01922,  -0.01077,   0.00673,   0.02605,   0.03148,  -0.01982,  -0.04759,   0.00915,  -0.01017,  -0.00715,   0.00432,   0.00553,   0.02001,   0.02242,  -0.01499,   0.00492,  -0.02525,   0.01699,  -0.01922,   0.01518,   0.00794,  -0.01741,  -0.00594,  -0.02224,  -0.01922,   0.01518,  -0.02163,   0.01096,  -0.04457,  -0.00594,  -0.02586,  -0.02465,   0.01096,   0.01579,  -0.03733,  -0.00534,  -0.01017,  -0.01137,   0.00975,   0.00432,  -0.00836,  -0.01499,   0.00794,  -0.04155,   0.00553,  -0.01741,   0.01699,   0.02544,   0.05260,  -0.00836,   0.02484,  -0.00172,   0.00854,   0.02665,   0.02725,  -0.01862,  -0.01801,   0.01337,  -0.04759,   0.00794,   0.02967,  -0.01499,   0.00613,  -0.01198,   0.00673,   0.02303,  -0.04155,  -0.02646,   0.02967,  -0.00292,  -0.02224,  -0.01137,   0.03510,  -0.02827,   0.01820,   0.01941,  -0.00956,   0.00009,  -0.01862,  -0.01439,   0.00734,  -0.05543,   0.02967,  -0.00172,  -0.04095,  -0.04095,  -0.01439,   0.02303,  -0.02586,   0.00975,   0.01760,  -0.02646,  -0.00956,  -0.03370,  -0.04095,  -0.00051,   0.00070,  -0.00655,   0.03027,   0.00975,  -0.01681,   0.00794,   0.02605,  -0.00715,  -0.00594,   0.02001,   0.01277,  -0.02586,  -0.01137,  -0.00594,  -0.00051,  -0.01741,   0.01579,   0.00190,   0.00915,  -0.00353,  -0.02525,  -0.00413,   0.06286,   0.00190,   0.05320,  -0.02586,   0.01579,   0.02242,  -0.01801,   0.00854,  -0.02827,  -0.00172,  -0.02405,  -0.00715,   0.00492,  -0.01017,  -0.02827,   0.00854,   0.03510,  -0.02767,   0.00251,   0.01518,  -0.01862,   0.00794,   0.02484,   0.00432,   0.00613,  -0.01922,  -0.02646,   0.03993,   0.01397,  -0.00353,  -0.08138,  -0.03491,  -0.01258,  -0.00775,   0.00975,   0.00009,   0.00432,  -0.02827,  -0.02827,  -0.01982,   0.04717,   0.00553,   0.02605,  -0.01499,  -0.01862,  -0.00655,  -0.00775,   0.01458,   0.02544,   0.00492,  -0.00051,   0.00975,  -0.02043,   0.02001,  -0.02043,  -0.00413,   0.00009,  -0.00473,   0.03389,  -0.02707,  -0.03008,  -0.02224,   0.04053,  -0.00111,   0.00311,  -0.02586,   0.01035,  -0.00896,  -0.01077,   0.02423,  -0.02103,  -0.02707,   0.01579,   0.00251,   0.01096,  -0.00655,  -0.00172,   0.00854,  -0.02405,   0.00553,  -0.01379,  -0.00172,  -0.00111,   0.01699,  -0.00111,   0.02605,   0.03148,   0.01941,   0.00190,   0.00190,  -0.01681,  -0.00473,  -0.02646,  -0.02586,   0.00311,  -0.00413,   0.00553,   0.01156,  -0.02043,  -0.03250,   0.00613,   0.00794,  -0.01801,   0.00553,  -0.01620,  -0.00594,   0.02001,   0.00492,  -0.01741,   0.02484,  -0.00232,  -0.00655,  -0.00956,  -0.03069,  -0.01077,  -0.01681,   0.03751,   0.02122,   0.01639,  -0.04336,   0.00553,  -0.00534,  -0.03491,  -0.03491,   0.02786,   0.01096,  -0.00956,   0.00613,  -0.01137,   0.00794,   0.00915,  -0.01862,  -0.01198,   0.01458,   0.00251,   0.01156,   0.03087,  -0.01801,  -0.01077,  -0.03491,   0.01639,   0.00009,  -0.00111,  -0.01077,   0.00553,   0.01639,  -0.02224,   0.02484,   0.02544,   0.02182,   0.02122,  -0.01318,  -0.03491,   0.00613,  -0.01620,  -0.03431,  -0.02224,  -0.00594,  -0.02465,  -0.00896,  -0.01620,  -0.00051,   0.01880,  -0.00232,   0.03993,  -0.00413,  -0.00413,   0.01156,   0.00613,   0.00009,   0.01699,  -0.00473,   0.00492,   0.01337,  -0.01379,   0.00915,   0.00432,  -0.00594,   0.01458,   0.00251,  -0.03008,   0.00311,   0.02906,  -0.00594,   0.01518,  -0.01077,  -0.00836,   0.01277,  -0.00956,  -0.00715,  -0.00473,  -0.02586,   0.00190,   0.00794,   0.01760,  -0.02827,  -0.00534,   0.00009,  -0.01862,  -0.00956,   0.03993,   0.00311,  -0.00896,  -0.00896,   0.01277,  -0.00715,   0.03631,  -0.02344,  -0.02103,  -0.05724,  -0.01077,  -0.02888,   0.01579,  -0.03008,   0.06709,  -0.01681,   0.02846,  -0.01439,   0.01096,  -0.01198,   0.01156,  -0.00534,   0.01820,  -0.01620,   0.00190,  -0.02043,  -0.03551,  -0.00775,   0.00975,  -0.01318,  -0.01801,   0.00915,   0.01035,  -0.02948,  -0.00232,  -0.01801,   0.01397,  -0.01198,   0.01820,   0.01880,  -0.01741,   0.02786,   0.02605,  -0.02405,   0.03087,  -0.00896,  -0.05302,   0.01579,   0.03329,  -0.00715,  -0.01922,   0.01277,  -0.04819,  -0.03310,   0.01820,   0.00311,  -0.03853,   0.00009,  -0.00172,   0.00613,  -0.00896,  -0.03008,  -0.00896,  -0.01017,  -0.00232,  -0.01318,  -0.04276,   0.00553,   0.00613,  -0.04396,  -0.00111,   0.01699,   0.00734,   0.02061,   0.00553,   0.02725,  -0.00413,   0.00492,   0.02846,  -0.02405,   0.01156,  -0.00111,  -0.00353,   0.00794,   0.01941,  -0.02465,  -0.01318,   0.01699,   0.00311,   0.04596,   0.03631,  -0.03008,   0.00492,   0.01760,  -0.01982,   0.00794,   0.03087,  -0.00594,  -0.00413,   0.02906,  -0.00896,  -0.04034,   0.01941,   0.01035,   0.02484,  -0.02284,   0.02061,  -0.01318,  -0.01620,   0.02484,   0.00371,  -0.00413,   0.02363,   0.00734,  -0.00775,  -0.00353,  -0.00655,  -0.02344,   0.03631,  -0.01681,   0.01277,   0.00794,   0.03872,  -0.01439,   0.01035,   0.00975,   0.00190,   0.01397,  -0.04276,  -0.01439,   0.01941,  -0.01741,  -0.03069,  -0.01922,  -0.05483,  -0.02707,   0.00130,   0.02967,  -0.00956,   0.00915,  -0.01801,  -0.01198,  -0.00836,   0.00311,  -0.01258,   0.00251,   0.00251,   0.02484,   0.00673,  -0.02284,   0.01579,   0.03389,   0.01639,  -0.00051,   0.02605,   0.03087,   0.01277,  -0.02163,  -0.00534,  -0.03129,   0.01035,   0.00492,   0.02242,  -0.02948,   0.00915,   0.00613,   0.01096,   0.03691,  -0.00836,  -0.01318,  -0.02163,   0.00975,  -0.00232,   0.02061,  -0.00715,   0.00432,   0.00432,  -0.02224,  -0.00353,  -0.02284,   0.00613,   0.02906,  -0.03853,  -0.05362,   0.03631,   0.01337,   0.02725,  -0.01982,   0.03510,   0.00070,   0.00070,   0.00130,  -0.00896,   0.01579,  -0.00232,   0.00432,  -0.02103,   0.03449,  -0.01741,   0.00975,  -0.00111,  -0.00232,  -0.01801,   0.03329,   0.01579,   0.00432,   0.02665,   0.01941,   0.01639,  -0.00655,   0.01880,  -0.01560,   0.00070,   0.03449,   0.01941,   0.01820,   0.02001,   0.02544,  -0.01499,  -0.03672,   0.02484,   0.03027,   0.03027,   0.02544,   0.00432,  -0.01560,   0.00251,   0.01639,  -0.02224,  -0.02344,  -0.01077,  -0.01439,   0.01096,   0.00190,   0.02786,   0.03570
   0.00794,  -0.02284,  -0.00413,   0.01035,   0.02906,  -0.02224,   0.03329,  -0.01681,   0.00251,  -0.02767,  -0.01681,  -0.00594,  -0.03733,   0.00190,  -0.00232,   0.00311,  -0.01741,   0.01760,  -0.02284,  -0.00413,   0.01337,  -0.00232,  -0.00353,   0.00070,  -0.02224,   0.02544,  -0.03431,   0.00553,  -0.00715,   0.01156,   0.02665,  -0.00956,   0.00673,   0.00130,   0.01397,  -0.00111,  -0.01258,  -0.03672,   0.02423,  -0.00534,   0.03932,   0.02363,   0.00130,   0.00432,   0.02182,   0.00371,   0.00009,  -0.02224,  -0.00353,  -0.00594,   0.03751,  -0.00353,   0.00009,   0.00553,  -0.06267,  -0.04879,  -0.02888,  -0.00353,  -0.03189,  -0.01137,  -0.00051,   0.00070,  -0.01017,   0.02544,   0.02967,   0.01579,  -0.01379,  -0.00534,  -0.04457,   0.01337,  -0.01620,   0.01820,  -0.01439,   0.01941,   0.04234,  -0.00775,   0.02605,  -0.02646,  -0.02224,   0.00673,   0.00009,   0.00673,   0.02544,   0.00975,  -0.04819,  -0.02465,   0.00975,  -0.01982,   0.01518,  -0.00594,  -0.02405,  -0.00232,   0.04174,   0.00311,   0.02605,   0.00794,  -0.02163,   0.01337,   0.00553,   0.00009,  -0.00655,  -0.00473,  -0.03129,  -0.04276,  -0.01137,  -0.01439,   0.03812,   0.00009,  -0.00956,   0.01277,   0.01760,  -0.02767,  -0.01137,  -0.02948,   0.02967,   0.00854,   0.00734,   0.00794,  -0.00655,   0.00251,   0.02061,   0.02182,  -0.03733,  -0.00172,   0.01760,  -0.00051,   0.06890,  -0.00775,   0.00794,   0.01216,  -0.02948,  -0.02405,   0.00251,  -0.00836,   0.02665,  -0.01137,   0.02303,  -0.02646,   0.00251,   0.01941,  -0.01077,  -0.03008,   0.00311,   0.01941,   0.00613,   0.00009,  -0.00655,  -0.03189,   0.01337,  -0.02224,   0.01518,   0.00130,   0.01277,   0.02605,   0.00553,  -0.02646,  -0.00715,   0.01760,  -0.00473,  -0.04759,  -0.00896,   0.02363,  -0.04336,   0.01337,  -0.00051,  -0.00896,  -0.01741,  -0.00956,  -0.01137,  -0.01017,  -0.00172,   0.01337,   0.03208,   0.00553,  -0.01379,  -0.00172,  -0.00413,   0.01216,  -0.00111,  -0.00413,  -0.01681,   0.01760,   0.00070,   0.01096,  -0.01560,  -0.00473,  -0.02525,  -0.00655,   0.02363,  -0.01560,  -0.01862,  -0.01862,   0.01458,  -0.01741,  -0.00111,   0.02001,   0.00794,   0.01277,   0.03329,  -0.03974,   0.01277,  -0.00172,   0.04838,  -0.00232,  -0.02767,   0.00975,   0.00673,  -0.02224,  -0.02284,  -0.03250,   0.00371,  -0.02043,  -0.01077,  -0.02586,  -0.00172,  -0.01318,  -0.00655,  -0.00956,   0.03027,  -0.01258,   0.01699,   0.02182,   0.01579,  -0.01922,  -0.02405,   0.01156,  -0.00172,  -0.01077,  -0.02103,   0.01337,   0.00734,   0.03751,  -0.01741,   0.04596,  -0.00473,   0.02122,  -0.00896,   0.02001,  -0.00775,   0.04174,   0.00070,   0.01579,  -0.02405,   0.01397,  -0.05060,   0.00371,   0.00371,  -0.00232,  -0.05483,   0.01941,  -0.01439,   0.03631,  -0.00111,  -0.01499,  -0.01077,   0.01337,  -0.00775,   0.02303,   0.00311,  -0.02646,  -0.04276,   0.00190,  -0.00534,   0.01216,  -0.00051,   0.03148,  -0.01198,   0.03329,  -0.04879,   0.02423,   0.03449,  -0.02525,   0.01035,   0.01579,   0.01518,  -0.00353,  -0.00172,   0.00371,  -0.00473,  -0.02163,   0.00915,   0.00492,  -0.00775,   0.00130,  -0.00956,  -0.00353,  -0.00715,   0.00190,   0.00070,  -0.00896,  -0.00534,  -0.02405,  -0.00172,  -0.01077,  -0.00172,  -0.01681,  -0.02948,  -0.01982,   0.00613,   0.02725,  -0.03551,   0.00613,  -0.00111,  -0.03370,   0.01035,  -0.01318,  -0.01379,   0.03329,  -0.00292,   0.00251,   0.00794,  -0.01801,   0.00251,  -0.02827,   0.02665,   0.00975,   0.00915,   0.00734,  -0.01439,  -0.00594,   0.01639,   0.00975,  -0.00594,   0.00734,  -0.00534,  -0.00534,   0.01579,   0.03329,  -0.02465,   0.01699,  -0.01801,  -0.04819,  -0.01198,   0.03872,  -0.00413,   0.00673,   0.01277,   0.00673,  -0.00534,   0.00734,   0.00613,  -0.01560,   0.00854,   0.00613,  -0.01801,   0.02061,  -0.00051,   0.02725,  -0.00292,   0.00975,  -0.02103,   0.01216,  -0.00111,   0.01518,  -0.00956,   0.00613,  -0.01499,  -0.03974,   0.00432,  -0.00051,   0.01699,  -0.02465,  -0.01982,   0.02363,  -0.00655,   0.00613,   0.00673,  -0.00775,   0.01760,   0.02061,  -0.00956,  -0.00594,   0.00311,  -0.01801,  -0.01379,  -0.01318,   0.03087,  -0.02405,  -0.00896,   0.01156,  -0.00413,   0.01880,  -0.00051,  -0.00956,   0.04657,   0.00130,   0.00251,  -0.02103,  -0.01137,  -0.02525,  -0.00655,  -0.02525,   0.02122,   0.02001,   0.00130,   0.00311,  -0.02043,   0.01096,   0.01216,  -0.02344,  -0.00111,  -0.00292,  -0.01681,  -0.00353,  -0.02465,   0.02242,   0.01337,  -0.00473,   0.00070,  -0.00655,   0.02423,  -0.01077,   0.03812,  -0.00353,  -0.00473,   0.01579,   0.00613,   0.02906,  -0.01379,  -0.02284,  -0.02767,   0.01639,   0.01035,   0.01639,   0.03087,   0.00009,   0.00553,   0.01941,  -0.00896,  -0.00594,  -0.01137,   0.02242,  -0.00594,   0.01880,  -0.00836,   0.02061,  -0.01922,   0.02786,  -0.07414,   0.01518,   0.03812,   0.00613,   0.01035,  -0.01318,  -0.00353,  -0.03370,  -0.01801,   0.00371,  -0.01137,   0.00492,   0.02001,   0.00009,  -0.01922,   0.01579,  -0.00111,   0.04838,   0.01518,   0.00432,  -0.00715,  -0.01560,   0.02001,   0.00975,   0.03027,  -0.00534,   0.00371,  -0.00715,   0.02061,  -0.02465,  -0.02344,  -0.01198,  -0.01198,  -0.03551,  -0.01620,   0.00492,   0.01518,   0.01518,   0.01639,   0.00673,   0.02001,  -0.00956,   0.03449,  -0.00715,   0.00492,   0.01639,   0.02363,  -0.02465,   0.01216,   0.00130,  -0.03250,  -0.01620,   0.00673,   0.00613,   0.02665,  -0.01137,  -0.00655,   0.00432,   0.02846,  -0.01801,   0.02182,   0.00311,  -0.03431,   0.01579,   0.02967,   0.00251,  -0.00775,   0.01760,  -0.05241,   0.01579,  -0.00836,   0.01035,  -0.00292,  -0.01801,   0.01639,   0.04475,  -0.01862,   0.00553,  -0.02586,  -0.03008,   0.00553,   0.03027,   0.01820,  -0.04034,  -0.03069,  -0.02948,  -0.01379,  -0.00413,   0.03087,  -0.00111,  -0.02103,   0.00251,   0.03148,  -0.01379,  -0.00836,  -0.04396,   0.00190,  -0.01017,  -0.01379,  -0.01560,  -0.00292,  -0.00594,  -0.00836,   0.00009,  -0.00353,  -0.00594,  -0.00775,  -0.01620,   0.02786,  -0.02465,   0.00130,   0.02484,  -0.04457,   0.02544,   0.00311,  -0.01862,  -0.03129,   0.01820,   0.02363,  -0.04517,   0.00975,   0.01035,  -0.03008,   0.02605,  -0.01077,  -0.01077,   0.01277,  -0.00292,   0.04355,  -0.00956,  -0.01862,   0.00311,   0.03510,  -0.00775,   0.01096,  -0.02525,   0.01639,  -0.01198
  -0.02284,   0.03208,   0.00311,  -0.02103,   0.03268,  -0.01439,   0.03268,   0.03208,   0.01941,  -0.00413,  -0.01560,  -0.00172,   0.01579,   0.02846,  -0.00353,   0.03027,   0.00311,  -0.01620,   0.00432,   0.00915,  -0.02707,   0.01397,  -0.00111,   0.01035,   0.00070,  -0.02405,  -0.00413,   0.04475,   0.00311,  -0.01137,  -0.00896,   0.00673,   0.00311,  -0.01077,   0.02122,  -0.01499,  -0.00051,  -0.00956,   0.00734,   0.00854,  -0.00956,   0.02423,  -0.00111,   0.03087,   0.00130,  -0.03672,  -0.02767,  -0.01862,   0.00975,  -0.00111,  -0.02465,   0.01458,   0.02242,  -0.00292,  -0.00836,   0.01337,  -0.00353,  -0.03733,  -0.00353,   0.01699,   0.03027,  -0.00715,  -0.00836,  -0.01801,  -0.02224,   0.00492,   0.00070,  -0.02646,   0.01277,   0.01760,   0.03449,  -0.00896,  -0.00111,   0.03449,   0.02605,  -0.02827,   0.00432,   0.03751,  -0.01922,  -0.01439,  -0.00353,  -0.02707,  -0.03310,   0.01035,   0.00613,   0.00432,  -0.02344,  -0.03250,   0.00854,  -0.00715,  -0.00896,  -0.04396,  -0.00232,  -0.02646,  -0.05966,  -0.00473,  -0.00292,   0.01579,  -0.00232,  -0.00353,   0.01156,   0.00915,  -0.00655,  -0.01560,  -0.00594,   0.02303,  -0.01258,  -0.02525,   0.00673,   0.00130,   0.02544,   0.00070,  -0.00292,  -0.00111,  -0.02344,  -0.02405,  -0.01258,  -0.01198,   0.03751,  -0.03974,   0.03449,   0.04536,   0.01941,  -0.01922,   0.01277,   0.01760,   0.03751,  -0.00292,  -0.00232,   0.02967,   0.01820,  -0.00473,  -0.02284,  -0.01439,  -0.02767,   0.00492,   0.01337,  -0.01862,   0.00854,  -0.00353,  -0.01862,  -0.04155,  -0.00353,   0.00915,  -0.01801,  -0.01922,   0.01035,  -0.00172,   0.04234,  -0.00655,   0.01639,   0.01096,   0.00432,   0.00130,   0.01277,   0.03329,  -0.02344,  -0.01499,   0.00673,  -0.00353,  -0.02465,  -0.01198,   0.02363,  -0.02163,   0.03751,   0.00190,   0.03449,  -0.00353,   0.01579,  -0.01862,  -0.02284,  -0.03431,   0.02182,  -0.00715,  -0.00534,   0.01820,   0.04596,  -0.00413,  -0.02465,  -0.00655,   0.00734,   0.00673,  -0.06750,  -0.01017,  -0.01560,  -0.00232,   0.00432,   0.00915,  -0.00775,  -0.00051,  -0.02707,  -0.00111,  -0.00534,   0.00130,  -0.01198,  -0.01017,  -0.01801,   0.00070,   0.02303,  -0.02586,   0.00975,   0.01156,  -0.05241,  -0.00836,  -0.04095,   0.01337,  -0.03491,   0.01699,   0.00251,  -0.01862,  -0.01560,   0.01096,   0.00975,   0.00371,  -0.00715,  -0.01982,  -0.01862,   0.02725,  -0.02344,  -0.00775,   0.02544,  -0.00172,  -0.01862,  -0.02767,  -0.01258,   0.03329,   0.00130,   0.03570,   0.02725,  -0.00715,   0.00311,   0.00190,  -0.01620,   0.01820,   0.01277,   0.01397,  -0.02888,  -0.02043,   0.00975,  -0.01560,  -0.02646,   0.02665,   0.00854,   0.01397,   0.01699,   0.01579,  -0.00775,  -0.00292,   0.01639,  -0.00896,   0.01035,   0.01639,  -0.00473,  -0.01318,  -0.01137,   0.00553,   0.01699,  -0.00655,   0.00734,  -0.01620,   0.01458,   0.01941,  -0.00473,  -0.01439,  -0.01620,   0.02242,  -0.00413,   0.00070,  -0.03793,   0.01277,   0.00190,   0.02182,  -0.01922,  -0.01801,  -0.00836,   0.03691,   0.00371,   0.00432,   0.01699,  -0.00836,   0.01820,  -0.02344,   0.02363,   0.02725,   0.02182,   0.02484,   0.00854,  -0.00051,  -0.02525,   0.01216,  -0.04034,  -0.00413,  -0.01741,  -0.01681,  -0.00111,   0.04898,  -0.00896,   0.01096,   0.00492,   0.01579,   0.01035,   0.01337,   0.01880,   0.02967,  -0.01741,   0.00854,   0.00130,   0.00673,   0.00371,   0.01277,   0.03812,  -0.03189,   0.00492,   0.01458,  -0.01258,   0.00009,  -0.01801,   0.01579,   0.02725,  -0.01620,  -0.01017,   0.02182,  -0.01258,  -0.01017,   0.00915,   0.01880,   0.02906,   0.01096,   0.00190,   0.02423,   0.02182,   0.01096,   0.02061,   0.00432,  -0.01862,  -0.00775,   0.00975,   0.01518,   0.00915,   0.01096,  -0.00655,  -0.00473,   0.01035,  -0.00594,  -0.01077,   0.03148,   0.01880,   0.03329,   0.02242,  -0.03793,  -0.01318,   0.00371,  -0.03008,   0.01277,   0.00673,  -0.00775,  -0.01137,  -0.02525,  -0.00655,   0.01699,   0.01639,   0.02122,  -0.00292,  -0.01560,  -0.00655,  -0.01922,  -0.00172,   0.00613,  -0.01922,   0.02846,  -0.01198,  -0.01439,  -0.00956,  -0.01560,  -0.00292,  -0.01741,   0.00915,  -0.00353,   0.01156,  -0.02827,   0.03812,  -0.01560,  -0.02888,   0.02906,  -0.01862,  -0.00292,   0.04958,   0.02846,   0.00432,  -0.03612,   0.03268,   0.04898,   0.00190,   0.01035,   0.00854,  -0.00956,  -0.01318,   0.00371,  -0.00715,   0.05320,   0.02846,  -0.00232,   0.00311,  -0.02525,  -0.00655,   0.01820,  -0.00715,  -0.02163,   0.02423,  -0.00715,   0.00432,  -0.01741,  -0.02827,   0.03268,   0.01639,   0.00794,   0.00070,  -0.01681,  -0.00413,  -0.02888,   0.03027,   0.00553,   0.00311,  -0.01258,  -0.00172,   0.01699,  -0.01439,   0.01096,  -0.00172,  -0.04155,   0.00311,  -0.02888,  -0.00292,   0.04596,   0.00492,  -0.00594,   0.01579,   0.02122,  -0.01318,  -0.02043,  -0.03672,   0.00613,   0.04898,   0.00794,   0.01035,  -0.01137,  -0.00956,  -0.04819,  -0.01560,   0.01397,  -0.01137,   0.01820,  -0.01801,  -0.01862,  -0.04336,   0.00371,  -0.02043,   0.00371,  -0.01258,  -0.00111,   0.02665,  -0.00896,   0.01156,  -0.01137,   0.01216,   0.01035,  -0.00473,  -0.00534,   0.02061,   0.00492,   0.00190,  -0.00715,   0.04958,   0.02725,   0.02242,  -0.00473,  -0.00232,   0.00734,  -0.03431,   0.01880,   0.01216,  -0.01017,  -0.00051,  -0.01862,   0.06045,   0.00613,  -0.03431,   0.00251,   0.02363,   0.00009,  -0.01439,   0.01397,   0.00915,   0.01880,  -0.01982,  -0.01077,   0.00070,  -0.00836,  -0.01982,  -0.00775,   0.00251,   0.00915,   0.01941,  -0.03310,   0.01518,  -0.02163,  -0.00594,   0.01880,  -0.01017,  -0.00051,   0.01579,   0.01518,  -0.01982,  -0.01681,  -0.00655,   0.00553,   0.01035,  -0.01198,  -0.00655,   0.00553,  -0.00896,   0.02001,   0.00251,  -0.01681,  -0.01198,  -0.02767,  -0.03431,   0.02182,  -0.01137,   0.00070,   0.01216,  -0.02405,   0.02182,  -0.00051,  -0.02586,   0.00673,   0.02122,   0.01096,  -0.01017,  -0.01318,  -0.01862,   0.00311,   0.00553,   0.02967,  -0.00232,   0.01880,   0.00553,   0.04174,   0.03268,  -0.00956,  -0.00051,  -0.00775,  -0.00715,   0.04113,   0.01518,  -0.00715,  -0.02284,   0.02423,   0.00371,  -0.01379,   0.01458,  -0.01318,   0.00915,   0.00673,  -0.01620,   0.00009,  -0.01077,   0.01216,  -0.02827,   0.02423,   0.00130,  -0.01258,  -0.02224,   0.01820,  -0.02405,  -0.00775
  -0.01318,   0.00854,  -0.02948,  -0.00051,  -0.00473,  -0.03008,  -0.00292,   0.00251,  -0.00413,  -0.02043,   0.02182,  -0.00172,  -0.00473,   0.00371,   0.00854,  -0.00353,  -0.02586,  -0.03008,  -0.01741,  -0.02646,   0.00251,  -0.01862,  -0.00594,  -0.02827,   0.01699,   0.03208,   0.03510,   0.01639,   0.01337,  -0.03733,  -0.00292,  -0.01862,  -0.00473,  -0.02344,  -0.00111,   0.03329,   0.00975,  -0.00836,   0.04113,  -0.02586,   0.00371,  -0.00051,   0.01096,  -0.02646,  -0.00775,  -0.00111,   0.00009,   0.01699,  -0.02586,  -0.01198,  -0.01560,   0.00492,  -0.00775,   0.00251,  -0.03069,   0.00070,  -0.00292,   0.01941,   0.00251,  -0.02465,  -0.02465,  -0.04457,   0.00371,  -0.01198,  -0.00715,  -0.03310,   0.02242,  -0.00534,   0.00553,  -0.03491,   0.01337,   0.02544,  -0.00292,   0.00311,  -0.01620,  -0.02827,   0.01760,  -0.02224,   0.00311,   0.02846,  -0.02646,   0.03691,   0.01880,   0.02544,  -0.02043,   0.04174,  -0.03008,   0.03570,   0.00794,   0.05019,   0.03268,  -0.01077,  -0.00836,   0.00130,   0.02182,   0.00794,   0.02363,   0.02846,   0.02967,   0.00553,   0.03631,  -0.02586,  -0.02344,   0.03510,   0.01156,  -0.00715,   0.01216,   0.00190,  -0.01982,   0.02544,  -0.01681,   0.01458,   0.01458,  -0.01801,  -0.02284,  -0.01741,  -0.01922,  -0.00111,   0.03510,  -0.02043,  -0.01137,   0.02786,   0.00251,   0.00673,  -0.01017,  -0.01620,   0.03087,   0.04838,  -0.00896,  -0.01741,   0.00432,  -0.00051,   0.02303,  -0.03069,  -0.01922,   0.02423,  -0.02344,  -0.01198,  -0.02043,   0.01277,   0.03329,   0.01941,   0.01941,   0.03510,  -0.00473,   0.01760,   0.01035,  -0.01922,  -0.00232,  -0.00715,  -0.03370,   0.00190,  -0.01560,   0.00009,   0.00009,  -0.02043,   0.00492,   0.01699,   0.00432,   0.03449,  -0.02707,  -0.01681,  -0.00232,  -0.01681,   0.01397,  -0.02103,  -0.01017,   0.00371,  -0.03069,   0.00251,  -0.01439,   0.02725,  -0.02948,  -0.01560,  -0.02103,  -0.00956,  -0.01560,  -0.01137,  -0.01137,  -0.01982,   0.02544,   0.00553,   0.01337,  -0.00111,  -0.01499,  -0.00896,   0.00734,   0.00070,   0.02484,   0.02061,  -0.02767,  -0.00292,   0.02303,   0.00975,   0.02303,  -0.00594,  -0.01560,  -0.03250,   0.01760,   0.00975,  -0.06147,   0.01699,   0.00009,   0.00009,   0.02665,   0.01277,  -0.01681,  -0.00353,  -0.03069,   0.02665,  -0.01077,   0.04355,   0.00673,  -0.01137,   0.02122,  -0.03431,  -0.01681,   0.01941,  -0.00715,  -0.01379,   0.01216,  -0.03431,  -0.03672,  -0.01560,   0.01397,   0.00009,   0.00794,   0.00794,  -0.00836,  -0.00111,  -0.00353,  -0.00051,   0.00492,   0.00734,   0.01216,  -0.01681,   0.00432,  -0.00534,  -0.01439,   0.03993,   0.00975,   0.02061,   0.00432,   0.00371,  -0.00111,   0.01518,   0.03872,  -0.01318,  -0.00534,   0.03087,   0.05924,  -0.01077,   0.01397,   0.01760,  -0.01801,   0.03570,   0.02423,   0.02665,  -0.01198,  -0.04517,  -0.00353,   0.00794,  -0.00715,   0.05501,  -0.02646,   0.00915,  -0.00715,  -0.00051,  -0.00775,   0.00915,  -0.03069,   0.01277,  -0.00232,  -0.00594,   0.01518,  -0.02767,  -0.01077,  -0.01318,  -0.01681,   0.00854,   0.01699,  -0.01017,   0.02725,   0.00734,   0.00613,   0.01639,  -0.00051,   0.02001,  -0.00172,   0.00130,  -0.00172,  -0.02043,   0.00734,   0.02846,  -0.03551,   0.02544,   0.00734,  -0.00292,  -0.00775,   0.00975,  -0.01017,  -0.00775,   0.03148,  -0.00172,  -0.00232,   0.01699,  -0.00292,  -0.00896,  -0.03129,   0.01096,  -0.02465,  -0.02224,  -0.01982,   0.01216,  -0.00292,   0.00794,   0.00009,   0.01156,  -0.00292,   0.00432,  -0.00232,  -0.02163,   0.01156,   0.01699,   0.00009,   0.01337,  -0.01318,  -0.00956,   0.00190,  -0.00353,   0.02725,  -0.00111,  -0.00594,   0.01277,   0.01820,   0.01156,   0.00371,   0.00673,   0.00673,   0.01518,   0.02725,   0.01639,  -0.01017,  -0.01318,   0.00311,   0.02061,  -0.02827,  -0.00353,   0.00070,   0.02967,   0.04355,  -0.00534,  -0.00594,  -0.00956,  -0.01499,   0.01699,  -0.03853,  -0.02646,  -0.02284,  -0.01862,   0.00070,   0.02423,  -0.01560,  -0.00655,   0.00070,   0.00492,   0.00492,  -0.00413,   0.01397,  -0.00232,  -0.01620,  -0.01681,  -0.00232,  -0.00172,  -0.00413,  -0.02163,   0.00673,  -0.01801,  -0.01258,  -0.01620,  -0.00715,  -0.01620,   0.03148,   0.02182,  -0.00775,   0.01941,  -0.00715,   0.01941,  -0.00594,  -0.01862,   0.01337,   0.03268,   0.00492,   0.03993,   0.00613,   0.00371,  -0.00715,   0.01216,  -0.02586,  -0.00956,   0.02303,  -0.03974,  -0.00111,  -0.01258,   0.01518,   0.00613,   0.00009,  -0.00655,  -0.01137,   0.01096,  -0.05000,   0.00251,   0.01096,  -0.01620,  -0.00715,  -0.01741,   0.00492,  -0.03974,  -0.03129,   0.01216,  -0.00111,  -0.00232,  -0.01379,  -0.01379,  -0.00896,   0.00251,   0.03389,   0.01035,  -0.02284,   0.00734,   0.00070,  -0.01258,  -0.00232,  -0.00353,  -0.01017,   0.00070,  -0.01379,  -0.00655,  -0.03310,   0.00432,  -0.00896,  -0.03008,  -0.02948,   0.00130,  -0.01620,   0.00009,   0.02423,  -0.01922,   0.00673,  -0.01922,   0.01518,   0.01337,   0.01699,  -0.02827,  -0.00956,  -0.00353,  -0.00473,  -0.01439,   0.02484,  -0.00715,  -0.00473,   0.01699,   0.01880,  -0.00111,   0.01699,   0.00009,   0.00794,   0.01820,   0.00432,   0.02423,  -0.01077,   0.04475,  -0.00051,   0.01277,   0.00673,  -0.00655,  -0.01439,  -0.02465,  -0.01620,   0.00915,  -0.01258,  -0.00232,   0.00734,   0.00613,   0.04053,   0.02605,   0.01579,   0.02182,  -0.01379,   0.00553,   0.01639,   0.01760,  -0.01982,  -0.03612,   0.04657,   0.01880,  -0.01982,  -0.00956,   0.02906,   0.00009,   0.00251,   0.00311,   0.01880,   0.00734,  -0.03612,   0.02061,  -0.01318,  -0.01681,  -0.01499,   0.01156,   0.00311,   0.03691,   0.02665,  -0.00836,  -0.00172,  -0.03189,  -0.02465,   0.00734,   0.02061,   0.00492,  -0.02405,   0.00975,   0.05984,   0.03208,   0.01096,  -0.00473,   0.01337,  -0.00836,   0.03208,  -0.01620,   0.01156,   0.01035,  -0.00111,  -0.04034,   0.00613,  -0.03491,  -0.01258,   0.00251,  -0.00413,   0.01277,  -0.01439,   0.00854,   0.00915,  -0.02888,  -0.04336,  -0.03491,  -0.01560,   0.03208,  -0.03008,   0.03812,  -0.00775,  -0.00956,  -0.00956,   0.03691,  -0.02224,   0.03329,   0.01579,   0.00130,  -0.01922,  -0.00473,   0.00130,   0.00673,   0.00311,   0.03631,   0.01216,  -0.04276,   0.01277,   0.01639,  -0.02405,   0.00613,   0.00130,  -0.00655,   0.01156,   0.00070,   0.00915,  -0.01077
  -0.02043,   0.03208,  -0.01318,  -0.04698,  -0.00534,  -0.01560,  -0.02043,   0.01156,   0.00371,   0.00070,  -0.00655,   0.00070,   0.02725,  -0.00232,   0.00673,   0.00009,   0.02846,   0.04657,  -0.00655,  -0.03491,   0.01277,   0.00311,  -0.01137,   0.01941,   0.00553,   0.00432,  -0.00534,  -0.01801,  -0.03069,   0.02423,  -0.00836,  -0.05724,   0.01760,  -0.01620,   0.00371,   0.01518,   0.02122,  -0.00534,  -0.01198,   0.01458,   0.02423,  -0.00655,  -0.02827,  -0.03370,   0.01639,  -0.01439,  -0.00655,  -0.00896,   0.00251,   0.04838,   0.00673,   0.01518,  -0.00172,   0.02906,  -0.01982,  -0.01922,  -0.00413,  -0.01499,   0.00432,   0.00432,   0.00553,   0.01096,  -0.02465,   0.00613,  -0.00172,   0.01639,   0.02484,  -0.04336,  -0.00534,  -0.00594,  -0.00775,  -0.00111,   0.00251,  -0.00896,  -0.02465,  -0.02767,  -0.00051,  -0.00413,  -0.00775,  -0.00534,  -0.02405,   0.00673,  -0.02707,  -0.02405,   0.00190,  -0.01681,   0.00734,  -0.00956,  -0.00172,  -0.04155,   0.01820,   0.02182,   0.02423,  -0.01198,   0.01035,  -0.01379,   0.00492,  -0.01258,   0.00673,  -0.03069,   0.01096,  -0.02224,  -0.00715,  -0.00413,  -0.01982,  -0.00353,  -0.00172,  -0.00775,  -0.01681,  -0.02043,   0.00854,  -0.01499,  -0.00051,  -0.00715,   0.01760,   0.02846,   0.01156,   0.00854,   0.01277,  -0.00353,  -0.02586,   0.02363,  -0.02043,   0.00130,   0.02665,  -0.01077,   0.01458,  -0.01258,   0.00492,  -0.00836,   0.04113,  -0.00836,   0.01277,  -0.01198,   0.04174,   0.00915,  -0.00413,   0.02665,  -0.01741,   0.00673,   0.00130,  -0.03069,   0.00553,  -0.03431,  -0.00353,  -0.01439,  -0.01741,  -0.01862,  -0.02888,   0.01035,   0.00190,  -0.01379,   0.01277,   0.00854,  -0.01681,  -0.00715,   0.04415,   0.00130,  -0.01499,  -0.02465,   0.02605,   0.00371,  -0.01801,   0.02786,   0.05320,   0.00371,   0.02122,  -0.00172,   0.00070,  -0.01982,   0.01156,  -0.00655,   0.00975,   0.01941,  -0.02465,   0.02846,  -0.01258,   0.00130,  -0.02284,   0.03268,  -0.01862,  -0.00594,  -0.00473,  -0.00594,  -0.01318,   0.00854,  -0.00896,  -0.00775,   0.00311,   0.00492,  -0.00172,  -0.01017,   0.04838,   0.02363,  -0.00956,   0.00190,   0.01941,  -0.02586,   0.02725,   0.00794,   0.03510,   0.00492,   0.01579,  -0.00292,  -0.00051,   0.00251,  -0.01982,  -0.02103,  -0.01198,   0.01941,  -0.01077,   0.01156,  -0.00473,   0.01699,  -0.01318,  -0.00956,  -0.02525,   0.00975,   0.02242,   0.03268,  -0.02525,  -0.02767,   0.02967,   0.00915,   0.02061,  -0.00172,   0.01699,  -0.01982,   0.00553,   0.01579,   0.00311,   0.03751,   0.01639,  -0.02344,   0.03208,   0.00975,   0.01035,   0.01096,   0.02484,  -0.00292,   0.00553,  -0.01318,   0.02725,  -0.00594,   0.02182,   0.01156,  -0.02646,   0.00492,   0.00975,  -0.02163,   0.02363,  -0.01379,  -0.01862,  -0.03672,   0.01760,  -0.02224,   0.00432,   0.03691,  -0.00353,  -0.02103,   0.02846,   0.00613,   0.01820,   0.00190,  -0.04577,  -0.01862,   0.03027,  -0.00534,  -0.01741,   0.01760,   0.00130,  -0.03370,   0.01880,   0.04475,  -0.00594,  -0.04517,  -0.01439,  -0.00594,  -0.01499,  -0.02767,  -0.01439,  -0.02586,  -0.00111,   0.00673,  -0.01499,  -0.00896,   0.00553,  -0.03250,   0.00190,  -0.04396,  -0.01681,   0.00190,   0.01518,  -0.01137,  -0.01137,   0.04234,   0.00130,  -0.02888,   0.00734,   0.02122,   0.02242,   0.02786,  -0.03008,   0.05019,  -0.00172,  -0.02646,  -0.01681,   0.00492,  -0.02043,  -0.00534,   0.02182,   0.01277,   0.03691,  -0.02465,   0.03570,  -0.00775,  -0.00051,   0.03932,  -0.00956,   0.01156,  -0.01318,  -0.00292,  -0.00172,  -0.01198,   0.00311,  -0.00111,   0.01518,  -0.01439,  -0.02465,  -0.00172,   0.01337,  -0.00172,   0.00371,   0.03691,  -0.02646,  -0.00594,   0.00492,  -0.01982,   0.02544,  -0.01741,   0.01518,  -0.00292,   0.01760,   0.01579,  -0.01862,   0.01096,  -0.00172,   0.01458,   0.01699,   0.02001,  -0.01560,  -0.04457,  -0.00413,   0.00613,   0.04174,   0.02484,  -0.02344,   0.01880,   0.01518,  -0.01318,  -0.02224,  -0.02827,   0.03329,   0.00371,   0.01337,   0.02423,  -0.01801,  -0.02646,   0.01639,   0.02303,   0.02665,  -0.02284,  -0.03310,  -0.01439,  -0.04396,   0.00553,  -0.02103,  -0.01198,   0.01337,  -0.01258,  -0.00473,   0.01579,  -0.00292,   0.02484,   0.01941,   0.01397,   0.01216,  -0.01560,   0.00553,   0.01820,  -0.01198,  -0.01620,  -0.00715,   0.01156,  -0.00353,  -0.03370,   0.02303,   0.01458,   0.01337,   0.03570,  -0.02586,   0.00009,  -0.01620,  -0.01801,  -0.01922,  -0.02043,   0.01458,   0.02786,   0.02967,  -0.00594,   0.01096,   0.00613,  -0.00956,   0.01820,   0.00734,  -0.00413,  -0.02405,  -0.04034,   0.01699,  -0.01017,  -0.00353,   0.01397,  -0.00896,  -0.00473,  -0.02767,  -0.01620,   0.00915,  -0.04396,  -0.00413,   0.02725,   0.00371,   0.01337,  -0.03491,   0.00734,  -0.00775,  -0.00775,   0.02001,  -0.00715,  -0.00051,   0.00734,   0.00613,  -0.06086,   0.00794,   0.02242,  -0.03491,   0.00613,  -0.00956,  -0.02586,  -0.03612,   0.00854,   0.00794,  -0.02586,   0.02906,  -0.01801,   0.00794,   0.01579,  -0.03069,  -0.01198,   0.01337,   0.01337,  -0.00353,  -0.02103,  -0.01801,   0.01096,   0.00251,   0.01579,   0.00130,   0.02665,   0.00613,   0.00251,  -0.00534,  -0.01801,   0.00673,  -0.02827,   0.00311,   0.02665,  -0.00896,   0.00553,  -0.01077,  -0.01982,   0.04898,   0.00673,  -0.03129,   0.01941,  -0.02405,   0.05079,   0.00854,   0.01941,   0.02846,   0.00371,  -0.01077,  -0.00775,  -0.04457,  -0.00836,  -0.00353,   0.03872,   0.00251,  -0.00051,  -0.01077,   0.00673,   0.01518,   0.00130,  -0.00292,  -0.01379,   0.00975,  -0.01620,   0.00311,   0.01337,  -0.00534,  -0.00111,   0.03148,   0.03329,  -0.00594,  -0.02646,  -0.04396,   0.01518,   0.06407,  -0.00836,  -0.00836,   0.02725,   0.00371,   0.00009,  -0.02163,  -0.00051,   0.00311,  -0.00292,  -0.01560,  -0.02163,   0.01397,  -0.02344,  -0.01198,   0.00190,  -0.00232,  -0.00775,  -0.00172,   0.00673,   0.00854,   0.03570,   0.01216,  -0.00111,  -0.00896,   0.00734,   0.03329,  -0.02405,  -0.00292,   0.03510,   0.02363,   0.01941,  -0.00896,   0.00190,   0.00371,   0.02122,   0.00734,  -0.03853,  -0.01137,  -0.00172,  -0.00232,   0.00553,  -0.00232,   0.01096,  -0.00836,   0.01156,  -0.03853,   0.00915,  -0.00473,  -0.02043,   0.02061,   0.00915,   0.01337,  -0.00956,  -0.02948,  -0.00232,   0.01277,  -0.03008,  -0.02948,  -0.02646
   0.00070,  -0.00111,  -0.00534,  -0.00413,   0.01941,   0.00492,   0.01397,  -0.00715,  -0.00413,   0.00432,  -0.02043,  -0.01982,   0.01096,  -0.00775,   0.00251,   0.00190,  -0.01258,  -0.02888,  -0.03370,  -0.00473,  -0.00473,  -0.00655,   0.00190,   0.00734,   0.02484,   0.00794,   0.00432,  -0.00775,   0.03993,   0.01699,   0.01337,   0.02544,  -0.03310,  -0.00473,  -0.03491,  -0.04034,   0.00915,  -0.00715,  -0.03672,   0.01458,   0.03872,   0.00130,   0.00009,   0.01458,   0.00130,  -0.00715,   0.02906,  -0.01862,   0.03449,  -0.00413,   0.00311,   0.00794,  -0.01077,   0.01458,  -0.00232,   0.03148,   0.03087,  -0.06086,   0.00070,  -0.00534,   0.01518,  -0.01258,   0.00915,   0.02122,   0.00371,  -0.00473,   0.03148,   0.02786,   0.00915,  -0.02405,   0.00130,  -0.00956,   0.00794,  -0.00473,   0.01397,  -0.03612,  -0.03189,  -0.03793,  -0.02465,  -0.01620,  -0.00292,  -0.00232,  -0.01741,  -0.05905,   0.01639,   0.00553,   0.00251,  -0.00051,   0.01277,   0.03449,  -0.00775,  -0.03612,  -0.02465,  -0.02767,   0.01096,  -0.00172,  -0.01922,   0.02122,  -0.01801,  -0.01560,  -0.03129,  -0.03370,   0.01518,   0.00854,  -0.04276,  -0.02224,   0.00915,   0.03510,   0.01699,  -0.01318,  -0.01982,   0.01397,   0.03148,  -0.00111,  -0.00473,   0.01096,   0.02665,  -0.02284,   0.01277,  -0.02284,  -0.01620,   0.03872,  -0.00836,  -0.01982,   0.02242,   0.01760,   0.00492,   0.01458,   0.01579,   0.01518,   0.05079,   0.00432,  -0.00413,   0.01518,   0.01699,  -0.00715,   0.01035,  -0.03250,   0.00311,   0.00553,  -0.02043,  -0.01379,  -0.02707,   0.00009,  -0.01258,   0.00009,   0.01760,  -0.03733,   0.01518,   0.01760,   0.02061,  -0.01862,  -0.02103,  -0.01198,   0.00854,  -0.00051,   0.03932,  -0.01198,  -0.03612,   0.02303,   0.00371,   0.01518,   0.00794,   0.02484,   0.00492,  -0.02767,   0.00553,   0.00975,   0.01216,  -0.01439,  -0.01681,   0.01458,  -0.01439,   0.02786,  -0.05000,   0.01639,  -0.03250,   0.00794,  -0.01318,  -0.01258,  -0.01017,   0.01397,   0.00009,  -0.02405,   0.00432,  -0.00172,   0.01699,  -0.00111,  -0.03551,   0.03329,   0.02242,  -0.01801,   0.03570,  -0.01741,   0.01277,  -0.01862,   0.04113,   0.03148,   0.01216,  -0.01379,   0.00553,  -0.02465,  -0.00111,  -0.00473,  -0.03129,   0.02786,  -0.01439,   0.00311,  -0.01258,  -0.00534,   0.02605,   0.01035,   0.01216,  -0.01379,  -0.00111,   0.04113,   0.01579,  -0.01137,   0.01397,   0.03691,  -0.02344,   0.00432,  -0.00473,  -0.00836,  -0.02646,  -0.02224,  -0.00956,   0.01096,  -0.00534,   0.02423,  -0.00111,   0.02484,   0.00070,  -0.03370,  -0.03008,  -0.03129,  -0.00775,  -0.01318,   0.01397,  -0.00715,   0.00070,   0.00311,   0.02906,   0.01579,  -0.04879,  -0.00292,  -0.01137,   0.04174,  -0.00836,   0.01639,  -0.03250,  -0.01318,   0.00070,   0.00251,   0.01035,   0.03087,  -0.02284,  -0.04336,  -0.03612,   0.00070,   0.02242,  -0.01017,   0.01035,  -0.00534,  -0.00655,  -0.05000,  -0.00956,   0.03449,   0.00009,  -0.03793,  -0.01258,   0.02303,  -0.02405,   0.00492,   0.01579,  -0.02284,   0.01096,   0.01579,   0.01579,  -0.05181,   0.03268,  -0.00473,   0.02001,   0.02423,  -0.03129,  -0.00232,   0.07252,   0.02242,  -0.01982,  -0.01077,   0.00613,  -0.00111,   0.00915,  -0.01620,   0.00915,  -0.01922,  -0.04819,   0.00130,   0.00975,   0.02906,  -0.02043,   0.02846,   0.01820,  -0.02284,  -0.00111,  -0.03069,  -0.01620,  -0.00534,   0.00371,   0.01096,  -0.00896,   0.01458,   0.00673,   0.00492,   0.00794,  -0.02103,   0.01458,  -0.01017,   0.02122,  -0.01922,   0.04777,   0.00009,   0.00130,  -0.00353,   0.02605,  -0.02405,   0.02363,   0.00915,  -0.01862,   0.03027,  -0.02948,   0.01820,  -0.01620,  -0.05664,  -0.00413,   0.01156,   0.02122,   0.01880,  -0.00473,  -0.02284,  -0.00473,   0.01880,  -0.00111,   0.00371,   0.00130,   0.00553,   0.03268,   0.00311,  -0.02344,   0.04717,   0.01216,   0.01880,  -0.02465,  -0.02163,  -0.01620,   0.00734,   0.02001,   0.02001,   0.01156,   0.00251,   0.02906,   0.01820,  -0.00353,  -0.00594,   0.00794,   0.01156,  -0.00353,  -0.00051,   0.03932,  -0.01681,   0.01579,  -0.00292,  -0.00473,  -0.00836,  -0.01379,  -0.00715,  -0.02163,  -0.00353,  -0.00292,  -0.05060,  -0.03914,   0.00070,  -0.00534,   0.01639,  -0.02707,  -0.00413,   0.00673,  -0.00896,   0.00432,   0.01458,   0.03993,  -0.03431,  -0.04698,  -0.03551,   0.01035,  -0.04215,   0.00492,  -0.02405,  -0.01922,  -0.01077,   0.00975,  -0.02344,   0.01397,   0.00130,   0.00371,  -0.01922,   0.00854,  -0.01198,  -0.03431,   0.00070,   0.00130,  -0.00172,  -0.00534,   0.02725,   0.02242,  -0.00232,  -0.03733,   0.03148,  -0.01077,  -0.00775,  -0.00956,   0.00070,  -0.03612,  -0.02224,  -0.02043,  -0.00232,  -0.00775,   0.02484,   0.01820,   0.00251,   0.02061,   0.01096,   0.00915,   0.03208,   0.05079,  -0.01077,  -0.00051,  -0.02043,  -0.04577,   0.01518,   0.02665,   0.01880,   0.01156,  -0.00413,  -0.03793,  -0.00111,  -0.01801,   0.06105,   0.00190,   0.03208,   0.00432,   0.00251,  -0.00413,  -0.01198,  -0.00715,  -0.00232,   0.01941,  -0.00655,   0.00734,  -0.00655,   0.00975,   0.00613,  -0.00655,  -0.03250,   0.00553,  -0.01379,  -0.00292,  -0.01318,   0.01397,  -0.01198,  -0.01982,  -0.01439,   0.02967,   0.00070,   0.00251,  -0.01077,   0.00734,  -0.01137,  -0.03491,   0.00251,   0.02665,  -0.00715,   0.00432,   0.02906,   0.01880,   0.02423,   0.00553,  -0.02948,  -0.01137,   0.00130,   0.00311,  -0.00594,   0.00975,  -0.00655,  -0.00715,  -0.01077,   0.01941,   0.01035,  -0.01499,   0.01458,   0.02786,  -0.00232,  -0.03250,   0.00794,   0.03751,   0.01760,   0.00915,   0.00794,  -0.03069,  -0.02405,  -0.01198,   0.00130,   0.00734,   0.01579,   0.00613,   0.00553,   0.02544,  -0.00655,  -0.00594,   0.01579,  -0.00534,   0.02001,  -0.03189,   0.01337,   0.00070,   0.00251,   0.02786,  -0.00111,   0.01096,  -0.04215,  -0.00896,   0.05260,   0.01277,  -0.01258,  -0.01681,  -0.00172,   0.04053,  -0.02525,   0.02605,  -0.04034,   0.00251,   0.02605,   0.01216,  -0.01137,  -0.02405,   0.02665,   0.00009,   0.01035,   0.03449,   0.03449,   0.00854,  -0.00594,  -0.02405,  -0.01318,  -0.00232,   0.02665,  -0.01801,  -0.02888,  -0.02767,  -0.00836,  -0.00051,   0.01518,  -0.02888,  -0.00172,   0.01880,  -0.04396,  -0.00775,  -0.00715,   0.01760,   0.01035,   0.02001,  -0.02707,   0.00553,  -0.01741,   0.04415,   0.00311
   0.02967,   0.02303,  -0.00111,   0.01639,   0.01579,  -0.01198,   0.01216,  -0.00353,  -0.01198,  -0.01620,   0.01760,   0.01337,  -0.01017,   0.02786,   0.01397,  -0.02827,   0.03148,   0.02242,   0.02242,  -0.00775,   0.01096,   0.01458,   0.00311,   0.00009,  -0.02707,   0.00673,  -0.00956,  -0.00836,  -0.00232,   0.00915,  -0.01198,   0.03932,   0.01337,   0.01518,   0.03027,   0.00130,   0.01518,   0.02605,  -0.00172,   0.00915,   0.03631,  -0.01198,   0.00251,  -0.03310,   0.01277,   0.03751,  -0.01681,  -0.01198,   0.00613,  -0.01862,   0.06226,  -0.00836,   0.00854,  -0.01318,  -0.01741,  -0.00655,  -0.01862,   0.03268,   0.02423,  -0.02224,   0.00915,   0.00190,   0.00311,  -0.02043,   0.02122,  -0.01620,  -0.02767,  -0.02888,   0.03510,   0.00553,   0.03993,  -0.03793,  -0.01862,   0.01880,  -0.04336,  -0.00292,  -0.01258,  -0.00594,   0.03208,   0.00915,  -0.01077,   0.03932,  -0.00534,   0.02122,   0.01156,   0.00070,   0.01820,   0.01820,  -0.01862,   0.01760,   0.00432,   0.01699,   0.03268,   0.04475,   0.01458,   0.01216,   0.00432,   0.00009,   0.00371,   0.00673,   0.00794,  -0.03069,  -0.03129,  -0.01077,   0.02967,  -0.00413,  -0.01922,  -0.01801,  -0.00292,  -0.01198,   0.00794,  -0.00111,   0.00915,  -0.01318,  -0.03974,  -0.00413,   0.03570,  -0.00292,   0.02484,  -0.00413,  -0.05784,   0.00130,   0.00613,   0.04596,   0.00130,  -0.02405,  -0.00896,   0.00854,  -0.00292,   0.00794,   0.03812,  -0.04276,  -0.02646,  -0.03250,  -0.00836,  -0.01077,   0.01035,   0.02182,   0.00070,  -0.00413,   0.01820,   0.01699,   0.02001,  -0.01681,   0.02122,   0.00251,  -0.00353,   0.02061,  -0.00715,  -0.02707,   0.00613,  -0.03551,  -0.01560,  -0.01137,   0.01941,   0.03027,   0.03449,   0.00975,  -0.01922,  -0.01620,   0.00553,  -0.01862,   0.01760,   0.00371,  -0.01077,  -0.01620,  -0.00715,   0.01458,   0.00553,  -0.00775,   0.02061,  -0.01017,   0.01639,  -0.05362,  -0.02707,  -0.03069,   0.01337,   0.01397,   0.00070,   0.00070,   0.02846,  -0.03491,  -0.04517,  -0.01620,   0.00794,   0.00190,  -0.00292,  -0.00655,  -0.03733,   0.01277,   0.03389,   0.01518,  -0.01862,  -0.02646,  -0.02284,  -0.04577,  -0.01137,   0.01458,   0.02182,   0.03087,  -0.00353,  -0.02224,  -0.01801,  -0.00715,   0.00371,  -0.02043,  -0.01379,  -0.00353,  -0.00775,  -0.01801,   0.03631,   0.01156,  -0.01077,   0.00613,   0.02967,   0.00009,  -0.01439,   0.03691,   0.02967,  -0.00172,   0.02363,   0.02122,  -0.05000,   0.04958,   0.01880,  -0.02163,  -0.00051,   0.00854,  -0.01862,   0.01579,  -0.02525,   0.01035,   0.00190,  -0.00111,   0.01096,   0.03993,   0.00673,   0.00915,   0.03208,  -0.00715,   0.01216,  -0.02163,  -0.00232,   0.02423,  -0.00655,   0.02122,   0.00371,   0.01699,   0.01639,   0.03510,   0.00009,   0.00251,  -0.00413,  -0.00292,  -0.02344,   0.01579,   0.02303,  -0.02707,  -0.01801,  -0.00956,  -0.03069,  -0.00353,   0.01760,  -0.00896,   0.00854,  -0.03853,   0.03691,  -0.01017,  -0.04698,   0.01820,   0.04415,  -0.03491,  -0.02284,   0.00975,  -0.02103,   0.00492,  -0.00413,  -0.02646,  -0.01499,   0.00673,   0.03631,  -0.01017,  -0.00473,  -0.01499,  -0.00473,  -0.02888,  -0.01922,   0.01096,  -0.04276,  -0.00292,  -0.01379,   0.00190,  -0.00836,   0.04294,  -0.03612,   0.00673,   0.00975,  -0.01862,  -0.00715,   0.00613,  -0.01439,   0.02544,  -0.00172,  -0.00172,   0.00432,   0.02906,   0.00553,  -0.01439,  -0.00473,   0.01277,   0.01880,  -0.00896,   0.00070,   0.00432,   0.00553,  -0.01681,   0.01337,   0.02122,  -0.01620,   0.00432,  -0.01560,   0.02001,   0.03449,   0.00070,   0.00190,   0.00070,  -0.02284,   0.01760,  -0.01620,  -0.03551,  -0.04336,  -0.00172,   0.00251,   0.02544,   0.00311,   0.01820,   0.03148,  -0.01439,  -0.02948,   0.04294,  -0.03310,   0.00432,   0.01518,   0.00251,   0.04958,  -0.02525,   0.00371,  -0.01137,   0.02605,   0.00311,  -0.01741,  -0.03008,  -0.01681,   0.01820,   0.03691,  -0.01560,   0.01639,  -0.03491,   0.00130,  -0.00232,  -0.02827,  -0.00172,  -0.01017,   0.00070,  -0.02888,  -0.00111,   0.01035,   0.02122,  -0.02405,  -0.02405,  -0.01077,   0.03268,   0.00371,   0.00553,  -0.00051,  -0.00172,  -0.03370,  -0.00232,  -0.00473,   0.00613,  -0.00715,   0.00070,   0.00975,   0.04717,  -0.01077,  -0.01318,  -0.02163,   0.03148,   0.03329,  -0.00051,  -0.00172,  -0.00836,   0.01458,   0.03449,  -0.03431,  -0.01258,   0.03329,   0.01579,  -0.02888,   0.01579,  -0.04095,  -0.01499,  -0.00292,   0.01156,  -0.00473,  -0.00292,   0.01156,  -0.01198,   0.00251,   0.01760,  -0.00594,  -0.02948,   0.00915,  -0.02163,   0.00734,  -0.01198,   0.00673,  -0.00292,   0.01096,  -0.00413,  -0.00353,  -0.01560,   0.00371,  -0.01922,   0.02363,   0.04536,   0.00190,   0.00734,  -0.00594,  -0.03431,   0.02544,   0.00130,  -0.00594,   0.00070,   0.01156,  -0.00172,   0.03691,  -0.03612,  -0.01620,  -0.00292,   0.00915,  -0.01439,   0.02122,  -0.00232,  -0.01137,  -0.02586,   0.05924,   0.01397,   0.03087,  -0.01499,   0.00070,  -0.05784,  -0.00594,  -0.04034,  -0.01439,  -0.00413,   0.00492,  -0.00051,  -0.01258,   0.04536,  -0.00413,   0.01216,  -0.01439,  -0.01258,  -0.01077,  -0.02344,  -0.00413,   0.01880,  -0.00172,   0.01337,  -0.01137,  -0.01681,  -0.01620,  -0.02284,  -0.00232,   0.00190,   0.01518,  -0.00353,   0.00915,  -0.01137,  -0.01137,  -0.00413,  -0.02586,   0.00975,  -0.02344,  -0.00896,  -0.00775,   0.00070,  -0.01318,  -0.01560,  -0.02586,  -0.00111,  -0.01258,  -0.00232,   0.03570,   0.00915,   0.00673,   0.01096,   0.00070,   0.03570,   0.00915,   0.01156,   0.03208,   0.00432,   0.00251,  -0.00594,   0.02001,   0.04777,   0.00492,  -0.00715,  -0.04034,  -0.02827,   0.01699,   0.03208,  -0.00534,   0.00311,  -0.03250,  -0.01741,   0.01639,   0.05079,   0.01156,   0.01760,   0.01216,   0.02001,  -0.03069,   0.01639,   0.01760,   0.03993,  -0.03431,   0.00432,   0.00070,  -0.03370,   0.00492,  -0.00655,  -0.02103,  -0.01318,  -0.03853,  -0.00172,   0.01096,  -0.00594,   0.01216,  -0.01801,   0.00009,   0.02061,  -0.01318,   0.01760,  -0.01741,  -0.00111,   0.02786,  -0.02163,  -0.01681,   0.04596,   0.01639,   0.03329,   0.01096,  -0.02586,   0.00311,   0.00371,   0.02001,   0.01035,   0.00613,  -0.04638,   0.00070,  -0.04638,   0.00794,   0.00492,  -0.02344,   0.02061,   0.01880,  -0.00594,   0.01880,  -0.00836,  -0.04336,   0.01760,  -0.03370,   0.01820
