   0.01251,  -0.00784,  -0.02078,   0.01374,  -0.00414,  -0.01831,  -0.00167,   0.00819,   0.00634,   0.02052,   0.02052,   0.00758,  -0.00599,  -0.01462,   0.00942,   0.01744,  -0.05592,  -0.01955,   0.00326,   0.00449,  -0.00414,  -0.04112,   0.02668,   0.01374,  -0.01400,   0.00264,   0.00511,  -0.01092,   0.01744,  -0.00167,   0.02853,   0.01559,  -0.01585,   0.04826,  -0.00105,   0.04703,  -0.02633,   0.04086,   0.00264,  -0.02016,  -0.00105,   0.00388,   0.00511,  -0.00660,  -0.01400,   0.01621,   0.01004,  -0.02633,  -0.01770,   0.03963,   0.00018,   0.04086,   0.00203,  -0.00044,   0.01312,   0.02792,   0.02977,   0.01066,   0.01312,  -0.00784,   0.00881,  -0.04482,  -0.01955,  -0.04420,   0.00203,   0.00758,   0.00881,  -0.00229,   0.02114,   0.00881,   0.01251,   0.02484,  -0.04482,   0.04148,   0.01867,   0.01127,  -0.00722,   0.03593,   0.00819,  -0.00599,  -0.03064,  -0.00537,   0.01189,  -0.00784,  -0.05222,  -0.02263,  -0.03311,   0.00388,   0.02360,   0.00696,   0.00758,  -0.02448,  -0.01092,   0.02052,   0.03038,   0.02484,  -0.02140,  -0.00105,   0.05073,  -0.01400,  -0.03311,   0.00141,   0.00449,   0.01189,  -0.04605,   0.02668,   0.01251,  -0.01770,  -0.04667,  -0.00599,  -0.01831,   0.01990,   0.01436,   0.00819,  -0.03989,   0.01621,   0.01682,   0.01004,  -0.00907,  -0.03003,  -0.03373,   0.00573,  -0.01955,  -0.04790,   0.01004,   0.03593,   0.02175,   0.02730,  -0.00907,   0.00079,  -0.02510,  -0.00105,  -0.02140,   0.02607,   0.03470,   0.02730,   0.05627,   0.01497,   0.00696,   0.02915,  -0.00475,  -0.04112,  -0.00044,   0.04518,   0.02484,   0.02915,   0.01929,   0.03285,  -0.01338,  -0.00537,  -0.02448,   0.00018,  -0.01092,  -0.00660,  -0.01092,   0.01374,   0.01990,  -0.03681,   0.02484,   0.01805,  -0.01831,  -0.00660,   0.00573,   0.02607,   0.02299,  -0.02140,  -0.02140,  -0.01523,   0.04271,  -0.00352,   0.02607,  -0.03681,  -0.01030,   0.00634,   0.00018,   0.00449,   0.03162,   0.03100,   0.03716,  -0.03003,  -0.02941,   0.02175,  -0.00105,   0.01127,   0.04579,   0.02360,   0.03901,   0.01189,  -0.01030,  -0.00537,   0.04518,  -0.00845,   0.01436,  -0.03927,  -0.01523,  -0.01770,   0.00449,  -0.02016,   0.00696,   0.01312,  -0.00414,   0.02114,   0.03531,   0.00819,  -0.01030,  -0.02571,   0.04271,  -0.01030,  -0.01585,   0.03408,  -0.02016,   0.00942,   0.03778,   0.01374,  -0.05715,  -0.00414,  -0.02140,  -0.00599,  -0.02633,  -0.00845,  -0.02263,   0.04518,   0.03716,  -0.02140,  -0.01893,   0.00203,   0.03162,  -0.03188,   0.00203,   0.00758,   0.00819,  -0.04544,  -0.00229,  -0.00968,   0.01127,   0.00819,   0.00264,  -0.00537,  -0.01955,   0.03840,   0.00881,  -0.04174,  -0.01153,   0.03162,  -0.01153,   0.00881,   0.02360,   0.01189,   0.01805,   0.01805,  -0.00352,   0.00511,   0.01497,  -0.00968,  -0.02140,   0.00018,  -0.00537,   0.02484,  -0.01400,  -0.01647,  -0.00537,   0.05134,  -0.00845,  -0.03126,  -0.01462,   0.01990,   0.00634,   0.03655,  -0.01893,  -0.03311,  -0.00475,   0.02545,  -0.02325,   0.00881,  -0.00537,   0.00203,  -0.01831,   0.00696,  -0.02694,  -0.00167,   0.04025,  -0.00475,  -0.01400,  -0.02571,  -0.05777,   0.02607,   0.00573,   0.01990,  -0.04790,   0.02237,  -0.02448,  -0.02201,   0.01559,   0.00758,  -0.01585,   0.01127,  -0.03742,  -0.02448,   0.00141,  -0.01030,   0.02915,  -0.01708,  -0.00475,   0.00264,  -0.03496,   0.00449,   0.01559,   0.00203,  -0.03496,   0.00018,  -0.03003,  -0.00414,  -0.01092,   0.02114,   0.05257,  -0.01647,   0.00634,  -0.00229,  -0.01770,  -0.00845,  -0.00537,   0.02484,  -0.01585,  -0.00167,   0.00881,  -0.00537,  -0.05345,   0.00573,  -0.02201,  -0.03003,  -0.01277,  -0.00722,  -0.01585,   0.00079,   0.00634,   0.01990,  -0.01400,   0.01436,   0.01744,  -0.01585,   0.00141,  -0.01400,   0.01189,   0.00018,  -0.03434,  -0.02016,  -0.04420,   0.01127,  -0.03249,   0.01004,  -0.02571,  -0.01893,   0.02299,  -0.00414,   0.03901,  -0.00044,  -0.01215,   0.01127,  -0.00290,  -0.01585,  -0.01030,  -0.00167,  -0.02016,  -0.02016,   0.00449,  -0.05900,  -0.00414,   0.03100,   0.03778,   0.00079,  -0.00475,  -0.00352,  -0.02941,   0.04394,  -0.00968,  -0.00167,   0.01497,  -0.03064,  -0.00784,   0.02730,   0.00511,  -0.00660,   0.02792,   0.00264
   0.01189,   0.01559,   0.03655,   0.00018,   0.00018,   0.01990,   0.01312,   0.02730,  -0.01831,   0.00942,  -0.01030,  -0.03681,   0.02175,   0.00511,  -0.00968,   0.00696,   0.03162,  -0.03927,  -0.01647,  -0.02818,   0.00018,  -0.01400,  -0.02140,  -0.00229,  -0.01462,   0.01251,   0.02114,   0.03408,   0.00511,   0.00511,   0.02853,  -0.02263,   0.01559,   0.02853,   0.00758,   0.02422,   0.04518,  -0.00044,  -0.01462,   0.05627,   0.01497,  -0.02386,  -0.02078,  -0.01030,   0.05566,  -0.03927,  -0.02140,  -0.01215,   0.01004,  -0.03681,  -0.00105,   0.01436,   0.03778,   0.00511,  -0.00167,   0.02853,  -0.00784,   0.03963,   0.01312,  -0.03866,  -0.03681,  -0.02263,  -0.03496,  -0.01153,   0.03408,   0.03100,  -0.01400,  -0.04914,   0.03963,  -0.01092,  -0.01647,   0.01189,  -0.03003,  -0.02633,  -0.02756,   0.03531,   0.01805,  -0.04605,  -0.00105,  -0.00968,   0.00203,   0.00819,  -0.00167,   0.01312,   0.00942,   0.00326,  -0.04790,  -0.00044,  -0.01277,  -0.00229,   0.00264,  -0.02818,   0.03470,   0.01621,   0.01744,  -0.01523,   0.00573,  -0.02510,   0.01744,   0.02422,   0.01805,  -0.01215,   0.01621,  -0.01955,  -0.00784,  -0.03681,  -0.00784,   0.01497,  -0.01400,  -0.01770,  -0.00290,  -0.03064,   0.04086,  -0.04051,   0.01436,  -0.00537,  -0.01708,   0.00018,   0.04518,   0.01436,  -0.03373,  -0.02879,   0.03038,  -0.00475,  -0.00968,  -0.02263,  -0.00784,  -0.02941,   0.00326,  -0.01153,  -0.01523,   0.02114,  -0.03003,   0.00758,   0.03408,   0.00696,  -0.03188,  -0.00105,   0.03963,   0.00449,   0.00141,  -0.05037,   0.01621,   0.00141,  -0.02263,   0.00696,  -0.00599,   0.01990,   0.02730,  -0.00660,   0.01189,   0.00696,   0.00942,   0.01867,  -0.00105,  -0.05284,   0.06059,   0.00264,  -0.00352,  -0.00105,   0.02545,   0.01929,  -0.02694,  -0.00352,   0.01744,  -0.03003,  -0.00968,  -0.01338,  -0.01153,   0.03408,   0.00573,  -0.03126,   0.02730,  -0.00229,   0.02052,  -0.07811,   0.00264,   0.02360,  -0.00290,   0.01805,   0.00449,   0.03716,  -0.02016,  -0.01770,  -0.00845,   0.01929,   0.00018,  -0.02571,  -0.01338,  -0.00537,   0.03470,   0.01004,  -0.02140,  -0.03311,   0.00942,  -0.01770,   0.01251,  -0.00845,  -0.00968,   0.00942,  -0.01030,  -0.02633,  -0.02140,  -0.02263,   0.00264,   0.02360,  -0.00229,   0.02237,  -0.03742,   0.02545,  -0.00537,   0.06059,   0.00388,  -0.01153,   0.00758,   0.02607,   0.00079,  -0.01770,  -0.02510,  -0.00475,   0.00141,   0.00819,  -0.01153,  -0.03619,  -0.02571,  -0.00968,  -0.00660,   0.03840,   0.04333,   0.01621,   0.00264,  -0.01523,  -0.02016,  -0.02386,   0.01066,  -0.01215,   0.00942,   0.02484,  -0.03434,   0.02360,   0.01066,  -0.01893,  -0.00167,   0.01374,  -0.01523,   0.01990,  -0.00845,  -0.02879,  -0.02818,   0.00819,   0.01682,  -0.02140,   0.00141,  -0.03249,  -0.00352,   0.00758,  -0.02325,  -0.00167,  -0.00722,   0.04271,  -0.00229,   0.04333,  -0.03804,  -0.04914,   0.00018,  -0.00599,  -0.01647,   0.02360,  -0.01030,  -0.00167,   0.00326,   0.01066,   0.01066,  -0.03804,   0.00449,   0.00203,   0.00079,   0.01621,  -0.03681,   0.00881,   0.00881,   0.05319,   0.01189,  -0.04174,  -0.01893,  -0.02941,   0.02915,   0.00758,  -0.00105,   0.00511,  -0.01770,  -0.01647,  -0.01030,   0.04456,  -0.01585,   0.00511,   0.01867,   0.01436,   0.00018,   0.01189,  -0.00044,  -0.00784,   0.01127,  -0.02263,   0.01621,   0.00881,   0.00264,   0.01805,   0.01189,  -0.00352,   0.00942,   0.01990,  -0.01770,   0.00819,   0.00018,   0.02668,  -0.01955,  -0.00290,  -0.04667,  -0.02140,  -0.01831,  -0.02633,   0.01374,   0.03285,  -0.02386,  -0.00044,   0.02299,   0.02853,   0.01374,   0.00696,  -0.02078,   0.02545,  -0.02448,   0.01251,   0.01189,  -0.00167,  -0.02818,  -0.02633,  -0.03989,   0.04025,  -0.01770,   0.00079,  -0.01030,   0.00203,  -0.03681,   0.01436,   0.00942,  -0.03064,   0.00141,  -0.00537,   0.00819,   0.01621,  -0.01092,  -0.04236,  -0.00784,  -0.04359,   0.00819,   0.03470,   0.00696,   0.00388,  -0.00352,  -0.00537,  -0.00290,   0.00264,   0.02915,   0.00141,  -0.02016,  -0.00660,   0.01004,   0.00819,   0.00881,  -0.00722,   0.01621,  -0.01215,   0.01682,  -0.00229,  -0.00352,  -0.01215,  -0.03927,  -0.02016,  -0.02016,   0.00696,   0.00696,  -0.00044
   0.01189,  -0.00167,   0.01497,  -0.04975,  -0.00105,  -0.01708,   0.01805,   0.01004,   0.05442,   0.03162,   0.02853,  -0.01831,  -0.01462,  -0.02756,   0.00819,  -0.04790,  -0.01462,   0.00141,  -0.03681,   0.00758,   0.02853,  -0.04790,   0.01436,  -0.03557,   0.01682,   0.02484,   0.01312,  -0.04112,  -0.03989,  -0.00229,   0.00079,   0.00449,  -0.03557,  -0.00599,   0.01497,  -0.01462,   0.01312,  -0.04051,  -0.02510,  -0.01400,  -0.00845,   0.01744,  -0.02694,   0.02607,   0.01312,  -0.01153,   0.02792,  -0.04420,   0.02052,  -0.01523,   0.00573,  -0.01523,   0.00942,   0.04148,  -0.00167,   0.00573,  -0.00784,  -0.02941,  -0.01708,   0.01374,   0.01312,   0.01251,   0.00758,  -0.00784,  -0.01153,  -0.01708,   0.00388,  -0.00167,   0.00079,  -0.03557,  -0.01955,   0.02299,  -0.02386,  -0.02140,  -0.02818,   0.01805,   0.04518,  -0.01030,   0.05011,   0.01189,  -0.01462,   0.02052,  -0.02571,   0.02052,  -0.03003,   0.01436,  -0.01277,   0.00942,   0.00696,   0.03100,   0.02114,  -0.01831,  -0.00537,   0.01497,  -0.01955,  -0.00290,  -0.03003,  -0.04236,  -0.02818,  -0.00352,  -0.05715,   0.02052,   0.00326,  -0.03064,  -0.04112,  -0.02879,  -0.01585,  -0.02510,  -0.01462,  -0.03742,   0.01436,   0.01744,  -0.04914,   0.04025,   0.01251,   0.02853,   0.00079,   0.02114,   0.02730,  -0.00475,  -0.04914,  -0.00784,  -0.03804,  -0.03126,  -0.03373,  -0.03373,  -0.02201,   0.00573,   0.01189,   0.00388,   0.03162,   0.00449,  -0.02756,   0.00449,   0.02052,   0.04764,  -0.01831,   0.00634,   0.01312,  -0.00229,  -0.04112,   0.02175,  -0.01338,   0.02545,   0.04271,  -0.00784,   0.01312,  -0.01585,  -0.02078,   0.03162,   0.02977,   0.00696,  -0.03003,  -0.01647,   0.00449,  -0.02386,  -0.00105,  -0.01277,  -0.04482,  -0.01030,   0.04086,   0.00141,  -0.02140,  -0.02571,  -0.01647,  -0.00414,   0.01374,   0.02237,  -0.03249,   0.03716,  -0.00537,   0.00203,   0.00511,  -0.02263,  -0.02201,  -0.00167,   0.02668,   0.02052,   0.01312,   0.00511,  -0.01647,  -0.02941,  -0.00722,   0.02545,  -0.01030,  -0.01831,   0.02052,  -0.01770,   0.00758,  -0.00352,   0.00573,  -0.01092,  -0.03126,   0.03162,   0.00203,  -0.02448,   0.04086,  -0.00105,  -0.04790,  -0.03866,  -0.03373,  -0.00414,   0.00018,  -0.02140,   0.01559,  -0.01708,   0.03470,   0.03038,  -0.00968,  -0.00599,   0.01127,   0.00079,  -0.01215,  -0.03927,   0.03100,   0.01374,  -0.01030,  -0.00907,   0.06922,  -0.03927,   0.02114,  -0.02571,  -0.01585,  -0.04112,  -0.02756,  -0.00105,  -0.01585,   0.03408,  -0.00845,   0.00449,   0.03408,   0.01436,  -0.03003,   0.02668,   0.04703,  -0.07811,  -0.01030,  -0.00290,   0.06305,   0.01251,   0.02299,   0.02668,   0.01004,  -0.01338,   0.01559,   0.03038,   0.01066,   0.03038,  -0.01955,  -0.03434,   0.02237,  -0.03496,  -0.05160,   0.02915,   0.00573,   0.00942,   0.01066,   0.01312,  -0.00660,   0.02668,  -0.03126,   0.00388,  -0.02263,  -0.02448,   0.00449,   0.05257,  -0.04359,   0.00696,   0.02114,  -0.00105,   0.00511,  -0.00229,   0.01312,   0.02484,  -0.01030,   0.00696,  -0.02448,  -0.01092,   0.01312,   0.00264,   0.04579,  -0.02078,   0.00696,  -0.00352,  -0.00105,   0.02977,   0.00881,   0.02545,  -0.01770,   0.00634,  -0.03866,  -0.00105,  -0.01523,  -0.06208,   0.01189,   0.02422,  -0.00845,   0.00942,  -0.00784,   0.04271,  -0.00907,   0.02668,  -0.03003,  -0.00105,  -0.00784,  -0.00722,   0.03655,  -0.00229,   0.00326,   0.01621,  -0.00722,  -0.04914,  -0.00784,  -0.02263,   0.01497,  -0.03434,   0.00881,  -0.02016,   0.00449,   0.05689,  -0.01462,   0.01559,  -0.00599,  -0.01400,  -0.03804,  -0.02448,  -0.04914,   0.03162,   0.01497,  -0.00722,   0.00203,  -0.01523,  -0.01831,  -0.01215,  -0.02016,  -0.02694,  -0.02818,  -0.01092,  -0.01338,   0.02853,   0.01066,   0.02977,   0.06737,   0.00573,  -0.00968,  -0.05284,  -0.02016,   0.01559,   0.04210,   0.00881,   0.03963,  -0.03373,  -0.04975,   0.00018,   0.00634,  -0.00044,   0.00634,   0.02175,   0.04826,  -0.01585,  -0.01585,  -0.00414,   0.02237,  -0.02386,   0.01251,   0.04826,   0.01929,   0.01621,  -0.00784,  -0.00907,   0.00819,   0.01189,   0.00449,   0.00018,  -0.01338,  -0.01462,   0.01251,   0.02360,  -0.01831,  -0.00722,   0.00326,   0.01251,  -0.01585,   0.03100
   0.00203,  -0.02016,  -0.02571,   0.02607,  -0.02386,   0.01805,   0.00942,   0.03531,  -0.01647,  -0.00599,   0.00449,  -0.00845,   0.02915,   0.00141,  -0.00722,   0.04148,  -0.03804,  -0.02571,  -0.01153,  -0.02571,   0.06121,  -0.00599,   0.01066,   0.02977,   0.02607,  -0.01523,  -0.02201,   0.00758,   0.00758,  -0.00229,   0.00819,   0.00634,   0.00634,   0.03285,  -0.03126,   0.00264,   0.02237,   0.01497,  -0.02078,   0.01066,  -0.01030,  -0.00722,   0.02607,   0.05011,   0.05319,  -0.01400,  -0.00290,  -0.00784,   0.01066,   0.02360,   0.00573,   0.05011,  -0.01400,  -0.00229,   0.00942,   0.01682,   0.02237,  -0.02694,   0.02299,  -0.02818,   0.00634,   0.07415,   0.00018,  -0.02078,   0.01312,   0.04333,  -0.00907,  -0.02078,  -0.02325,  -0.00290,   0.00573,  -0.02756,   0.00634,  -0.00475,  -0.01338,  -0.00784,   0.01189,   0.04025,   0.00079,   0.01374,   0.00758,  -0.01462,   0.01497,   0.03593,  -0.02325,  -0.00475,   0.00079,  -0.00229,  -0.06147,   0.02114,  -0.01153,  -0.01462,  -0.01831,   0.01436,  -0.00475,  -0.01955,  -0.03126,  -0.01462,   0.06059,   0.02484,   0.01621,  -0.04051,  -0.01338,   0.00326,   0.01127,  -0.02078,  -0.02016,  -0.03064,  -0.00968,  -0.02510,   0.03778,   0.01127,   0.01621,   0.00573,  -0.03373,   0.00634,  -0.04359,   0.02484,  -0.00229,  -0.01523,   0.04271,   0.02545,   0.01312,  -0.01030,   0.00758,  -0.00290,  -0.00167,  -0.03434,   0.00758,  -0.02016,  -0.00907,   0.01004,   0.00942,  -0.00660,  -0.00290,  -0.04975,  -0.00414,   0.00573,  -0.03681,  -0.01893,   0.01189,  -0.02448,   0.01189,   0.04025,  -0.00044,  -0.01585,   0.02114,   0.00634,  -0.01647,  -0.00167,  -0.01831,  -0.03619,   0.02299,   0.03963,   0.00326,   0.00141,  -0.03126,  -0.00414,  -0.02201,   0.03531,   0.00141,  -0.02325,   0.01436,  -0.01585,   0.02360,   0.01990,   0.01867,  -0.05653,  -0.02571,   0.00511,   0.02607,   0.01251,   0.00634,   0.02299,   0.01251,  -0.02140,   0.05381,  -0.00968,   0.00079,  -0.01277,   0.01436,   0.03038,  -0.03681,   0.00203,  -0.01708,  -0.00290,  -0.00105,  -0.00475,   0.01312,   0.01621,  -0.01030,  -0.01277,   0.01004,   0.05319,   0.01066,  -0.00105,  -0.00660,   0.02545,  -0.04544,   0.04025,   0.02114,   0.02114,   0.07292,  -0.01585,   0.02668,  -0.02386,  -0.00352,   0.01066,   0.03470,   0.00696,   0.01497,   0.02977,   0.01805,   0.01559,   0.03655,  -0.01708,  -0.03804,   0.03100,  -0.00660,   0.02237,   0.00573,   0.03470,   0.04025,   0.01621,  -0.01277,   0.00018,   0.00141,   0.04888,   0.03100,   0.00511,  -0.00044,  -0.03003,  -0.03989,  -0.01523,  -0.00414,  -0.02386,  -0.02325,  -0.01647,  -0.02571,   0.03223,  -0.00414,   0.00141,   0.01990,   0.00018,  -0.01215,   0.00696,  -0.03373,  -0.03126,  -0.00845,   0.03531,  -0.00784,  -0.01955,  -0.04667,  -0.00105,   0.02668,  -0.01893,   0.01497,   0.03100,  -0.01831,  -0.00599,   0.03223,   0.02114,  -0.02078,   0.00079,  -0.00537,  -0.01708,   0.03162,   0.00018,  -0.00105,   0.02607,  -0.00414,  -0.03188,  -0.00167,  -0.01030,  -0.00414,   0.02052,   0.00758,  -0.00044,  -0.00599,  -0.04544,  -0.02016,   0.00388,   0.00511,   0.03285,  -0.04112,  -0.00105,   0.00264,  -0.01462,   0.01374,  -0.01092,  -0.00907,   0.01066,  -0.00968,  -0.02448,  -0.02756,  -0.00105,  -0.01153,  -0.02016,   0.01374,  -0.05592,  -0.02571,   0.05134,  -0.01770,   0.00264,   0.02607,  -0.01092,   0.00264,   0.02853,   0.03162,   0.05751,  -0.02016,  -0.02818,  -0.03003,   0.00942,   0.02422,  -0.03434,   0.04210,  -0.02633,   0.00141,   0.01312,  -0.01831,  -0.00968,  -0.00845,  -0.01708,   0.00449,  -0.02016,   0.00326,  -0.00537,   0.02668,  -0.00167,  -0.04852,  -0.00845,  -0.03804,   0.01189,   0.06737,   0.06244,   0.00696,   0.03347,   0.05812,   0.02484,   0.01559,   0.02114,   0.01066,  -0.02016,   0.00388,   0.01682,   0.01004,  -0.04729,   0.04518,  -0.01338,   0.01004,   0.02422,  -0.00352,  -0.00845,   0.01682,  -0.03557,   0.02175,  -0.01523,  -0.00414,   0.00696,   0.00511,  -0.00784,  -0.00660,  -0.02694,  -0.01030,   0.00264,  -0.00290,   0.00573,  -0.02386,  -0.00044,   0.00881,  -0.00537,   0.03162,  -0.03188,  -0.03804,  -0.03742,   0.00264,  -0.01647,  -0.01092,  -0.00290,  -0.00352,   0.00819,  -0.00167,  -0.00105
   0.01251,  -0.03003,  -0.02633,   0.01189,   0.00326,  -0.07010,   0.01990,   0.02730,  -0.03126,  -0.02941,   0.01374,   0.03408,   0.04949,  -0.03003,  -0.00414,  -0.00475,  -0.03557,   0.05381,   0.00018,  -0.00537,   0.03531,   0.03531,  -0.02879,   0.02730,   0.01621,  -0.01092,  -0.02201,  -0.03003,  -0.01831,  -0.01955,   0.03223,  -0.04975,   0.02607,   0.00819,  -0.02510,   0.01621,   0.02114,  -0.00290,   0.00573,   0.00819,   0.02175,   0.03716,   0.01312,  -0.02818,   0.03901,  -0.00784,  -0.00414,   0.00511,   0.04764,  -0.01523,  -0.00537,   0.00758,   0.01374,  -0.02448,   0.01127,  -0.04975,   0.01127,   0.00264,  -0.04174,  -0.03557,  -0.00599,  -0.00660,  -0.04112,  -0.00105,   0.03408,   0.05751,   0.00696,   0.00696,   0.00203,   0.00449,  -0.00968,   0.00758,   0.03778,  -0.01092,   0.01990,   0.01990,  -0.02571,   0.00388,   0.03285,   0.02237,  -0.02325,  -0.00660,   0.00881,  -0.02078,   0.01682,   0.00018,  -0.00352,  -0.01215,   0.00634,   0.04148,   0.02792,  -0.01831,  -0.00105,  -0.00229,   0.00326,  -0.01770,   0.01805,   0.01127,  -0.00229,   0.01004,   0.00511,  -0.03496,   0.02792,   0.02668,  -0.03188,   0.01621,  -0.02201,   0.01621,  -0.00475,   0.01682,  -0.01708,  -0.00044,  -0.02941,  -0.01338,  -0.00537,   0.05627,   0.02052,  -0.01462,   0.01004,   0.00511,  -0.01955,   0.04394,  -0.02140,  -0.00968,  -0.03557,   0.02977,   0.03038,  -0.00044,   0.01621,   0.00511,   0.01805,   0.00018,   0.00141,  -0.03681,   0.00511,   0.03716,  -0.01893,   0.03347,  -0.00968,   0.04949,  -0.02571,   0.00141,   0.00018,   0.00018,   0.02792,   0.00141,   0.00511,  -0.02386,  -0.02201,   0.02607,  -0.00229,  -0.01893,   0.04641,  -0.03126,  -0.03434,   0.04210,   0.00634,  -0.00414,   0.03716,   0.01497,   0.03162,   0.02175,  -0.01647,   0.00696,  -0.02756,   0.05627,   0.04333,   0.02114,   0.04271,  -0.02941,   0.01682,  -0.02694,   0.01004,   0.03285,  -0.01030,  -0.01770,  -0.01030,   0.00758,  -0.00167,   0.03347,   0.01004,  -0.01277,   0.03840,   0.00388,   0.03655,  -0.03188,  -0.02263,  -0.00599,   0.00388,   0.04579,  -0.03188,   0.01066,   0.00942,   0.00264,   0.01559,   0.01990,  -0.00044,   0.00141,  -0.00229,  -0.00599,   0.02668,   0.00758,  -0.01955,  -0.00167,   0.00264,   0.03347,  -0.07934,   0.01929,   0.03347,   0.05504,  -0.00044,   0.02175,  -0.01893,   0.06305,   0.03655,   0.01189,  -0.01153,  -0.03989,   0.01805,   0.01066,  -0.00968,   0.02052,   0.01990,   0.00326,   0.01805,   0.00819,  -0.02325,   0.00449,  -0.02263,   0.02360,  -0.00044,   0.03655,   0.02668,   0.02853,   0.05627,  -0.02263,   0.00511,  -0.01092,   0.01312,  -0.00044,   0.00634,  -0.06147,   0.00141,   0.01621,   0.01990,  -0.00414,  -0.00968,   0.03162,   0.01559,  -0.01030,   0.04456,  -0.00722,  -0.03064,  -0.04975,  -0.01338,  -0.04236,   0.00079,  -0.04051,  -0.02078,  -0.02448,  -0.04051,   0.02977,  -0.00167,   0.00079,  -0.03619,  -0.04420,  -0.03434,   0.02607,  -0.01893,  -0.00044,   0.02360,  -0.02263,   0.00758,   0.00634,  -0.03557,  -0.01523,   0.02052,  -0.02633,  -0.02386,   0.00326,  -0.00167,   0.01744,  -0.03866,   0.00573,  -0.01955,   0.00942,  -0.03434,   0.00881,   0.02607,   0.01066,  -0.00845,   0.00326,   0.02360,  -0.00290,  -0.00537,  -0.02756,  -0.00167,   0.00264,   0.01929,   0.00573,   0.00018,  -0.01277,  -0.04790,  -0.04790,   0.04518,  -0.00044,   0.01066,   0.00511,  -0.00229,   0.03223,  -0.00599,   0.02175,  -0.01893,   0.00819,  -0.01831,   0.04210,   0.02114,   0.00511,   0.01990,   0.02730,   0.04826,  -0.01955,   0.00634,   0.01497,   0.01251,   0.00573,   0.00573,   0.00326,  -0.00105,  -0.01585,  -0.01462,  -0.01462,   0.03408,   0.02668,  -0.03989,   0.01189,  -0.01831,   0.02175,  -0.03927,  -0.02201,   0.05442,  -0.01585,   0.02360,  -0.03249,   0.02299,   0.00079,   0.00696,  -0.02879,   0.02730,  -0.01153,   0.03531,  -0.01215,  -0.01030,   0.05442,  -0.02078,  -0.00044,  -0.02201,   0.05442,  -0.00290,  -0.00167,  -0.00784,   0.01497,  -0.00599,  -0.03249,   0.01312,  -0.03989,  -0.01215,  -0.02941,  -0.00968,   0.00511,   0.00449,  -0.01770,  -0.02263,  -0.00352,  -0.01277,   0.00758,  -0.01893,  -0.00475,  -0.01647,   0.01436,   0.01744,   0.01990,   0.01066,   0.00388
  -0.01708,   0.00696,  -0.01770,   0.03531,  -0.05222,  -0.01338,   0.02299,   0.00511,  -0.01092,  -0.02571,  -0.03742,  -0.03496,   0.02299,  -0.03619,  -0.01647,   0.01189,  -0.02879,   0.00634,   0.00634,   0.01559,  -0.00105,  -0.02879,   0.03408,  -0.04236,   0.02484,   0.01497,   0.00388,   0.01251,   0.00573,  -0.02201,   0.00573,   0.00141,   0.00449,  -0.01831,  -0.00167,   0.01929,   0.01312,  -0.01893,   0.01805,   0.03285,  -0.01708,  -0.01462,  -0.00290,   0.00018,   0.03716,   0.05566,  -0.03434,  -0.00105,  -0.00537,   0.02114,  -0.00352,   0.03655,  -0.03619,   0.00079,  -0.01400,   0.00326,   0.00573,  -0.01277,  -0.02386,  -0.00599,  -0.02016,   0.03162,   0.00079,   0.00696,   0.03038,   0.04333,   0.04518,  -0.02448,   0.02237,  -0.01338,   0.03840,  -0.03003,  -0.01831,   0.01374,  -0.01893,   0.02360,  -0.01831,  -0.04544,   0.01127,   0.01436,   0.00326,  -0.01092,   0.00203,  -0.00105,   0.02052,   0.02730,  -0.03064,   0.00141,   0.01436,   0.03963,  -0.00599,   0.02299,   0.01066,  -0.01831,  -0.00105,   0.00388,  -0.03681,  -0.01400,   0.00388,  -0.02386,   0.01805,   0.01312,   0.00819,   0.03531,   0.01312,  -0.03003,   0.01559,   0.01312,  -0.02510,   0.00511,   0.00819,   0.03593,  -0.02694,  -0.01462,   0.01127,  -0.00044,   0.03285,   0.03531,  -0.02694,  -0.01400,   0.02175,   0.00819,  -0.00475,   0.05442,  -0.00229,  -0.00105,   0.02730,   0.03963,  -0.01955,   0.03223,   0.00634,   0.01189,   0.01066,   0.00326,   0.00141,  -0.03619,  -0.00352,   0.04949,  -0.01030,   0.03100,   0.00696,   0.02730,  -0.01030,  -0.01462,  -0.05653,   0.00326,   0.01312,  -0.02756,  -0.01215,   0.01251,   0.00079,   0.00018,  -0.01092,   0.01004,  -0.01523,   0.01990,   0.00942,  -0.01030,  -0.00105,   0.01436,   0.00449,   0.04888,  -0.00229,  -0.02016,   0.02422,   0.00141,   0.00696,   0.01312,   0.02114,  -0.02201,   0.00018,   0.03716,  -0.01831,   0.00634,  -0.00968,   0.00881,   0.02299,  -0.00599,  -0.00660,   0.02668,  -0.01462,  -0.01277,   0.01559,   0.01929,  -0.00414,   0.02730,   0.01004,   0.00696,  -0.03373,   0.01189,   0.00696,   0.01127,   0.00079,   0.03347,  -0.02694,   0.01621,  -0.01523,   0.01682,  -0.02448,  -0.00475,   0.01805,  -0.00660,   0.02484,   0.02792,   0.00326,   0.00942,  -0.03126,   0.01312,  -0.02879,  -0.02201,  -0.00044,   0.02792,   0.00079,  -0.00845,  -0.00722,   0.02422,  -0.00167,  -0.01092,   0.04764,   0.01867,   0.01497,  -0.00044,  -0.00845,   0.04764,  -0.06948,   0.01929,   0.00449,  -0.03557,  -0.01647,   0.04271,   0.01004,   0.00573,  -0.02571,  -0.02694,   0.02299,   0.00634,   0.01004,   0.02299,  -0.01030,  -0.01092,  -0.00784,  -0.03434,  -0.00537,  -0.00290,   0.04826,   0.00449,   0.03778,  -0.00044,   0.02175,  -0.00290,  -0.01831,   0.02545,  -0.02694,  -0.00044,   0.05011,  -0.01030,  -0.01831,   0.02422,   0.01436,  -0.00229,   0.01559,   0.02915,   0.01189,   0.02422,   0.01559,   0.00388,  -0.02078,  -0.02694,  -0.02571,  -0.02571,   0.01805,   0.02052,  -0.00722,   0.02175,  -0.00845,   0.01189,   0.00018,   0.00758,  -0.00537,   0.01559,   0.01497,  -0.04174,   0.01559,  -0.00105,   0.00573,   0.00573,  -0.00475,  -0.00229,   0.02114,  -0.01092,   0.03223,   0.03038,  -0.01831,   0.05073,   0.02114,   0.00511,   0.02730,   0.01929,   0.00573,  -0.00537,  -0.01708,   0.02545,   0.01867,  -0.02694,  -0.01215,  -0.00784,   0.03470,  -0.01708,   0.00203,  -0.00845,  -0.04359,   0.01621,   0.02545,  -0.02140,  -0.01030,  -0.04236,   0.02360,  -0.01338,   0.03408,  -0.02633,  -0.00660,   0.01867,   0.00942,  -0.02694,   0.00573,  -0.01831,  -0.02571,  -0.00722,   0.00326,  -0.00845,  -0.02571,  -0.02448,  -0.02325,  -0.01215,  -0.00599,   0.06367,   0.01436,   0.01990,  -0.02386,   0.00819,   0.00511,   0.01682,  -0.03188,  -0.00352,   0.01374,  -0.02879,   0.00696,  -0.02448,  -0.01215,  -0.04236,   0.01004,   0.01990,   0.02977,  -0.03126,   0.01251,  -0.01770,   0.00449,   0.01929,  -0.01893,  -0.03557,  -0.03003,  -0.02510,   0.01312,  -0.00845,  -0.03557,   0.00326,  -0.00537,   0.01374,   0.00758,   0.00819,   0.01805,   0.02299,  -0.01338,  -0.02201,   0.00573,   0.01559,  -0.00660,  -0.00784,   0.01867,   0.00326,  -0.01462,  -0.01400,  -0.00044,  -0.02633
   0.03655,  -0.02016,   0.03593,   0.00511,  -0.03249,  -0.02263,   0.00203,   0.01251,  -0.04112,   0.02915,   0.00511,   0.00819,   0.02545,  -0.00845,  -0.00044,  -0.01955,   0.01251,  -0.00105,   0.00573,   0.01990,   0.02114,  -0.01893,  -0.00290,  -0.03989,  -0.01030,   0.00388,  -0.00907,   0.00942,  -0.01277,  -0.03249,  -0.00475,  -0.01092,  -0.03804,  -0.02818,  -0.02633,   0.01744,  -0.00968,   0.01004,  -0.01092,   0.00449,  -0.01400,  -0.03989,   0.01559,   0.04826,  -0.02756,   0.04888,   0.02175,  -0.00352,  -0.00229,   0.00942,   0.01374,  -0.02140,   0.01251,  -0.03373,   0.01990,   0.02977,   0.01744,   0.01990,   0.00203,   0.02977,   0.00758,  -0.02941,   0.01189,   0.01066,   0.01559,   0.04271,  -0.01215,  -0.01092,   0.00696,   0.01312,   0.00819,  -0.01770,  -0.00352,   0.05319,  -0.00352,   0.02545,  -0.00352,  -0.01831,   0.01066,  -0.00968,  -0.02879,   0.06244,   0.04394,   0.00449,   0.00634,   0.01621,   0.00203,  -0.05592,  -0.01523,  -0.04359,   0.03716,  -0.01215,  -0.02201,   0.02299,  -0.02694,  -0.02571,  -0.01893,  -0.03804,  -0.03003,   0.03285,   0.03347,  -0.01893,   0.01312,  -0.03496,  -0.00660,   0.02792,   0.01497,   0.01066,  -0.02263,  -0.01770,  -0.02201,   0.01127,  -0.01277,   0.01066,   0.04086,   0.00696,   0.04888,   0.00573,   0.04333,  -0.01955,   0.04025,  -0.01462,   0.00141,   0.01929,   0.03963,  -0.01092,  -0.01523,   0.02792,  -0.00968,   0.01621,   0.03655,   0.01374,   0.01066,  -0.01277,   0.03285,  -0.02016,  -0.00414,  -0.03064,  -0.00352,  -0.03557,   0.00141,   0.02792,  -0.01277,   0.01004,   0.01805,  -0.02078,  -0.00290,   0.00942,   0.05689,   0.03901,   0.00079,  -0.00599,  -0.01215,   0.00264,   0.07600,   0.01127,   0.00018,   0.00634,   0.01744,  -0.03434,   0.00573,  -0.01708,  -0.03681,  -0.02510,   0.00449,  -0.00537,   0.04271,   0.02607,  -0.01400,  -0.01585,  -0.00167,  -0.00044,   0.00881,  -0.01153,   0.02607,   0.00141,   0.02545,  -0.03249,  -0.02941,   0.00326,   0.02237,  -0.06023,   0.01621,   0.04271,  -0.00845,  -0.01030,  -0.02078,   0.01312,  -0.02016,  -0.00044,   0.02792,  -0.00968,   0.00141,   0.01436,  -0.02201,   0.00141,  -0.00290,   0.01189,  -0.00229,  -0.00660,  -0.00414,   0.01559,  -0.03126,   0.01436,  -0.01647,   0.01805,   0.00326,  -0.01893,  -0.01462,   0.02545,  -0.00784,   0.00326,  -0.00537,  -0.00599,  -0.03434,   0.05504,  -0.02201,  -0.01585,  -0.01338,  -0.00660,  -0.02140,  -0.02756,   0.00819,  -0.01092,   0.00634,   0.01990,   0.01929,  -0.00105,   0.02607,  -0.02448,   0.01559,   0.00881,  -0.01400,   0.03593,   0.01312,   0.03470,  -0.02510,   0.02915,   0.00819,  -0.01770,   0.03100,  -0.02694,  -0.01153,  -0.00044,  -0.06825,   0.02977,  -0.02140,   0.04025,   0.01066,   0.01929,   0.02484,  -0.00907,   0.00881,  -0.01215,   0.01497,   0.04826,   0.02175,   0.01682,   0.01559,  -0.01955,   0.01805,   0.02299,  -0.01955,  -0.00414,   0.01559,   0.02114,  -0.01585,   0.01744,  -0.02571,   0.00758,   0.03593,   0.00079,  -0.04359,   0.01497,  -0.03557,  -0.02510,   0.01867,  -0.03804,   0.01374,  -0.01955,   0.01004,  -0.00599,  -0.02879,  -0.00414,  -0.02941,  -0.01092,  -0.04914,   0.00819,   0.02175,   0.01436,   0.06367,  -0.02818,   0.01682,  -0.00352,   0.04025,   0.04703,   0.02237,   0.00079,   0.00264,  -0.00352,  -0.01955,  -0.04975,  -0.01215,  -0.01585,   0.05381,   0.00634,  -0.00784,   0.01621,   0.00388,  -0.01462,  -0.02633,  -0.00229,   0.00326,  -0.05407,  -0.04420,  -0.00660,   0.00573,   0.04518,   0.01251,  -0.02140,  -0.02756,   0.02114,  -0.00044,  -0.00414,   0.00819,  -0.03496,   0.00881,  -0.00784,   0.00634,   0.04025,   0.02360,  -0.00537,   0.04641,   0.00881,   0.00264,  -0.01893,   0.01621,   0.01189,   0.00819,  -0.01647,  -0.01153,  -0.04975,   0.01374,  -0.01030,  -0.00784,  -0.04544,  -0.01277,  -0.00660,  -0.00167,  -0.02016,   0.00634,  -0.00290,   0.05073,  -0.03681,   0.03100,  -0.03681,   0.07723,  -0.00044,   0.03223,  -0.01153,   0.01004,  -0.00044,  -0.04051,  -0.00229,   0.02730,  -0.03003,   0.02360,   0.03162,   0.00141,   0.01374,  -0.01153,  -0.01831,  -0.03311,  -0.01215,  -0.04420,   0.03038,   0.01929,   0.03470,   0.00079,  -0.00167,   0.01312,   0.01867,  -0.00167,  -0.03373
   0.01312,  -0.01215,  -0.03188,   0.01744,  -0.02694,   0.00573,   0.00634,  -0.00599,  -0.00229,   0.02668,   0.04148,  -0.03866,  -0.00660,   0.01127,   0.00203,  -0.00044,  -0.01030,  -0.03249,  -0.00968,  -0.01647,  -0.03003,  -0.03927,   0.00819,  -0.01523,  -0.03188,  -0.02756,  -0.02386,   0.00203,  -0.01092,   0.01189,   0.00141,  -0.01831,   0.06675,   0.02114,  -0.01708,   0.00881,  -0.00229,   0.01374,  -0.02633,   0.01374,   0.01621,   0.05627,  -0.00475,   0.01004,   0.02052,  -0.01030,   0.00264,  -0.02016,  -0.00044,   0.03470,  -0.03126,  -0.00537,  -0.00290,  -0.01153,   0.00264,   0.01127,   0.06614,   0.01621,  -0.02263,   0.01066,  -0.02140,   0.00634,   0.03038,  -0.00414,   0.02175,   0.01929,  -0.04729,   0.03162,  -0.02201,  -0.02448,  -0.04174,  -0.02016,  -0.00660,   0.01621,  -0.00352,   0.00326,   0.04888,  -0.00784,   0.02730,   0.00449,   0.00018,   0.06305,   0.01312,   0.04148,   0.01929,   0.01744,  -0.00414,   0.01004,   0.00018,   0.00264,   0.00696,  -0.02078,   0.00079,  -0.02571,   0.00881,   0.01682,  -0.01955,   0.02299,  -0.03249,  -0.02941,  -0.01831,   0.01189,   0.00449,   0.01066,   0.03162,   0.04456,   0.04826,   0.01990,  -0.02140,   0.01436,   0.03408,  -0.03064,  -0.00352,  -0.05037,  -0.03496,   0.01312,  -0.05777,   0.01559,   0.02360,   0.01744,   0.01990,  -0.00229,  -0.04236,  -0.05530,  -0.01277,   0.00141,   0.00326,  -0.01647,   0.02299,   0.03470,  -0.04359,   0.00573,   0.05134,   0.03531,  -0.03496,   0.01251,  -0.01770,  -0.01955,  -0.00599,   0.04703,  -0.00968,  -0.01153,  -0.01215,  -0.00537,   0.02360,   0.03593,   0.01312,  -0.05099,   0.02114,   0.01805,  -0.02325,  -0.01831,   0.01805,  -0.03249,   0.00388,  -0.07996,   0.02299,  -0.02325,   0.02484,   0.01867,  -0.03496,  -0.00414,   0.00634,  -0.00475,  -0.00660,   0.00079,   0.03778,   0.03963,  -0.00537,  -0.03188,   0.03593,  -0.00290,   0.00203,   0.04703,   0.00819,   0.01621,  -0.01955,   0.06984,   0.00449,  -0.00352,   0.05442,   0.02915,   0.03901,  -0.02818,  -0.01092,  -0.00414,   0.01374,  -0.00784,  -0.00167,   0.00079,   0.00634,   0.00696,   0.00141,   0.01066,  -0.05962,  -0.00537,   0.01805,   0.02237,   0.01867,  -0.00167,  -0.01647,   0.01805,   0.03840,  -0.02510,  -0.00784,   0.02237,  -0.00660,  -0.03064,  -0.03064,  -0.02756,  -0.00537,  -0.02016,  -0.01338,  -0.04544,  -0.01215,   0.00511,   0.01682,  -0.01338,   0.00511,  -0.00968,   0.01805,   0.03716,   0.01867,  -0.02448,  -0.00475,   0.03223,  -0.00907,  -0.00907,   0.00018,  -0.01647,   0.00388,   0.00758,  -0.01462,   0.07168,  -0.01030,  -0.00414,   0.00388,  -0.01030,   0.03593,   0.01436,   0.01436,   0.01744,   0.01497,   0.03901,  -0.00167,  -0.05407,   0.01189,  -0.01770,   0.03778,  -0.02263,  -0.00907,   0.05381,  -0.02201,  -0.00968,  -0.01153,   0.00449,   0.00819,  -0.01462,  -0.00907,  -0.00599,   0.04641,   0.00141,  -0.02386,  -0.00105,   0.00388,   0.02237,  -0.00414,  -0.01585,  -0.02325,  -0.00907,  -0.02448,  -0.01585,   0.03223,   0.01189,   0.02052,  -0.00845,  -0.02386,   0.04086,   0.01929,   0.00942,  -0.01092,   0.01497,  -0.02448,  -0.01092,  -0.01893,   0.01374,  -0.02263,  -0.01092,  -0.01400,  -0.03989,  -0.00105,  -0.00784,   0.00326,   0.00758,  -0.02633,   0.00326,   0.00819,   0.01621,  -0.02756,  -0.02325,  -0.01400,  -0.01400,  -0.01030,  -0.00537,   0.02915,   0.01559,  -0.04544,   0.00079,  -0.06331,  -0.03866,   0.01805,  -0.02140,   0.01805,  -0.03557,  -0.00290,   0.01066,   0.00696,   0.02360,   0.02114,   0.00511,   0.02422,  -0.00845,   0.02792,  -0.01030,  -0.00475,  -0.02386,  -0.05592,   0.05751,   0.00264,  -0.02571,   0.04826,   0.01127,   0.04086,   0.04518,   0.03531,  -0.00537,   0.04148,   0.03655,   0.00326,   0.00388,  -0.01523,   0.00573,  -0.01153,   0.00018,  -0.00599,   0.06675,  -0.00845,   0.05011,   0.04949,  -0.02571,  -0.01215,  -0.03804,  -0.00660,  -0.01277,  -0.00167,  -0.00352,  -0.05160,   0.00758,   0.00449,   0.04210,  -0.03126,   0.01682,   0.01497,  -0.00968,  -0.00229,  -0.02756,  -0.02263,   0.00634,   0.06244,   0.02853,  -0.00352,   0.01436,  -0.00414,   0.01127,   0.00018,   0.01805,  -0.00105,  -0.01831,   0.00881,  -0.05284,   0.04518,   0.01559,  -0.02263,  -0.00290
  -0.00722,  -0.01585,   0.01436,  -0.02756,  -0.01400,   0.00388,   0.02175,  -0.01153,   0.02853,   0.01189,   0.01744,  -0.01277,  -0.02879,   0.00141,  -0.00599,   0.03470,   0.03285,  -0.01092,   0.02114,  -0.04544,  -0.06455,  -0.02016,   0.00141,  -0.01092,   0.00881,   0.01744,   0.00634,   0.04456,  -0.01893,   0.01189,   0.01004,   0.01682,  -0.00784,   0.02484,  -0.05530,   0.02484,   0.02484,  -0.03434,  -0.03249,   0.00203,   0.05381,  -0.01400,  -0.00229,  -0.02818,   0.00881,   0.01621,   0.02052,  -0.03003,   0.01004,  -0.02325,  -0.02879,  -0.04112,   0.05997,  -0.01400,   0.02792,   0.04210,   0.00141,   0.03778,  -0.02571,  -0.04236,   0.00018,   0.01559,  -0.02201,  -0.02694,   0.02299,  -0.03681,  -0.00907,  -0.01708,  -0.01338,  -0.00599,   0.03963,   0.02484,   0.00079,   0.00573,  -0.01523,   0.01805,  -0.03003,   0.00819,  -0.00599,  -0.02756,   0.00696,   0.00264,  -0.01955,  -0.00229,   0.00758,   0.03963,  -0.01462,  -0.01030,  -0.03249,   0.00819,   0.00388,   0.01559,   0.00079,  -0.04051,  -0.00660,  -0.02448,  -0.00537,   0.00388,   0.00573,   0.02607,  -0.00044,   0.01497,   0.02668,   0.00079,   0.02545,  -0.02386,   0.00511,  -0.01831,  -0.00722,  -0.03126,   0.00079,  -0.00167,  -0.00968,  -0.01770,   0.01867,   0.02299,  -0.00229,   0.00449,   0.01497,  -0.03434,   0.05689,  -0.01955,  -0.02078,  -0.02325,   0.01682,   0.02730,  -0.02879,  -0.00290,   0.00079,   0.01805,  -0.00229,  -0.00290,  -0.02756,  -0.01092,   0.00634,   0.00819,   0.02607,   0.01990,  -0.00660,   0.00634,   0.00264,   0.01990,  -0.01523,   0.01497,  -0.00537,  -0.02016,   0.03963,  -0.02201,  -0.01708,  -0.00229,   0.00819,   0.01559,  -0.00722,   0.00634,  -0.01153,  -0.00537,  -0.00968,  -0.02386,   0.00141,  -0.02201,   0.02730,  -0.02818,   0.01312,   0.02668,   0.03162,  -0.02879,  -0.05962,  -0.01030,   0.03840,   0.02853,  -0.01400,   0.03285,  -0.02941,  -0.00722,  -0.01277,   0.05442,  -0.01955,   0.01251,   0.02545,   0.03100,   0.00573,   0.02915,   0.06860,  -0.02941,  -0.00290,   0.00696,  -0.04174,   0.02668,  -0.02633,   0.00326,  -0.00599,   0.03963,   0.02052,   0.01497,   0.02422,   0.04764,   0.03223,   0.01066,  -0.02201,   0.02114,   0.00881,   0.03901,  -0.00352,  -0.04544,  -0.00537,   0.02114,  -0.01831,  -0.01647,  -0.01277,  -0.00167,   0.01312,  -0.00660,  -0.02510,  -0.02941,   0.00264,  -0.02756,  -0.03927,  -0.01523,  -0.00845,  -0.02078,  -0.00352,  -0.02510,  -0.02448,  -0.03126,   0.00511,  -0.03249,   0.01066,   0.00018,   0.06121,   0.02484,  -0.03003,  -0.00907,  -0.03557,   0.00018,   0.00326,   0.00696,  -0.01462,  -0.05160,   0.01066,  -0.02386,   0.00264,   0.01251,  -0.01400,   0.00449,   0.02175,  -0.03003,  -0.00290,   0.01744,   0.02114,  -0.02201,  -0.01770,   0.00388,  -0.02448,   0.01066,  -0.01400,   0.00449,  -0.01277,  -0.00414,  -0.02016,  -0.01523,   0.02422,   0.01251,  -0.01277,  -0.00352,   0.04949,  -0.04359,   0.01805,  -0.01153,   0.00696,  -0.01277,   0.00758,  -0.01215,   0.00203,   0.00264,   0.00573,  -0.02818,  -0.02756,   0.00018,  -0.00537,   0.01127,   0.00573,  -0.00290,   0.01990,   0.00881,  -0.00968,  -0.00968,   0.03655,   0.00942,  -0.00044,  -0.00044,   0.00758,   0.03716,   0.03470,   0.01066,  -0.00105,  -0.02201,  -0.03681,  -0.00229,  -0.04729,   0.02545,  -0.00475,   0.01127,  -0.00907,   0.00264,   0.00696,  -0.00229,   0.00881,  -0.00229,   0.01251,   0.00018,  -0.01215,   0.00758,  -0.02386,   0.01004,  -0.00784,   0.03655,  -0.00845,   0.03778,  -0.00167,   0.02915,   0.00511,   0.06614,   0.02853,   0.02668,   0.03100,  -0.01955,  -0.00784,   0.00326,   0.04394,   0.00449,   0.03408,  -0.02140,  -0.03064,   0.04210,  -0.00044,   0.00942,   0.02853,   0.02853,  -0.00290,   0.01929,   0.00511,   0.03285,  -0.02694,  -0.00414,   0.02607,   0.01559,   0.00018,   0.01127,  -0.04482,   0.01621,  -0.02756,  -0.03126,   0.03408,  -0.02325,  -0.02818,  -0.03742,   0.01559,  -0.01523,   0.00203,  -0.01338,  -0.03126,   0.01374,  -0.05345,  -0.04174,   0.02114,  -0.01030,   0.00449,  -0.02756,  -0.02201,   0.03470,  -0.01153,  -0.03866,  -0.05037,  -0.03619,   0.01682,   0.01066,  -0.03619,   0.02853,  -0.01092,  -0.03989,  -0.00907,  -0.00599,  -0.00414,   0.03223
