   0.00598,   0.00944,   0.01774,   0.01774,  -0.01755,  -0.01409,   0.00736,   0.00252,  -0.01063,   0.03988,  -0.01616,  -0.03969,   0.04334,   0.03781,  -0.00579,  -0.02724,   0.03504,   0.01082,   0.02535,  -0.01340,   0.02674,   0.01705,  -0.00094,  -0.02654,  -0.00163,   0.01082,  -0.00786,   0.01290,  -0.01824,   0.02604,   0.01705,   0.01982,  -0.02101,  -0.00025,  -0.02239,   0.06272,   0.00529,   0.01843,  -0.02032,  -0.02447,  -0.00786,  -0.01547,  -0.03900,  -0.03969,   0.00529,   0.00459,   0.00183,  -0.03000,  -0.00717,   0.00113,   0.02120,   0.02604,   0.00459,  -0.02447,   0.05441,  -0.00579,   0.02397,  -0.02862,  -0.02239,   0.02051,   0.00667,   0.01428,   0.00667,   0.05511,  -0.01478,  -0.02378,   0.04473,  -0.02170,   0.01705,   0.01151,   0.03158,  -0.00855,   0.02328,   0.03642,  -0.01547,   0.04057,   0.00044,  -0.00302,   0.00183,  -0.00855,  -0.02378,  -0.02585,   0.02604,  -0.01063,  -0.00648,  -0.01686,   0.00805,   0.00944,   0.01982,   0.00321,   0.00875,  -0.01547,  -0.00855,  -0.02308,   0.01082,   0.05026,   0.01982,  -0.00924,  -0.03000,   0.00113,   0.01912,   0.01912,  -0.02516,  -0.02378,   0.03089,  -0.02585,   0.04403,  -0.00924,  -0.00648,  -0.02308,   0.02328,  -0.00302,  -0.03554,   0.01843,   0.00321,  -0.03485,   0.00529,  -0.03069,  -0.03277,   0.02120,   0.00736,  -0.00371,  -0.02585,   0.01912,  -0.03000,   0.01151,   0.00183,  -0.00786,  -0.02378,   0.02812,   0.02189,  -0.07360,  -0.02170,  -0.00233,   0.04749,   0.02604,   0.01082,   0.01982,   0.04473,  -0.03485,  -0.01201,   0.01912,  -0.00163,   0.00667,   0.03227,   0.01359,  -0.00163,  -0.01270,   0.02535,  -0.01270,   0.04473,  -0.03000,  -0.00302,  -0.01616,   0.00805,  -0.04315,  -0.00648,   0.00459,  -0.02516,   0.03712,   0.03158,  -0.00094,  -0.01132,  -0.00786,   0.01428,  -0.01824,   0.00044,  -0.01340,   0.03296,   0.03573,  -0.02585,  -0.00440,   0.02674,  -0.00233,   0.03020,   0.02328,  -0.01270,  -0.02378,  -0.00786,   0.01912,   0.00529,   0.03089,  -0.02101,   0.00529,  -0.01686,  -0.02378,  -0.01547,   0.00805,  -0.00371,  -0.01409,  -0.02585,  -0.00094,   0.03227,   0.00252,   0.01566,   0.00113,   0.01290,  -0.03346,  -0.01824,   0.00459,   0.00944,   0.02328,   0.00598,   0.01774,  -0.01824,   0.03296,   0.00390,  -0.00648,  -0.00509,   0.00390,  -0.00648,   0.02535,  -0.00440,   0.02328,  -0.01270,   0.03296,   0.00390,  -0.02378,  -0.01478,  -0.00302,   0.01082,  -0.01755,  -0.00579,  -0.01132,   0.00113,  -0.00302,   0.01082,  -0.03969,  -0.00302,  -0.00509,   0.05095,  -0.01270,  -0.01962,   0.03227,  -0.00717,  -0.02931,  -0.03277,  -0.04107,   0.01636,   0.01221,  -0.01409,   0.00529,   0.01151,  -0.02516,  -0.00994,   0.00875,   0.00736,   0.02535,  -0.00786,   0.00252,  -0.03346,  -0.00994,  -0.00579,  -0.00994,  -0.00302,  -0.01201,  -0.00994,  -0.02793,   0.01151,  -0.01893,   0.03919,   0.00459,  -0.00509,   0.02189,   0.01843,   0.01151,  -0.03277,   0.02535,  -0.05837,  -0.00163,   0.02189,  -0.02378,   0.01566,   0.01566,   0.02189,   0.00113,  -0.01063,  -0.00855,   0.00805,  -0.00509,   0.00529,  -0.01201,  -0.02239,   0.02604,   0.00875,   0.02397,  -0.02032,   0.00390,   0.01290,  -0.01063,  -0.02239,  -0.01340,  -0.01686,   0.03089,  -0.02170,  -0.03900,   0.02120,   0.04473,  -0.01893,   0.00944,  -0.01478,   0.00459,   0.01013,  -0.00994,  -0.01824,  -0.01063,   0.05441,   0.03435,   0.00459,  -0.00717,  -0.01824,   0.01359,   0.00875,  -0.00302,  -0.00233,  -0.03831,  -0.03485,  -0.01340,   0.00044,  -0.00163,   0.01428,   0.00736,  -0.00025,  -0.02101,   0.01290,   0.02189,   0.01428,  -0.01132,   0.02258,  -0.01686,   0.00805,   0.03435,  -0.00094,   0.01566,   0.04473,  -0.04246,  -0.08813,   0.00113,   0.01566,   0.02743,   0.01428,   0.00529,  -0.02032,  -0.00994,  -0.01409,  -0.04315,   0.03089,   0.03366,   0.03642,   0.03227,  -0.03069,   0.01013,  -0.00163,   0.02743,  -0.02654,  -0.02931,   0.00321,   0.03020,  -0.02585,  -0.00371,  -0.03346,  -0.00786,  -0.04592,   0.02466,  -0.01270,  -0.00509,   0.00944,   0.04403,   0.03712,  -0.01132,   0.01497,   0.01912,   0.01636,  -0.00302,   0.03296,  -0.01824,  -0.00025,   0.01290,   0.02258,   0.00805,   0.00667,   0.00875,  -0.01478,   0.00044
  -0.02170,   0.04057,   0.04057,  -0.02862,   0.03712,  -0.04730,   0.01151,   0.02743,   0.01082,   0.00113,  -0.01201,   0.02258,   0.01705,   0.00321,   0.01982,   0.02812,   0.01566,  -0.00855,  -0.01478,   0.01912,  -0.02032,   0.02950,  -0.03415,   0.00736,   0.02051,   0.02812,  -0.05353,   0.03366,   0.03573,   0.03850,   0.01151,  -0.01686,  -0.01962,   0.01013,  -0.00717,   0.01636,   0.05303,   0.00667,   0.00252,   0.02950,  -0.00717,  -0.03485,  -0.03208,  -0.01201,  -0.05076,   0.02258,   0.00044,  -0.00094,   0.02881,   0.00459,   0.02397,   0.02328,  -0.01409,  -0.02239,   0.00044,   0.01566,   0.00113,   0.00736,  -0.00302,   0.01912,   0.01013,   0.03366,  -0.01824,  -0.02585,  -0.02654,   0.02604,  -0.03277,  -0.02447,  -0.01063,   0.00736,  -0.03139,   0.04196,   0.00736,   0.01359,  -0.00233,   0.02812,   0.03366,   0.02743,   0.02604,  -0.01132,   0.01290,   0.00598,  -0.00233,   0.00390,  -0.01132,   0.02051,   0.03573,  -0.00440,   0.02189,  -0.03900,  -0.01270,   0.01290,  -0.01755,  -0.00648,   0.01013,  -0.02724,  -0.01962,   0.00044,  -0.00094,   0.03988,  -0.03900,   0.03850,   0.05857,   0.01705,  -0.04938,  -0.01755,  -0.02308,   0.03158,  -0.02724,  -0.01686,   0.00459,   0.00183,  -0.03208,   0.00183,  -0.04799,   0.00805,  -0.02101,  -0.02032,   0.03227,  -0.00440,  -0.02032,  -0.00025,  -0.02654,  -0.01616,   0.01843,  -0.06252,  -0.00924,   0.01290,  -0.06806,  -0.02101,  -0.02516,  -0.00371,  -0.02170,   0.01013,   0.01705,  -0.01547,   0.01082,   0.02189,   0.00321,  -0.00855,  -0.00579,  -0.02239,   0.01428,  -0.02585,  -0.05145,   0.00183,  -0.01132,   0.00113,  -0.00855,   0.03089,   0.00390,  -0.00994,  -0.00579,  -0.00025,  -0.00094,  -0.00855,  -0.02516,  -0.03969,   0.04057,   0.01359,   0.01151,  -0.00025,   0.01082,   0.00529,   0.02051,   0.00321,   0.01082,  -0.00855,  -0.03000,   0.02812,   0.00113,   0.00875,  -0.01962,  -0.00994,   0.00736,   0.01290,   0.01566,   0.01636,   0.00805,   0.00252,  -0.00855,  -0.01409,   0.00459,   0.04957,   0.01982,   0.00598,  -0.02101,   0.00113,   0.04680,  -0.00509,  -0.04038,  -0.03208,  -0.00786,   0.00321,   0.00044,  -0.04523,   0.00113,  -0.00302,   0.05303,   0.00529,   0.01497,   0.02397,  -0.03000,   0.03227,  -0.04177,  -0.01132,   0.01636,   0.01151,  -0.01686,  -0.03139,  -0.01132,   0.00598,  -0.01547,   0.04819,   0.00390,  -0.02931,   0.03020,  -0.00509,  -0.00579,   0.06064,   0.00390,   0.01774,  -0.02101,  -0.01616,  -0.02101,  -0.02308,  -0.01270,  -0.00025,   0.00667,  -0.02793,  -0.00717,   0.02397,   0.02328,  -0.00648,   0.01151,   0.03642,  -0.00302,  -0.02378,   0.03850,   0.04057,   0.00944,  -0.01270,   0.01912,   0.01566,  -0.02170,  -0.02447,   0.03227,   0.01151,  -0.03139,  -0.02308,  -0.00302,   0.02120,   0.02604,   0.01636,   0.04611,   0.02466,  -0.01478,   0.02189,  -0.04315,   0.01151,   0.01290,   0.00598,   0.02397,   0.01151,   0.03988,  -0.01547,  -0.01755,  -0.00371,  -0.01132,  -0.00717,   0.02881,  -0.02516,   0.01982,  -0.03346,  -0.01824,  -0.02654,  -0.02170,  -0.04246,  -0.02308,   0.00529,  -0.02516,  -0.02239,   0.02120,   0.02950,  -0.02654,  -0.00371,  -0.02447,  -0.03277,  -0.02378,  -0.03554,  -0.08051,   0.00252,  -0.00371,  -0.05837,   0.01912,   0.00736,   0.00459,  -0.00717,   0.01221,   0.00321,  -0.01063,   0.00044,   0.04473,  -0.00163,  -0.02654,  -0.01686,   0.04334,  -0.01893,  -0.01270,  -0.00994,   0.03020,  -0.02516,   0.02120,   0.01912,  -0.01340,   0.02743,  -0.03139,  -0.02931,   0.01290,   0.03020,  -0.01893,   0.03435,  -0.00994,   0.01082,   0.01013,  -0.00094,  -0.04107,   0.00875,  -0.01616,  -0.00163,  -0.00233,   0.02950,  -0.00025,  -0.00994,   0.02881,  -0.00994,   0.00390,  -0.01340,   0.00252,   0.01843,   0.01843,   0.04334,  -0.01409,   0.01497,  -0.00371,   0.00113,   0.01151,  -0.01616,   0.03642,  -0.01686,   0.00805,   0.01151,  -0.05560,  -0.03554,  -0.00233,  -0.03623,   0.01221,  -0.02447,   0.01082,  -0.02239,   0.01082,  -0.04038,   0.01428,  -0.02724,   0.02397,  -0.02724,  -0.01755,   0.04265,   0.02051,  -0.04315,   0.00183,   0.00459,  -0.00509,   0.04057,   0.00321,  -0.01478,   0.03296,  -0.01132,   0.00113,  -0.01616,  -0.00233,  -0.03761,   0.04334,   0.00113
   0.01013,   0.00944,  -0.02793,   0.02051,   0.00667,   0.00529,   0.03296,   0.00459,   0.01636,   0.01151,  -0.05076,  -0.01616,   0.01982,  -0.01132,   0.01151,  -0.04315,   0.02674,   0.00598,   0.02051,  -0.00440,  -0.02447,   0.02258,  -0.02239,  -0.02447,   0.01774,   0.00459,   0.00875,  -0.02516,  -0.00233,  -0.00302,  -0.03623,  -0.03761,   0.00459,  -0.02931,   0.02743,  -0.02585,   0.01082,   0.02397,  -0.01686,  -0.00717,  -0.01547,  -0.00994,   0.01013,  -0.00094,   0.00667,   0.01705,  -0.00440,  -0.01893,   0.00321,  -0.02378,   0.01774,  -0.00302,   0.00044,  -0.03554,   0.00529,  -0.00717,   0.02674,   0.00667,   0.02051,  -0.04592,  -0.01755,   0.02743,  -0.01270,  -0.04177,  -0.00509,   0.00044,   0.01082,  -0.04730,  -0.00717,  -0.06737,   0.01290,  -0.02447,   0.00667,   0.00183,   0.00252,   0.01290,   0.01774,   0.03366,  -0.04799,  -0.00994,   0.01497,   0.00944,   0.01982,  -0.02585,   0.00667,  -0.00648,  -0.00094,  -0.02170,  -0.00717,  -0.03623,   0.02120,   0.01151,   0.01982,  -0.00994,  -0.01824,   0.02189,  -0.03831,   0.05095,   0.00044,  -0.00855,   0.00459,   0.02189,  -0.00302,   0.00113,  -0.03208,  -0.01686,  -0.01755,   0.04057,  -0.03969,  -0.00855,  -0.02931,   0.00875,   0.02604,  -0.00648,   0.01428,  -0.04177,   0.00113,  -0.00855,  -0.01478,   0.05926,   0.01636,   0.00875,   0.01774,  -0.00371,   0.01151,  -0.02101,   0.02535,  -0.01201,   0.02812,   0.05095,  -0.00302,  -0.03554,   0.00390,   0.06064,   0.01497,  -0.00648,   0.00944,  -0.02516,   0.03227,   0.00113,  -0.05976,   0.04957,  -0.03900,  -0.01478,  -0.02170,  -0.00025,  -0.03069,  -0.01478,   0.00875,   0.02120,  -0.01270,  -0.01962,   0.00529,   0.04196,  -0.05215,   0.02466,   0.00667,   0.02950,   0.00944,  -0.01270,   0.01636,   0.02881,  -0.00855,  -0.03000,   0.00321,   0.00459,  -0.00786,   0.01774,   0.00183,   0.01497,  -0.02585,  -0.01686,  -0.00371,   0.05095,  -0.02101,   0.01636,  -0.02793,   0.00667,  -0.00233,   0.01843,  -0.03000,   0.01359,  -0.03277,  -0.01201,  -0.02724,  -0.05422,   0.01290,   0.07240,   0.02535,  -0.00371,  -0.01755,  -0.00302,   0.00875,  -0.00855,  -0.02447,  -0.01824,  -0.01824,  -0.00924,  -0.00855,  -0.00579,   0.02120,  -0.02516,  -0.03069,  -0.03415,  -0.01063,  -0.03623,  -0.01824,  -0.00094,  -0.01893,   0.03919,   0.01982,  -0.00025,   0.02950,   0.03988,   0.01013,  -0.00855,   0.00252,   0.01013,  -0.01686,  -0.00994,   0.04542,   0.02466,   0.00875,   0.04057,   0.00183,   0.02881,  -0.00371,   0.00459,  -0.03761,  -0.04384,  -0.02239,  -0.00371,   0.03158,  -0.02862,   0.02881,   0.01151,  -0.00233,   0.00667,   0.00529,  -0.02931,   0.03642,  -0.00579,  -0.01340,   0.05026,   0.00321,  -0.00233,   0.00875,  -0.01893,  -0.05560,   0.00113,  -0.00509,  -0.01063,   0.02051,   0.01774,  -0.02032,  -0.01616,   0.07240,  -0.03346,   0.00529,   0.00529,  -0.02516,   0.01497,   0.04888,   0.04265,   0.01705,   0.00944,  -0.00025,  -0.04523,  -0.03069,   0.03850,  -0.01132,   0.01151,  -0.01547,   0.00875,   0.00113,  -0.06668,  -0.01755,   0.00667,  -0.00994,   0.01705,  -0.01201,  -0.02447,  -0.00786,  -0.00094,   0.02258,  -0.01893,   0.01013,   0.01982,  -0.00717,  -0.01547,   0.01428,  -0.01547,  -0.03277,  -0.00994,   0.01221,  -0.00163,  -0.05491,  -0.00924,  -0.00924,  -0.02239,   0.00875,   0.01774,   0.01497,   0.02950,   0.04196,  -0.05353,   0.05095,   0.05303,   0.01566,   0.01082,   0.00944,   0.00183,  -0.00509,   0.03227,   0.03020,  -0.00163,   0.00183,   0.01843,   0.00944,  -0.05906,  -0.00509,   0.04542,  -0.00786,   0.01082,   0.02743,  -0.05422,  -0.03069,  -0.03139,   0.01082,   0.00321,  -0.00786,   0.04127,  -0.01270,   0.02397,   0.03504,   0.00667,  -0.01893,   0.00875,  -0.01409,   0.04127,  -0.01478,  -0.00855,  -0.01132,   0.00944,  -0.00163,   0.01566,  -0.05560,   0.00459,  -0.01686,   0.03850,  -0.01201,   0.00113,  -0.02308,  -0.04799,   0.01359,  -0.01824,  -0.03000,  -0.00924,   0.01359,  -0.03000,   0.04611,   0.01566,  -0.03000,   0.02466,  -0.00509,   0.00113,  -0.01063,   0.01082,   0.03020,  -0.01686,  -0.01201,   0.01636,   0.02258,   0.03089,   0.01290,   0.01221,  -0.00648,  -0.01824,   0.02051,  -0.03069,  -0.02516,  -0.03761,  -0.03900,   0.01082
  -0.00440,   0.01912,  -0.01409,  -0.01132,  -0.00233,  -0.00509,   0.00736,   0.00529,  -0.01962,   0.00183,   0.00044,   0.01359,  -0.01409,  -0.00302,  -0.02724,  -0.04799,   0.00875,  -0.00440,  -0.02170,  -0.00371,  -0.03692,   0.03020,  -0.05630,   0.01082,  -0.00440,   0.00875,  -0.01409,  -0.00440,  -0.00440,  -0.01893,   0.02328,   0.03089,  -0.00924,  -0.05007,   0.01636,  -0.02378,   0.03919,   0.01082,   0.04334,  -0.01063,   0.01428,  -0.01201,  -0.02308,   0.01912,  -0.01409,   0.02950,  -0.02516,  -0.01132,  -0.00094,  -0.01340,   0.02743,   0.00321,  -0.01755,  -0.01962,  -0.03346,  -0.01616,   0.06202,   0.00598,   0.01013,  -0.02308,   0.04680,  -0.03485,  -0.01893,   0.00736,  -0.02378,   0.01082,   0.00183,   0.00183,   0.02881,   0.02535,  -0.00302,   0.01843,  -0.00233,  -0.03623,   0.00459,   0.01221,   0.00459,   0.00944,   0.02120,   0.00390,   0.01843,   0.00944,   0.02535,   0.01013,  -0.03277,   0.02397,   0.04957,   0.03504,  -0.01755,  -0.03554,   0.03296,  -0.03831,  -0.01409,  -0.02378,   0.04127,  -0.00233,  -0.02308,   0.02466,  -0.00509,  -0.02170,   0.02604,  -0.03000,  -0.04938,  -0.00579,   0.00875,  -0.01824,  -0.04523,  -0.00094,   0.00321,  -0.01340,   0.01082,   0.03712,  -0.00302,   0.00459,   0.02604,   0.00390,  -0.02793,   0.05441,  -0.02101,   0.01290,  -0.02170,  -0.00163,   0.00667,  -0.03485,  -0.01755,   0.01912,  -0.00786,  -0.00163,   0.03089,   0.01705,  -0.00648,   0.01705,   0.00252,  -0.00233,   0.01912,  -0.02308,   0.02328,   0.01013,   0.04265,   0.00598,   0.00875,  -0.06391,  -0.00648,  -0.02724,  -0.04038,  -0.01270,  -0.00579,   0.01013,   0.03089,  -0.00371,  -0.04246,   0.01912,   0.00529,  -0.01755,  -0.00440,  -0.00786,   0.01290,  -0.01409,  -0.01340,  -0.01132,  -0.02931,   0.01290,   0.00667,   0.02120,   0.01982,  -0.03761,   0.03850,  -0.04592,   0.04819,  -0.02170,   0.00183,  -0.03139,   0.01636,  -0.01063,  -0.02308,   0.00805,  -0.00994,  -0.00579,   0.01151,   0.00459,   0.01221,   0.05303,  -0.02170,  -0.03139,  -0.00509,   0.00459,   0.02258,  -0.04592,  -0.02101,   0.02466,  -0.01616,   0.02120,   0.01636,   0.02674,   0.02258,  -0.02931,  -0.01201,  -0.02862,  -0.00302,  -0.04315,  -0.02170,  -0.00994,  -0.01063,   0.01843,  -0.01547,  -0.00094,  -0.01755,   0.00252,   0.04611,   0.03642,  -0.02862,  -0.00025,   0.01636,   0.01566,  -0.00233,  -0.03415,   0.00805,   0.03504,   0.01013,   0.00598,  -0.02447,   0.03020,   0.00736,  -0.01616,   0.01705,  -0.02447,   0.00044,   0.01221,  -0.00302,  -0.03692,  -0.00094,   0.01013,  -0.02378,  -0.00094,  -0.05215,  -0.00579,  -0.02724,   0.02120,   0.00944,  -0.01340,   0.02466,  -0.01893,  -0.00994,   0.02189,  -0.02378,   0.04265,   0.01359,  -0.01478,   0.08348,   0.04888,   0.01705,   0.00390,   0.00390,   0.02674,   0.01290,  -0.01893,   0.03158,   0.01013,   0.03919,   0.00390,   0.03020,  -0.00025,  -0.06322,   0.04957,  -0.02447,  -0.02793,  -0.01547,  -0.02793,  -0.01478,  -0.03069,   0.02535,   0.06064,  -0.06668,  -0.01478,  -0.03277,   0.03227,  -0.02793,   0.02881,   0.04680,  -0.01132,   0.01359,   0.03850,   0.02812,  -0.01340,   0.00667,   0.02881,   0.01636,   0.00529,  -0.01962,   0.00805,   0.00875,  -0.03000,  -0.03277,  -0.00025,   0.01774,   0.02535,  -0.01340,  -0.06460,  -0.03000,   0.01151,   0.02812,  -0.03208,   0.02258,   0.01843,   0.03642,  -0.02308,  -0.03000,   0.01982,   0.04542,  -0.01270,  -0.02516,  -0.00302,   0.04265,  -0.06668,   0.02950,   0.00044,  -0.00163,  -0.01340,  -0.00302,  -0.03969,   0.02120,  -0.00994,   0.01497,   0.06687,   0.02189,  -0.01547,   0.02120,  -0.01962,   0.00390,  -0.02931,  -0.03000,  -0.00994,  -0.02862,   0.01221,  -0.01201,   0.00944,   0.01359,  -0.02793,   0.01151,  -0.00924,   0.00529,  -0.04799,   0.00875,   0.00875,  -0.05560,  -0.06598,   0.00736,  -0.04107,  -0.00924,  -0.00924,  -0.01201,   0.01082,  -0.01686,  -0.03208,  -0.04730,   0.03642,   0.00736,   0.01013,   0.01359,   0.00252,  -0.02654,  -0.00371,   0.00252,  -0.01132,  -0.03346,  -0.02032,   0.00805,   0.00944,   0.01774,  -0.07083,  -0.01063,   0.01912,  -0.00509,  -0.00440,  -0.01132,   0.02189,  -0.00440,   0.02120,  -0.02170,   0.01497,  -0.02654,  -0.02585,   0.00875,   0.01151
   0.01912,  -0.01409,   0.00183,   0.04819,   0.04611,   0.00183,   0.05026,  -0.00233,  -0.01686,   0.03504,  -0.00440,  -0.03000,  -0.00371,  -0.02239,  -0.02239,  -0.03761,  -0.02032,   0.02535,  -0.04592,  -0.04661,  -0.02447,  -0.00094,  -0.02654,  -0.02447,  -0.01616,  -0.02378,  -0.00163,  -0.02032,   0.00875,  -0.03346,  -0.02032,  -0.00994,  -0.00302,  -0.00233,  -0.01893,  -0.01340,  -0.00094,  -0.03000,  -0.01755,  -0.02239,   0.01221,   0.02120,   0.00113,  -0.01755,   0.01497,   0.06202,  -0.03623,   0.02397,  -0.00094,   0.00805,  -0.00163,  -0.03623,  -0.01132,  -0.01063,  -0.01270,  -0.01478,  -0.01201,   0.02674,   0.01359,  -0.03485,   0.02397,  -0.01478,   0.01151,  -0.03346,  -0.00233,  -0.04177,  -0.01686,   0.00875,   0.01221,  -0.02447,  -0.05491,   0.02812,  -0.03069,   0.03227,   0.02189,  -0.00994,   0.03089,  -0.01616,   0.02812,   0.01428,   0.03435,   0.04611,  -0.00717,   0.02051,   0.01428,   0.04611,  -0.01547,   0.01359,  -0.02308,  -0.00579,   0.00529,   0.02051,   0.00529,  -0.04799,   0.00736,  -0.02308,   0.03642,   0.00183,  -0.02378,  -0.00440,   0.03504,   0.00529,   0.01774,   0.06133,  -0.02724,   0.01013,  -0.02724,   0.01359,  -0.00371,   0.02950,  -0.02032,  -0.00233,   0.00113,   0.00736,   0.02674,   0.03573,   0.03781,  -0.04453,  -0.02239,  -0.01270,   0.00736,  -0.02793,   0.02051,  -0.01063,  -0.01962,  -0.03900,   0.00044,   0.01082,   0.01151,  -0.00509,   0.00044,   0.03158,   0.02535,  -0.00994,   0.02120,   0.01428,   0.02604,  -0.00924,   0.00598,  -0.01824,  -0.04661,  -0.04315,  -0.01686,  -0.02654,   0.00044,   0.00805,   0.00390,   0.01912,   0.01221,   0.01636,  -0.01201,  -0.03000,   0.02881,  -0.00025,  -0.01686,  -0.05215,   0.01636,   0.00805,  -0.00579,   0.02258,  -0.02447,  -0.00094,   0.02189,   0.01912,   0.00390,   0.01428,  -0.00163,   0.00529,   0.01774,   0.00529,  -0.00648,   0.01221,   0.00736,  -0.01270,  -0.00855,   0.01290,  -0.01686,  -0.00509,   0.02051,  -0.03554,   0.02881,  -0.02516,  -0.05353,   0.01221,  -0.02654,   0.03850,   0.01013,  -0.00233,  -0.01755,   0.02120,   0.01566,  -0.00924,   0.03435,   0.00113,   0.01359,   0.00944,   0.01428,  -0.03969,   0.01982,   0.00736,  -0.01616,   0.00390,  -0.01755,  -0.02170,  -0.02931,   0.03919,   0.00667,  -0.00440,  -0.03969,  -0.01962,   0.02051,  -0.03485,  -0.01893,  -0.01547,   0.00459,   0.00944,   0.00598,   0.00044,  -0.00233,  -0.01270,  -0.00855,  -0.00924,  -0.00302,   0.02812,  -0.02170,  -0.04107,   0.02189,   0.05511,  -0.02378,   0.00805,  -0.01824,  -0.01616,  -0.01755,   0.03642,   0.00113,  -0.02101,  -0.01616,   0.01221,   0.01151,  -0.01962,   0.05026,  -0.03485,  -0.04453,  -0.00786,   0.02950,  -0.01409,  -0.03139,  -0.01201,  -0.00648,   0.01912,   0.01359,   0.03089,  -0.02447,  -0.01201,   0.00598,  -0.03069,  -0.03831,  -0.06114,   0.00736,  -0.02032,   0.01566,   0.02328,  -0.03831,  -0.00440,   0.00736,  -0.02654,   0.01705,   0.03366,   0.00667,   0.00667,   0.01843,   0.00667,   0.02812,   0.01013,  -0.00648,  -0.03692,  -0.02032,  -0.01962,  -0.04661,   0.03158,  -0.00440,   0.00598,  -0.02516,   0.00529,   0.00805,  -0.00924,  -0.03069,   0.01082,  -0.02654,  -0.00717,  -0.00717,  -0.00924,   0.00805,   0.04819,   0.06064,  -0.00717,  -0.03900,  -0.00994,   0.04957,   0.02535,   0.03227,   0.05441,  -0.01616,  -0.00302,   0.02328,   0.01428,  -0.01063,   0.00736,   0.01705,   0.03712,  -0.00302,   0.02397,   0.04057,   0.00736,   0.00459,   0.03158,  -0.02170,  -0.00994,   0.01013,  -0.00924,   0.02051,   0.03366,  -0.00717,   0.00805,   0.02950,  -0.01893,   0.00875,   0.03089,  -0.01063,   0.00252,   0.01982,  -0.01201,   0.00667,   0.00252,  -0.03692,  -0.00648,  -0.02931,   0.03504,  -0.03208,  -0.00717,   0.00252,   0.03227,   0.01497,   0.03296,  -0.02239,   0.01566,   0.05303,   0.05718,  -0.00440,   0.02674,  -0.02931,  -0.02654,  -0.05007,   0.00113,  -0.03346,  -0.02101,   0.02950,  -0.05976,  -0.01824,   0.03227,   0.03296,  -0.03485,  -0.01063,   0.00321,   0.00805,   0.01705,  -0.00579,   0.01912,  -0.03485,   0.04334,  -0.01409,   0.01359,  -0.00094,   0.04334,   0.02258,  -0.03554,  -0.01270,   0.02258,  -0.00786,  -0.03000,   0.01013,  -0.01478,  -0.02447,   0.00044
   0.01359,   0.03712,  -0.00302,   0.05995,  -0.00717,  -0.04730,  -0.04730,   0.02258,   0.00252,  -0.00163,  -0.01893,   0.01636,   0.01359,  -0.04730,  -0.01824,  -0.01893,  -0.00994,   0.01151,  -0.00855,   0.00529,   0.00805,  -0.03139,   0.00252,  -0.03623,   0.00944,  -0.00509,  -0.01686,  -0.02447,  -0.03969,  -0.00233,  -0.02654,   0.00598,   0.02051,   0.02812,   0.00598,   0.02397,  -0.00025,   0.01082,  -0.02862,   0.00459,   0.00252,   0.01151,   0.00459,   0.00529,  -0.05215,   0.01221,  -0.00371,   0.00390,   0.03712,   0.03504,   0.02258,  -0.01616,  -0.03900,   0.00321,  -0.02101,   0.00183,   0.00113,  -0.00163,   0.00459,   0.01843,  -0.02654,   0.05926,  -0.00440,   0.03158,  -0.06114,   0.03573,  -0.00371,  -0.00371,  -0.01616,   0.00321,   0.01774,  -0.04523,   0.04611,   0.04196,   0.01221,   0.06202,  -0.01201,   0.01774,  -0.00025,  -0.03692,  -0.02101,  -0.03761,   0.04749,   0.02328,  -0.00302,  -0.00786,   0.01013,   0.01082,   0.00598,  -0.02170,  -0.01063,  -0.00371,   0.00529,  -0.00994,   0.02535,  -0.00371,   0.03296,   0.03296,   0.00875,  -0.00302,  -0.03069,  -0.01132,   0.00390,  -0.03415,   0.00252,  -0.01893,   0.00805,  -0.03000,   0.02051,  -0.00855,   0.01082,   0.01013,   0.02535,  -0.01201,  -0.03000,  -0.01132,  -0.01201,  -0.00924,  -0.00579,   0.00875,   0.00529,  -0.00579,   0.00183,   0.01359,  -0.03208,  -0.02654,   0.00598,  -0.01962,  -0.02101,   0.03158,   0.01774,   0.01982,  -0.00163,   0.02258,   0.00529,  -0.01340,  -0.00579,  -0.00094,  -0.00786,   0.01221,  -0.01686,   0.01566,   0.03988,  -0.02032,   0.02051,   0.02397,  -0.00025,  -0.00233,  -0.02170,   0.01359,   0.00529,   0.03573,   0.00667,   0.01082,  -0.00371,   0.01221,  -0.02239,   0.03435,  -0.00163,   0.00044,   0.05026,  -0.05007,   0.02535,  -0.02654,   0.04265,   0.01359,   0.00944,   0.06964,  -0.00509,   0.04473,  -0.05076,   0.02328,   0.01013,  -0.01201,   0.00113,  -0.00717,   0.04611,   0.02881,  -0.02101,   0.02604,  -0.00717,   0.02950,  -0.01824,  -0.00302,   0.00113,   0.03366,  -0.00786,  -0.01755,   0.03020,  -0.00509,  -0.04315,   0.00805,  -0.00509,  -0.01547,  -0.00855,  -0.02032,   0.01497,   0.02258,   0.04127,  -0.03969,  -0.02032,   0.01566,  -0.01063,   0.02397,   0.01290,   0.01082,  -0.01063,  -0.01962,  -0.02101,  -0.00163,   0.00805,   0.01705,  -0.00717,   0.04057,   0.04334,   0.02328,  -0.01201,   0.03296,  -0.01409,  -0.00163,  -0.01063,  -0.02862,   0.00944,   0.04542,  -0.00994,  -0.00440,   0.01705,   0.01359,   0.00875,  -0.05630,  -0.00924,  -0.00924,  -0.01824,  -0.04177,   0.01843,   0.01082,   0.01843,   0.02120,  -0.00717,   0.01566,   0.00390,  -0.01616,  -0.00648,   0.01497,  -0.01409,  -0.00717,  -0.02931,  -0.02654,  -0.00924,   0.00805,   0.06133,  -0.02724,  -0.01616,  -0.01270,  -0.01686,   0.02812,   0.03504,   0.00252,   0.01705,   0.00183,  -0.01616,  -0.01201,   0.01912,   0.03919,   0.03227,   0.00805,   0.05234,  -0.03692,  -0.02654,  -0.05145,   0.00667,   0.05165,  -0.02585,  -0.03208,  -0.01063,   0.02120,   0.01705,  -0.01409,   0.01705,   0.03781,   0.00875,  -0.02654,   0.00390,  -0.01893,   0.01428,  -0.01616,  -0.01893,  -0.01616,   0.01497,   0.00598,  -0.02101,  -0.04523,  -0.02101,  -0.01962,   0.00390,  -0.00371,  -0.03069,  -0.00302,   0.03020,   0.00113,  -0.00717,   0.00321,   0.05995,  -0.00509,   0.00805,   0.03573,  -0.01547,  -0.00509,   0.00321,   0.03642,   0.00252,   0.01151,   0.01359,   0.02881,   0.02328,  -0.03831,  -0.01132,  -0.02447,   0.01497,   0.00875,  -0.01547,   0.02535,  -0.01063,  -0.01478,  -0.00855,   0.00459,   0.00736,   0.00736,  -0.00924,  -0.03139,   0.02328,   0.03504,  -0.01893,  -0.03761,  -0.01270,   0.05165,  -0.03692,  -0.02378,  -0.02239,   0.00321,  -0.02654,   0.05718,   0.01497,  -0.00371,  -0.05699,  -0.00717,   0.04680,  -0.02516,   0.00390,  -0.00163,   0.05234,   0.06479,   0.03296,  -0.00025,  -0.03000,  -0.00233,   0.00252,   0.00529,  -0.00924,  -0.00509,   0.02051,   0.01566,  -0.00025,  -0.02378,  -0.03277,   0.00252,   0.04957,   0.02120,   0.00667,   0.02743,  -0.04038,   0.01082,   0.02120,  -0.01755,  -0.03485,  -0.04453,  -0.03415,   0.02674,  -0.04453,   0.00805,   0.03573,   0.00113,   0.01774,   0.01982
  -0.00994,   0.03227,  -0.01547,   0.01774,  -0.01409,   0.02258,   0.04196,   0.00252,  -0.00648,  -0.01132,   0.00044,   0.02950,  -0.03761,   0.04957,   0.01290,  -0.04177,  -0.02654,   0.00875,  -0.05215,   0.01013,   0.01151,  -0.02793,  -0.00440,   0.02397,   0.02535,  -0.03761,   0.01774,   0.01912,  -0.03831,  -0.00994,  -0.03900,  -0.04107,   0.03850,  -0.01201,  -0.02793,   0.00736,   0.02328,  -0.00233,   0.00183,  -0.05837,  -0.01686,   0.03227,  -0.01616,   0.00598,   0.02397,   0.02674,   0.01636,  -0.00302,   0.01221,   0.01705,  -0.01132,   0.02950,  -0.03415,  -0.01340,   0.02466,   0.01912,   0.03089,  -0.01547,  -0.02239,   0.00252,  -0.00855,  -0.00994,   0.02950,   0.01082,   0.00736,  -0.01478,  -0.01063,   0.00252,  -0.00233,  -0.01478,   0.01566,   0.01636,   0.02189,   0.02120,   0.01705,   0.01566,  -0.01201,  -0.00855,  -0.02378,   0.01566,   0.03573,   0.05303,   0.02743,  -0.01201,  -0.03208,  -0.02308,   0.01566,   0.01982,  -0.02793,  -0.01063,  -0.04038,   0.00805,   0.00390,  -0.00579,  -0.00924,  -0.01824,   0.01151,   0.01982,   0.00113,   0.02189,  -0.05007,   0.00667,   0.01013,  -0.01201,  -0.00302,   0.04334,  -0.01824,   0.02189,   0.01843,  -0.07152,   0.00529,  -0.00509,  -0.01616,  -0.01409,   0.01982,  -0.03969,   0.03020,  -0.04038,   0.03781,   0.00529,  -0.00924,   0.03020,  -0.01201,   0.00459,  -0.00094,   0.02051,  -0.00509,  -0.03761,   0.01151,  -0.05284,   0.00252,  -0.00509,   0.00875,  -0.04038,  -0.01755,  -0.02862,  -0.03623,   0.02120,  -0.00648,   0.01359,   0.00875,  -0.00579,  -0.01893,   0.01013,   0.01982,   0.00459,  -0.01340,   0.00944,   0.03158,   0.05165,  -0.00717,   0.02881,   0.01221,   0.00667,  -0.00233,  -0.02032,  -0.02585,   0.00390,  -0.02170,  -0.03761,   0.01359,   0.01428,  -0.01132,   0.02812,  -0.00786,  -0.06529,   0.00529,   0.00321,   0.03020,  -0.04177,  -0.00786,  -0.06460,   0.02466,   0.00113,  -0.02931,   0.00598,  -0.00233,   0.00944,   0.02051,   0.02120,   0.08832,  -0.01478,   0.05787,   0.00321,  -0.04523,  -0.01616,  -0.01686,  -0.00509,  -0.05215,  -0.05560,   0.01982,  -0.02931,  -0.01201,   0.01636,  -0.01547,  -0.00233,   0.01843,  -0.02101,  -0.01409,   0.00390,  -0.01478,   0.05234,   0.02397,  -0.06944,   0.01982,  -0.03831,   0.00529,  -0.00025,   0.02397,   0.00183,  -0.00717,   0.04680,   0.02051,  -0.04799,  -0.00509,  -0.00648,  -0.03761,   0.04334,  -0.01893,   0.01151,   0.00529,   0.01359,   0.00805,   0.02328,   0.03781,   0.01151,   0.00390,  -0.00094,  -0.01201,   0.00044,  -0.04246,  -0.03277,   0.01151,   0.00459,   0.00667,  -0.01962,  -0.02862,  -0.01547,   0.00321,  -0.00094,  -0.00371,   0.00944,  -0.02032,   0.03089,  -0.00855,   0.00667,   0.01497,   0.00529,  -0.03208,  -0.03969,   0.00529,   0.02950,  -0.00440,  -0.00717,   0.02950,   0.03504,  -0.00025,  -0.00371,  -0.03000,   0.00044,  -0.03139,  -0.00025,  -0.00855,  -0.01893,  -0.02516,   0.00459,   0.03366,  -0.00233,  -0.00994,   0.00944,   0.00459,   0.00667,   0.01566,  -0.05353,   0.02328,  -0.03000,   0.04057,  -0.03554,  -0.01547,   0.04611,  -0.00786,  -0.03831,  -0.00786,  -0.00509,   0.00875,  -0.01824,   0.03158,  -0.01340,   0.00252,   0.00459,   0.00459,   0.05372,   0.01359,  -0.07083,  -0.00233,   0.03919,  -0.02170,  -0.01201,  -0.05145,   0.04057,  -0.00025,  -0.00855,  -0.00233,   0.01774,  -0.03277,  -0.03346,   0.02881,   0.04196,  -0.01547,  -0.01962,  -0.05353,  -0.02239,   0.03781,   0.00805,   0.02812,  -0.03139,  -0.02101,   0.02328,  -0.02862,   0.04542,  -0.00509,   0.01497,  -0.02516,  -0.00094,  -0.01132,   0.01359,   0.01359,  -0.00579,  -0.03415,   0.02743,  -0.00994,   0.00875,  -0.03346,   0.00529,  -0.02724,   0.03781,  -0.00509,  -0.00233,   0.03227,   0.02328,   0.03366,   0.02051,  -0.00163,   0.01290,  -0.03000,  -0.00094,   0.00459,   0.01290,  -0.01409,  -0.00717,  -0.00025,   0.02328,  -0.01270,  -0.00025,  -0.02654,   0.07448,   0.02535,   0.00736,   0.02881,  -0.03000,   0.00944,  -0.00371,  -0.01547,  -0.01755,  -0.02654,   0.00044,   0.01221,   0.02881,   0.01566,  -0.03415,  -0.00094,   0.02328,   0.02535,  -0.00994,  -0.02032,   0.00667,  -0.00025,   0.00529,   0.01428,   0.02881,   0.02881,   0.00598,   0.03366,   0.03435
   0.02258,  -0.00648,   0.00944,   0.00044,  -0.00855,  -0.00440,   0.00321,  -0.00994,   0.01359,   0.00667,  -0.00094,   0.01566,   0.01774,   0.00390,  -0.01478,   0.02397,  -0.02170,  -0.01962,  -0.05076,  -0.00579,  -0.03900,   0.01359,   0.03642,   0.02120,  -0.02308,  -0.04107,   0.02466,  -0.00509,  -0.04038,   0.00598,   0.00459,   0.01221,   0.04403,   0.01566,   0.00044,  -0.01409,  -0.03554,   0.03366,   0.00183,   0.00944,   0.03227,   0.02604,   0.00321,  -0.00579,  -0.00786,   0.00667,  -0.04246,   0.02466,   0.03366,  -0.00094,  -0.06460,   0.01843,  -0.05076,   0.01497,   0.01013,   0.00459,   0.03366,  -0.00509,  -0.03415,   0.03919,  -0.04799,   0.00252,   0.00944,  -0.02585,   0.04749,   0.03020,   0.04888,  -0.01132,   0.00321,   0.01705,   0.00321,   0.01705,   0.00736,  -0.03969,   0.01082,  -0.01686,   0.03227,  -0.02308,   0.04334,  -0.03000,  -0.00163,   0.00113,   0.02120,   0.01221,   0.01497,  -0.00233,   0.03504,  -0.04869,   0.01151,   0.02812,   0.01705,  -0.02032,   0.00183,   0.03850,   0.01774,  -0.01755,  -0.02378,  -0.02170,   0.00459,   0.01428,  -0.05491,  -0.00025,   0.02258,  -0.02862,  -0.04661,  -0.03346,   0.00390,   0.00875,   0.01359,   0.01290,   0.00875,   0.00113,  -0.01962,  -0.02032,   0.00459,   0.00459,   0.03712,   0.00944,   0.05372,   0.02189,   0.00321,   0.00113,   0.05303,   0.01774,  -0.01547,   0.00598,  -0.02032,  -0.00163,   0.01982,  -0.04869,  -0.01547,   0.02051,  -0.00233,   0.02120,   0.02258,   0.01774,   0.00805,  -0.00371,  -0.03969,   0.00667,  -0.00579,   0.03020,  -0.03692,   0.04680,   0.00805,   0.02397,  -0.03000,  -0.00855,  -0.02378,  -0.01478,   0.02604,   0.00529,  -0.02862,  -0.00855,   0.02812,   0.04334,  -0.03139,  -0.00509,   0.02397,  -0.02447,  -0.02101,   0.02258,   0.00736,  -0.00924,  -0.01409,   0.00944,   0.01428,  -0.05491,   0.05372,  -0.00717,   0.01497,   0.00529,   0.04542,   0.01497,  -0.01686,   0.00736,  -0.00163,   0.02051,   0.00598,   0.00529,   0.00044,   0.01636,   0.00944,  -0.02516,  -0.00717,   0.04680,   0.03712,  -0.02101,  -0.01893,  -0.01201,   0.00736,   0.00667,  -0.00233,   0.02258,  -0.00994,   0.01566,  -0.00786,  -0.00094,   0.03504,  -0.03139,  -0.02378,  -0.02101,  -0.04453,  -0.00579,   0.02743,  -0.04384,  -0.01893,  -0.01824,   0.02674,  -0.02101,   0.03435,   0.02950,  -0.02931,  -0.00509,   0.01774,  -0.00025,   0.01982,   0.00667,  -0.01409,  -0.00579,  -0.00994,   0.02604,  -0.00163,  -0.01132,   0.03642,   0.00113,   0.03850,  -0.03623,   0.02743,  -0.01824,  -0.01270,   0.00875,  -0.04177,   0.00044,   0.08140,  -0.03277,  -0.01962,   0.04057,  -0.00648,  -0.02378,  -0.00094,   0.00183,   0.01290,   0.00736,  -0.02308,  -0.00371,  -0.01270,  -0.01893,   0.00529,   0.01566,  -0.05422,   0.00113,   0.00598,  -0.02793,  -0.03139,   0.03158,  -0.02724,   0.00252,   0.00390,   0.01636,   0.00113,   0.00183,  -0.00924,   0.01290,   0.02743,   0.00044,  -0.02378,  -0.04730,   0.02189,  -0.00579,   0.00113,   0.01982,  -0.03000,  -0.01132,   0.00044,  -0.00371,  -0.04177,   0.01497,  -0.00855,  -0.03623,   0.03089,   0.00875,   0.00252,  -0.04107,  -0.01340,  -0.03000,  -0.00786,   0.01566,  -0.04107,   0.05165,   0.03435,  -0.01063,   0.00736,   0.00736,   0.02051,   0.03988,  -0.04453,   0.02466,  -0.00717,  -0.00855,  -0.03831,  -0.01201,   0.02604,   0.04819,  -0.02724,  -0.02308,   0.01497,   0.03504,   0.00944,  -0.02378,  -0.00371,  -0.03554,  -0.00717,  -0.00371,  -0.00233,   0.00183,   0.01428,  -0.00094,   0.02051,   0.03919,   0.02051,   0.03850,   0.01982,   0.02950,   0.02189,  -0.01616,  -0.00509,   0.05649,  -0.01063,   0.04403,   0.05995,  -0.01063,  -0.00855,   0.02120,  -0.01409,   0.00113,  -0.01893,   0.02328,  -0.01755,   0.01428,   0.01636,  -0.04453,  -0.01893,  -0.04453,  -0.00924,   0.02397,  -0.01201,   0.01497,   0.00459,  -0.05007,  -0.01824,  -0.01409,  -0.03900,   0.00736,   0.00529,   0.00390,   0.02604,  -0.02239,   0.01497,  -0.00371,   0.00598,  -0.00302,  -0.00786,  -0.02793,   0.01774,   0.01290,   0.02743,  -0.04246,  -0.01686,  -0.04315,  -0.00025,  -0.02308,   0.03089,   0.00529,  -0.00094,   0.02258,  -0.01063,   0.00944,  -0.03485,  -0.00579,   0.02051,   0.00183,  -0.02724,   0.00183
   0.01982,  -0.00440,   0.01151,  -0.03277,   0.02120,   0.02328,   0.00598,   0.00598,   0.02535,  -0.01478,   0.01290,   0.01013,   0.01497,  -0.00440,   0.00805,   0.00459,  -0.03069,  -0.03554,   0.00805,   0.01705,   0.00736,  -0.01478,  -0.02724,   0.02189,   0.02120,   0.01774,   0.04127,  -0.01478,  -0.00094,  -0.00302,   0.02535,   0.02604,   0.01566,   0.01359,  -0.00163,   0.00736,  -0.01616,  -0.03208,  -0.03139,  -0.02724,   0.04473,  -0.00302,  -0.00094,  -0.00233,   0.01428,  -0.05560,   0.01774,  -0.03485,   0.01151,   0.01221,  -0.00163,   0.02674,  -0.03000,   0.02258,   0.00875,   0.00875,   0.02950,   0.04196,   0.00113,   0.01428,   0.02189,  -0.00233,  -0.00233,  -0.00786,  -0.01478,  -0.05353,   0.00252,  -0.00094,   0.00944,   0.01774,  -0.02308,   0.01151,   0.01705,  -0.00579,   0.02535,   0.06341,  -0.01478,  -0.00371,  -0.02239,   0.00736,  -0.04523,   0.00390,   0.02950,  -0.01270,   0.00459,   0.01428,  -0.00302,   0.00252,   0.00183,   0.04542,   0.00044,   0.03642,  -0.01132,   0.04127,   0.00044,   0.01151,   0.06133,  -0.00924,  -0.03208,  -0.01063,  -0.03346,  -0.01478,   0.01774,   0.02812,   0.01359,  -0.03139,  -0.05837,  -0.00371,   0.00667,  -0.01270,   0.05441,  -0.00163,   0.01912,   0.02051,  -0.00924,  -0.02931,  -0.03692,   0.02535,   0.02535,  -0.01893,   0.01705,  -0.01547,  -0.00717,   0.03158,  -0.03000,  -0.06045,   0.01566,  -0.01409,   0.00598,  -0.01340,  -0.00786,  -0.02654,   0.02950,   0.00529,   0.04542,   0.03712,  -0.01340,  -0.01962,  -0.01201,  -0.02585,  -0.01824,  -0.02378,   0.01359,  -0.01063,   0.01428,   0.01013,  -0.02101,   0.03158,  -0.00579,   0.02258,   0.00044,   0.01151,  -0.03000,  -0.01340,   0.01359,  -0.05422,  -0.00994,  -0.03831,  -0.01132,  -0.01547,   0.03642,  -0.00924,  -0.02654,   0.00805,  -0.01201,   0.01428,  -0.00579,   0.00390,   0.01082,  -0.05145,   0.00183,   0.02051,  -0.01270,  -0.00371,   0.01359,  -0.03346,   0.02535,   0.02604,   0.03366,   0.00044,  -0.01063,   0.04196,  -0.04177,  -0.02516,  -0.04453,  -0.01478,   0.00113,  -0.01063,   0.03089,  -0.02308,   0.02881,   0.00113,   0.01290,   0.01082,  -0.00233,   0.03296,   0.00113,  -0.00855,   0.00044,  -0.02862,   0.02812,   0.02397,   0.00390,   0.01636,   0.01843,  -0.03000,  -0.03000,   0.03089,   0.02950,   0.00113,   0.01013,  -0.02101,   0.03642,  -0.01409,  -0.00440,   0.05095,   0.02604,   0.00390,   0.05234,  -0.01616,  -0.00371,  -0.00233,  -0.01893,   0.02743,   0.01705,   0.02120,  -0.03969,  -0.00371,   0.00459,   0.01705,  -0.01824,  -0.00025,  -0.01132,  -0.01962,   0.03850,  -0.04384,  -0.03000,  -0.04799,  -0.00994,   0.01151,  -0.01340,   0.01566,   0.01013,   0.02120,  -0.00094,   0.00113,   0.00390,  -0.00717,  -0.00509,   0.02328,  -0.02654,   0.00390,  -0.06668,  -0.01893,   0.04680,  -0.03900,  -0.00302,   0.03504,  -0.03208,  -0.01340,   0.00598,  -0.03415,   0.00529,   0.00944,  -0.00994,   0.00321,   0.03158,   0.02328,   0.03227,  -0.00994,   0.00805,   0.02397,  -0.00094,  -0.02793,   0.02535,  -0.00440,  -0.01340,  -0.03831,  -0.01962,   0.02051,   0.04473,  -0.01201,  -0.01686,  -0.00509,  -0.04730,   0.02328,   0.01290,   0.00459,  -0.01755,  -0.01340,  -0.04107,  -0.01201,  -0.02101,   0.00183,   0.02189,   0.02535,   0.01982,  -0.02101,   0.02743,   0.04542,   0.03504,   0.05372,   0.01290,   0.00252,  -0.01063,   0.01636,   0.02120,   0.02189,  -0.03139,   0.01705,  -0.02378,  -0.01755,  -0.05284,  -0.02447,  -0.01686,   0.01151,   0.01359,   0.04611,   0.00944,   0.00944,   0.02397,  -0.04453,   0.00321,   0.00736,   0.00390,   0.03435,  -0.00855,  -0.01755,   0.00875,   0.01359,  -0.00371,  -0.00924,  -0.02654,  -0.02308,   0.02674,   0.03781,   0.01151,  -0.02793,  -0.00855,  -0.01893,   0.02189,   0.01912,  -0.02447,   0.01359,  -0.01547,  -0.06806,  -0.02170,  -0.01755,  -0.01201,   0.02812,  -0.01893,  -0.00648,   0.02674,   0.01982,   0.01843,  -0.02308,   0.01013,  -0.00302,  -0.01824,   0.02051,   0.03712,  -0.00233,  -0.00509,   0.00321,   0.01428,   0.02328,   0.01705,  -0.03623,  -0.01270,  -0.02931,  -0.01270,  -0.00717,   0.01428,   0.01290,  -0.01893,   0.00113,  -0.01409,   0.01428,   0.01082,   0.04403,   0.01566,  -0.01893,  -0.02793,   0.02674
