   0.04347,  -0.05169,  -0.04975,  -0.07500,   0.03958,   0.01045,  -0.02450,   0.07066,  -0.04198,   0.05318,  -0.04975,  -0.14686,   0.00074,  -0.02839,  -0.06723,   0.05706,  -0.04198,   0.04153,  -0.00314,   0.10367,   0.01045,   0.00074,   0.05124,  -0.05169,  -0.01674,   0.10561,  -0.00703,   0.00074,   0.02793,  -0.07694,   0.02793,   0.04541,  -0.03033,   0.02211,  -0.05169,  -0.04004,  -0.03616,  -0.05558,   0.05124,  -0.02839,  -0.00314,  -0.08082,  -0.11967,   0.04541,   0.06872,   0.03376,  -0.03810,   0.03570,   0.03182,   0.04735,   0.01434,  -0.00314,   0.14057,  -0.05364,  -0.06917,  -0.02450,  -0.04198,   0.01240,  -0.10607,  -0.06723,  -0.06529,  -0.06917,  -0.04198,   0.08619,  -0.05364,   0.09202,  -0.01285,   0.04153,  -0.07888,  -0.02645,   0.02987,  -0.02256,  -0.03616,  -0.07111,   0.07066,   0.02405,   0.15222,   0.06289,  -0.02450,   0.03764,   0.05318,   0.06095,   0.07648,   0.06289,  -0.00508,   0.01434,   0.01045,  -0.07111,  -0.05558,   0.01240,   0.06677,   0.04735,  -0.13132,   0.08425,  -0.06723,  -0.05558,   0.03570,   0.08231,  -0.05752,  -0.03616,   0.01628,  -0.05169,   0.02016,   0.00851,  -0.05946,  -0.01091,  -0.00508,   0.01822,   0.01045,   0.14834,  -0.07888,  -0.08471,   0.05124,   0.03958,   0.08814,  -0.00120,   0.03764,   0.02405,  -0.00703,   0.00657,   0.08037,   0.04929,  -0.06917,  -0.01868,  -0.02062,   0.01822,  -0.04004,   0.06095,  -0.12549,   0.11727,  -0.07306,  -0.01285,  -0.10219,   0.04735,   0.01822,  -0.01285,  -0.10413,  -0.06723,  -0.03616,  -0.06917,  -0.09053,  -0.10025,   0.05124,  -0.20318,   0.02211,   0.09008,  -0.07694,   0.02987,  -0.00703,  -0.07888,  -0.06723,   0.01434,   0.03958,  -0.06723,  -0.05558,  -0.11190,  -0.00703,   0.03376,   0.13475,  -0.00508,  -0.02062,  -0.00314,  -0.06723,   0.03376,  -0.00120,   0.00657,   0.06872,  -0.12743,  -0.10801,   0.04735,   0.02016,   0.04541,  -0.06917,   0.01822,   0.02405,  -0.02839,  -0.05364,  -0.08859,   0.09590,   0.03182,   0.07843,   0.07066,   0.00268,   0.01434,   0.00657,   0.06289,  -0.06917,   0.08231,   0.01628,   0.00074,  -0.05752,  -0.08665,  -0.06140,   0.08814,   0.00851,   0.03376,   0.09785,  -0.04393,   0.00463,  -0.00508,  -0.01285,  -0.03616,  -0.06529,  -0.07888,  -0.04975,  -0.09442,  -0.00314,   0.02016,   0.06289,  -0.03227,   0.05318,   0.02211,  -0.02062,   0.03570,   0.07454,  -0.02256,  -0.10219,   0.03570,   0.01822,  -0.06917,   0.02016,   0.09396,  -0.08859,   0.09396,   0.00268,  -0.06917,  -0.03421,   0.06677,   0.12115,   0.03570,  -0.00314,  -0.01479,  -0.08471,  -0.10607,  -0.03810,  -0.02839,  -0.03227,  -0.02839,   0.07648,   0.04153,   0.00851,   0.06289,  -0.06723,   0.01822,  -0.03616,   0.05124,  -0.00897,   0.03376,  -0.05169,  -0.07888,   0.03958,  -0.10413,  -0.00897,   0.01434,  -0.01479,   0.00268,   0.06483,  -0.01285,   0.03376,  -0.05946,  -0.01674,   0.06677,  -0.06140,   0.00074,  -0.13520,  -0.04004,   0.00268,  -0.08277,   0.05318,   0.09202,   0.00268,  -0.04004,   0.02987,   0.02405,  -0.01674,  -0.08471,   0.01045,   0.06872,   0.02987,  -0.01285,   0.04735,  -0.11190,  -0.01674,   0.04153,   0.06872,   0.07454,  -0.00314,   0.03764,   0.05900,   0.04929,   0.05512,   0.08231,  -0.01091,  -0.05946,  -0.07694,   0.06095,  -0.09053,   0.14057,  -0.06723,  -0.01091,   0.06289,  -0.06723,   0.01240,   0.11921,   0.00463,   0.00074,  -0.08082,  -0.06335,  -0.04393,   0.02599,  -0.12743,  -0.05364,   0.01628,   0.09590,   0.06872,  -0.06529,   0.01045,   0.02016,   0.02987,   0.03958,   0.02405,  -0.01674,   0.01240,  -0.01868,  -0.05558,   0.07843,   0.10756,  -0.01868,   0.00851,   0.07454,  -0.02256,  -0.01479,  -0.05169,  -0.00703,  -0.00120,   0.06095,  -0.03616,  -0.01479,  -0.09053,  -0.04198,   0.03182,  -0.06335,   0.04541,  -0.07694,  -0.00703,  -0.01091,   0.02987,   0.07648,   0.03958,  -0.00120,  -0.10801,  -0.02062,   0.02016,   0.00074,  -0.04393,  -0.07500,  -0.06723,  -0.04781,   0.07843,  -0.03227,  -0.03421,  -0.03421,   0.02987,  -0.05752,   0.04929,   0.08425,   0.05512,   0.07454,  -0.00508,   0.01628,   0.01822,  -0.01285,  -0.10025,  -0.00703,   0.09785,  -0.01674,   0.05318,  -0.02839,   0.04347,  -0.02256,  -0.01479,  -0.04004,   0.03376,  -0.07306,   0.01628,   0.02987,  -0.04198,   0.04541,  -0.01285,   0.03764,   0.09979,   0.00851,  -0.04587,   0.02211,   0.02016,   0.11144,   0.05706,  -0.04198,   0.04929,   0.02987,   0.01045,  -0.10801,  -0.05169,   0.09590,   0.03376,   0.10561,   0.08037,  -0.08665,   0.00851,   0.01240,  -0.07694,   0.03182,  -0.07306,  -0.03616,  -0.13714,   0.02016,   0.00268,   0.06677,  -0.01091,   0.11921,   0.05900,   0.07648,   0.05706,   0.01045,   0.00268,   0.05900,  -0.06140,   0.01434,  -0.01479,  -0.04004,  -0.00314,   0.05900,   0.00268,   0.00851,  -0.01479,   0.12698,  -0.05364,  -0.11967,   0.00074,  -0.02645,  -0.00314,  -0.04198,  -0.00508,   0.06677,   0.06483,   0.04541,  -0.06723,  -0.04975,   0.01240,   0.02987,  -0.00703,   0.05900,  -0.06917,   0.09202,   0.00463,   0.11533,  -0.11384,   0.01240,   0.05318,   0.00074,  -0.02256,  -0.00314,   0.02016,   0.05124,  -0.12938,  -0.07888,   0.08037,  -0.00314,   0.04541,  -0.02256,   0.06289,  -0.06723,  -0.00120,  -0.03227,   0.07648,  -0.04198,  -0.01479,   0.01240,   0.03182,   0.02405,   0.05318,   0.11338,   0.03764,   0.10950,  -0.07500,  -0.14297,   0.01045,   0.04153,  -0.02256,   0.01434,   0.03570,  -0.02256,   0.11144,   0.00851,  -0.08471,  -0.02062,  -0.03616,   0.04541,  -0.06335,  -0.03810,   0.05706,  -0.00897,  -0.00703,  -0.05364,  -0.02062,   0.00074,  -0.00897,   0.02793,  -0.12355,  -0.09830,   0.09590,   0.04735,  -0.02839,   0.07454,  -0.02839,  -0.01674,   0.03570,   0.05512,  -0.01285,   0.02987,   0.10950,  -0.08859,  -0.02256,   0.02793,   0.00851,   0.00657,  -0.00897,  -0.16239,  -0.05752,   0.05318,  -0.03421,  -0.00120,   0.14057,   0.03764,   0.04347,   0.06289,   0.09590,   0.04153,  -0.10413,   0.06095,  -0.05169,  -0.04975,  -0.04781,   0.06677,  -0.02062,   0.00463,  -0.05169,   0.00268,  -0.02062,  -0.13326,  -0.01091,   0.09590,   0.00657,   0.03182,   0.09979,  -0.05558,   0.01822,   0.02016,   0.06289,  -0.01479,  -0.04004,   0.01628,  -0.03810,  -0.04198,  -0.04198,   0.11727,   0.11338,  -0.02256,   0.06289,   0.01240,   0.11533,   0.07260,  -0.01091,   0.01434,  -0.00120,  -0.14880
   0.03182,   0.00851,   0.09979,   0.02405,   0.02793,   0.09590,  -0.01285,  -0.02839,  -0.03810,  -0.05169,  -0.08859,  -0.00120,   0.03958,   0.09396,  -0.00508,  -0.04975,  -0.07888,   0.06483,   0.01628,   0.02211,   0.10756,  -0.03227,  -0.04004,   0.01240,   0.00074,  -0.06140,   0.02405,  -0.06529,  -0.07111,  -0.05558,  -0.03616,   0.08814,   0.02987,   0.09979,  -0.10025,   0.06677,   0.00851,   0.02599,   0.01240,  -0.02062,  -0.03227,   0.07843,   0.07454,   0.03958,  -0.01479,  -0.08665,  -0.14686,  -0.04004,   0.10173,   0.02987,  -0.05558,   0.01822,   0.08425,  -0.10413,  -0.02645,   0.02016,   0.09785,  -0.00508,  -0.04587,  -0.09248,  -0.00897,   0.08231,  -0.10607,   0.03570,  -0.09053,   0.02793,   0.02987,   0.06872,   0.04929,  -0.05752,  -0.07500,   0.00851,  -0.08859,  -0.06723,  -0.04198,  -0.02839,   0.09202,   0.00268,  -0.03421,  -0.00703,  -0.03421,  -0.06335,  -0.05752,   0.08814,   0.02987,   0.11727,   0.01045,   0.10367,  -0.05169,  -0.07111,  -0.01868,  -0.04004,   0.03764,  -0.01479,   0.08814,   0.03958,   0.02599,   0.00463,  -0.06140,  -0.00703,  -0.00314,  -0.03810,  -0.06723,   0.00074,   0.00074,   0.05900,   0.01434,   0.00851,   0.02793,  -0.01091,  -0.08859,   0.00074,  -0.02256,  -0.05558,  -0.02839,  -0.02450,   0.05512,   0.06289,  -0.08665,   0.09008,  -0.06529,  -0.01479,   0.01822,   0.11921,  -0.02645,  -0.05752,   0.03376,  -0.00703,   0.01240,   0.02016,   0.11144,  -0.03616,   0.00268,   0.00657,  -0.01091,   0.03958,  -0.02062,  -0.01868,   0.00463,   0.02599,   0.00074,   0.05512,  -0.05946,   0.02211,   0.01045,   0.04347,  -0.03033,  -0.07888,   0.03376,   0.01240,   0.00463,   0.07066,   0.05900,  -0.02450,   0.07648,   0.00074,  -0.04781,   0.00268,  -0.06723,  -0.01091,  -0.07111,   0.01240,   0.01434,   0.00268,  -0.05169,   0.01628,  -0.03810,  -0.05364,  -0.03421,   0.01045,   0.03182,   0.14640,   0.11144,   0.00268,   0.09202,  -0.02645,   0.00851,   0.00074,   0.00074,   0.05512,   0.02987,   0.21049,  -0.03033,   0.03958,   0.03958,  -0.00120,   0.13669,  -0.00897,   0.00074,  -0.01091,   0.10173,  -0.00508,  -0.05558,   0.06289,   0.06483,   0.07454,   0.02016,   0.06095,   0.04347,   0.02599,  -0.02256,   0.10173,  -0.01674,   0.02987,   0.11533,   0.02016,   0.05900,  -0.04781,  -0.04004,  -0.02256,  -0.09248,   0.00657,  -0.03616,  -0.11190,  -0.01091,   0.02599,  -0.06529,   0.02793,   0.00463,   0.00268,   0.01045,  -0.03421,   0.10756,   0.05318,   0.04153,   0.10173,  -0.02645,   0.09979,  -0.02645,   0.01045,   0.09590,  -0.02450,  -0.06529,  -0.01868,   0.10756,   0.09785,  -0.07500,   0.01822,  -0.00314,  -0.07111,  -0.02645,  -0.07111,  -0.00508,  -0.00314,  -0.08665,   0.06483,   0.01045,   0.10561,  -0.01285,  -0.05946,   0.06677,  -0.00897,   0.11921,   0.01628,  -0.01285,  -0.03227,   0.01045,  -0.07111,   0.00268,   0.00074,  -0.11384,   0.07066,   0.03570,   0.10756,  -0.02256,  -0.15657,   0.05706,  -0.03033,   0.08037,  -0.08471,  -0.07500,  -0.10219,  -0.02062,   0.06483,   0.02211,   0.02211,  -0.05558,   0.13086,  -0.05752,   0.08231,   0.08425,  -0.09053,  -0.04587,   0.08231,   0.01240,   0.01045,  -0.00703,   0.00268,  -0.01091,  -0.08665,  -0.10219,  -0.02645,   0.10173,   0.00463,  -0.03227,   0.02793,  -0.16628,  -0.01479,  -0.01868,  -0.04587,   0.00851,   0.05318,   0.00851,   0.01628,  -0.00703,  -0.03616,   0.12504,  -0.01091,   0.01628,   0.02211,  -0.06723,   0.02987,   0.02211,   0.02793,  -0.07694,   0.09979,   0.00463,  -0.05169,   0.10756,  -0.09053,  -0.06140,  -0.04198,  -0.05558,  -0.02062,   0.03764,  -0.05752,  -0.06140,   0.03376,   0.04541,  -0.01479,   0.07454,  -0.07694,  -0.00314,   0.02016,  -0.01091,   0.00268,  -0.15462,   0.07066,   0.13863,   0.01434,  -0.02839,   0.05512,  -0.01674,  -0.00703,   0.00851,  -0.00703,   0.02599,  -0.04975,   0.02793,  -0.04198,   0.00463,   0.00851,  -0.07111,  -0.06529,   0.00463,  -0.00897,   0.10367,  -0.10219,   0.06483,   0.05124,   0.02599,  -0.00314,   0.09590,  -0.04781,  -0.04975,   0.06289,  -0.12355,   0.11338,   0.01045,   0.01822,  -0.02839,   0.11144,  -0.00508,  -0.02256,  -0.00508,  -0.01091,   0.03182,   0.01240,  -0.11190,  -0.03421,  -0.03616,  -0.03227,   0.12892,   0.05512,   0.00463,  -0.03227,  -0.11578,  -0.04198,   0.05318,   0.01434,  -0.06529,   0.02987,   0.03764,  -0.00897,  -0.15074,   0.04929,  -0.03421,   0.00268,  -0.03033,  -0.06917,   0.09785,   0.01240,  -0.02256,  -0.01285,   0.08814,  -0.02062,   0.00268,   0.08037,  -0.08471,   0.02987,   0.00074,  -0.02839,   0.05124,  -0.09053,   0.00851,   0.07648,   0.04735,   0.04153,  -0.00120,   0.05706,   0.00268,  -0.03421,  -0.00314,  -0.07111,   0.00268,   0.00851,  -0.04587,   0.10367,   0.04735,   0.01045,  -0.05169,   0.07648,   0.11727,  -0.04975,   0.03182,  -0.03421,  -0.01674,  -0.09830,  -0.03616,  -0.10996,   0.09396,   0.03958,  -0.08082,  -0.01091,   0.00851,   0.02987,  -0.05364,  -0.06140,  -0.08471,   0.10561,  -0.04975,   0.11533,  -0.06723,   0.01434,  -0.03227,  -0.06529,   0.08231,   0.02405,   0.05124,  -0.04781,  -0.02645,  -0.10801,  -0.03810,  -0.04198,  -0.04781,  -0.00120,  -0.04393,   0.06483,   0.04541,   0.09785,  -0.03421,  -0.04004,   0.04735,  -0.01479,   0.01822,  -0.03616,  -0.07111,  -0.02450,  -0.10607,  -0.11384,  -0.04393,   0.05706,  -0.02256,  -0.07500,  -0.07306,   0.09396,  -0.01091,  -0.00120,  -0.16433,   0.00074,   0.11338,  -0.10801,   0.05900,   0.01822,  -0.00508,  -0.03616,  -0.04781,  -0.01674,   0.04153,   0.00463,  -0.02450,  -0.02450,  -0.09053,   0.13863,   0.11338,  -0.00314,  -0.11190,   0.08619,  -0.03227,   0.01628,  -0.14880,  -0.01091,   0.03764,  -0.05946,  -0.01479,   0.08425,   0.03958,   0.07648,  -0.09248,   0.06483,  -0.02256,   0.02793,   0.02211,   0.07260,  -0.11190,   0.08814,  -0.10801,  -0.04975,   0.01240,   0.01822,   0.07648,   0.19495,  -0.00703,  -0.03033,   0.09202,  -0.04975,  -0.12938,  -0.00120,   0.14446,  -0.10607,   0.05900,  -0.02645,   0.02405,  -0.01674,  -0.02839,  -0.02645,  -0.04198,  -0.02839,  -0.01868,   0.07066,   0.00074,  -0.06140,  -0.01479,   0.09590,  -0.03033,   0.03182,   0.14834,  -0.06140,   0.06095,  -0.00703,  -0.01091,  -0.02450,  -0.02062,   0.03570,   0.02793,   0.11921,   0.05706,  -0.01868,   0.03958,  -0.16433,   0.02211,  -0.08665,  -0.05946,  -0.02062,   0.06872,   0.11144
  -0.06335,   0.01628,  -0.07500,  -0.04587,   0.03764,   0.05512,   0.05706,   0.05706,   0.03958,   0.00268,   0.05900,   0.04735,  -0.01868,  -0.02839,   0.01434,   0.00657,  -0.00120,   0.01240,   0.12504,   0.01240,   0.02987,   0.02016,   0.03376,  -0.12161,   0.10950,  -0.04198,  -0.00703,  -0.04004,  -0.01868,  -0.03421,  -0.01285,  -0.04587,   0.06095,   0.04929,  -0.03421,  -0.06529,   0.06677,   0.09590,  -0.00897,   0.16388,   0.04347,   0.09396,   0.06872,  -0.03421,  -0.00703,   0.02016,   0.02599,  -0.03033,  -0.01868,  -0.03616,  -0.04393,   0.00463,   0.11727,   0.00268,  -0.04393,   0.15028,   0.06289,   0.00268,   0.05318,  -0.05752,   0.00268,   0.14251,  -0.05364,   0.07454,   0.03182,   0.01045,  -0.00897,   0.01822,   0.03958,  -0.01091,   0.01434,  -0.07694,   0.08814,   0.01434,   0.02987,  -0.12161,  -0.00703,  -0.07306,  -0.02062,   0.02599,  -0.00703,   0.06677,   0.02793,   0.08814,  -0.15462,   0.08037,  -0.07111,  -0.02256,  -0.01091,   0.06483,  -0.10413,  -0.06917,  -0.02256,   0.06289,   0.07066,  -0.07888,   0.02793,   0.00268,  -0.03616,  -0.05752,   0.06095,   0.01045,  -0.01674,  -0.05558,  -0.05946,  -0.08859,   0.02987,   0.03376,   0.02016,   0.00074,  -0.09636,   0.01822,  -0.01868,   0.02211,   0.11338,  -0.00703,   0.02405,   0.04541,  -0.08277,  -0.06529,   0.04541,   0.08037,  -0.04587,   0.04153,  -0.06723,   0.10561,  -0.01479,   0.01628,   0.07260,  -0.04393,   0.11921,   0.10367,  -0.05558,  -0.08277,  -0.05946,   0.09979,  -0.01479,  -0.08665,  -0.08082,  -0.02256,  -0.03033,   0.03570,   0.06095,  -0.02062,   0.00851,   0.08619,  -0.04975,  -0.03033,  -0.00703,  -0.00314,  -0.01091,  -0.03227,   0.05124,   0.04735,   0.02599,   0.09396,  -0.11578,  -0.12161,  -0.03227,   0.03764,  -0.02062,   0.01434,   0.03570,  -0.12938,   0.05512,   0.02987,   0.04153,   0.07066,   0.02793,  -0.06723,  -0.04393,   0.08619,   0.08619,   0.01628,   0.00463,   0.02211,  -0.02645,   0.02793,   0.01822,   0.07260,  -0.02839,  -0.04393,   0.02405,   0.00268,  -0.00897,   0.02793,   0.11338,   0.09396,  -0.03810,  -0.04781,  -0.01479,   0.02793,   0.07454,   0.02211,   0.09396,  -0.01868,  -0.02645,   0.09590,  -0.02062,   0.05512,   0.00463,   0.06483,  -0.00120,  -0.06529,   0.04541,  -0.05752,   0.06095,  -0.00508,   0.00074,  -0.08859,  -0.04004,   0.00851,  -0.01285,  -0.00897,   0.01628,   0.05512,   0.03570,  -0.10607,   0.02211,  -0.13326,  -0.02450,   0.09396,  -0.04393,   0.12892,  -0.01868,  -0.05169,   0.07648,   0.03764,  -0.00508,   0.05124,  -0.00508,   0.04929,   0.00463,  -0.00703,   0.01822,  -0.07500,  -0.01091,  -0.10413,   0.08814,  -0.04004,   0.03958,   0.05124,  -0.04004,  -0.04198,  -0.05169,  -0.02645,  -0.08082,  -0.01091,   0.03570,   0.06677,  -0.06723,  -0.01479,   0.00657,  -0.04975,  -0.01479,  -0.01674,  -0.02839,  -0.01868,   0.02016,  -0.04198,   0.03182,   0.09202,   0.10950,   0.06677,   0.02405,   0.02987,   0.02793,   0.05706,   0.01240,  -0.00897,   0.02987,   0.09979,  -0.06723,   0.05318,   0.12892,  -0.04975,  -0.00703,   0.00268,   0.05706,  -0.04975,  -0.03421,   0.10367,  -0.08665,   0.01434,  -0.04004,   0.06677,  -0.09053,  -0.03616,  -0.08082,  -0.01091,   0.05900,  -0.04975,   0.01045,  -0.02256,  -0.11384,  -0.10413,   0.04153,  -0.02062,  -0.00703,   0.00463,  -0.04587,  -0.01479,   0.02016,  -0.04587,  -0.04393,  -0.04004,  -0.10801,  -0.05558,  -0.10219,   0.02016,  -0.01674,  -0.00314,   0.02211,  -0.00897,   0.02211,   0.09008,   0.05512,  -0.05752,   0.00851,   0.01822,   0.09008,  -0.07694,  -0.03227,   0.04347,  -0.14103,   0.01822,   0.14834,  -0.05169,  -0.03616,  -0.11967,  -0.02839,  -0.00897,   0.01628,  -0.00703,   0.00268,   0.09979,  -0.02062,   0.11727,  -0.04393,  -0.08471,   0.03376,  -0.03616,  -0.07111,   0.04541,   0.04153,   0.00268,   0.01822,   0.05124,  -0.02645,   0.04153,  -0.10801,  -0.02645,  -0.04975,   0.12698,  -0.08859,  -0.03616,  -0.04781,   0.14057,   0.05124,   0.10173,   0.01045,  -0.00314,  -0.07694,   0.00463,   0.06872,   0.11727,  -0.03810,  -0.08665,   0.03570,  -0.00314,   0.08619,   0.03376,   0.00074,  -0.09830,  -0.02839,   0.02211,  -0.06335,  -0.08082,   0.02987,   0.06289,   0.03182,   0.00657,   0.06289,   0.00268,  -0.02062,   0.09590,   0.00463,   0.00851,  -0.06140,  -0.01285,  -0.01479,  -0.02450,   0.06872,  -0.01674,  -0.05946,  -0.02062,   0.02405,  -0.11190,   0.02405,  -0.10996,  -0.01868,  -0.01091,  -0.11190,   0.08231,   0.07454,   0.02599,   0.10756,   0.04929,   0.06677,   0.02405,  -0.12938,  -0.11772,   0.08619,  -0.05946,  -0.09053,  -0.15851,  -0.04781,  -0.00897,  -0.02062,  -0.01285,  -0.02450,   0.00268,  -0.00508,   0.02987,  -0.10219,   0.05900,  -0.05752,   0.05318,  -0.01868,   0.19301,   0.09202,  -0.05364,  -0.02450,   0.03376,   0.02987,   0.00074,   0.02211,  -0.00120,  -0.03033,   0.06289,   0.02211,   0.02211,   0.03376,  -0.01868,   0.01822,  -0.10025,   0.01240,  -0.10996,   0.06483,  -0.10025,  -0.04198,   0.01434,  -0.03810,  -0.02645,   0.02987,  -0.03033,   0.07454,   0.11338,  -0.09636,   0.06483,   0.00851,   0.02016,   0.06095,  -0.07500,  -0.02839,   0.02987,  -0.04587,  -0.00314,  -0.09248,  -0.04781,   0.00268,   0.05512,  -0.07500,  -0.01479,  -0.07306,  -0.02256,   0.06483,   0.06677,   0.00657,   0.02211,  -0.02450,  -0.13520,  -0.00314,  -0.03227,   0.08814,  -0.09442,   0.02987,  -0.13714,   0.02987,  -0.14491,   0.11533,  -0.06335,   0.09396,   0.00268,   0.02793,  -0.08082,   0.01822,   0.07454,   0.00074,  -0.05752,  -0.10413,   0.02793,   0.03376,   0.09396,  -0.03227,   0.01045,  -0.03616,   0.03182,  -0.01091,  -0.07306,  -0.03421,   0.04541,  -0.02062,   0.03376,   0.04541,  -0.01479,   0.01628,   0.02599,   0.09202,   0.03376,  -0.01091,  -0.04198,   0.00851,  -0.00703,   0.00851,   0.04347,   0.14251,   0.07843,   0.07648,   0.03182,   0.13669,  -0.18764,  -0.00314,  -0.02645,  -0.00120,  -0.03616,  -0.06140,   0.02987,  -0.06335,   0.08814,  -0.00703,   0.04541,  -0.04781,  -0.04393,   0.00657,  -0.02839,   0.03958,   0.02793,  -0.04198,  -0.06335,   0.04929,   0.04929,   0.05900,  -0.03033,  -0.07694,  -0.04781,   0.03376,  -0.02839,   0.03570,   0.06872,  -0.00508,   0.01045,   0.09008,  -0.04393,  -0.01091,   0.08231,  -0.02839,  -0.00508,   0.04153,   0.05706,  -0.04587,   0.00268,  -0.12549,   0.00463,   0.06677,   0.18330
   0.06872,   0.00074,  -0.10025,  -0.05169,   0.04153,  -0.05169,  -0.05558,   0.00657,   0.03958,   0.05706,  -0.07694,  -0.04198,   0.00463,   0.05318,  -0.05169,   0.03764,   0.14251,   0.00463,   0.03376,   0.03958,   0.10367,   0.03182,  -0.04004,   0.05900,   0.08231,  -0.08859,   0.00463,  -0.00508,   0.08037,   0.00851,   0.00074,  -0.08471,   0.10756,   0.02405,   0.00268,  -0.03810,   0.06095,  -0.00314,  -0.04004,   0.11338,  -0.02645,  -0.07306,  -0.00314,  -0.04587,  -0.02839,  -0.04004,   0.04929,  -0.03421,   0.04347,   0.06095,   0.03958,   0.01628,  -0.07306,   0.06677,  -0.00508,   0.03182,  -0.03033,  -0.04004,   0.04153,  -0.04004,  -0.07306,   0.05124,  -0.03421,  -0.00508,   0.05900,  -0.02645,   0.05900,  -0.02450,   0.04347,  -0.00897,   0.05318,   0.04541,   0.02405,   0.11921,  -0.06529,  -0.03421,   0.06095,   0.01434,   0.03182,  -0.08665,   0.01822,  -0.05558,   0.13669,   0.03958,   0.01240,   0.07843,  -0.02256,   0.04541,   0.07066,  -0.06335,  -0.00120,   0.04347,  -0.03616,  -0.02645,  -0.05364,  -0.00314,  -0.08859,   0.03570,   0.07454,   0.03570,  -0.09248,  -0.04004,   0.02016,  -0.04975,  -0.13132,   0.03958,  -0.03421,  -0.09636,  -0.02645,   0.11727,  -0.00897,  -0.05558,   0.04735,  -0.09053,  -0.02645,   0.04153,  -0.05752,  -0.02645,  -0.02645,   0.05900,  -0.01285,   0.08425,  -0.05169,  -0.02062,  -0.01868,  -0.04587,   0.03958,   0.00657,   0.05124,  -0.07500,   0.01628,  -0.12549,  -0.00897,  -0.03810,  -0.05752,  -0.07111,   0.01240,   0.01628,  -0.01674,  -0.00508,  -0.00508,   0.00463,   0.09396,  -0.05946,  -0.04781,   0.02987,   0.05512,  -0.04198,   0.00268,   0.14251,  -0.05752,  -0.04587,  -0.01091,   0.04541,  -0.02256,   0.09979,   0.07648,   0.09590,  -0.00314,   0.05706,   0.14251,   0.08814,   0.01822,  -0.01674,   0.01434,   0.00268,   0.02793,   0.10950,  -0.01868,   0.11144,  -0.06917,   0.03764,   0.01434,  -0.00508,  -0.07694,   0.06872,   0.10756,   0.04929,  -0.01285,  -0.09830,  -0.04393,   0.00851,  -0.00120,  -0.00508,  -0.04198,   0.00851,  -0.04198,   0.08037,  -0.03227,   0.08425,   0.02987,  -0.00897,  -0.02256,  -0.03227,  -0.07306,  -0.01285,  -0.01674,   0.06095,   0.08037,  -0.02062,  -0.01479,  -0.01674,  -0.06335,   0.04541,  -0.02645,   0.04347,   0.00851,   0.00851,  -0.02450,  -0.05946,  -0.01674,   0.10367,  -0.05558,  -0.01868,   0.00268,  -0.00508,  -0.03616,   0.00268,  -0.02450,  -0.02256,  -0.02839,   0.04735,  -0.04587,  -0.07306,   0.02405,  -0.13520,  -0.11384,   0.01822,   0.08425,   0.02211,  -0.06140,  -0.01285,   0.12892,   0.05124,  -0.06140,  -0.08665,   0.04929,  -0.05558,   0.11533,   0.00268,   0.07260,   0.00074,   0.03182,   0.00268,  -0.02062,  -0.02839,  -0.20318,   0.07260,   0.02987,  -0.03616,  -0.03421,   0.05512,  -0.04198,   0.10950,  -0.02839,   0.04929,   0.10173,   0.02987,  -0.03616,  -0.01479,  -0.02450,  -0.02450,   0.04541,  -0.05364,   0.15611,  -0.11578,   0.02211,   0.06289,   0.08425,  -0.01868,   0.16193,  -0.08082,   0.00851,  -0.06723,   0.14251,  -0.00508,  -0.01091,  -0.01091,   0.01822,   0.07066,  -0.07694,  -0.01091,  -0.20706,   0.07454,  -0.04587,   0.02987,  -0.07306,  -0.04198,  -0.06917,  -0.02062,   0.10756,   0.00657,  -0.00508,  -0.01674,   0.06677,   0.04735,  -0.00897,   0.00463,   0.07648,   0.00851,   0.05124,   0.01240,  -0.02062,  -0.04587,   0.01240,   0.06872,   0.06872,  -0.00314,  -0.00508,   0.12115,   0.01434,  -0.05558,   0.00657,  -0.07111,  -0.08665,  -0.02256,  -0.04975,  -0.08277,   0.03764,   0.11727,   0.06872,  -0.06917,  -0.01285,  -0.06529,   0.06289,  -0.02645,   0.06872,   0.15222,  -0.01479,  -0.00897,   0.03764,   0.04153,  -0.01285,  -0.01091,  -0.09442,   0.01434,  -0.13909,   0.00074,   0.08425,   0.07648,   0.04735,   0.00657,   0.01822,   0.00268,   0.04153,   0.03182,  -0.01674,  -0.13714,   0.10561,   0.06872,   0.07454,  -0.04781,   0.08814,  -0.05169,   0.00657,   0.00268,   0.06872,  -0.07888,  -0.05169,  -0.00508,   0.01240,   0.04735,   0.00851,   0.00074,  -0.01285,   0.04541,  -0.13520,   0.10367,  -0.00314,   0.06095,   0.01045,  -0.00120,   0.03570,  -0.03616,  -0.00314,   0.04541,   0.06872,  -0.02645,   0.04347,   0.02211,   0.05124,  -0.00314,  -0.01091,  -0.05946,  -0.09053,   0.00851,  -0.03227,  -0.02839,  -0.00120,   0.04929,   0.02016,  -0.05364,  -0.01091,  -0.03033,  -0.05752,  -0.02450,  -0.04393,   0.00657,  -0.04004,   0.00851,   0.11533,  -0.10801,  -0.01479,  -0.11384,   0.04541,  -0.00314,  -0.08471,   0.04929,   0.07454,   0.10173,  -0.04781,  -0.05946,   0.03182,  -0.04198,   0.02793,   0.09202,   0.00074,  -0.03227,  -0.02839,   0.04735,  -0.04975,  -0.03810,   0.04541,  -0.00508,   0.01045,  -0.03033,  -0.00897,   0.00074,   0.04929,   0.08425,   0.06483,  -0.11578,  -0.05558,  -0.06529,   0.00463,  -0.01479,   0.09202,  -0.00897,   0.04347,   0.06872,  -0.12938,   0.03958,   0.02016,   0.05900,   0.02016,  -0.06140,   0.02987,  -0.02645,   0.01240,  -0.05558,  -0.01285,  -0.00314,  -0.06335,  -0.06723,  -0.00314,  -0.01674,  -0.10607,  -0.03033,  -0.05169,  -0.07500,   0.11921,   0.01822,   0.04541,   0.07260,   0.04735,   0.00851,   0.04347,   0.16776,  -0.02062,  -0.05946,  -0.01091,   0.04153,  -0.05558,  -0.03810,  -0.03421,  -0.00314,   0.11144,  -0.03033,   0.02987,   0.02211,  -0.04975,  -0.04393,   0.02405,  -0.10413,  -0.02645,   0.01822,  -0.05364,  -0.01479,   0.00268,   0.04153,  -0.02062,   0.02211,  -0.01091,   0.06677,   0.05318,   0.05124,  -0.07111,   0.07843,  -0.09830,   0.02016,  -0.00120,  -0.00703,   0.01628,   0.02211,  -0.08665,   0.08037,  -0.09636,  -0.07888,   0.00851,   0.07843,  -0.06917,  -0.01868,  -0.03227,   0.01434,   0.05706,  -0.03810,   0.00268,   0.00851,  -0.05169,  -0.05946,  -0.00314,  -0.03810,  -0.11384,   0.01628,   0.04735,  -0.02256,  -0.05558,   0.05318,  -0.09248,  -0.09053,   0.09008,   0.06289,   0.07648,   0.04929,   0.05512,  -0.00314,  -0.01091,   0.08619,  -0.11578,   0.05900,  -0.01479,   0.03764,  -0.04587,  -0.01868,   0.06289,   0.06872,   0.03958,   0.05900,  -0.05946,  -0.13132,  -0.05169,   0.02599,   0.09785,   0.01822,  -0.03810,   0.11533,  -0.08471,  -0.09636,   0.03376,  -0.01479,   0.01822,   0.10950,   0.04735,  -0.06723,   0.00657,   0.00074,   0.02793,   0.05900,  -0.00120,   0.01434,  -0.03033,   0.07454,  -0.04393,   0.06872,  -0.03421,  -0.03033
  -0.04975,   0.05706,   0.01434,   0.00074,   0.06289,   0.01434,  -0.03033,   0.02405,  -0.01285,  -0.01285,   0.04929,   0.03376,   0.12892,   0.04153,  -0.04198,  -0.04975,   0.02016,   0.05318,  -0.04975,   0.04541,   0.00657,  -0.04587,  -0.05364,  -0.03227,   0.06095,   0.04735,  -0.10996,   0.01045,  -0.00314,  -0.05752,   0.05124,  -0.05752,   0.02405,  -0.08471,  -0.04975,   0.01628,   0.01240,  -0.00314,  -0.11578,   0.01045,   0.02793,   0.12892,  -0.08277,   0.00851,   0.04735,   0.03570,   0.03376,   0.00463,  -0.00897,  -0.05946,  -0.03421,  -0.00120,   0.15999,  -0.11384,   0.00851,   0.11338,  -0.03227,   0.01434,   0.05318,  -0.02256,  -0.04587,  -0.09248,   0.01434,   0.01628,  -0.01285,   0.04347,  -0.03227,  -0.06723,   0.01045,  -0.00120,   0.01628,   0.03182,  -0.11384,  -0.09830,   0.01240,  -0.05364,   0.03764,  -0.10607,   0.06095,  -0.05364,   0.06677,  -0.06140,  -0.01091,  -0.00508,  -0.00314,   0.01434,   0.02016,   0.03570,  -0.04198,   0.04153,   0.00268,  -0.08859,   0.04153,  -0.10996,   0.08037,  -0.08082,  -0.00703,   0.04541,  -0.09248,  -0.04975,   0.01628,  -0.03616,  -0.04781,  -0.06917,   0.11533,   0.00851,  -0.00314,   0.08231,  -0.07111,   0.04347,   0.04929,  -0.02062,  -0.09442,  -0.05946,   0.04735,   0.06289,   0.06289,   0.05900,   0.05706,   0.02987,   0.01822,   0.04541,   0.04153,   0.01822,  -0.04004,  -0.02256,  -0.00508,  -0.02256,  -0.00314,   0.06483,   0.07648,   0.01045,  -0.07111,  -0.02839,   0.08037,   0.02793,  -0.06140,   0.00074,  -0.06917,   0.01434,   0.01240,  -0.12938,   0.07843,   0.14446,  -0.08082,  -0.02839,  -0.04975,   0.06483,  -0.02450,  -0.02450,   0.08425,   0.00851,  -0.09442,  -0.01674,  -0.00508,   0.09202,   0.10367,   0.04153,  -0.03033,  -0.05752,  -0.12938,  -0.01868,   0.02793,  -0.12549,   0.03182,   0.02599,   0.02016,  -0.08082,   0.03764,  -0.07500,  -0.07694,   0.00463,   0.06289,  -0.00120,  -0.01868,   0.09590,  -0.00703,   0.01240,   0.06677,   0.09202,  -0.13520,  -0.04975,   0.00268,   0.09008,   0.02211,  -0.08277,  -0.05752,   0.04153,   0.00463,   0.04929,   0.05124,   0.03182,  -0.08471,  -0.00703,  -0.06140,  -0.08665,   0.03764,  -0.00314,   0.01045,  -0.14491,  -0.00703,   0.04541,  -0.06335,  -0.02450,  -0.03421,   0.04347,   0.00657,   0.00851,   0.05124,   0.02599,  -0.01674,   0.01822,  -0.04975,  -0.01868,   0.07648,   0.03570,  -0.14686,  -0.02450,  -0.01868,   0.02016,  -0.04004,  -0.13714,  -0.07111,   0.06872,  -0.00508,   0.04153,  -0.10996,   0.03764,   0.00074,   0.02987,   0.01240,   0.08814,  -0.03227,   0.00268,   0.05124,  -0.01479,   0.01434,  -0.01479,   0.02211,  -0.01091,   0.10561,   0.03182,   0.03182,   0.06677,  -0.06917,  -0.07694,  -0.03616,   0.06872,  -0.04393,  -0.02645,  -0.03810,   0.01045,  -0.12549,  -0.03616,  -0.05946,   0.06095,  -0.10219,  -0.00703,  -0.10996,   0.00463,   0.02405,   0.08814,  -0.06529,   0.00074,   0.01240,  -0.03227,  -0.01091,   0.04153,  -0.07888,  -0.13520,   0.05318,  -0.03810,   0.07066,  -0.07888,  -0.10607,   0.11533,   0.06095,   0.07260,  -0.04781,   0.09202,  -0.08665,   0.01822,   0.00268,   0.10173,  -0.00703,   0.05900,  -0.03810,   0.09396,   0.02016,   0.01240,  -0.10025,  -0.02062,  -0.01868,  -0.03033,   0.02405,   0.01628,  -0.09053,  -0.05558,   0.00463,   0.04541,   0.06289,  -0.08859,   0.05512,  -0.01674,   0.03376,   0.01045,   0.10950,  -0.00703,   0.01434,  -0.04975,  -0.04781,  -0.06140,  -0.07888,   0.07843,  -0.07500,   0.05318,  -0.02062,  -0.09636,   0.01240,  -0.04781,   0.00074,  -0.01868,  -0.06529,  -0.04975,  -0.00897,  -0.06917,   0.03182,   0.00463,  -0.09636,  -0.01091,  -0.00703,   0.00074,   0.00851,  -0.01479,   0.06289,   0.00074,   0.03376,   0.07843,  -0.03616,   0.07066,  -0.02645,   0.06677,   0.01240,  -0.06529,   0.03376,  -0.00897,   0.00268,   0.08814,   0.05318,   0.00268,   0.02987,   0.03958,   0.01045,   0.01045,  -0.07694,  -0.00120,  -0.01479,  -0.12355,   0.01628,  -0.09830,   0.04929,  -0.10413,  -0.06917,  -0.01285,  -0.09248,  -0.07500,   0.00463,   0.06289,   0.00268,   0.01045,  -0.04781,   0.01045,  -0.02450,  -0.09636,   0.05900,   0.06483,   0.11533,   0.04735,  -0.03616,   0.03570,   0.07648,   0.04929,  -0.10413,  -0.06335,   0.00074,  -0.02256,   0.00268,   0.05124,   0.02016,   0.01434,   0.11727,  -0.00120,   0.09785,  -0.03227,   0.05706,   0.02016,   0.09979,  -0.13132,  -0.02645,  -0.03227,  -0.11578,   0.02599,   0.07260,   0.00851,   0.01240,  -0.09636,  -0.01479,  -0.02450,  -0.09830,   0.10561,   0.05124,   0.09202,  -0.09636,  -0.05364,   0.01434,   0.07454,   0.04347,  -0.01674,   0.01628,  -0.06140,   0.02987,  -0.02062,  -0.04975,   0.03182,  -0.01674,  -0.06917,  -0.03616,  -0.02450,  -0.04393,   0.16582,  -0.05169,  -0.05946,  -0.14880,   0.02016,   0.03958,   0.00074,  -0.04587,   0.05512,   0.02599,  -0.03033,   0.04347,  -0.04004,  -0.03616,  -0.04587,  -0.03810,   0.03764,   0.06095,  -0.08665,  -0.06140,  -0.01479,  -0.10801,   0.01822,   0.06095,  -0.01479,   0.03182,  -0.00314,   0.12698,  -0.02645,  -0.13520,  -0.02450,  -0.09442,   0.02016,  -0.13326,  -0.09830,  -0.06723,  -0.00120,   0.02987,  -0.05946,  -0.02256,  -0.15657,  -0.01479,   0.03570,   0.06289,   0.06289,  -0.06140,  -0.09442,  -0.03616,   0.00657,   0.04735,  -0.04781,   0.02016,   0.01434,  -0.00120,  -0.00897,   0.04735,   0.00268,  -0.00314,  -0.03227,  -0.00314,   0.00268,   0.03764,  -0.05364,   0.02599,  -0.00314,   0.02793,   0.08425,  -0.04781,   0.03182,   0.03764,   0.02016,  -0.04587,   0.06872,  -0.04975,   0.03376,   0.10173,   0.00463,  -0.02062,   0.09008,   0.03182,   0.05318,  -0.03616,  -0.02839,   0.07454,   0.01628,   0.05900,  -0.00703,   0.02599,   0.12504,  -0.02645,   0.02405,   0.09202,   0.01628,   0.04153,   0.05706,   0.15222,   0.02405,  -0.00314,  -0.08277,  -0.03227,   0.07843,   0.07843,   0.06872,  -0.05364,  -0.07306,   0.04347,   0.05124,   0.07648,   0.02599,  -0.08082,   0.02016,  -0.05364,  -0.04587,  -0.08277,   0.03570,   0.05900,   0.02793,   0.14834,  -0.13520,  -0.02256,   0.12892,   0.10173,  -0.09248,  -0.02645,  -0.03227,   0.03376,   0.01822,   0.02211,   0.06677,   0.06483,   0.04929,   0.04153,   0.09785,  -0.01091,   0.02793,   0.02016,  -0.00703,  -0.10413,   0.04735,   0.04347,  -0.00897,   0.00074,   0.03182,  -0.01479,   0.06289,  -0.00897,   0.00657
  -0.02062,   0.04541,  -0.01479,   0.02987,  -0.05364,   0.07648,  -0.02062,   0.03376,  -0.05558,   0.08037,   0.02405,   0.04735,   0.08425,  -0.03227,   0.03764,  -0.02450,  -0.06335,  -0.07306,   0.03570,  -0.03227,   0.04153,  -0.05752,   0.01240,  -0.08277,  -0.07111,  -0.06140,  -0.04004,   0.04347,   0.08425,  -0.03616,  -0.02839,   0.00657,   0.05318,   0.02599,  -0.05946,  -0.01674,   0.04153,  -0.08665,  -0.07306,  -0.05169,  -0.04393,  -0.08665,  -0.01091,   0.01628,   0.07454,  -0.06723,   0.02211,  -0.01674,   0.00851,  -0.00897,  -0.05752,  -0.17404,   0.02793,  -0.05169,  -0.04393,  -0.04781,  -0.07111,   0.05900,   0.02016,   0.04347,  -0.11190,  -0.07694,  -0.04198,  -0.05558,   0.01434,  -0.00508,  -0.00314,  -0.02256,  -0.06723,  -0.04393,  -0.11967,  -0.05169,   0.05318,  -0.06529,   0.03376,   0.04735,   0.07648,  -0.10996,   0.04541,   0.01628,   0.01045,   0.20272,   0.06289,   0.12892,   0.08037,  -0.06140,  -0.09442,  -0.02450,   0.04541,   0.03570,   0.00074,  -0.04004,  -0.05364,   0.00463,   0.03958,  -0.07306,   0.16582,   0.04929,   0.07454,  -0.04198,  -0.06335,  -0.01479,  -0.07306,   0.00268,   0.00851,   0.00851,  -0.03616,  -0.00508,   0.05512,   0.02405,   0.01822,   0.10367,   0.03570,   0.03376,  -0.02062,  -0.02256,   0.02405,  -0.00703,   0.01628,  -0.07306,  -0.00120,  -0.05169,   0.02211,  -0.01285,  -0.06529,  -0.06140,   0.09785,   0.03764,   0.09590,  -0.03810,  -0.07888,  -0.04393,   0.02016,   0.04541,  -0.05558,   0.05900,   0.01240,  -0.04975,  -0.02450,   0.03376,  -0.04198,  -0.05169,   0.02987,   0.02211,   0.04541,  -0.02645,   0.05706,   0.04735,  -0.04393,  -0.12549,  -0.05558,   0.01045,  -0.05946,  -0.01285,  -0.06335,  -0.02645,  -0.02645,  -0.00897,  -0.05558,   0.08425,   0.02599,   0.03376,   0.03570,   0.05900,  -0.07500,  -0.04004,   0.01434,  -0.05946,   0.01045,   0.06095,   0.00074,  -0.00703,  -0.06917,   0.01434,   0.06095,   0.02211,  -0.00897,   0.00463,   0.05900,   0.01434,  -0.05169,  -0.00120,  -0.07500,  -0.02062,  -0.06917,  -0.03810,  -0.09053,   0.03958,   0.00657,   0.02987,  -0.08082,   0.02987,   0.05512,   0.06483,   0.05706,   0.01045,   0.13086,  -0.01479,  -0.02839,  -0.00897,  -0.00508,  -0.08082,  -0.09830,   0.11921,   0.00851,   0.05512,   0.12115,   0.00268,  -0.00314,  -0.08082,  -0.10025,  -0.08277,   0.01240,   0.05706,   0.14057,  -0.06140,   0.02211,  -0.11578,   0.04541,  -0.02450,  -0.00314,  -0.09636,  -0.01091,   0.04347,  -0.01091,   0.05900,   0.01240,   0.02016,   0.10950,   0.06095,  -0.01868,  -0.11578,   0.05512,   0.00268,  -0.12743,  -0.05364,  -0.02062,  -0.00314,   0.00268,   0.01045,  -0.08471,   0.01240,   0.02405,   0.05318,  -0.08082,  -0.06529,  -0.07888,  -0.06335,   0.15611,   0.06872,  -0.01285,   0.17553,  -0.03421,  -0.04975,  -0.01674,   0.08231,  -0.00314,   0.04347,   0.02987,   0.01434,  -0.05558,  -0.05364,  -0.04198,   0.06677,   0.03182,  -0.03227,   0.10950,   0.04735,  -0.01868,   0.05706,  -0.07500,   0.01822,   0.01434,   0.00851,   0.04735,  -0.03616,   0.10367,   0.00657,   0.04347,   0.06289,  -0.05364,  -0.01285,  -0.02839,   0.06677,   0.04541,   0.01045,   0.03958,  -0.05946,  -0.03227,  -0.15074,  -0.04004,   0.00851,   0.07648,  -0.01674,  -0.03227,   0.01045,   0.01045,   0.04347,  -0.04004,   0.03764,  -0.03616,   0.03764,  -0.08277,  -0.00703,   0.01628,  -0.01868,  -0.05752,   0.10367,   0.10561,   0.03376,  -0.10996,   0.01628,  -0.00508,  -0.06723,   0.04541,  -0.02450,  -0.02839,  -0.01868,   0.12309,  -0.08665,  -0.04198,  -0.08859,   0.11338,   0.03570,  -0.11578,   0.03764,   0.01628,  -0.01285,   0.01240,   0.14446,   0.12115,  -0.09248,   0.12698,  -0.05169,  -0.05169,   0.04735,  -0.03616,  -0.01285,  -0.05169,  -0.05752,  -0.01285,   0.07066,  -0.03033,   0.02211,   0.00268,  -0.05946,  -0.03616,  -0.01479,  -0.00897,  -0.09053,   0.05900,  -0.08471,  -0.09248,  -0.07500,  -0.04781,   0.10756,   0.06483,  -0.09636,  -0.05169,   0.07648,   0.00657,   0.04347,   0.00851,  -0.05558,  -0.02256,   0.02405,   0.05124,  -0.00508,   0.04347,   0.01822,  -0.06529,  -0.06140,  -0.05946,   0.02211,  -0.04975,  -0.04198,  -0.04393,  -0.08471,  -0.00508,  -0.05752,  -0.01091,   0.03376,   0.02405,  -0.00314,  -0.02839,  -0.00703,  -0.01479,   0.08037,   0.01045,  -0.05946,   0.09202,   0.08037,   0.09202,   0.04347,   0.16582,   0.10950,  -0.02450,  -0.08277,   0.02211,  -0.00314,   0.04929,   0.00074,   0.01045,  -0.01868,  -0.01091,   0.07648,  -0.01091,  -0.03616,  -0.05946,   0.06872,  -0.05169,  -0.10025,  -0.03227,   0.10367,   0.12309,  -0.03421,   0.07843,  -0.04393,  -0.05558,  -0.04781,  -0.00508,  -0.02839,  -0.08471,   0.00657,   0.04347,   0.02793,  -0.03421,  -0.09053,  -0.09248,  -0.02256,  -0.07306,  -0.08082,   0.02987,  -0.02062,  -0.08665,   0.01434,   0.06872,   0.04735,   0.00657,  -0.06529,  -0.05752,  -0.02256,   0.05900,   0.07260,  -0.00120,  -0.02645,  -0.07694,   0.03958,  -0.09830,  -0.06529,  -0.03227,  -0.09442,   0.00851,   0.02405,  -0.04004,  -0.01091,  -0.01479,  -0.05752,  -0.03616,   0.00657,   0.12115,  -0.05946,  -0.07694,  -0.06335,  -0.02839,   0.05124,   0.04929,  -0.11967,   0.02405,  -0.02839,  -0.05558,   0.03182,  -0.08277,  -0.04587,  -0.04198,  -0.02450,   0.03764,  -0.05364,  -0.04587,   0.08619,   0.07260,  -0.04587,  -0.07111,  -0.03033,   0.02016,  -0.02062,  -0.04393,   0.01434,   0.03182,  -0.03810,   0.04153,  -0.05169,   0.04153,  -0.04781,   0.00463,  -0.01674,   0.07066,   0.05318,  -0.01868,   0.09785,  -0.04975,   0.02016,  -0.08082,   0.02793,  -0.04587,   0.03376,  -0.11190,  -0.16433,   0.00463,  -0.05752,  -0.06917,   0.02793,  -0.06140,  -0.04975,  -0.03227,  -0.00120,  -0.00897,  -0.01285,  -0.02839,   0.04735,  -0.03616,   0.09785,   0.02405,  -0.06335,   0.04735,  -0.02256,   0.05124,   0.00463,   0.02987,   0.03182,  -0.06529,   0.01434,   0.02793,  -0.06529,  -0.07306,  -0.03227,   0.02987,  -0.02062,  -0.05169,  -0.00508,  -0.00703,  -0.02256,   0.03570,   0.02405,   0.09785,   0.05512,  -0.06140,  -0.00120,   0.06483,   0.00657,   0.05900,   0.02599,   0.04929,  -0.03616,   0.09008,  -0.13909,   0.13086,   0.10173,  -0.00508,   0.04347,  -0.17987,  -0.01868,  -0.06335,   0.00851,  -0.00120,   0.05124,   0.12115,  -0.02645,  -0.03421,   0.02599,   0.00268,   0.00463,   0.06872,   0.00463,   0.02405,  -0.12161
  -0.11578,   0.02599,   0.01822,  -0.02839,   0.00268,  -0.01091,  -0.05946,  -0.01868,  -0.06529,  -0.05558,  -0.14297,   0.06677,   0.00851,   0.00268,   0.02793,   0.04153,  -0.01868,  -0.01091,  -0.09442,  -0.02645,   0.15028,  -0.03421,  -0.07306,   0.11921,  -0.02645,  -0.02645,   0.02016,  -0.02256,   0.05124,  -0.02450,   0.01240,  -0.00120,   0.03958,   0.07843,   0.01822,   0.00463,   0.05706,  -0.02645,  -0.04393,   0.01240,  -0.00314,  -0.10219,  -0.06529,   0.01628,   0.00268,   0.00657,   0.00268,   0.04929,  -0.03616,  -0.10025,  -0.05169,  -0.05364,  -0.06335,   0.01045,   0.08814,   0.13086,  -0.05364,   0.02987,   0.09785,  -0.03033,  -0.01479,  -0.03810,   0.03570,   0.00851,  -0.03421,   0.02405,  -0.00314,  -0.02256,  -0.03421,  -0.00703,   0.01240,  -0.12549,   0.03570,   0.00657,  -0.07111,   0.04347,   0.00657,   0.01240,   0.05900,   0.06483,  -0.05169,  -0.00314,  -0.07888,   0.00657,  -0.00897,   0.01045,   0.04541,   0.10367,  -0.02645,  -0.02256,   0.00657,   0.01434,  -0.12355,  -0.10219,  -0.03616,  -0.00120,  -0.11967,   0.00463,   0.01045,   0.07454,   0.03376,   0.01822,  -0.05169,  -0.04198,   0.05318,   0.05318,  -0.09248,   0.05124,   0.02405,  -0.05169,  -0.03616,   0.01045,  -0.11772,   0.05124,  -0.04781,   0.06483,  -0.03810,   0.11727,  -0.04004,   0.04541,   0.05900,  -0.01868,   0.05124,   0.08814,   0.04541,  -0.04781,  -0.00120,   0.06289,   0.11144,   0.05706,   0.07648,   0.11533,   0.09202,  -0.01479,   0.05706,   0.00851,   0.02211,  -0.04975,   0.03570,  -0.00120,  -0.05364,  -0.03421,   0.09396,   0.10367,   0.09008,  -0.04975,  -0.00508,   0.01240,  -0.02450,   0.01045,  -0.00120,  -0.06917,   0.04541,  -0.05169,  -0.04587,   0.09202,   0.06677,   0.01240,  -0.08665,   0.00074,  -0.07694,   0.04735,  -0.04198,   0.02987,  -0.02062,   0.08037,   0.05124,  -0.03033,   0.03182,  -0.01479,   0.00657,  -0.03421,   0.12698,   0.04929,   0.04541,  -0.02450,  -0.02062,  -0.02062,  -0.02450,   0.08231,   0.05124,   0.03958,   0.00268,   0.02016,  -0.01868,  -0.00508,  -0.04975,  -0.09636,   0.03376,  -0.01674,  -0.01285,   0.04541,  -0.05752,   0.02016,  -0.01868,   0.00851,  -0.00314,   0.04929,   0.06872,   0.07260,   0.04347,  -0.11772,   0.01434,  -0.01091,   0.13475,  -0.08082,   0.07454,   0.00074,   0.00074,  -0.14880,  -0.07500,  -0.00897,   0.10561,   0.11144,  -0.07888,   0.02211,   0.03958,   0.01628,   0.07648,   0.01628,   0.08619,   0.02599,  -0.03033,   0.06289,   0.06483,  -0.05558,  -0.04587,  -0.01674,  -0.08082,  -0.10801,  -0.01868,  -0.10801,   0.09590,  -0.00120,   0.06095,   0.00851,   0.00657,   0.00657,  -0.00314,  -0.05946,   0.02599,  -0.08082,  -0.08859,  -0.06140,   0.03376,  -0.02256,   0.03764,  -0.02256,  -0.04004,  -0.01674,  -0.06335,   0.00268,  -0.03810,  -0.06917,   0.00463,  -0.00508,   0.02016,   0.07454,  -0.00703,   0.02987,  -0.15074,   0.00657,   0.08231,  -0.01091,   0.05318,   0.09590,   0.11338,  -0.07111,   0.10756,  -0.00314,   0.02987,  -0.05558,   0.03570,  -0.10996,   0.04929,   0.04735,   0.05318,  -0.13520,   0.05124,   0.02987,  -0.00120,  -0.04781,  -0.06140,   0.05512,   0.03570,   0.04541,  -0.00508,  -0.02839,   0.09979,   0.00851,  -0.12938,  -0.00120,  -0.05752,   0.01628,   0.21437,  -0.05558,   0.03764,  -0.00314,  -0.03421,   0.02405,   0.02599,  -0.06917,  -0.00703,  -0.06723,  -0.06335,   0.04347,  -0.01479,  -0.05946,  -0.04198,   0.10173,  -0.10801,   0.01045,   0.02211,   0.01822,  -0.06335,   0.03958,   0.02793,   0.00074,  -0.05752,  -0.11190,   0.03958,  -0.00120,   0.00657,  -0.01091,  -0.00314,   0.02599,   0.01240,  -0.16239,  -0.04004,  -0.02256,  -0.04781,  -0.03421,   0.00268,  -0.05946,  -0.02645,  -0.07306,   0.01045,   0.06095,  -0.01285,  -0.03033,   0.04347,  -0.12743,   0.04735,   0.07454,  -0.15851,   0.05318,  -0.03227,   0.00657,  -0.02645,   0.09008,   0.08425,  -0.09248,  -0.01674,  -0.06917,  -0.03227,  -0.09636,   0.00268,  -0.13909,   0.16582,   0.03958,   0.04735,  -0.09053,   0.03764,  -0.18570,   0.07648,  -0.05946,   0.08037,  -0.05946,   0.08425,  -0.03616,   0.01822,   0.00074,   0.08231,   0.07454,   0.03570,   0.15222,  -0.02256,   0.04153,  -0.04198,   0.02599,   0.00657,  -0.05558,   0.01240,   0.03570,  -0.04975,  -0.03421,  -0.01091,  -0.07500,  -0.05169,   0.00851,  -0.04781,   0.01045,  -0.03033,  -0.04004,   0.03570,  -0.00703,  -0.01285,   0.11338,   0.06483,  -0.01091,  -0.05364,   0.07648,   0.09396,   0.00851,  -0.03616,   0.11727,  -0.00897,  -0.00897,   0.03182,  -0.08277,  -0.01868,   0.02599,  -0.07694,   0.05318,  -0.00897,  -0.04975,  -0.08471,  -0.01091,   0.13475,  -0.04975,   0.03182,  -0.00314,   0.09590,   0.06872,   0.03764,   0.02016,  -0.07888,   0.04347,   0.05318,  -0.00120,   0.04735,  -0.00314,   0.02016,   0.04541,   0.00657,   0.05318,   0.02211,  -0.01479,   0.22214,  -0.03227,  -0.00508,  -0.00314,  -0.06723,  -0.04781,   0.11533,  -0.06529,   0.05900,  -0.02256,   0.10756,  -0.01868,  -0.02450,  -0.01479,  -0.01479,   0.06095,  -0.04198,   0.04735,   0.02987,   0.08814,   0.03570,  -0.06723,  -0.04198,  -0.00314,  -0.02450,   0.07454,   0.05706,  -0.01091,   0.02987,   0.03958,   0.00074,   0.00657,   0.05706,   0.05706,  -0.00703,  -0.00120,   0.03958,   0.01045,   0.02405,  -0.02450,  -0.05364,   0.04153,  -0.01091,   0.05512,   0.03764,  -0.04198,   0.04929,  -0.10607,   0.05900,   0.08231,   0.01628,  -0.07306,  -0.09442,   0.02793,  -0.00897,  -0.05169,   0.09979,   0.00851,  -0.00703,   0.02599,   0.05318,  -0.01479,  -0.00897,   0.04929,  -0.05169,   0.03764,  -0.07694,  -0.01868,   0.04735,  -0.06723,   0.10561,   0.09979,  -0.00120,   0.15611,  -0.05752,   0.05124,   0.01240,   0.07843,  -0.01479,   0.04929,   0.00074,   0.02405,   0.01628,   0.02016,   0.07260,   0.02211,   0.03182,  -0.00120,   0.00851,  -0.00508,  -0.04198,   0.02211,  -0.09053,  -0.10219,  -0.10413,   0.00851,  -0.04781,   0.01045,  -0.03227,  -0.02645,   0.08619,  -0.07500,   0.04929,   0.02793,  -0.02645,  -0.03421,   0.04541,   0.02987,   0.06677,  -0.07111,   0.01240,   0.11144,   0.04735,  -0.03421,   0.00074,   0.00463,   0.01822,   0.03764,   0.00074,  -0.01868,  -0.01868,   0.08231,  -0.00314,   0.02599,  -0.06529,   0.00268,  -0.00703,  -0.01868,   0.06095,   0.05124,   0.00268,   0.02016,  -0.08082,   0.09008,  -0.01091,  -0.08277,   0.00657,  -0.07306
  -0.08082,  -0.03033,  -0.16433,  -0.03810,   0.09008,   0.06872,  -0.05752,  -0.00508,   0.02016,   0.06289,   0.01434,   0.00268,  -0.02839,   0.04153,  -0.01285,   0.06289,   0.00657,   0.00657,   0.02599,   0.06289,  -0.11190,   0.07648,   0.06677,   0.04929,  -0.00703,  -0.10025,   0.04153,   0.04929,  -0.03810,   0.01822,  -0.05169,  -0.02256,  -0.09442,   0.06677,   0.02793,   0.02405,  -0.03227,   0.07454,   0.04541,  -0.03227,   0.04735,   0.04153,  -0.03421,  -0.00703,  -0.02450,  -0.12743,  -0.04975,  -0.02839,   0.03570,   0.03570,   0.04153,   0.02599,   0.09785,   0.07260,  -0.08277,   0.04347,  -0.02256,   0.04153,   0.01628,   0.00851,   0.07843,  -0.06335,   0.01628,   0.05900,   0.09008,  -0.14880,   0.03570,   0.02016,  -0.04198,   0.09979,   0.00463,   0.01045,   0.00268,  -0.05558,   0.02211,   0.04929,  -0.06140,   0.07066,   0.06289,  -0.04587,   0.02016,  -0.01479,   0.03764,  -0.08665,   0.06872,   0.00657,  -0.02062,   0.07843,   0.13280,  -0.02062,  -0.00508,  -0.15268,  -0.03616,  -0.05946,  -0.03810,  -0.01091,  -0.03227,   0.03376,   0.09785,   0.02987,   0.01628,   0.11921,   0.08425,   0.03182,   0.01240,  -0.05364,   0.02211,  -0.02450,   0.02987,   0.00463,  -0.00508,   0.05706,   0.01240,  -0.00120,   0.05900,  -0.06140,  -0.07500,   0.04347,   0.07454,   0.05318,  -0.02839,  -0.04781,  -0.02450,   0.01822,  -0.05558,   0.05124,  -0.10025,   0.00268,  -0.01091,   0.02211,   0.00463,   0.02405,  -0.01285,   0.02405,   0.00657,  -0.04198,   0.03570,   0.06872,  -0.02839,   0.10173,   0.02016,   0.05512,   0.02405,   0.07843,   0.06289,  -0.10025,  -0.02062,  -0.01479,   0.07648,   0.01434,   0.00463,  -0.01479,  -0.12938,   0.06289,  -0.04198,   0.07648,  -0.04393,  -0.01868,  -0.07306,  -0.01091,   0.03570,  -0.04198,  -0.02645,   0.06677,   0.06483,  -0.10413,   0.10561,   0.00268,  -0.05752,  -0.04975,  -0.04004,   0.08425,   0.00851,   0.01240,   0.06095,  -0.01479,   0.02987,   0.00074,   0.00851,   0.02987,   0.10561,   0.07260,   0.08231,   0.03376,  -0.01868,  -0.02256,   0.08231,  -0.04975,  -0.09442,   0.14057,  -0.03810,   0.09202,  -0.05169,   0.02987,   0.06872,   0.01434,  -0.02256,   0.00657,  -0.05946,  -0.04004,   0.06483,  -0.07888,   0.09202,   0.07260,   0.06483,   0.10756,  -0.12743,  -0.09636,  -0.06529,  -0.05364,   0.02016,   0.12504,   0.05706,  -0.03616,   0.11921,   0.04153,  -0.02062,   0.06095,  -0.04975,   0.04735,  -0.11578,  -0.04781,   0.03376,   0.00657,   0.09202,   0.04541,  -0.05169,   0.08037,   0.00268,   0.08425,   0.05900,   0.08037,  -0.03227,  -0.00703,   0.04541,  -0.04198,  -0.01674,   0.07260,   0.00851,   0.02793,  -0.07500,   0.06289,   0.01822,   0.05900,   0.05318,  -0.02645,   0.01628,  -0.04781,   0.00851,   0.08037,   0.01045,   0.01434,   0.09979,  -0.03810,   0.12504,  -0.10801,   0.03764,  -0.02256,  -0.01285,  -0.00897,  -0.04393,   0.02016,   0.06483,  -0.01285,  -0.03810,  -0.06140,  -0.04781,   0.01628,   0.08425,  -0.09830,   0.05900,   0.05124,  -0.02256,  -0.04004,   0.08037,  -0.03227,  -0.06529,   0.01628,   0.02599,  -0.01868,  -0.00897,  -0.04393,   0.05512,  -0.04198,  -0.04393,   0.10950,  -0.00703,  -0.01091,   0.01240,   0.05900,   0.04153,   0.00851,  -0.04587,  -0.04781,  -0.01674,   0.01822,  -0.01868,  -0.07111,  -0.09248,   0.10367,  -0.06529,  -0.05364,  -0.01285,   0.00463,   0.07454,   0.06677,   0.03958,   0.03958,  -0.02256,   0.14640,  -0.04198,   0.00074,   0.03764,  -0.08082,  -0.07500,  -0.07500,   0.01045,   0.04153,   0.00268,   0.03376,  -0.02645,  -0.00314,  -0.00897,   0.02599,   0.06095,   0.00657,  -0.06723,  -0.05169,   0.05124,   0.00851,  -0.06529,  -0.06529,   0.01822,  -0.07500,  -0.03033,   0.01822,   0.04153,  -0.01479,  -0.04781,   0.06872,   0.04347,  -0.02450,   0.03958,  -0.06917,   0.02405,  -0.06140,   0.01628,   0.02987,   0.05124,   0.04735,   0.05706,  -0.02839,  -0.00703,  -0.03810,  -0.05169,   0.01045,  -0.03421,   0.04347,  -0.10219,   0.06095,   0.06483,   0.02211,   0.08425,  -0.12549,  -0.06917,  -0.04004,  -0.07694,  -0.06140,  -0.04781,   0.01045,  -0.05946,  -0.07111,   0.03570,   0.00074,   0.07454,   0.02987,   0.01045,  -0.00120,   0.05706,   0.02405,   0.00268,  -0.04393,  -0.05364,  -0.06335,  -0.02839,   0.04347,   0.00851,  -0.08859,   0.06677,   0.01434,  -0.03616,  -0.02256,  -0.05364,  -0.03421,  -0.06140,  -0.01674,   0.02405,  -0.01868,  -0.04198,  -0.03421,  -0.01479,   0.02793,   0.03764,   0.07648,  -0.03810,   0.05900,   0.13475,   0.03764,   0.05124,   0.08425,  -0.03227,   0.00268,   0.04347,  -0.05169,  -0.10607,  -0.06529,  -0.05558,   0.15417,  -0.03616,   0.08619,  -0.02062,   0.07843,   0.00657,   0.06677,  -0.01285,   0.02016,   0.00657,   0.03182,  -0.18181,  -0.05946,   0.07260,   0.01434,  -0.08082,   0.06677,  -0.08859,  -0.20318,  -0.05946,  -0.10607,  -0.05752,   0.16582,   0.03182,  -0.01285,  -0.06335,  -0.02450,   0.05512,  -0.07500,  -0.00120,  -0.05752,  -0.03227,  -0.05169,   0.07454,   0.05512,   0.03182,  -0.03810,  -0.09248,   0.01434,  -0.00897,   0.04347,   0.01822,   0.09979,  -0.04587,  -0.04198,   0.01240,   0.01434,  -0.02062,  -0.04004,  -0.08665,   0.03570,  -0.01868,   0.01434,  -0.05752,   0.01628,  -0.03616,  -0.04781,  -0.04004,   0.00657,  -0.00508,   0.05124,   0.05512,  -0.02256,   0.09008,   0.11921,  -0.01285,  -0.02645,  -0.01868,  -0.03421,   0.03376,   0.01240,  -0.00897,   0.08231,   0.01240,   0.03570,   0.00851,  -0.05752,   0.08231,  -0.16822,  -0.03033,   0.08619,   0.02599,   0.00463,  -0.01674,  -0.09636,   0.04347,  -0.09636,   0.01434,   0.00851,  -0.02839,  -0.05364,  -0.05752,   0.06483,  -0.04198,  -0.04975,   0.06677,  -0.01868,  -0.11772,   0.04541,   0.12504,  -0.08859,  -0.09830,   0.03570,  -0.01091,  -0.03033,   0.04347,   0.04929,  -0.07111,   0.02793,   0.05512,   0.02016,  -0.05169,  -0.01674,   0.01822,   0.06677,   0.03570,   0.05124,   0.04541,   0.02016,  -0.07306,  -0.01868,  -0.01479,   0.06095,  -0.05558,  -0.02256,  -0.03033,  -0.04004,   0.02016,   0.01822,  -0.07306,  -0.09830,   0.11338,  -0.05169,   0.05512,  -0.04393,   0.03182,  -0.04004,  -0.05169,   0.04929,   0.01045,   0.03764,  -0.05364,   0.07648,   0.11144,  -0.08665,  -0.01285,  -0.06335,   0.05900,   0.02405,  -0.00703,  -0.06140,  -0.07694,  -0.15074,  -0.06917,  -0.14103,  -0.01091,   0.03376,  -0.06529,  -0.06723
   0.01628,   0.07648,   0.06483,   0.03764,  -0.00120,   0.06289,   0.05706,   0.03764,  -0.02062,  -0.00897,   0.03376,  -0.02839,   0.03182,  -0.09053,   0.01822,   0.03958,   0.01045,  -0.01091,  -0.12743,  -0.07694,  -0.01091,   0.08814,  -0.01868,   0.05900,  -0.05169,  -0.09442,  -0.02450,  -0.06140,   0.15805,   0.05706,  -0.03033,  -0.01285,  -0.06529,   0.04929,  -0.00703,   0.07260,  -0.07111,  -0.02839,   0.00074,   0.02211,   0.04153,   0.05706,  -0.04587,   0.03764,   0.04735,  -0.06140,  -0.02645,  -0.01091,  -0.02450,   0.00851,  -0.07500,   0.00074,  -0.13520,  -0.03810,   0.03764,  -0.03616,   0.00268,  -0.08277,   0.03764,  -0.07888,   0.06872,   0.14446,  -0.03227,  -0.09636,  -0.06529,  -0.07694,  -0.08082,   0.00657,   0.12698,   0.11144,  -0.04781,  -0.02256,   0.03182,   0.00074,   0.02016,   0.00268,   0.05512,   0.05124,   0.02405,  -0.11578,  -0.03810,   0.05124,   0.00463,  -0.04781,  -0.09830,  -0.06335,  -0.09830,  -0.02450,  -0.02450,  -0.05946,  -0.09830,   0.03764,   0.06289,  -0.05752,   0.01045,   0.02599,  -0.05946,  -0.03810,  -0.02839,   0.09202,   0.05512,  -0.00314,   0.03376,  -0.11772,   0.04347,  -0.05946,  -0.02062,   0.02987,   0.09590,  -0.05752,   0.06095,  -0.02450,  -0.03033,   0.06289,   0.06483,  -0.01868,   0.02016,   0.07066,   0.07843,  -0.11772,   0.05900,   0.01822,  -0.07111,  -0.03421,   0.04735,   0.04929,   0.06483,   0.07066,   0.08231,  -0.02062,  -0.03616,  -0.06140,  -0.01674,   0.01822,   0.02405,  -0.00314,  -0.05169,  -0.00314,  -0.03033,   0.03182,  -0.02062,  -0.01868,   0.13280,  -0.01479,   0.11921,  -0.01479,   0.01822,   0.11144,  -0.11384,  -0.00120,   0.05318,   0.00851,   0.08814,  -0.10219,  -0.06140,  -0.07888,  -0.00120,   0.04347,  -0.05946,   0.00268,   0.00268,  -0.07111,   0.06872,  -0.10025,   0.01240,  -0.01479,  -0.04393,   0.11921,  -0.03810,  -0.01479,  -0.02450,   0.02793,  -0.02062,   0.02016,   0.02793,   0.01045,   0.01045,   0.04735,   0.02793,   0.02987,  -0.07888,  -0.11384,  -0.05364,  -0.03421,   0.04735,   0.03958,  -0.10413,   0.07648,  -0.09636,  -0.01091,  -0.08859,  -0.01285,   0.01240,  -0.02256,   0.06483,   0.03376,   0.04347,   0.01045,   0.08037,  -0.03616,  -0.09442,   0.02987,  -0.06140,   0.05900,   0.02016,  -0.13132,  -0.04393,  -0.04198,  -0.04975,  -0.02256,   0.05512,  -0.00314,   0.04735,   0.01045,   0.11921,  -0.00314,  -0.03616,  -0.03810,  -0.00120,  -0.01285,   0.04153,   0.02016,  -0.06335,   0.05318,   0.06483,   0.01045,  -0.01285,  -0.03033,   0.05900,  -0.03810,   0.02211,  -0.02645,   0.04929,  -0.03227,   0.10367,   0.15222,   0.09202,  -0.03810,  -0.02645,   0.05318,   0.00851,   0.14251,  -0.03421,  -0.03810,  -0.01091,  -0.02062,  -0.04004,   0.05900,  -0.05364,  -0.01479,   0.09979,   0.01822,   0.04347,  -0.05946,   0.02987,  -0.03421,  -0.07888,   0.06483,  -0.03616,   0.01045,  -0.01674,  -0.03033,  -0.03810,   0.00851,  -0.02450,  -0.10801,  -0.02450,   0.06483,  -0.09442,   0.02599,  -0.10413,   0.00268,  -0.05752,  -0.06529,  -0.04198,   0.04735,  -0.04587,   0.02016,   0.08425,  -0.00703,   0.04929,  -0.04004,  -0.04975,  -0.10413,   0.04153,   0.04929,   0.01822,   0.06095,  -0.00508,   0.01434,  -0.01479,   0.00851,  -0.07694,  -0.03616,  -0.03227,   0.06872,   0.02405,  -0.03033,  -0.06917,   0.02987,   0.03958,   0.04541,  -0.08859,   0.09396,   0.04153,  -0.00897,   0.03570,   0.09396,   0.04929,  -0.03033,  -0.02839,  -0.01479,  -0.02839,   0.00463,  -0.04781,  -0.08277,  -0.11384,   0.03182,  -0.01285,  -0.01091,   0.02211,   0.11144,  -0.10801,  -0.01091,   0.00268,  -0.07111,  -0.07306,   0.01628,  -0.00314,   0.09396,   0.04735,  -0.07306,  -0.04004,   0.06095,   0.09590,   0.02016,  -0.08277,  -0.00314,  -0.00897,   0.00851,   0.04929,   0.02016,  -0.02062,   0.03958,  -0.04198,   0.06289,   0.03376,  -0.00703,   0.05318,   0.00074,  -0.01479,   0.18330,   0.01240,   0.00074,  -0.00703,   0.05706,  -0.06723,   0.00074,  -0.13520,  -0.08471,   0.01822,  -0.01868,   0.01434,   0.05706,  -0.00703,   0.04929,   0.07648,  -0.10996,   0.06677,   0.08619,  -0.03421,   0.15417,  -0.05752,   0.03958,  -0.10219,   0.08037,  -0.06335,  -0.07500,   0.03958,   0.07843,  -0.01674,  -0.02256,   0.09590,   0.01628,   0.00074,   0.02016,  -0.12938,  -0.04393,   0.00463,   0.17359,  -0.01091,   0.00463,  -0.07500,  -0.00314,   0.07260,   0.12309,   0.01628,  -0.02062,   0.04929,  -0.04004,  -0.02062,   0.06872,   0.09202,  -0.00703,  -0.01674,  -0.00120,   0.06289,  -0.05364,  -0.04004,   0.01434,  -0.00314,  -0.06917,   0.01628,  -0.05169,   0.02793,   0.03376,   0.07648,  -0.02256,   0.02793,  -0.00314,  -0.01674,  -0.06529,  -0.00508,  -0.00314,  -0.01479,   0.09008,  -0.04004,  -0.05558,   0.11727,   0.07260,   0.08619,   0.04347,   0.04929,  -0.04198,   0.00268,  -0.05946,   0.09979,   0.03376,  -0.02062,   0.03182,  -0.09053,  -0.15657,  -0.02256,  -0.05946,   0.01822,   0.03764,  -0.13520,   0.05706,  -0.04004,  -0.05169,  -0.02256,   0.00268,   0.03958,   0.05706,  -0.02062,   0.05900,  -0.13326,   0.02211,  -0.03421,  -0.11967,  -0.01868,   0.01822,   0.09785,   0.08814,  -0.01868,  -0.06140,  -0.07111,  -0.04781,  -0.01285,   0.03764,  -0.01868,   0.07648,   0.04929,   0.04153,   0.00074,   0.08037,   0.04347,  -0.05946,  -0.02256,  -0.00703,   0.03182,   0.01628,  -0.05169,   0.04929,   0.02016,  -0.07500,  -0.03421,  -0.08665,  -0.02839,   0.03958,   0.07260,   0.00657,   0.08814,  -0.08082,  -0.07888,   0.03958,   0.01628,   0.03182,   0.03182,   0.08231,   0.08425,   0.11144,  -0.08665,   0.00463,  -0.00314,  -0.01868,   0.06483,  -0.00120,  -0.02645,   0.09202,   0.01628,  -0.00120,  -0.00897,   0.02987,  -0.07306,   0.01240,   0.07843,   0.02793,   0.03764,   0.02599,   0.00074,  -0.01674,   0.05512,  -0.04198,  -0.02256,   0.07454,   0.06872,  -0.00314,   0.12115,  -0.01479,  -0.00120,   0.04735,   0.01628,   0.02016,  -0.04975,  -0.00703,  -0.02062,   0.00268,   0.01434,   0.00268,  -0.02645,   0.03182,  -0.01674,   0.06872,  -0.04975,   0.02016,  -0.00314,  -0.04781,  -0.11190,   0.09979,   0.11144,  -0.03810,   0.08037,   0.05318,  -0.00508,   0.03182,   0.06483,  -0.00120,   0.09202,   0.05706,   0.02016,   0.04929,  -0.01674,  -0.03810,  -0.09636,   0.05124,  -0.10607,  -0.12549,   0.05706,   0.07454,  -0.01674,  -0.13132,   0.00074,   0.07066,  -0.04781,   0.05318
   0.05706,  -0.06917,  -0.05364,   0.04735,   0.01628,  -0.02645,  -0.00508,   0.01434,  -0.02256,  -0.00508,   0.03182,   0.04735,   0.04347,   0.03182,   0.09202,   0.02599,  -0.10607,   0.03764,   0.09396,  -0.05364,   0.06872,   0.02405,   0.00268,  -0.07694,   0.00268,   0.02793,   0.06095,   0.01434,   0.02405,  -0.00703,  -0.01285,   0.02016,  -0.04781,  -0.02256,  -0.03227,  -0.02256,   0.01822,  -0.02062,  -0.04587,   0.05512,  -0.04198,  -0.00314,   0.03764,  -0.03810,  -0.00703,   0.04929,   0.02211,  -0.01285,  -0.02645,  -0.01674,   0.04347,   0.01822,   0.03570,   0.02016,  -0.07306,   0.15611,   0.04347,  -0.03616,  -0.08082,  -0.05169,  -0.02256,   0.05706,   0.02793,  -0.06723,   0.10756,  -0.00120,  -0.07500,   0.02793,   0.00851,   0.06483,  -0.01674,   0.05512,   0.04347,   0.03182,   0.08619,   0.02211,   0.09785,  -0.00508,  -0.01479,   0.02405,  -0.07500,   0.01045,   0.03570,  -0.05364,   0.02793,   0.10950,  -0.05946,   0.02016,  -0.17987,   0.02211,   0.03376,  -0.10025,  -0.02839,  -0.08665,  -0.09053,  -0.06529,   0.00268,  -0.06335,  -0.04587,  -0.04393,  -0.10607,   0.03182,   0.00851,  -0.04004,  -0.11772,  -0.07306,  -0.00897,  -0.10801,  -0.00314,   0.01434,   0.00268,   0.06677,  -0.06140,  -0.04004,   0.02016,   0.03182,  -0.12161,   0.04347,  -0.00897,  -0.02645,  -0.08082,  -0.05558,  -0.01674,   0.01434,   0.11144,   0.03376,  -0.07694,   0.06095,   0.02016,  -0.06529,   0.02987,   0.00463,  -0.05558,  -0.05364,   0.01434,   0.07648,  -0.00120,  -0.02450,   0.05706,   0.13475,  -0.04393,  -0.08082,  -0.06917,   0.02016,  -0.05169,  -0.08082,   0.05900,   0.03570,   0.02599,   0.13086,  -0.03421,   0.08619,   0.01628,   0.09785,  -0.04198,  -0.06723,  -0.00897,  -0.09830,   0.09785,  -0.10607,  -0.00120,  -0.07694,  -0.05946,   0.04735,   0.01822,  -0.01868,   0.03376,   0.00657,  -0.02256,   0.04735,  -0.20706,   0.02599,  -0.08277,   0.05706,  -0.04587,   0.09590,   0.09008,   0.01822,  -0.05946,  -0.02645,  -0.17404,   0.04347,   0.06289,  -0.04587,   0.04153,   0.02599,   0.08425,  -0.03227,  -0.06723,   0.04735,  -0.01091,   0.09396,   0.14834,   0.00657,   0.03958,   0.10173,  -0.10219,   0.06289,  -0.07111,   0.10756,  -0.06335,   0.01240,   0.08231,   0.09008,   0.02016,  -0.01091,   0.00851,  -0.00120,  -0.02256,  -0.07500,   0.11727,   0.03764,  -0.03227,   0.02211,   0.03182,   0.00074,   0.07260,   0.03958,   0.07260,  -0.01674,   0.06289,  -0.07888,   0.08814,   0.01045,   0.18136,  -0.01479,   0.05318,   0.04735,  -0.00897,   0.01822,  -0.03033,  -0.04198,  -0.02450,  -0.01674,   0.07843,   0.03764,  -0.07306,  -0.06140,   0.01434,  -0.03616,  -0.05946,  -0.06529,  -0.08082,   0.03764,  -0.05558,   0.07260,   0.09396,   0.01240,   0.04735,   0.01628,   0.03570,  -0.03227,  -0.00314,  -0.07306,  -0.02839,  -0.08859,  -0.03421,  -0.04198,   0.11533,  -0.04393,  -0.00120,   0.01434,  -0.01285,  -0.07694,  -0.01868,  -0.02256,  -0.02645,   0.05900,   0.04347,   0.00851,   0.03376,   0.04929,   0.04347,  -0.05946,   0.02016,   0.02599,   0.01240,  -0.02645,  -0.03033,   0.07648,  -0.01674,  -0.06529,   0.02016,   0.13086,  -0.05169,  -0.08082,   0.09785,  -0.02256,   0.02793,   0.04347,   0.00074,  -0.07888,  -0.05946,   0.02211,   0.03376,   0.03764,   0.00268,   0.00657,   0.07260,   0.02599,  -0.05946,  -0.00508,  -0.09248,  -0.04393,  -0.02645,   0.05512,   0.03958,   0.04541,  -0.00314,   0.02793,  -0.04393,  -0.08082,   0.03182,  -0.02062,  -0.01479,   0.01240,  -0.03616,  -0.07694,   0.01822,   0.04541,   0.01822,  -0.01868,  -0.07306,  -0.01285,   0.03376,  -0.01674,  -0.03227,   0.07843,  -0.04004,   0.03764,   0.00657,   0.10756,  -0.11772,  -0.01479,  -0.10996,  -0.09442,  -0.07306,   0.07260,   0.01240,   0.03764,  -0.08859,  -0.00897,  -0.02645,   0.02599,   0.00074,  -0.02450,   0.04929,   0.04929,   0.00463,  -0.06529,   0.03376,  -0.06140,   0.08814,   0.11727,  -0.03227,   0.10561,  -0.04587,  -0.04975,   0.07260,  -0.08471,   0.03182,  -0.15268,   0.10950,  -0.09830,   0.05900,   0.08619,  -0.04004,  -0.04975,   0.07648,   0.09202,  -0.04975,  -0.00508,  -0.03616,  -0.04393,  -0.06529,   0.02599,  -0.00703,  -0.09830,   0.09202,  -0.06529,   0.01045,  -0.02062,  -0.02839,   0.01822,  -0.09442,  -0.05169,   0.11144,   0.01240,  -0.06917,  -0.02062,  -0.08859,  -0.01285,  -0.13326,   0.09396,   0.03376,  -0.06529,   0.03570,  -0.04781,   0.04735,  -0.07306,  -0.02645,   0.04541,  -0.07500,   0.09396,   0.02793,   0.05318,   0.05706,   0.02016,  -0.01091,   0.02405,   0.00851,   0.14057,  -0.01868,  -0.04393,  -0.02450,   0.01628,  -0.06140,  -0.03033,  -0.15851,   0.06289,  -0.05364,   0.05512,   0.00463,  -0.04393,  -0.06917,   0.00463,   0.03958,   0.03376,  -0.03810,  -0.03616,  -0.00508,   0.01240,   0.00268,   0.06095,   0.05706,   0.03958,   0.01822,  -0.03616,   0.05124,  -0.03227,   0.03764,   0.09590,   0.05512,  -0.06723,   0.00268,   0.00851,   0.18330,   0.03376,   0.05900,   0.01628,  -0.09636,   0.05706,   0.00851,   0.00463,   0.00268,  -0.02256,   0.00074,   0.02987,   0.03376,   0.00074,   0.06095,  -0.01868,   0.00268,   0.00851,   0.04347,   0.06289,   0.09202,   0.00268,  -0.05946,   0.00074,   0.01822,   0.10950,  -0.05364,  -0.10025,  -0.00508,  -0.07694,  -0.03616,   0.06677,   0.01628,   0.05512,  -0.01285,  -0.00508,   0.07260,   0.01045,  -0.02062,  -0.11384,   0.00074,  -0.05169,  -0.02450,   0.01240,   0.02987,   0.02987,  -0.06140,   0.08231,   0.07454,  -0.04393,  -0.10801,   0.02793,  -0.06335,  -0.02645,   0.02016,  -0.04198,   0.05318,  -0.05558,   0.15028,  -0.10801,  -0.02256,   0.05512,   0.03958,  -0.00703,  -0.00314,   0.09785,  -0.02645,  -0.00703,  -0.00120,   0.03376,  -0.05364,  -0.04781,  -0.05558,  -0.02839,  -0.03810,   0.07843,  -0.12938,   0.07648,  -0.02450,  -0.01285,  -0.03227,   0.04153,  -0.08859,   0.02016,   0.02599,   0.01434,  -0.05169,  -0.04198,  -0.01479,   0.05124,   0.02793,  -0.08082,   0.05124,  -0.02256,   0.05318,   0.03570,   0.00463,   0.03958,   0.06289,   0.04347,   0.05318,   0.12504,   0.02793,   0.03764,  -0.01091,   0.01434,  -0.04004,   0.05900,   0.01434,   0.02793,   0.02987,  -0.01479,   0.01434,  -0.08859,   0.02987,  -0.07500,  -0.07694,   0.03764,  -0.00120,  -0.01674,   0.09979,  -0.03033,  -0.14686,   0.02599,  -0.08082,   0.00851,  -0.00703,  -0.05946,   0.00657,   0.06483
  -0.00314,   0.02599,   0.04153,  -0.00508,   0.02793,  -0.00120,   0.06289,   0.10173,  -0.04587,  -0.04587,   0.08231,   0.08425,  -0.14880,  -0.13714,   0.02599,   0.03764,   0.00657,   0.01628,  -0.00120,  -0.02256,  -0.03616,  -0.00897,   0.01045,   0.04735,   0.00657,   0.03764,   0.07066,   0.01434,   0.05318,   0.08231,  -0.01479,  -0.09442,   0.02987,  -0.04393,  -0.07111,  -0.05169,  -0.11384,  -0.06917,   0.02599,  -0.11772,  -0.01479,   0.02405,   0.00074,  -0.12743,   0.09590,  -0.01674,   0.05318,   0.01822,   0.00463,  -0.01674,   0.02599,  -0.03421,  -0.03616,  -0.10607,   0.01045,  -0.10996,   0.01434,   0.04929,   0.02211,   0.00463,   0.07260,  -0.06723,   0.02793,  -0.07306,   0.07648,   0.06483,  -0.07306,   0.09396,  -0.08277,   0.01628,   0.03764,  -0.04587,  -0.01479,   0.07260,   0.02211,  -0.00120,  -0.06335,   0.09979,  -0.02839,  -0.00897,   0.05900,  -0.08082,  -0.03616,  -0.01091,   0.00268,  -0.02839,  -0.06723,  -0.04198,   0.01434,   0.04541,   0.09590,  -0.04393,  -0.04587,  -0.01674,  -0.02256,  -0.10607,  -0.01674,   0.03958,   0.06872,   0.00657,  -0.01479,   0.01240,   0.00463,  -0.04198,   0.02016,  -0.02450,  -0.01091,  -0.01868,  -0.04198,  -0.04393,  -0.02839,   0.01628,  -0.01285,   0.01240,   0.04929,  -0.05169,  -0.07111,   0.02405,  -0.01479,  -0.00508,  -0.03033,   0.06483,  -0.01091,  -0.00703,   0.02405,  -0.10801,  -0.01674,  -0.06917,  -0.11190,  -0.08665,   0.01822,   0.04153,   0.07454,  -0.05752,   0.09202,   0.03958,  -0.10219,  -0.07306,   0.10367,  -0.02645,   0.02793,  -0.00508,   0.05706,   0.01045,  -0.13520,  -0.03810,   0.10950,  -0.04004,   0.02599,  -0.07111,   0.00268,   0.14446,  -0.05558,   0.04735,   0.00657,  -0.04587,  -0.00120,  -0.02062,   0.05318,  -0.01091,  -0.02839,  -0.04198,   0.00074,   0.02599,   0.04347,  -0.13132,  -0.09248,   0.02405,   0.07843,  -0.03227,   0.04347,   0.00851,  -0.09442,  -0.03421,  -0.06140,  -0.02256,   0.12115,  -0.08082,   0.05124,   0.03570,   0.00463,  -0.03810,  -0.00703,  -0.04781,  -0.08277,  -0.05558,  -0.08471,   0.07454,  -0.01091,   0.15028,  -0.10996,   0.08619,  -0.01479,  -0.03227,  -0.06140,   0.01045,  -0.04781,   0.00463,  -0.05946,   0.01434,   0.01822,   0.05318,   0.01240,   0.04347,  -0.00508,  -0.06335,   0.05124,   0.01628,  -0.03810,   0.05512,  -0.02645,  -0.17987,  -0.02645,   0.00463,   0.01628,   0.04929,   0.03764,   0.03570,   0.06095,  -0.00314,  -0.03421,  -0.08471,   0.01434,   0.03958,   0.00463,  -0.01285,  -0.03421,   0.01434,   0.04929,  -0.03421,   0.05124,  -0.00120,   0.06872,  -0.06723,   0.08425,   0.02599,   0.00074,  -0.02645,  -0.00120,  -0.02645,   0.00463,   0.02211,   0.03570,  -0.02256,  -0.05752,   0.03182,  -0.01868,  -0.00703,   0.04347,   0.05318,   0.04929,  -0.14880,   0.06677,   0.00463,   0.05318,  -0.06335,   0.14446,   0.04929,   0.06095,  -0.06140,  -0.04198,  -0.09636,  -0.04975,  -0.01868,  -0.10607,  -0.07888,  -0.03616,  -0.00120,   0.00074,   0.07843,  -0.04975,   0.01434,  -0.01091,   0.06095,  -0.04393,  -0.03616,   0.06483,  -0.11190,  -0.04004,   0.09396,  -0.05946,  -0.02256,   0.10367,   0.00657,   0.02016,  -0.10607,  -0.08665,  -0.00508,   0.04735,  -0.03616,   0.07843,  -0.05364,  -0.04587,  -0.09636,   0.02405,  -0.04004,  -0.00703,   0.00074,  -0.14103,  -0.00120,   0.01240,  -0.11384,  -0.03616,  -0.10413,   0.04541,  -0.01674,  -0.07111,  -0.08082,  -0.01868,  -0.08082,  -0.06917,   0.07843,   0.05706,   0.04929,  -0.03810,   0.01434,  -0.01479,   0.00268,   0.12309,  -0.01674,  -0.11384,   0.10367,   0.09785,   0.00851,   0.04541,  -0.07500,   0.04735,  -0.07111,   0.10173,   0.00074,   0.02211,   0.07454,  -0.04781,   0.01240,   0.00463,   0.01240,  -0.07694,   0.07066,   0.03376,   0.03182,  -0.09053,   0.03376,  -0.09053,  -0.07888,   0.07648,  -0.01868,  -0.05558,   0.04541,   0.06289,   0.09396,   0.12309,  -0.01479,   0.01434,  -0.01479,   0.01434,   0.02793,  -0.13132,  -0.06917,   0.03376,  -0.03421,   0.02211,  -0.02450,   0.08231,   0.05706,   0.09396,   0.01628,  -0.03227,  -0.06917,   0.01628,  -0.06335,  -0.06140,   0.02016,  -0.09830,   0.01434,  -0.00703,   0.03182,  -0.04004,   0.03570,  -0.06529,   0.01434,   0.09785,   0.04735,   0.04347,  -0.00897,  -0.02645,  -0.00703,  -0.02062,   0.02793,  -0.09830,   0.04735,   0.01822,   0.08037,  -0.06529,   0.07260,  -0.01479,  -0.00703,   0.04153,  -0.00508,  -0.08082,  -0.04781,   0.02211,  -0.03227,   0.04153,   0.04153,  -0.03227,   0.06095,   0.00657,  -0.05752,  -0.08471,   0.12115,  -0.00703,  -0.03421,   0.06289,  -0.05752,  -0.06335,  -0.02062,   0.00851,  -0.09248,  -0.09830,  -0.02062,   0.02599,   0.05512,  -0.01285,  -0.01285,  -0.00120,  -0.06335,   0.01045,   0.00657,  -0.01091,   0.02793,  -0.07306,  -0.08277,   0.04735,   0.02599,  -0.13326,  -0.11772,   0.05900,  -0.01674,   0.01045,  -0.02256,   0.06483,   0.04735,   0.02987,   0.14640,   0.10173,  -0.01479,  -0.02645,  -0.07306,   0.02016,   0.00074,  -0.09053,   0.04735,   0.02405,  -0.06529,   0.03376,   0.02405,  -0.03227,  -0.04004,  -0.06335,  -0.00314,  -0.01868,  -0.00314,  -0.08277,  -0.00508,   0.03570,  -0.02645,  -0.06140,  -0.02256,   0.08619,  -0.00120,   0.01045,   0.02405,   0.11144,  -0.04781,  -0.03227,   0.06677,  -0.06335,   0.09785,   0.02016,  -0.10219,  -0.01091,  -0.02062,  -0.06917,  -0.01285,  -0.00897,  -0.05946,  -0.05169,  -0.04587,  -0.02256,  -0.09442,   0.03958,  -0.01479,  -0.06335,  -0.02839,   0.08619,  -0.04587,  -0.00703,  -0.07694,  -0.04393,  -0.04393,  -0.01868,  -0.09053,   0.03570,   0.01822,  -0.05558,  -0.02450,   0.15805,  -0.03033,   0.06677,  -0.06529,  -0.00703,   0.02987,  -0.06917,  -0.04393,   0.04929,   0.09979,  -0.08082,   0.03958,  -0.07111,   0.09202,  -0.07111,   0.01240,   0.07454,   0.08814,   0.03376,   0.02211,   0.07843,   0.02599,  -0.13132,  -0.04781,  -0.06140,   0.00463,   0.05318,   0.08619,   0.12504,   0.06095,   0.03764,  -0.03033,  -0.02645,  -0.02839,  -0.02256,  -0.01479,  -0.01868,   0.12309,  -0.01091,  -0.05364,  -0.01868,  -0.05946,  -0.09248,   0.03570,   0.00463,   0.09396,   0.11338,   0.09590,  -0.05946,  -0.03033,   0.02599,  -0.07888,   0.07648,  -0.04781,   0.04347,  -0.03616,  -0.02645,  -0.05169,  -0.02839,   0.10367,  -0.01285,  -0.01868,  -0.04393,   0.03958,  -0.04781,  -0.05169,  -0.06529,   0.02987,  -0.02839,  -0.02839
  -0.03421,  -0.05169,  -0.05558,  -0.05169,  -0.00703,  -0.14491,  -0.06723,  -0.08665,  -0.06723,  -0.00120,  -0.03616,   0.04347,  -0.06529,   0.04153,  -0.01868,   0.08037,  -0.01674,   0.01434,  -0.00508,  -0.10607,   0.09008,  -0.10025,  -0.01091,  -0.00120,  -0.02062,   0.00463,   0.08231,  -0.03616,   0.04735,  -0.04781,   0.00463,  -0.05946,   0.02793,  -0.01479,   0.01240,  -0.04781,  -0.00897,   0.08037,   0.05512,   0.00657,  -0.07306,  -0.13909,   0.00074,   0.00268,   0.09396,   0.12504,   0.02599,  -0.01091,   0.04929,  -0.06140,  -0.02256,  -0.05558,   0.03376,  -0.05752,  -0.03810,   0.11533,   0.04347,   0.07648,  -0.04587,  -0.02645,   0.02405,   0.01045,  -0.10996,   0.00657,   0.01045,   0.01240,   0.01434,  -0.12355,   0.06483,  -0.01674,   0.08814,  -0.04393,  -0.02062,  -0.00508,   0.05512,  -0.02839,   0.15222,  -0.06723,  -0.09636,   0.03958,   0.03958,  -0.02450,  -0.01868,  -0.03421,   0.01434,   0.14640,  -0.00703,  -0.00120,   0.09785,  -0.05752,   0.00851,   0.05512,   0.07843,  -0.00897,  -0.07306,  -0.07306,   0.02211,   0.09979,  -0.12938,   0.01434,   0.01434,   0.18718,   0.03376,   0.08037,   0.01434,  -0.02645,   0.04541,   0.06095,  -0.11772,  -0.02645,   0.03182,  -0.06723,   0.09979,   0.10756,  -0.00897,  -0.01674,   0.05512,   0.06289,  -0.01091,  -0.04198,   0.03958,  -0.02645,  -0.01868,  -0.03033,  -0.00897,   0.01628,   0.00074,  -0.01091,  -0.06140,   0.02793,   0.01628,  -0.03033,  -0.00314,  -0.02450,  -0.08859,  -0.09053,   0.04347,  -0.02645,  -0.03421,   0.06289,   0.06677,  -0.05946,   0.02211,  -0.10801,   0.04541,   0.13863,   0.04929,   0.02599,   0.02211,  -0.11384,   0.08814,   0.01822,  -0.05752,  -0.07888,   0.02793,   0.09979,   0.09008,   0.11727,  -0.00897,  -0.06140,   0.03376,  -0.02450,   0.09202,   0.00657,   0.10561,   0.04929,   0.01628,   0.04929,   0.05512,  -0.04587,   0.05318,  -0.00508,  -0.02645,  -0.05558,  -0.05364,   0.01628,   0.00657,  -0.02062,   0.03182,   0.01045,   0.02987,   0.00268,  -0.02450,  -0.02839,   0.02016,  -0.00508,  -0.01674,  -0.01285,  -0.00703,   0.00463,  -0.00897,   0.02405,  -0.03227,   0.09785,  -0.04781,  -0.01674,  -0.08665,   0.02599,   0.04347,   0.09979,   0.02211,   0.01045,   0.03376,  -0.00508,  -0.00314,  -0.19152,   0.07454,  -0.04587,   0.00463,  -0.15074,   0.04541,   0.10950,  -0.07694,  -0.04975,  -0.05364,   0.09008,  -0.00120,  -0.00120,   0.04153,  -0.01674,  -0.00120,   0.01434,  -0.05169,  -0.07694,  -0.05946,   0.10367,   0.05706,   0.12309,   0.00851,  -0.02645,   0.03570,   0.06677,   0.05318,  -0.06140,  -0.06723,  -0.00897,  -0.02645,  -0.04587,   0.03182,  -0.02062,  -0.06335,  -0.06723,   0.00268,  -0.00897,  -0.05558,  -0.06140,  -0.02645,  -0.02450,  -0.00508,   0.00463,   0.06095,   0.11921,  -0.01479,   0.05512,  -0.07888,  -0.01674,   0.04735,  -0.12161,   0.07648,   0.06677,  -0.15657,   0.00851,   0.09008,   0.07648,   0.02405,  -0.09636,  -0.05752,  -0.01285,   0.04347,   0.04929,   0.01045,  -0.08665,  -0.00314,  -0.06529,   0.01434,   0.00657,  -0.00703,  -0.05558,   0.00851,  -0.03033,   0.03570,   0.08037,  -0.05946,  -0.01091,  -0.09248,  -0.01479,   0.07454,  -0.02256,  -0.00314,   0.02793,   0.05900,  -0.03810,   0.03958,   0.03570,  -0.10025,   0.02793,  -0.01674,   0.00657,   0.00463,   0.06483,  -0.02450,  -0.10413,   0.01822,  -0.03421,   0.07066,   0.03570,   0.00657,   0.02016,   0.03182,  -0.07500,  -0.03421,  -0.01091,  -0.04393,  -0.04975,   0.01628,  -0.03227,   0.07843,   0.07454,   0.01240,  -0.01285,  -0.01479,  -0.05169,   0.04153,  -0.04393,   0.02793,   0.00074,   0.07454,   0.00074,  -0.02839,  -0.00703,   0.00268,   0.02016,   0.01822,  -0.00314,   0.01240,  -0.08277,  -0.10025,   0.09008,  -0.06335,  -0.07694,   0.03182,  -0.04004,  -0.02645,  -0.14880,   0.00074,   0.00074,  -0.01091,  -0.03227,   0.09590,  -0.01091,  -0.04004,   0.00074,   0.01822,  -0.03810,   0.09008,   0.06872,  -0.07694,   0.03182,  -0.02839,   0.02599,  -0.02062,  -0.04781,  -0.00703,   0.05900,  -0.08277,   0.04153,  -0.02450,   0.00074,   0.11533,  -0.02062,  -0.04587,  -0.13132,  -0.03033,   0.12309,  -0.05752,  -0.10219,   0.00074,   0.13086,  -0.01868,  -0.09636,   0.00268,  -0.01674,   0.03958,   0.04347,  -0.13132,   0.10756,   0.10561,   0.00268,   0.12115,  -0.04393,   0.00074,   0.03958,  -0.10996,   0.02211,   0.07260,  -0.04393,   0.11338,   0.02793,  -0.02062,  -0.02256,   0.06677,   0.00074,  -0.06917,   0.03376,  -0.03227,  -0.07694,  -0.07306,   0.03958,   0.05124,  -0.03810,  -0.04393,  -0.04587,   0.04541,  -0.08277,  -0.05169,  -0.05752,   0.10173,  -0.01285,   0.03182,  -0.07111,   0.03764,   0.01628,   0.00657,   0.03182,  -0.04198,  -0.00508,  -0.03810,  -0.02450,  -0.00703,  -0.05752,   0.04347,  -0.12161,  -0.02839,  -0.01285,  -0.00508,   0.00074,   0.02793,   0.06483,  -0.03033,  -0.04004,   0.03958,  -0.10801,  -0.04587,  -0.07306,  -0.01674,  -0.04781,  -0.01479,   0.11338,  -0.08665,  -0.01674,   0.05900,  -0.04781,   0.03764,   0.03764,  -0.05169,  -0.04587,   0.02987,  -0.02256,  -0.17987,  -0.04198,  -0.04004,   0.03570,  -0.01285,   0.05512,  -0.08859,   0.05124,  -0.04004,  -0.01868,  -0.01674,   0.01434,  -0.03810,   0.00074,   0.06483,   0.03958,   0.06872,  -0.09442,  -0.04975,  -0.04975,   0.00851,  -0.07306,   0.03958,   0.06872,  -0.03227,   0.01045,   0.09396,  -0.01868,  -0.08665,   0.05318,  -0.00508,   0.03958,  -0.06917,  -0.00508,  -0.04587,  -0.09830,  -0.08471,  -0.02839,   0.01045,   0.03182,  -0.11772,  -0.03421,  -0.01868,   0.03182,  -0.04975,   0.06289,   0.07843,   0.01240,   0.02016,   0.05706,   0.03182,   0.00268,  -0.02645,   0.03570,  -0.05364,  -0.06723,  -0.06723,  -0.01091,   0.00463,  -0.06140,  -0.02256,  -0.04198,   0.05900,  -0.01285,  -0.09442,   0.14057,   0.08814,   0.02987,  -0.13909,   0.03182,  -0.02645,  -0.02839,  -0.02062,   0.01628,  -0.04198,   0.06872,   0.02405,  -0.06723,   0.13280,  -0.04393,  -0.05946,  -0.02256,   0.05706,   0.02405,   0.03182,  -0.01868,   0.06289,  -0.05946,   0.04153,   0.03958,   0.04929,  -0.02256,  -0.11384,   0.04153,   0.04735,   0.04153,   0.02211,  -0.09442,   0.07648,   0.00268,  -0.07306,  -0.03033,   0.10173,   0.03376,   0.04735,  -0.10996,   0.01822,  -0.06140,  -0.00314,   0.06872,  -0.01479,   0.04735,  -0.11578,   0.05512,   0.07454,  -0.01868,  -0.09053,  -0.02450
   0.15999,   0.03182,   0.00268,   0.04541,  -0.01285,   0.01822,  -0.10219,   0.06677,   0.04347,   0.04929,  -0.03033,  -0.05558,   0.05512,   0.02987,  -0.10801,   0.02405,   0.04153,  -0.04975,  -0.00120,  -0.05946,  -0.06723,   0.09785,  -0.00897,   0.00657,   0.04541,  -0.11384,   0.02211,  -0.06529,   0.11727,   0.06677,   0.00268,   0.04153,   0.00657,   0.03958,  -0.01674,  -0.00314,   0.03764,   0.06483,  -0.01285,  -0.01285,   0.04541,  -0.00897,   0.04153,  -0.04781,  -0.01285,   0.02211,   0.01822,  -0.08277,  -0.00120,   0.00074,   0.05318,  -0.03033,   0.08814,  -0.12549,  -0.07306,   0.05512,   0.03764,  -0.03421,   0.08231,  -0.06723,  -0.07500,  -0.09830,   0.08619,  -0.03616,  -0.00703,   0.02793,  -0.07306,  -0.11967,   0.00074,  -0.12161,   0.06677,  -0.00120,  -0.05946,   0.08814,   0.09202,  -0.06140,   0.01045,   0.06872,  -0.02450,   0.03958,  -0.01285,  -0.02256,  -0.06140,  -0.02062,   0.03570,   0.04153,  -0.06335,  -0.06140,  -0.10219,   0.07843,   0.05124,  -0.04975,  -0.02062,   0.11921,  -0.04975,  -0.12743,  -0.06140,  -0.10413,  -0.07111,   0.01045,  -0.05364,  -0.05946,  -0.05558,  -0.01674,  -0.08471,  -0.00508,   0.01240,  -0.01091,  -0.01674,  -0.03033,  -0.02450,   0.07843,  -0.09636,  -0.05946,  -0.00897,   0.12115,  -0.06529,   0.03764,  -0.03421,   0.01045,  -0.01091,   0.01434,   0.03764,   0.07260,   0.10561,   0.03958,  -0.03033,  -0.05946,   0.00074,  -0.00897,  -0.03227,   0.07454,   0.01628,  -0.02645,   0.09008,  -0.14491,   0.00657,   0.06677,   0.08231,  -0.08082,  -0.09442,  -0.16239,  -0.00508,   0.03182,   0.01240,   0.05706,   0.01628,  -0.08859,  -0.06140,  -0.06529,  -0.06917,   0.12309,  -0.06917,  -0.04004,   0.03958,  -0.04004,   0.01434,   0.01822,   0.07843,   0.06677,  -0.02450,   0.16970,   0.07843,   0.01822,  -0.02256,  -0.04004,   0.08037,   0.10561,   0.01822,   0.00463,   0.09979,   0.06289,  -0.11190,   0.01045,   0.05124,  -0.11190,  -0.00897,   0.07454,   0.01628,  -0.01091,  -0.03033,   0.06872,   0.07454,  -0.02256,   0.01628,  -0.08277,   0.05318,   0.05124,   0.05124,  -0.05946,  -0.06917,  -0.01674,  -0.00314,  -0.07111,  -0.04004,  -0.01868,   0.01822,  -0.02256,   0.02405,   0.02016,   0.03570,  -0.02062,   0.01434,  -0.04393,   0.00851,   0.10950,   0.05124,  -0.00508,  -0.06529,   0.05318,   0.05318,  -0.00120,   0.04153,  -0.07888,  -0.02839,   0.03376,   0.13863,  -0.05558,   0.03958,  -0.07111,  -0.05558,   0.07066,  -0.09830,   0.07648,  -0.00120,   0.03376,   0.07260,  -0.00703,   0.06095,   0.06483,   0.08425,  -0.00508,  -0.00703,  -0.03810,  -0.01674,   0.08425,  -0.00120,   0.06289,  -0.00120,  -0.01091,  -0.08277,  -0.08859,   0.05706,  -0.10025,  -0.01674,  -0.01674,   0.02793,  -0.10219,  -0.01674,   0.01822,   0.08037,  -0.01285,  -0.05364,  -0.01285,   0.07843,   0.09590,   0.00074,  -0.08277,   0.05124,  -0.07500,   0.01045,   0.01822,   0.01240,  -0.07500,   0.03570,  -0.05752,  -0.07694,  -0.04198,   0.03376,  -0.06140,  -0.03227,   0.11921,  -0.06917,  -0.03421,   0.00074,  -0.07306,   0.05318,  -0.01285,  -0.05364,  -0.08277,   0.06483,   0.17553,  -0.17404,  -0.03616,  -0.01479,   0.09979,   0.01240,  -0.04587,  -0.02839,   0.06677,  -0.14103,  -0.06917,  -0.16433,   0.03958,  -0.01674,   0.03182,   0.04541,   0.02211,   0.07454,   0.08619,  -0.04781,   0.03958,  -0.02062,   0.09202,  -0.01479,  -0.01674,   0.08425,   0.03958,   0.08619,   0.03958,  -0.09248,   0.07066,  -0.04004,  -0.06335,  -0.10801,   0.03570,   0.09008,  -0.07306,  -0.05558,  -0.06529,   0.07648,  -0.06335,   0.03764,  -0.08859,   0.04541,   0.04735,  -0.02839,  -0.01674,   0.07843,   0.02987,  -0.01674,   0.08619,  -0.01674,  -0.03421,   0.04153,   0.02211,  -0.06335,   0.03958,   0.03570,  -0.12355,  -0.00314,  -0.02062,  -0.00120,  -0.15657,   0.04929,   0.08425,   0.15028,  -0.01674,  -0.06723,  -0.01868,  -0.03227,  -0.00703,  -0.03421,  -0.00897,  -0.00314,  -0.01285,   0.04735,  -0.02645,   0.02016,   0.09785,  -0.02062,  -0.03033,   0.02211,  -0.07111,   0.00851,  -0.08082,   0.03182,  -0.06917,   0.08425,   0.02793,   0.01822,   0.07260,   0.03764,   0.00463,   0.03182,   0.00074,   0.02405,  -0.09053,  -0.17016,   0.00851,  -0.03227,  -0.04781,   0.04929,  -0.01091,   0.00074,  -0.07500,  -0.06529,   0.01045,   0.00074,  -0.02062,   0.00268,   0.03764,  -0.05946,  -0.10607,   0.04153,   0.00657,  -0.00703,   0.04929,  -0.04975,  -0.05169,   0.12504,   0.03376,  -0.04198,  -0.00703,  -0.00703,  -0.07888,  -0.01868,  -0.02062,  -0.09636,  -0.12355,  -0.01285,  -0.06529,  -0.00120,   0.12115,  -0.08277,   0.00657,  -0.09830,  -0.01285,  -0.07694,  -0.00897,   0.14834,   0.05706,   0.00657,   0.07260,   0.02016,   0.05318,   0.07648,   0.04735,   0.01822,   0.04735,  -0.05169,   0.00657,   0.05318,   0.01434,   0.00463,   0.06872,   0.02016,  -0.09830,  -0.02645,   0.02211,   0.00268,   0.03764,  -0.09053,   0.02016,   0.05318,  -0.01091,  -0.07888,  -0.05946,  -0.00508,  -0.10801,   0.02211,   0.04153,   0.05512,  -0.01674,   0.02016,   0.00463,  -0.16822,  -0.08082,  -0.04587,  -0.09830,  -0.01091,  -0.00314,  -0.01285,  -0.09053,   0.00463,   0.08619,   0.07260,   0.03182,   0.03958,  -0.10801,   0.02987,   0.14640,  -0.03810,   0.12698,  -0.02450,   0.07454,   0.10173,  -0.02450,  -0.01091,   0.00657,  -0.03421,   0.02016,  -0.04975,   0.02599,  -0.02256,  -0.04587,   0.01434,   0.16388,   0.09590,  -0.08859,  -0.03227,  -0.01674,   0.08037,  -0.03616,   0.00268,   0.04153,   0.06872,   0.02793,  -0.04781,  -0.07111,  -0.01091,  -0.04198,  -0.01285,  -0.05752,  -0.04781,   0.06289,  -0.01479,  -0.00314,   0.03182,   0.09590,   0.00268,   0.09202,  -0.02450,   0.03764,  -0.03033,   0.01822,  -0.04004,  -0.00897,  -0.09248,  -0.02450,   0.07066,  -0.04198,  -0.06529,   0.01240,   0.00074,  -0.05946,  -0.08471,  -0.11190,   0.12309,   0.03376,   0.09008,  -0.06917,   0.02987,   0.04735,  -0.17210,  -0.04587,   0.05124,   0.00463,  -0.09248,  -0.04198,   0.02211,   0.14251,   0.00268,   0.10756,  -0.02256,  -0.02450,   0.06289,   0.10173,   0.03958,   0.05900,  -0.04198,   0.01240,   0.04347,  -0.01479,   0.06483,  -0.02839,   0.04929,   0.11533,  -0.09053,   0.07843,  -0.11578,   0.04541,   0.02405,   0.06095,   0.01628,  -0.02645,   0.03958,   0.02793,   0.03376,  -0.02645,   0.09008,  -0.14491,  -0.06335,  -0.02645,  -0.04781,   0.00463
   0.01434,   0.17553,  -0.01868,  -0.05364,   0.04347,  -0.08859,  -0.02256,   0.01045,  -0.02062,   0.02793,   0.00657,   0.08425,  -0.09830,   0.09979,  -0.09442,  -0.06723,   0.05900,   0.03182,  -0.14103,  -0.01091,   0.04735,  -0.05752,   0.09785,  -0.01479,   0.18330,  -0.06140,   0.00074,  -0.09830,   0.00268,   0.03182,  -0.08471,  -0.04004,   0.05318,  -0.03033,  -0.02839,   0.03182,   0.01434,  -0.01674,   0.01045,  -0.02645,   0.08425,   0.14251,  -0.02839,  -0.06723,  -0.04393,   0.07648,   0.02987,  -0.00897,   0.04929,  -0.01479,   0.07648,   0.00657,   0.00268,  -0.07888,  -0.00703,   0.01822,  -0.02839,   0.00463,   0.05706,   0.03570,  -0.05558,  -0.00508,   0.01628,  -0.04004,   0.06677,   0.04347,   0.01434,   0.07843,   0.03570,  -0.06140,   0.06677,   0.09396,  -0.04781,   0.02016,   0.07066,  -0.07888,   0.02793,  -0.01285,  -0.01868,   0.11921,  -0.01285,   0.06872,  -0.05364,   0.02599,  -0.01091,  -0.08859,  -0.03616,   0.13863,   0.00268,   0.05124,  -0.04781,  -0.03033,  -0.11384,   0.05706,  -0.04004,  -0.13132,  -0.01091,   0.07454,  -0.01091,  -0.05752,   0.02599,  -0.04975,   0.02405,   0.00268,   0.11727,  -0.10996,   0.05318,  -0.01091,  -0.06723,  -0.03421,  -0.01674,  -0.07888,   0.10950,  -0.06335,  -0.02645,   0.07648,   0.07454,   0.05900,  -0.04004,  -0.14103,   0.00268,   0.01240,  -0.10996,  -0.00703,   0.10950,  -0.00897,   0.01822,   0.00657,   0.03182,  -0.03033,   0.05124,   0.00657,  -0.01674,  -0.04587,   0.01240,   0.07066,   0.01434,  -0.06140,   0.05706,   0.01822,  -0.04781,   0.05706,  -0.02645,  -0.07111,   0.03764,  -0.00897,   0.01628,  -0.09053,   0.07843,  -0.12355,  -0.02839,   0.07260,  -0.14880,   0.01045,  -0.08082,  -0.02645,  -0.02256,   0.03764,  -0.02450,   0.02405,  -0.02256,  -0.01674,   0.09979,  -0.01091,  -0.02839,   0.06095,  -0.07500,   0.08814,  -0.10996,  -0.09636,  -0.01674,  -0.04198,   0.03764,  -0.01091,   0.06872,   0.07843,   0.17359,  -0.03033,   0.10756,   0.04153,  -0.15074,  -0.10219,  -0.03810,  -0.01479,  -0.06723,   0.08231,  -0.10025,  -0.00703,  -0.00703,  -0.01479,   0.09396,   0.11533,   0.05124,   0.02599,   0.11727,  -0.07500,  -0.05364,   0.06095,   0.05512,   0.03570,   0.04153,   0.08037,   0.02793,  -0.12549,   0.09396,   0.01434,  -0.03421,   0.03958,  -0.04004,   0.03958,   0.03958,   0.02793,  -0.09636,   0.07066,  -0.02645,   0.07066,  -0.06529,   0.06872,  -0.09830,   0.05900,  -0.04781,   0.05900,   0.04153,  -0.00314,   0.00074,   0.09396,  -0.11384,   0.00074,  -0.04781,  -0.02256,   0.03958,   0.03570,  -0.04587,  -0.06335,   0.04347,  -0.10025,  -0.07500,  -0.00897,  -0.02450,  -0.07888,  -0.05364,  -0.10607,   0.01045,   0.01045,   0.04929,  -0.12549,  -0.00703,   0.03376,   0.07843,   0.07066,   0.03376,  -0.00897,  -0.06529,   0.07648,  -0.08082,  -0.07694,  -0.00897,  -0.09442,  -0.11384,  -0.03421,   0.01240,  -0.01479,  -0.07888,   0.01240,   0.04735,   0.04153,   0.08619,   0.03958,   0.04153,   0.05512,   0.05512,   0.05512,  -0.05364,  -0.02645,  -0.09053,   0.04735,   0.02405,   0.04153,  -0.02645,  -0.07500,   0.02793,  -0.16045,  -0.06140,  -0.03421,  -0.01091,   0.01822,   0.02211,  -0.03421,  -0.03033,  -0.03227,  -0.04975,  -0.01868,   0.01045,   0.11727,  -0.01091,   0.06095,  -0.06529,  -0.11772,   0.00463,  -0.02645,   0.00463,  -0.00897,   0.03570,   0.00657,  -0.07111,   0.03376,   0.00463,  -0.09636,   0.02211,  -0.00897,   0.03958,  -0.03421,  -0.06140,  -0.03227,   0.08619,   0.00074,  -0.02645,   0.05124,  -0.03810,  -0.02256,   0.06095,   0.03570,   0.00657,   0.02987,   0.05512,   0.01045,  -0.00314,  -0.04781,   0.03764,   0.01045,  -0.00508,   0.03764,  -0.05169,   0.02405,   0.00463,   0.03182,   0.00074,  -0.02256,  -0.01674,  -0.03227,   0.07066,  -0.08277,   0.02793,  -0.04393,   0.04541,   0.09008,   0.09396,   0.01434,   0.10950,   0.06289,  -0.00897,  -0.05364,   0.00657,  -0.18764,  -0.04004,  -0.11578,   0.00074,   0.02793,   0.08231,   0.07260,  -0.12355,  -0.04198,   0.01240,   0.03764,  -0.08277,  -0.04781,  -0.02839,   0.01822,  -0.03227,   0.02793,   0.12115,  -0.01285,   0.06483,  -0.05752,   0.02793,   0.14251,  -0.03227,  -0.05946,   0.02016,   0.03764,  -0.02645,   0.03958,   0.02405,  -0.12355,   0.08425,   0.03182,   0.10367,   0.06872,   0.08231,   0.16193,   0.24544,   0.05318,  -0.00314,   0.12698,   0.00074,   0.03376,  -0.06529,  -0.02450,  -0.02062,  -0.01091,   0.08814,   0.08619,  -0.06335,  -0.04198,   0.00463,   0.07066,  -0.07694,   0.04347,   0.06289,  -0.17016,   0.07843,  -0.12743,  -0.01868,   0.00074,  -0.07888,  -0.03810,   0.03182,   0.09785,  -0.01674,   0.02793,   0.01822,  -0.07888,   0.00463,  -0.02839,  -0.01285,   0.01434,   0.08231,   0.03182,  -0.09053,  -0.04004,   0.06483,  -0.03810,   0.03570,   0.14057,   0.03182,  -0.00120,   0.07843,   0.02793,  -0.08471,  -0.00897,  -0.11384,   0.01822,   0.06483,   0.02793,   0.03570,   0.00463,  -0.02256,  -0.04004,   0.02793,   0.00074,   0.01822,   0.07648,   0.00851,  -0.01868,   0.02405,  -0.02645,  -0.01091,   0.00074,  -0.03033,   0.04541,  -0.12549,  -0.10607,   0.00851,   0.01434,   0.01240,   0.07648,   0.01045,  -0.05946,  -0.05364,   0.01240,   0.01240,  -0.06529,   0.10950,   0.02016,  -0.03616,  -0.07306,  -0.01674,   0.01240,   0.01822,   0.07843,  -0.03421,  -0.06917,  -0.10996,  -0.02450,  -0.02256,  -0.07500,   0.00851,  -0.01479,  -0.07888,   0.08814,  -0.06917,  -0.07306,  -0.10025,  -0.06917,  -0.01868,  -0.08277,  -0.00314,  -0.06140,   0.14640,  -0.06917,   0.11921,   0.01628,   0.09785,   0.02987,   0.14834,   0.00463,   0.07648,   0.04541,  -0.07694,  -0.06917,   0.04541,   0.04735,   0.08231,   0.04735,  -0.04975,   0.00463,  -0.00897,   0.05900,   0.06095,   0.03182,  -0.04975,   0.02211,   0.01240,  -0.02450,  -0.05752,   0.03958,   0.01628,   0.07648,  -0.06335,   0.04541,   0.01240,   0.04735,   0.07843,  -0.12938,   0.05706,   0.11338,  -0.03227,   0.02405,  -0.01674,  -0.07111,  -0.00314,   0.03182,  -0.08859,   0.06872,  -0.04587,  -0.12743,  -0.03227,   0.00268,   0.03764,  -0.03227,  -0.10219,   0.08619,   0.05124,   0.01045,  -0.03810,   0.01434,  -0.10413,  -0.01091,  -0.02450,  -0.04587,   0.03570,   0.03958,   0.06872,   0.10561,  -0.01674,  -0.06529,   0.04153,  -0.09442,   0.01240,   0.08425,   0.11338,  -0.01091,   0.00463,  -0.10025,   0.07843,  -0.11190
  -0.05169,   0.00851,   0.06483,   0.09008,   0.00851,  -0.01479,   0.00268,  -0.01285,  -0.05946,  -0.04393,   0.09785,  -0.00314,  -0.12355,   0.00657,  -0.02450,  -0.01479,  -0.02839,  -0.00897,   0.10950,   0.04347,  -0.02256,   0.02793,   0.03958,  -0.06723,   0.02405,   0.01045,  -0.04781,  -0.00314,  -0.10607,   0.06677,  -0.00314,  -0.01091,   0.02211,   0.03764,   0.02016,   0.02016,   0.03764,  -0.08277,  -0.08471,   0.01434,   0.04541,   0.09202,   0.01240,   0.06872,  -0.00897,  -0.15074,  -0.01285,   0.00463,  -0.11967,   0.02793,   0.07648,   0.05706,   0.05318,  -0.09053,  -0.00897,  -0.11578,   0.02599,  -0.02256,  -0.04004,   0.06872,   0.10561,   0.00851,  -0.08665,   0.09008,  -0.02062,  -0.05169,   0.01045,  -0.01285,  -0.03227,  -0.06140,   0.02599,  -0.09053,   0.02793,  -0.17599,  -0.03227,  -0.01674,   0.10756,  -0.00508,   0.06289,   0.01045,  -0.06723,  -0.00897,  -0.06917,  -0.09830,  -0.00703,  -0.04781,  -0.00314,  -0.02645,   0.02599,  -0.04781,  -0.06723,   0.04347,  -0.00508,  -0.05558,  -0.00120,  -0.02450,   0.12115,  -0.00508,   0.02016,   0.00268,  -0.01285,   0.07454,   0.02987,  -0.00703,   0.02793,   0.03376,   0.01045,  -0.03616,  -0.06140,  -0.03616,  -0.00314,   0.06483,   0.06677,   0.00463,  -0.12938,  -0.01674,   0.02987,  -0.04004,  -0.04587,  -0.03616,   0.02793,   0.00463,   0.01434,  -0.07888,   0.07843,  -0.05946,  -0.09248,  -0.15462,  -0.04587,   0.04929,  -0.11384,   0.02599,  -0.02256,  -0.00508,   0.11144,  -0.04975,  -0.04004,   0.04929,   0.06095,   0.00851,  -0.07500,   0.10173,   0.03376,   0.05512,  -0.07306,  -0.01674,  -0.00120,  -0.01479,   0.04153,  -0.07500,   0.02599,   0.00851,  -0.07694,   0.05124,  -0.04004,  -0.01285,  -0.04975,  -0.19541,   0.01822,   0.13863,   0.10950,   0.02599,   0.10173,   0.02211,   0.07648,   0.08037,   0.03570,  -0.10025,   0.00463,   0.02405,  -0.03227,   0.03182,   0.02405,   0.00463,  -0.01091,  -0.02062,  -0.01091,  -0.13132,   0.04735,   0.04541,   0.04735,   0.03958,  -0.00703,   0.04735,   0.01434,  -0.01285,  -0.06917,  -0.00314,  -0.02256,  -0.03033,  -0.04004,   0.07066,   0.01434,  -0.00508,  -0.04198,   0.02599,   0.08814,   0.00657,   0.04153,  -0.01479,   0.02599,   0.06872,  -0.03033,  -0.01479,   0.02987,   0.02599,  -0.01479,  -0.06917,  -0.06335,   0.02016,  -0.00703,  -0.12549,  -0.01674,   0.03570,   0.08037,  -0.02062,  -0.04198,   0.03376,  -0.04781,   0.06677,  -0.02645,  -0.05558,  -0.02062,  -0.00508,   0.04541,  -0.02256,  -0.01091,  -0.01285,   0.10561,  -0.01091,  -0.05752,   0.09590,  -0.08082,  -0.00314,  -0.07888,  -0.00508,  -0.04781,   0.05512,  -0.01674,  -0.11190,   0.02599,  -0.11384,  -0.04198,  -0.04975,  -0.01674,  -0.07306,  -0.08859,  -0.01479,   0.09590,  -0.00120,  -0.02256,   0.02599,  -0.01479,  -0.03810,   0.00463,  -0.05558,   0.06483,  -0.13714,   0.04541,   0.03570,   0.00463,   0.07648,  -0.09636,   0.00463,   0.03376,  -0.04198,   0.04347,  -0.01091,  -0.03810,  -0.02450,  -0.07111,   0.00657,  -0.02839,  -0.04975,  -0.05752,   0.02599,   0.07843,  -0.01091,  -0.01868,   0.03570,  -0.05558,   0.01240,  -0.06723,  -0.07306,  -0.10996,   0.01434,  -0.06529,   0.03376,  -0.06529,   0.01628,  -0.01479,  -0.06723,   0.15417,  -0.13132,   0.02016,   0.13475,   0.07066,   0.02599,  -0.00508,   0.01822,   0.00268,   0.02793,   0.03764,   0.02211,  -0.08859,  -0.04587,   0.02599,   0.03764,  -0.00314,  -0.01091,   0.03570,   0.06095,  -0.02450,   0.16193,  -0.04781,   0.08425,  -0.06335,   0.03182,  -0.06335,  -0.00703,   0.06483,   0.02016,   0.04541,  -0.03033,   0.00657,  -0.04587,  -0.06529,   0.01240,   0.13475,  -0.05364,   0.02599,   0.04929,  -0.13132,   0.03376,  -0.01091,  -0.04198,  -0.03227,  -0.08471,   0.05124,   0.09202,  -0.00508,  -0.07306,  -0.05169,   0.01240,  -0.02839,  -0.05558,   0.00657,   0.02016,   0.09979,   0.12504,   0.04153,  -0.03810,  -0.01091,  -0.05364,   0.01628,   0.01434,  -0.05752,   0.02016,   0.00851,  -0.02839,  -0.00508,  -0.08082,  -0.01091,   0.06872,   0.00463,   0.04153,   0.01240,   0.09202,   0.15417,   0.13086,  -0.02645,   0.05318,   0.05124,   0.01822,   0.10367,  -0.03616,   0.15028,   0.18912,   0.01822,  -0.08665,   0.06872,   0.03182,   0.02405,   0.06872,  -0.02062,   0.05318,   0.00463,  -0.14491,   0.01240,  -0.02256,   0.02405,   0.01045,   0.02599,   0.05124,   0.10950,  -0.00120,  -0.01285,  -0.02645,  -0.01091,  -0.04198,   0.04153,  -0.00120,   0.01822,  -0.01674,  -0.02450,   0.06872,  -0.07111,   0.01822,  -0.03421,  -0.10025,  -0.03421,  -0.02450,   0.03764,  -0.03810,  -0.11384,  -0.01285,   0.08231,  -0.03810,   0.00657,   0.07260,   0.08231,  -0.07306,   0.07260,  -0.05558,   0.00463,   0.01240,   0.02987,   0.01045,   0.05706,  -0.03033,   0.11338,  -0.06723,  -0.05364,  -0.03421,  -0.13132,  -0.04004,   0.00463,   0.04929,   0.00463,  -0.00508,  -0.11384,   0.04541,  -0.01674,   0.03958,  -0.04198,  -0.05752,  -0.05946,   0.04541,  -0.12743,  -0.00703,   0.05900,  -0.01674,  -0.01091,  -0.10607,  -0.00120,   0.10950,  -0.03616,  -0.02450,  -0.04198,  -0.02062,   0.02599,   0.02793,  -0.08665,   0.03376,  -0.00703,   0.03764,  -0.02256,  -0.08665,   0.01628,   0.04735,   0.03570,  -0.04004,   0.05706,  -0.03421,   0.05900,   0.03958,  -0.12549,  -0.09636,   0.03376,  -0.05364,  -0.00120,   0.02599,   0.00074,   0.10950,  -0.02062,   0.08619,   0.07066,  -0.05946,  -0.04004,   0.09008,  -0.07694,   0.04929,  -0.03033,  -0.07888,  -0.00314,  -0.05946,  -0.16045,  -0.07888,  -0.01479,  -0.02645,  -0.15074,  -0.05946,  -0.10413,  -0.02450,   0.03182,  -0.01674,  -0.04587,  -0.02839,  -0.04781,  -0.06723,  -0.00508,  -0.09442,  -0.04587,   0.01240,   0.07454,   0.00463,   0.05124,  -0.02645,   0.10561,   0.04929,   0.03182,  -0.04004,  -0.05752,  -0.04004,  -0.05364,  -0.12549,  -0.01868,  -0.01091,   0.02016,   0.03182,  -0.07500,  -0.06529,  -0.15851,   0.05124,   0.06483,   0.00463,  -0.04393,   0.01628,   0.02211,  -0.01868,  -0.04198,  -0.00703,  -0.01868,  -0.02839,   0.07648,   0.03958,  -0.00120,  -0.05558,  -0.05752,   0.07454,  -0.00314,  -0.04198,   0.02793,  -0.00314,  -0.05752,   0.02599,  -0.01674,   0.09008,  -0.00508,  -0.05752,  -0.00314,   0.03764,   0.02016,  -0.07888,  -0.01868,   0.00851,   0.09590,   0.15222,  -0.09053,   0.12892,   0.03764,  -0.05946,   0.06677,   0.04541,   0.01240,  -0.02645
