   0.04653,   0.04131,  -0.01287,  -0.02005,  -0.01352,   0.00410,  -0.02658,   0.00215,  -0.01222,   0.01977,   0.01390,   0.00671,  -0.01679,  -0.01222,  -0.05726,   0.00410,   0.01063,  -0.00242,   0.02565,  -0.00504,  -0.05595,   0.00410,  -0.00242,  -0.01744,  -0.01744,  -0.01679,   0.00280,   0.03935,   0.01259,  -0.01809,  -0.00438,   0.00084,  -0.01874,  -0.02788,  -0.01417,   0.01128,  -0.00112,  -0.01744,  -0.03049,  -0.01417,  -0.01483,   0.01977,   0.02630,   0.00345,  -0.00830,  -0.02462,  -0.02462,  -0.04224,  -0.02462,  -0.00177,   0.01194,  -0.01417,  -0.01352,   0.00737,   0.03348,  -0.01679,  -0.00373,  -0.00373,   0.02434,   0.01259,  -0.02266,  -0.07750,   0.00933,   0.00410,  -0.01091,  -0.03049,   0.03022,   0.03478,   0.00802,  -0.03245,  -0.00961,  -0.00308,   0.01063,  -0.00569,   0.00149,   0.00737,   0.02695,   0.01520,  -0.04812,  -0.04355,  -0.01026,  -0.00569,  -0.00830,  -0.00961,  -0.03898,   0.00084,   0.02303,   0.02238,   0.04458,  -0.03245,  -0.01222,   0.03805,  -0.02005,  -0.02984,   0.01585,   0.01585,   0.00019,   0.03413,  -0.01483,  -0.01417,  -0.02592,   0.01977,  -0.00373,  -0.02527,  -0.04877,  -0.01156,  -0.02723,  -0.00830,   0.00476,  -0.02005,  -0.00895,  -0.00177,  -0.00699,  -0.02919,  -0.05399,   0.00280,   0.04458,   0.03805,   0.00671,   0.01977,  -0.00634,   0.00671,   0.00215,  -0.01483,  -0.03245,   0.03740,   0.05306,   0.03217,  -0.01352,   0.02369,  -0.04290,   0.03805,  -0.00177,  -0.04094,  -0.00699,   0.01846,   0.00476,   0.01716,   0.02434,  -0.02462,  -0.00308,  -0.00047,  -0.01874,   0.02434,   0.02434,   0.00998,   0.05241,   0.02434,   0.00867,   0.03674,   0.01128,  -0.02070,  -0.00634,  -0.02723,   0.05959,   0.00671,   0.07395,  -0.02136,  -0.02266,  -0.02005,   0.00280,  -0.03572,   0.02303,  -0.00765,   0.01390,   0.00215,   0.01455,   0.03609,  -0.02005,   0.05698,   0.01520,  -0.00112,   0.02303,  -0.02854,  -0.02984,  -0.02266,  -0.00569,  -0.01352,  -0.01417,   0.01651,   0.03283,   0.02434,   0.01651,   0.01194,   0.01912,  -0.00830,   0.00606,  -0.00895,  -0.01287,  -0.04420,   0.04849,  -0.06705,   0.01781,   0.00215,   0.02303,  -0.02331,   0.03740,   0.01585,  -0.02723,  -0.01287,   0.01912,  -0.01483,  -0.00765,  -0.06966,  -0.00699,  -0.01613,   0.01259,   0.03478,  -0.00242,   0.02760,   0.01781,   0.00149,   0.02826,  -0.02266,  -0.03963,   0.01390,   0.02434,  -0.03441,   0.00867,   0.00280,   0.03413,   0.00280,   0.01128,  -0.06770,  -0.00047,  -0.01809,   0.00933,   0.02499,   0.04001,   0.01324,   0.00084,   0.01846,   0.02042,  -0.02854,   0.00019,   0.01390,  -0.00177,   0.03413,  -0.01352,   0.00084,   0.01128,  -0.00830,  -0.02201,  -0.00308,  -0.03311,   0.05959,   0.03217,  -0.00112,   0.01977,  -0.02984,  -0.00373,  -0.00177,  -0.02201,  -0.01940,  -0.01352,   0.00084,   0.04980,  -0.01287,   0.02565,  -0.02788,   0.01912,   0.01128,  -0.00308,   0.00084,  -0.01548,   0.01194,  -0.01874,  -0.00504,   0.00933,  -0.02331,   0.01063,   0.01194,   0.03283,   0.00280,  -0.02266,  -0.02201,   0.01651,  -0.03898,  -0.01940,  -0.00961,   0.03805,  -0.02984,  -0.03898,   0.01194,   0.01063,  -0.05399,   0.01846,  -0.01548,   0.03217,   0.04719,  -0.00308,   0.00215,  -0.00830,   0.00802,  -0.03049,   0.01455,  -0.03311,   0.00737,   0.01455,  -0.00569,   0.01585,   0.02434,  -0.01809,  -0.01874,  -0.00961,  -0.03115,   0.03740,   0.02173,   0.01259,   0.07460,   0.03348,  -0.00699,  -0.01026,  -0.00895,   0.01390,   0.02042,   0.01716,  -0.00242,  -0.00765,  -0.07423,  -0.04943,  -0.02005,  -0.00895,   0.00606,  -0.04551,  -0.01679,  -0.00438,   0.02826,   0.00149,   0.02369,   0.04066,  -0.02527,  -0.00961,  -0.00047,   0.02891,   0.04588,  -0.01222,  -0.01026,  -0.02266,   0.01194,   0.00345,   0.00802,  -0.01352,  -0.01874,  -0.02331,  -0.04747,  -0.01026,   0.02565,  -0.01744,   0.01390,   0.02630,   0.01651,  -0.04877,  -0.02005,  -0.01026,  -0.01091,  -0.01026,   0.01390,   0.03022,  -0.04224,   0.05372,   0.01128,   0.00802,   0.02630,   0.00802,   0.03478,  -0.02723,  -0.00569,  -0.01613,   0.02956,   0.01977,  -0.00895,   0.00410,   0.05110,   0.01128,   0.02369,  -0.00047,   0.04392,   0.03935,  -0.00308,   0.01194,  -0.05922,   0.00933,   0.03022
  -0.01156,   0.00541,   0.00671,  -0.01679,  -0.01091,   0.00671,  -0.01483,  -0.01548,  -0.01417,   0.01324,  -0.00242,   0.01846,   0.00933,   0.00541,  -0.05138,  -0.03115,  -0.01156,   0.01585,   0.00084,  -0.00830,   0.00280,   0.03022,   0.01912,  -0.02527,  -0.03506,   0.01324,   0.03217,  -0.02462,   0.03152,   0.00084,  -0.02788,  -0.03115,   0.03283,  -0.03115,   0.02434,   0.01455,   0.00215,   0.04392,  -0.02592,   0.03674,   0.00476,   0.02173,   0.01520,   0.02695,  -0.00634,   0.00606,   0.04327,   0.00084,  -0.04094,   0.01194,   0.03348,   0.00933,  -0.00112,   0.01716,  -0.03702,  -0.00373,  -0.00569,   0.02630,  -0.02201,  -0.01091,   0.00606,   0.02108,  -0.02266,   0.02042,  -0.00765,  -0.02788,   0.00802,  -0.04551,   0.00802,   0.00345,  -0.04094,   0.02826,  -0.00961,   0.02434,  -0.01613,  -0.01613,  -0.00047,   0.02695,  -0.00308,   0.00606,   0.02369,  -0.02658,   0.03478,   0.03217,   0.00737,  -0.04486,  -0.01744,   0.00737,   0.00867,   0.00867,  -0.01091,  -0.00699,  -0.03180,  -0.00765,   0.03478,  -0.02788,   0.00737,   0.02891,   0.00802,   0.00149,   0.07395,   0.04523,   0.02891,   0.01716,   0.00541,  -0.06640,  -0.00569,   0.07069,   0.01846,  -0.03963,  -0.01940,   0.02238,   0.00019,   0.01259,   0.00867,   0.01455,   0.00215,   0.02695,   0.00671,  -0.01091,   0.03283,   0.06938,   0.00671,  -0.02788,  -0.01352,  -0.02005,   0.03087,  -0.04420,  -0.00047,  -0.01679,  -0.01222,   0.01390,   0.02369,  -0.00830,  -0.02462,   0.02173,  -0.00177,   0.04458,   0.01585,   0.01585,  -0.01940,  -0.01091,  -0.01613,   0.01651,  -0.03049,   0.00541,   0.04980,   0.01651,   0.01846,  -0.01483,  -0.02527,  -0.03311,   0.02108,  -0.00112,  -0.00504,   0.01390,  -0.01548,   0.02108,  -0.01483,   0.03740,   0.00280,   0.05959,  -0.01874,   0.02369,  -0.00112,  -0.00765,  -0.00504,   0.01716,  -0.01809,  -0.00308,  -0.03637,   0.00867,  -0.02070,   0.02760,  -0.00112,   0.02042,  -0.02527,   0.04001,  -0.02136,   0.00215,   0.01194,  -0.01287,   0.01063,   0.00084,   0.01259,   0.00541,  -0.01156,  -0.01091,   0.00933,   0.00671,   0.01716,   0.02760,   0.04588,  -0.04159,   0.01194,  -0.02070,  -0.02723,  -0.03376,   0.04784,  -0.04355,  -0.00504,   0.00345,   0.00019,  -0.01483,  -0.00112,  -0.01548,  -0.02919,   0.02695,  -0.00961,   0.01846,   0.00606,  -0.00895,   0.01716,   0.02826,  -0.02658,  -0.03245,   0.03087,  -0.00242,  -0.02788,  -0.03572,  -0.01548,  -0.01744,   0.01455,  -0.03049,   0.02499,  -0.02658,  -0.00634,  -0.01548,   0.02173,   0.00802,  -0.02788,  -0.03441,  -0.01287,  -0.00373,   0.00345,   0.03740,  -0.01483,  -0.02527,   0.01324,  -0.00569,  -0.00895,   0.00410,   0.00084,  -0.01352,   0.02108,  -0.02592,   0.05633,   0.00476,  -0.00569,   0.05045,   0.04653,   0.01977,   0.05763,   0.02042,   0.03870,   0.00541,  -0.00961,  -0.02788,   0.02565,  -0.01940,  -0.02005,  -0.01417,   0.01716,   0.06742,  -0.00112,   0.04131,   0.00933,   0.01194,   0.01063,  -0.02658,  -0.00242,   0.01716,  -0.02331,   0.03935,   0.04001,   0.00149,  -0.02527,   0.01520,   0.00933,  -0.00047,   0.01128,  -0.06574,  -0.01744,  -0.02397,  -0.04486,   0.00215,   0.01912,  -0.02527,   0.02760,   0.03022,   0.03478,   0.02630,  -0.00765,  -0.01940,  -0.00569,  -0.00961,  -0.05204,  -0.00699,   0.00149,   0.02630,  -0.01352,  -0.03572,  -0.00047,  -0.02136,  -0.00569,  -0.00569,   0.02499,  -0.02136,  -0.00047,   0.01520,  -0.01026,   0.02499,  -0.00177,   0.03022,  -0.00699,   0.00867,   0.00215,  -0.00504,  -0.01222,  -0.05073,   0.02760,  -0.01156,  -0.01287,  -0.01287,   0.03217,   0.00606,   0.03217,   0.03348,  -0.03115,   0.00149,   0.03674,  -0.03180,   0.00606,   0.00867,  -0.03441,   0.03544,   0.03087,   0.00345,  -0.01026,   0.01128,   0.01128,  -0.00373,  -0.03311,   0.03478,   0.02695,  -0.00699,   0.00606,  -0.01287,   0.01259,  -0.03572,  -0.00895,  -0.02005,   0.01716,  -0.01613,  -0.01679,  -0.05791,   0.01716,  -0.00961,   0.07265,  -0.02984,  -0.00569,   0.01128,  -0.00438,   0.03348,  -0.02527,  -0.00699,  -0.00830,   0.04458,  -0.02854,   0.00019,  -0.02397,   0.05306,   0.02108,  -0.01222,  -0.03311,  -0.00830,   0.00019,   0.00280,   0.02956,  -0.01679,   0.03348,   0.00280,   0.02434,   0.03283
  -0.00504,   0.00737,   0.00476,  -0.03245,   0.00410,  -0.01417,   0.00998,   0.00541,  -0.00830,   0.02630,   0.01912,   0.02630,  -0.00308,   0.00802,   0.01259,  -0.00047,   0.03674,  -0.02331,   0.02369,   0.00280,  -0.02854,  -0.03180,  -0.01091,  -0.01483,  -0.00634,   0.03087,  -0.01287,  -0.01679,   0.00671,  -0.01156,   0.04066,  -0.01809,   0.00149,  -0.02136,   0.02695,   0.04458,   0.00084,  -0.02527,  -0.00895,   0.03740,  -0.00112,  -0.00242,  -0.01613,  -0.00177,   0.01390,   0.03087,  -0.02723,  -0.02331,   0.01977,   0.02956,  -0.01679,  -0.01026,  -0.03049,   0.01455,   0.00345,   0.01520,  -0.01352,   0.02108,   0.00410,  -0.00895,   0.06808,   0.00671,   0.02826,  -0.01874,   0.04523,   0.06481,  -0.01679,  -0.00177,   0.00084,  -0.02136,   0.00737,   0.04131,   0.01846,  -0.01744,  -0.02136,  -0.00699,   0.01259,  -0.00765,   0.00280,  -0.00112,   0.03348,  -0.01417,   0.01390,   0.00084,   0.02173,  -0.03898,  -0.00308,   0.05502,  -0.02984,   0.01585,  -0.00242,  -0.01287,  -0.04224,   0.01520,   0.01716,  -0.00961,   0.01912,   0.02238,  -0.02919,   0.04588,  -0.00569,   0.01259,  -0.01874,   0.00019,   0.02369,  -0.02070,  -0.01091,  -0.01744,  -0.02136,   0.00280,   0.01063,  -0.00373,  -0.00634,  -0.00699,  -0.03245,   0.00737,   0.01781,   0.00019,   0.01846,   0.03217,  -0.01222,   0.00867,   0.00998,  -0.01613,   0.00802,  -0.00047,  -0.01483,  -0.00047,   0.03348,   0.00671,   0.02760,   0.02630,  -0.00047,   0.00998,   0.00084,   0.00998,   0.01455,  -0.00569,  -0.01483,   0.01912,   0.01585,  -0.05922,   0.01063,  -0.00961,  -0.01287,   0.02630,  -0.01744,  -0.02201,  -0.02005,  -0.01222,   0.03674,  -0.01874,  -0.01809,   0.00280,  -0.01940,  -0.00634,   0.03674,  -0.02919,   0.04131,   0.02173,  -0.00373,   0.00606,   0.01259,   0.04915,   0.01063,   0.00410,   0.00541,  -0.05073,   0.00345,  -0.01026,  -0.01287,   0.03609,   0.00802,  -0.00242,   0.03478,  -0.00242,   0.00280,   0.00476,  -0.00308,   0.01455,   0.00737,  -0.01483,  -0.00830,   0.02565,  -0.04029,   0.00802,   0.00606,   0.03348,   0.00606,   0.01063,   0.00737,  -0.01483,   0.01063,   0.03674,   0.03283,   0.04131,  -0.05138,   0.00998,   0.01194,   0.00084,  -0.01483,  -0.00699,   0.03740,   0.04523,  -0.00569,  -0.01287,   0.04392,  -0.01809,  -0.01417,   0.00998,  -0.01483,   0.02173,  -0.00830,   0.02891,  -0.00242,   0.00345,   0.00019,  -0.02397,  -0.00895,  -0.00112,  -0.00308,  -0.00961,  -0.01287,   0.00019,   0.00280,  -0.04094,  -0.03898,   0.00280,   0.02565,  -0.00961,  -0.00569,   0.00606,  -0.00177,   0.03544,   0.00149,   0.01259,  -0.00047,  -0.00308,  -0.01483,   0.00737,  -0.01156,   0.00345,  -0.01091,  -0.01744,  -0.00438,  -0.01744,  -0.00895,   0.00737,   0.00998,   0.02303,   0.00280,  -0.02331,   0.02434,   0.00671,   0.03740,   0.02042,  -0.02919,   0.00084,   0.00867,   0.01259,   0.01977,   0.02369,   0.02826,   0.00867,   0.00019,  -0.00373,   0.00215,  -0.01091,  -0.00765,  -0.00961,   0.02238,  -0.00308,  -0.01287,   0.01324,  -0.02788,   0.02499,  -0.01874,  -0.00047,  -0.02266,  -0.01483,   0.00802,   0.02238,  -0.02397,   0.01520,   0.04131,   0.01651,   0.00606,  -0.02136,   0.01128,   0.02956,  -0.03115,  -0.01287,  -0.01613,  -0.00961,  -0.06966,   0.02760,   0.00802,  -0.00765,   0.01716,  -0.00438,  -0.04094,   0.04262,  -0.00242,  -0.01744,   0.00998,   0.00019,   0.01651,  -0.02462,   0.00933,  -0.01026,  -0.04812,  -0.04355,   0.05763,   0.00084,   0.01977,   0.03022,  -0.01287,  -0.02984,   0.00345,   0.03348,   0.00737,  -0.00569,  -0.01287,   0.01259,   0.02956,   0.01977,   0.03152,   0.00215,  -0.01417,   0.01651,   0.04197,  -0.02070,   0.00410,   0.01455,  -0.00177,   0.01455,  -0.01613,  -0.01809,  -0.05856,   0.00671,   0.04066,   0.00345,   0.00802,  -0.00177,   0.01846,  -0.01744,   0.01977,   0.01585,  -0.05269,   0.00345,   0.02173,  -0.02266,  -0.00765,   0.00215,  -0.03115,  -0.02070,  -0.02527,  -0.01352,   0.00084,  -0.00308,   0.01651,  -0.01352,  -0.00242,   0.04588,   0.02499,  -0.02070,  -0.02462,   0.01651,   0.00280,  -0.04094,  -0.01026,   0.01585,  -0.01613,   0.01063,   0.01259,   0.02695,  -0.03898,  -0.03637,   0.04458,  -0.02070,   0.01063,   0.02369,  -0.01613,  -0.01352
   0.00149,  -0.00112,   0.06416,   0.00149,  -0.02788,   0.00345,   0.00149,   0.02434,   0.00606,  -0.02266,   0.01194,   0.00476,  -0.01222,   0.00149,   0.02369,  -0.03311,   0.00215,  -0.01613,   0.00933,   0.02369,  -0.02201,   0.01585,  -0.01287,   0.03413,   0.00998,   0.03152,   0.00737,  -0.01483,   0.03022,   0.03609,  -0.01222,   0.01324,  -0.02462,  -0.01222,  -0.00830,   0.01259,   0.00998,   0.03152,   0.02695,  -0.01940,  -0.04094,   0.02695,   0.00933,  -0.04551,   0.03740,  -0.01352,   0.04066,   0.00998,  -0.03637,   0.00541,   0.00606,  -0.01548,   0.02369,   0.01651,   0.01651,  -0.00308,  -0.00373,   0.01390,  -0.05008,   0.04327,   0.00671,   0.01520,   0.02238,   0.03087,  -0.01026,   0.01390,  -0.01940,  -0.01679,  -0.02136,   0.00019,   0.00933,   0.00541,   0.00215,  -0.01091,   0.04980,  -0.02658,   0.00933,   0.00737,   0.00280,   0.01520,  -0.01156,   0.03544,  -0.00308,  -0.01091,   0.02499,   0.02108,   0.00215,  -0.00504,   0.03022,   0.04131,   0.02695,   0.02238,   0.01194,   0.00084,   0.04131,  -0.00569,  -0.04681,  -0.03245,   0.01194,  -0.01091,   0.00671,   0.03217,   0.00149,   0.01324,   0.01977,   0.03805,  -0.02658,   0.01912,  -0.02658,   0.04262,   0.02369,   0.03674,  -0.01613,  -0.01222,  -0.01940,  -0.02331,   0.00410,   0.00084,   0.03152,   0.01324,  -0.02070,  -0.00047,  -0.02201,   0.01977,   0.04653,   0.01520,   0.02303,   0.01128,  -0.00504,   0.00215,  -0.01940,   0.01977,  -0.01613,   0.02238,  -0.05138,  -0.00177,   0.02042,   0.03087,  -0.01156,   0.02173,   0.01194,  -0.01744,  -0.01679,   0.07591,   0.01194,   0.00606,  -0.00504,   0.05502,  -0.00242,  -0.05269,   0.02565,   0.00215,   0.01977,   0.00019,   0.01781,   0.00215,  -0.01417,  -0.00634,  -0.00961,  -0.04029,   0.00149,   0.03087,   0.01259,  -0.03637,   0.02499,   0.02369,   0.01194,   0.02303,  -0.00699,  -0.00504,   0.02238,  -0.02723,   0.00345,   0.00476,   0.02891,  -0.01091,   0.02891,  -0.00569,  -0.01483,   0.01846,  -0.00242,   0.01520,  -0.00504,  -0.01940,  -0.04094,   0.03413,  -0.02397,  -0.00373,   0.00410,  -0.03963,   0.03478,   0.00606,   0.00215,   0.02760,   0.00410,   0.02303,   0.00476,  -0.03702,   0.02042,   0.01716,  -0.03245,   0.01063,  -0.00308,   0.01520,  -0.02723,   0.03935,   0.02499,  -0.02266,  -0.00112,  -0.01222,  -0.04812,   0.00541,   0.02891,  -0.00308,  -0.00047,   0.02630,  -0.01417,   0.04066,   0.00541,   0.03413,   0.00671,   0.01651,   0.02630,   0.01063,  -0.00504,   0.01520,   0.01977,   0.01324,  -0.02919,  -0.00569,  -0.02984,   0.00867,   0.03674,  -0.01417,   0.00933,   0.01259,   0.02173,  -0.01613,  -0.01744,   0.00149,   0.00215,   0.00476,  -0.04747,   0.00410,  -0.00961,   0.00737,   0.01520,   0.03740,   0.02956,  -0.02266,  -0.02854,  -0.07097,   0.01781,   0.03805,  -0.03963,  -0.01483,   0.01781,  -0.00177,  -0.00308,   0.00737,   0.03935,   0.01128,   0.01846,   0.01128,  -0.00895,  -0.04355,   0.02434,   0.00149,  -0.05073,   0.03022,  -0.02266,  -0.00830,  -0.01287,  -0.01222,   0.03022,  -0.01874,   0.04653,  -0.00895,  -0.00895,  -0.04094,   0.02369,  -0.00504,  -0.04943,   0.03870,   0.01585,   0.03152,   0.00476,  -0.02331,  -0.05530,   0.00933,  -0.05204,  -0.01352,   0.02695,   0.03544,  -0.01352,  -0.00895,   0.03413,  -0.01156,  -0.01744,   0.00998,   0.02956,   0.01977,   0.00149,  -0.02070,  -0.00177,  -0.00569,   0.06220,  -0.00242,   0.04915,   0.01128,   0.03283,   0.00345,  -0.01679,   0.00280,  -0.02527,  -0.00242,   0.00476,   0.03609,   0.00671,   0.02108,   0.01390,   0.00476,   0.00867,  -0.00308,  -0.03115,   0.00476,   0.02630,  -0.01744,   0.00410,   0.03805,   0.01977,   0.01585,  -0.01091,  -0.04029,  -0.01613,   0.02630,   0.00541,  -0.08141,   0.02760,  -0.03245,   0.01585,  -0.01222,  -0.02070,  -0.03506,   0.02042,  -0.01809,   0.03217,  -0.02136,  -0.02658,   0.01194,  -0.02005,   0.03609,   0.02499,  -0.01156,   0.05502,   0.00149,  -0.02136,   0.00345,   0.02499,  -0.02527,  -0.04355,   0.03022,   0.00149,  -0.00830,  -0.03115,   0.00084,  -0.05791,  -0.04420,  -0.01156,   0.01846,  -0.00961,  -0.02136,  -0.02788,   0.01063,   0.01390,   0.00019,   0.00802,   0.00802,   0.00867,  -0.00569,   0.01324,   0.03674,  -0.00765,  -0.03898
  -0.01744,   0.00084,   0.03478,  -0.00961,   0.00737,  -0.04747,  -0.02201,   0.03413,  -0.04224,  -0.01222,   0.00149,  -0.02854,  -0.00242,  -0.00699,   0.02565,   0.03087,   0.00802,  -0.01744,   0.00998,   0.01846,   0.01128,   0.02173,  -0.02854,  -0.05661,  -0.01026,   0.02565,  -0.01548,   0.00933,   0.05372,   0.00410,  -0.02397,  -0.00895,  -0.01417,  -0.00699,  -0.04224,  -0.00961,   0.01390,   0.06481,   0.04131,   0.01912,  -0.01156,   0.02826,  -0.04681,  -0.00830,  -0.02397,   0.01781,  -0.00438,   0.02369,  -0.03180,  -0.01483,   0.01128,   0.00019,   0.02630,  -0.04420,   0.00671,   0.02303,   0.01977,  -0.01940,   0.03022,   0.01259,   0.02108,  -0.01809,   0.01455,   0.05829,   0.00606,  -0.01026,  -0.00569,  -0.02005,   0.01781,  -0.05008,  -0.01156,   0.01455,  -0.02984,  -0.00961,  -0.06705,   0.01585,   0.08505,  -0.00504,  -0.00634,  -0.00373,  -0.00308,  -0.04029,   0.00671,   0.01194,   0.00802,   0.00410,   0.00410,  -0.00242,   0.00933,  -0.03180,   0.04327,   0.01455,   0.00345,   0.00998,  -0.03637,  -0.01417,  -0.01679,  -0.00895,  -0.01679,   0.03022,   0.04131,  -0.02201,   0.01259,   0.00084,  -0.02854,  -0.02266,  -0.03115,   0.00671,   0.00019,  -0.03180,   0.00606,   0.00410,  -0.00373,  -0.01874,  -0.03441,  -0.01613,   0.01585,   0.01455,  -0.01809,  -0.02136,   0.00541,  -0.00438,  -0.01809,  -0.00504,   0.02499,   0.00998,  -0.02331,   0.00606,  -0.00895,  -0.00112,  -0.00765,  -0.03572,  -0.01613,   0.00998,   0.04262,  -0.02723,   0.01912,  -0.02201,  -0.03572,   0.02630,   0.04653,  -0.00961,   0.02108,   0.02303,   0.02369,   0.00149,   0.00802,   0.04719,  -0.02788,  -0.01091,   0.01651,   0.04719,   0.00737,  -0.00504,  -0.02462,   0.01390,  -0.00047,   0.01194,   0.00541,   0.00345,   0.00541,  -0.01156,   0.04523,   0.02499,  -0.00699,  -0.02919,  -0.00177,  -0.02331,   0.03413,  -0.01352,  -0.02136,  -0.00634,  -0.02397,  -0.03245,  -0.02788,  -0.03115,  -0.01091,   0.00867,  -0.00569,  -0.01156,  -0.05138,  -0.02397,  -0.01222,   0.01063,  -0.00177,   0.00280,   0.00933,   0.04653,   0.02108,  -0.00177,   0.02760,   0.01390,   0.00215,   0.02695,  -0.01026,   0.00476,  -0.02854,   0.00476,   0.03674,   0.00280,  -0.04681,   0.02760,  -0.00634,  -0.01222,   0.04915,  -0.00830,   0.01128,   0.01390,  -0.02462,  -0.00112,   0.03217,   0.01194,  -0.05269,   0.02695,  -0.01287,   0.03087,  -0.03376,  -0.06052,   0.02499,  -0.06836,   0.00998,  -0.00699,  -0.00112,  -0.02136,   0.01390,  -0.00242,   0.02826,   0.02956,  -0.01809,  -0.03180,   0.00933,  -0.00830,   0.05306,  -0.00699,   0.06481,   0.03609,  -0.02462,  -0.01026,  -0.01222,   0.04001,  -0.00047,   0.00149,  -0.00634,  -0.00177,   0.00933,   0.01128,  -0.03441,   0.03870,   0.03740,   0.01977,  -0.01679,   0.00802,   0.01781,   0.02499,   0.03478,  -0.00177,   0.03413,   0.03413,  -0.02788,  -0.01417,  -0.04029,   0.03478,   0.00541,  -0.03311,   0.01781,  -0.03702,   0.05176,  -0.02136,  -0.03245,   0.01846,  -0.02723,  -0.02658,   0.04980,  -0.00895,  -0.05204,  -0.00961,   0.02826,  -0.00177,   0.03087,   0.01846,   0.02565,   0.01651,  -0.01940,  -0.06640,   0.00671,   0.01063,  -0.00569,   0.03217,   0.00606,   0.00019,  -0.04224,   0.04001,  -0.03311,   0.04849,  -0.00438,  -0.00961,  -0.04029,   0.01977,  -0.00373,   0.00084,  -0.02331,   0.01063,   0.01128,   0.03022,  -0.01091,   0.05502,  -0.01744,   0.03805,  -0.01287,   0.03674,  -0.02070,  -0.00177,  -0.00895,   0.03805,  -0.00308,   0.01781,   0.01977,   0.00802,  -0.02201,   0.00541,   0.01520,  -0.00438,  -0.05073,   0.01651,   0.02434,   0.01651,  -0.02266,  -0.02984,   0.01585,   0.00019,   0.02238,   0.00280,   0.02891,  -0.02592,   0.00998,   0.00541,   0.00084,   0.00215,   0.00671,  -0.04681,   0.03674,   0.03674,   0.04849,  -0.00373,  -0.03049,  -0.01287,   0.02695,   0.01324,  -0.01417,   0.01846,  -0.01809,   0.02238,  -0.01613,  -0.03572,  -0.00504,  -0.02462,  -0.03376,  -0.06966,  -0.00699,  -0.01744,  -0.01287,  -0.01809,   0.02108,   0.00149,   0.03478,   0.01977,  -0.04029,   0.04131,   0.01977,  -0.02723,   0.00737,  -0.03311,  -0.04812,   0.00802,   0.00019,   0.04523,  -0.04943,   0.02238,   0.01585,   0.01912,   0.03413,  -0.02919,  -0.00699,  -0.04029
  -0.00569,   0.05894,   0.00410,  -0.02984,   0.00019,  -0.01417,   0.01259,   0.04719,   0.00998,   0.01194,  -0.00438,  -0.01352,   0.01128,   0.01390,   0.00476,   0.02565,  -0.01548,  -0.02136,   0.00933,   0.01912,   0.04588,   0.01324,  -0.01222,  -0.02266,   0.00019,   0.01128,   0.00345,   0.01520,  -0.00112,   0.04131,  -0.00830,   0.02173,  -0.04094,   0.00410,   0.01716,  -0.00830,  -0.00830,  -0.03376,  -0.04094,   0.02303,   0.03348,   0.01063,  -0.04420,   0.00737,   0.01846,  -0.02788,   0.00084,  -0.02592,  -0.00569,   0.00606,  -0.00047,   0.01455,   0.00345,   0.00149,   0.02891,   0.00345,  -0.02331,   0.05829,  -0.05595,  -0.04616,  -0.02788,  -0.01940,  -0.01679,   0.03805,   0.00019,  -0.04812,  -0.04681,   0.02303,  -0.00961,  -0.03637,  -0.01809,  -0.00308,  -0.01874,  -0.00895,   0.01520,  -0.00373,   0.01520,   0.01259,  -0.04355,   0.04197,   0.00802,   0.01390,   0.04523,   0.00671,  -0.00961,   0.00606,   0.00998,   0.03413,   0.02630,  -0.00961,  -0.01417,   0.01585,  -0.03441,  -0.02788,   0.03544,  -0.00047,  -0.02592,  -0.01222,  -0.02788,   0.05241,  -0.01222,  -0.02854,   0.01912,   0.01259,   0.02238,  -0.01417,  -0.01679,   0.00280,   0.00933,   0.01651,  -0.01679,  -0.02658,  -0.00047,  -0.01744,   0.00998,  -0.00112,  -0.03637,  -0.03311,  -0.01679,  -0.01483,   0.03217,   0.00345,  -0.02331,   0.00084,   0.01390,   0.00149,   0.02760,  -0.05073,  -0.01483,  -0.02462,  -0.00112,   0.02695,   0.01520,   0.02173,  -0.04029,  -0.00177,  -0.03311,   0.03283,  -0.00438,  -0.06444,  -0.01613,   0.00998,   0.03022,   0.00933,  -0.00699,   0.02108,   0.01390,   0.01259,   0.00737,  -0.03441,   0.00671,   0.02108,  -0.02201,   0.00867,   0.04066,   0.00215,   0.02695,  -0.04224,   0.00149,   0.06547,   0.03870,  -0.02788,   0.00410,   0.06285,  -0.00112,  -0.05204,  -0.02462,   0.02891,   0.03805,  -0.04224,   0.03609,   0.00345,  -0.00308,  -0.02136,   0.00084,   0.04262,  -0.04290,   0.00671,  -0.02658,   0.01390,  -0.03049,   0.00541,  -0.00634,   0.00345,   0.00280,   0.03805,  -0.02005,  -0.00569,   0.04784,   0.00280,   0.05567,  -0.02201,   0.03478,   0.00084,  -0.03115,   0.04131,   0.00606,  -0.00569,  -0.02723,   0.01063,  -0.01874,  -0.00765,  -0.00308,   0.00019,  -0.03376,   0.00606,  -0.00177,   0.00998,  -0.02331,   0.02303,   0.02630,  -0.03833,   0.00019,  -0.04290,   0.02173,   0.01846,  -0.01940,   0.01846,  -0.01026,   0.01912,   0.01977,   0.01455,  -0.03702,   0.04588,  -0.00569,  -0.00504,   0.01390,   0.00998,   0.00280,   0.04066,   0.00084,   0.04327,   0.00998,  -0.02005,  -0.00047,  -0.00373,   0.03935,  -0.00830,  -0.00569,   0.02826,  -0.00242,  -0.01809,   0.01259,   0.00998,  -0.00242,  -0.00177,  -0.01483,  -0.03311,   0.01390,   0.03805,   0.06090,   0.00084,  -0.00373,   0.03283,   0.00802,  -0.01287,  -0.01679,  -0.05726,   0.00476,  -0.06052,  -0.00634,  -0.02788,   0.01259,  -0.00373,   0.02303,  -0.01744,  -0.01417,  -0.02136,  -0.00373,  -0.01679,  -0.00438,   0.01063,   0.03152,   0.04784,   0.03348,   0.01128,  -0.00634,   0.04523,   0.06742,  -0.05530,   0.03478,   0.00737,  -0.01287,   0.01390,  -0.00699,   0.01651,  -0.03245,   0.01455,   0.00737,  -0.00830,   0.06220,  -0.01940,   0.04719,   0.00541,  -0.02266,   0.00215,  -0.02070,   0.00867,  -0.00765,  -0.02201,   0.00215,   0.02173,  -0.04159,  -0.00242,   0.00671,   0.00867,   0.03152,  -0.01026,  -0.07684,  -0.03963,   0.08048,   0.01912,   0.01520,   0.04458,  -0.01613,   0.03217,   0.01781,   0.01324,   0.01128,  -0.01483,  -0.00308,  -0.01222,   0.01651,   0.01259,  -0.03049,   0.00084,   0.03805,  -0.00308,  -0.01091,   0.01651,  -0.05269,   0.03674,   0.01324,  -0.00961,  -0.02005,   0.01455,   0.00802,  -0.01483,  -0.01548,  -0.01287,   0.04784,  -0.00047,  -0.00177,   0.00019,  -0.00895,   0.00345,   0.01259,  -0.03506,   0.00802,   0.00541,  -0.02592,  -0.02136,   0.00737,  -0.02592,  -0.02788,  -0.02854,  -0.06640,   0.00933,  -0.03245,   0.01455,  -0.06052,   0.01716,   0.02630,   0.02499,  -0.03245,   0.01063,  -0.00308,   0.04066,   0.02956,   0.04588,  -0.01156,  -0.00569,  -0.00699,   0.00802,  -0.00504,   0.00737,   0.00215,  -0.05595,   0.01324,   0.01128,   0.03609,   0.01781,   0.00084,  -0.03506
  -0.02984,  -0.01026,   0.00541,  -0.03180,   0.00280,   0.02303,   0.00019,  -0.00242,   0.02042,   0.01781,  -0.02201,  -0.05791,  -0.02201,  -0.01940,   0.00606,  -0.02136,  -0.02266,  -0.04747,  -0.00308,  -0.04355,   0.01912,   0.01846,   0.00867,   0.00867,   0.00280,  -0.04159,   0.03674,   0.02303,  -0.03768,   0.02826,   0.00933,  -0.02658,  -0.01613,  -0.05595,   0.03674,   0.03217,  -0.02592,  -0.00242,  -0.03180,  -0.02201,  -0.00242,   0.00084,  -0.00438,   0.01128,  -0.01091,  -0.02136,  -0.00699,   0.04915,   0.01912,  -0.03833,   0.01716,  -0.02723,  -0.03245,   0.03740,  -0.03376,   0.03609,  -0.03637,  -0.01679,  -0.05269,   0.01455,   0.01846,  -0.02723,   0.01585,   0.03740,   0.01455,   0.00084,  -0.01287,   0.00476,  -0.05334,   0.00476,   0.05241,  -0.01874,   0.01977,  -0.02331,   0.00671,   0.01716,  -0.01156,  -0.01483,   0.00084,  -0.00373,   0.02826,   0.01912,   0.02108,  -0.00765,  -0.00895,  -0.01287,   0.03217,  -0.01613,   0.00737,   0.00149,  -0.00438,  -0.02658,   0.01194,  -0.01091,  -0.00438,  -0.00047,   0.01259,  -0.01026,  -0.01287,   0.04262,   0.04653,  -0.01287,   0.01716,  -0.00112,   0.00737,  -0.00830,   0.01520,  -0.03833,  -0.00047,   0.04197,   0.00084,   0.01063,  -0.01091,  -0.03115,  -0.03311,   0.00606,   0.03022,   0.00476,   0.02499,  -0.02005,  -0.04681,   0.00149,  -0.03572,   0.01520,   0.03544,  -0.00373,  -0.00569,  -0.03180,  -0.01287,   0.00671,  -0.02658,   0.03348,   0.02369,  -0.02462,  -0.02331,   0.05176,   0.04001,   0.03674,  -0.03898,  -0.03702,  -0.05530,   0.04262,   0.00280,   0.00476,  -0.03245,  -0.05399,  -0.01613,  -0.00504,  -0.00504,  -0.01417,   0.01194,  -0.02201,   0.02042,  -0.00373,  -0.01548,  -0.00112,  -0.00177,   0.03022,  -0.00895,   0.00933,   0.03283,  -0.03637,   0.01585,   0.00606,   0.01585,  -0.00961,   0.02303,   0.02303,  -0.00112,   0.03022,   0.03740,  -0.00504,  -0.01222,  -0.03506,  -0.02136,   0.02303,   0.01781,  -0.00504,   0.01520,   0.00737,  -0.00699,   0.04327,  -0.01352,   0.01912,   0.03609,   0.05372,  -0.02201,  -0.00047,   0.03413,   0.00933,  -0.01156,   0.00737,  -0.00047,   0.02369,  -0.00569,   0.00737,   0.00215,  -0.00765,  -0.01483,   0.03087,   0.00476,   0.00998,  -0.00308,   0.02108,   0.00084,  -0.01417,  -0.00177,  -0.02266,  -0.01026,  -0.02005,  -0.00765,   0.02630,  -0.00569,   0.01912,   0.00215,   0.01259,   0.05306,  -0.00765,  -0.01679,   0.01977,  -0.05465,  -0.00177,  -0.00308,  -0.01352,  -0.01940,   0.01520,  -0.02527,   0.01259,  -0.00895,   0.00606,   0.01977,  -0.00438,  -0.00308,  -0.01744,   0.04784,   0.02760,   0.02042,  -0.00438,   0.01455,   0.00476,  -0.00961,   0.02303,  -0.00438,   0.01912,   0.03283,   0.01912,   0.00410,  -0.02070,  -0.02331,   0.01781,  -0.00504,  -0.00438,   0.02760,  -0.00569,   0.02173,  -0.01874,  -0.00961,   0.00933,   0.00410,  -0.04812,  -0.04290,   0.04131,  -0.02201,  -0.02919,   0.00606,   0.00019,  -0.03963,   0.02891,  -0.03441,  -0.01940,   0.01912,   0.00476,   0.01716,   0.01585,   0.01324,  -0.03049,   0.01194,   0.02499,   0.00933,   0.01455,  -0.01483,  -0.00308,  -0.02201,   0.01585,  -0.00765,   0.00933,   0.00280,  -0.03898,   0.01846,   0.00541,   0.02695,   0.01324,   0.01651,   0.00215,   0.02695,  -0.00112,  -0.00504,   0.01455,  -0.02723,   0.02891,   0.03152,  -0.01222,   0.04197,  -0.00373,  -0.00699,   0.01390,   0.02695,   0.02238,   0.00541,   0.01390,   0.00476,   0.01520,   0.02760,  -0.02462,  -0.02005,   0.01063,   0.01520,   0.01977,   0.03087,   0.01977,  -0.02136,   0.00998,  -0.04486,   0.00998,   0.02369,   0.01716,  -0.01091,   0.04784,  -0.00047,  -0.02070,   0.03609,  -0.02070,  -0.02592,   0.00933,   0.04588,  -0.05138,   0.00215,  -0.02984,  -0.02201,   0.02369,  -0.00504,   0.00867,   0.00606,  -0.00242,  -0.02984,  -0.02919,  -0.03376,  -0.00634,   0.01194,   0.02303,  -0.00895,   0.00280,  -0.01613,   0.03609,   0.01063,  -0.00438,  -0.00308,   0.02565,   0.03478,  -0.04224,  -0.02397,   0.02760,   0.00280,  -0.02984,  -0.00242,   0.05110,  -0.00895,  -0.02070,  -0.01026,   0.01912,   0.02434,   0.00933,   0.01128,   0.05567,   0.02173,  -0.03572,   0.00998,  -0.01809,   0.00410,   0.00737,   0.01585,   0.00410,   0.02630,   0.01781
   0.00671,   0.02173,  -0.00438,   0.00019,   0.01651,  -0.04159,   0.01846,  -0.01744,  -0.00308,   0.02956,  -0.04420,   0.03870,  -0.01940,  -0.02136,   0.01716,  -0.00961,  -0.00569,  -0.01744,  -0.02397,   0.04392,  -0.00308,  -0.00699,  -0.01483,   0.00933,  -0.02854,  -0.05073,   0.01977,  -0.01874,  -0.00765,   0.01455,  -0.01940,   0.00867,   0.02695,   0.02499,  -0.00634,  -0.01613,  -0.00634,   0.06090,  -0.03441,   0.00215,  -0.03572,   0.00802,   0.03283,   0.01846,  -0.01352,  -0.01940,   0.00215,   0.01194,  -0.01417,   0.00802,   0.01194,  -0.04877,   0.02760,   0.00802,  -0.02462,  -0.02854,  -0.04747,  -0.01287,   0.02042,   0.02499,  -0.03506,  -0.01548,   0.05176,  -0.00830,   0.03674,   0.06416,   0.00149,  -0.00699,   0.01651,   0.05763,   0.00019,   0.03478,   0.00867,   0.02108,   0.03283,   0.00345,  -0.03115,   0.00933,  -0.00504,  -0.05530,  -0.04812,   0.01781,   0.01194,   0.00867,   0.03087,   0.03413,  -0.00242,  -0.01352,  -0.03441,   0.02303,   0.01063,  -0.00373,  -0.00830,  -0.01874,   0.00084,  -0.04159,   0.00737,   0.01455,  -0.00112,  -0.01744,  -0.01026,   0.00671,   0.00737,  -0.01940,   0.00671,   0.00084,  -0.03311,  -0.02005,  -0.02070,  -0.02005,   0.00737,  -0.01026,   0.03283,  -0.01548,   0.01390,  -0.00047,   0.04001,  -0.03245,  -0.03180,   0.00737,   0.04980,  -0.02788,  -0.03768,  -0.01744,   0.00606,  -0.01613,   0.01585,  -0.03115,  -0.01548,   0.00149,   0.00671,   0.03870,  -0.02723,  -0.01483,   0.03478,  -0.06052,   0.02826,  -0.03702,   0.02630,   0.02434,  -0.02919,   0.00933,   0.00345,   0.02369,  -0.00961,   0.00802,  -0.00308,  -0.02201,  -0.02005,   0.02956,  -0.01548,  -0.03245,  -0.00242,  -0.00177,  -0.03637,   0.00933,   0.00867,  -0.01222,   0.00410,  -0.01940,   0.03478,  -0.01417,   0.01128,   0.03217,  -0.00438,   0.05045,   0.01651,   0.00867,   0.00410,   0.03152,  -0.00373,  -0.00569,   0.01585,   0.00476,   0.01194,   0.01781,  -0.03245,   0.02369,  -0.01809,  -0.00308,  -0.00830,  -0.01679,  -0.02723,  -0.00569,   0.00933,  -0.00634,  -0.00438,   0.04131,  -0.01679,  -0.00308,   0.03348,  -0.01809,   0.00215,   0.03217,  -0.03180,   0.01716,  -0.00047,   0.01651,   0.02630,  -0.02984,  -0.03376,   0.01194,   0.01781,  -0.00830,  -0.01809,   0.00998,   0.00215,  -0.02984,  -0.06901,   0.00084,   0.01585,  -0.00112,  -0.05138,  -0.00634,   0.04066,   0.01651,  -0.04224,   0.01781,  -0.02331,  -0.00438,  -0.00765,   0.00933,  -0.04681,  -0.01940,   0.01520,   0.01324,  -0.00504,  -0.00308,  -0.01417,   0.01651,  -0.00634,   0.03740,  -0.02788,  -0.05334,   0.00867,   0.00410,   0.01520,  -0.02462,   0.02499,  -0.00373,   0.00802,   0.00410,  -0.02592,  -0.02331,   0.00084,  -0.02005,  -0.02070,   0.00410,   0.01846,  -0.00438,  -0.02136,   0.02369,   0.04784,  -0.01874,   0.00280,  -0.00047,  -0.03768,   0.03805,   0.03740,  -0.01026,  -0.01613,   0.02238,   0.02956,   0.00802,  -0.01352,  -0.03115,  -0.02527,  -0.03637,  -0.02397,   0.02891,  -0.06836,  -0.00438,   0.03478,  -0.01548,   0.00280,   0.01455,   0.01585,  -0.01222,   0.00149,   0.03413,   0.03609,  -0.01483,   0.03478,  -0.01287,   0.00215,   0.00737,  -0.00308,  -0.02723,   0.02891,   0.00084,  -0.01940,   0.01390,   0.04131,   0.00476,   0.01520,  -0.00895,  -0.02397,   0.01259,  -0.00308,   0.00606,   0.02303,  -0.01679,  -0.01679,  -0.04094,  -0.01287,  -0.01744,   0.00410,   0.01716,  -0.02788,   0.01128,  -0.02658,  -0.03441,  -0.00765,  -0.00569,  -0.00373,  -0.00961,  -0.01222,  -0.02919,  -0.02658,   0.00476,  -0.00830,  -0.00699,   0.00149,   0.01520,  -0.04159,   0.02826,  -0.03376,  -0.01744,  -0.00504,   0.03935,  -0.02527,   0.01128,  -0.01874,  -0.00634,  -0.01483,  -0.00961,   0.01063,  -0.04355,   0.00802,   0.02760,   0.00019,   0.00737,  -0.00177,   0.01651,  -0.00634,   0.04197,   0.02760,  -0.01352,  -0.04224,  -0.05595,  -0.02984,  -0.04616,  -0.01287,   0.02369,   0.00802,  -0.03180,   0.02238,  -0.04681,  -0.01483,  -0.01352,   0.03217,   0.02826,  -0.01613,   0.00019,  -0.01744,   0.00476,   0.04197,   0.01846,   0.00737,   0.00476,  -0.00569,   0.00998,   0.02695,  -0.02919,  -0.00569,   0.05763,   0.03348,  -0.03180,  -0.01940,   0.00933,   0.00671,   0.01846,   0.00606,   0.03348
   0.01390,   0.00998,   0.00867,   0.00606,  -0.01287,  -0.01874,   0.00606,  -0.08141,  -0.00047,   0.02891,  -0.00047,   0.07526,  -0.00177,  -0.01287,   0.01912,   0.00671,  -0.04224,   0.00084,   0.02303,  -0.01026,  -0.03506,  -0.02136,  -0.03115,   0.01520,  -0.02136,   0.02042,   0.00215,  -0.02136,  -0.00047,  -0.02592,   0.02630,   0.00867,  -0.02266,   0.01455,  -0.00699,  -0.01679,   0.00084,   0.00215,   0.04001,   0.03348,   0.01063,   0.03609,   0.02630,   0.06938,   0.00671,  -0.01679,  -0.00830,   0.01520,   0.00867,   0.01128,   0.00410,   0.04980,  -0.02854,  -0.04812,  -0.01940,  -0.03311,   0.00737,  -0.00047,   0.03805,   0.01324,  -0.04029,   0.02238,  -0.00895,   0.00149,  -0.01222,   0.04131,  -0.01417,  -0.05791,  -0.00438,   0.00345,   0.01912,   0.02173,   0.02499,   0.01520,  -0.02984,   0.02695,  -0.00242,   0.00933,   0.01585,  -0.02331,  -0.01548,  -0.00438,   0.00737,   0.00476,  -0.02592,  -0.02788,   0.01651,   0.00933,   0.03609,  -0.01744,   0.00476,   0.02434,  -0.06118,   0.04066,  -0.00765,  -0.02136,   0.01781,   0.02369,   0.00084,   0.00019,  -0.03572,   0.02565,  -0.03180,  -0.00830,   0.02760,  -0.01091,   0.04197,   0.00476,  -0.01874,  -0.00047,  -0.02136,  -0.00242,   0.04262,   0.00802,   0.02565,  -0.03115,  -0.01026,   0.00084,   0.00867,   0.04327,   0.01455,   0.06351,  -0.01809,   0.04197,  -0.02984,   0.04197,   0.00541,   0.02108,   0.02238,   0.02369,  -0.01091,  -0.02658,   0.01585,   0.03087,   0.03805,   0.07917,  -0.00765,   0.02956,   0.01716,  -0.00177,  -0.00504,  -0.02984,  -0.04551,   0.01390,   0.01390,   0.00671,   0.04327,  -0.01613,  -0.04616,   0.01390,  -0.01222,   0.00541,  -0.03049,  -0.00765,   0.02108,   0.03478,   0.02760,  -0.01417,  -0.00895,  -0.01809,  -0.02527,   0.01390,   0.00802,   0.00215,  -0.08076,   0.04458,  -0.00699,   0.00280,   0.03870,  -0.04029,   0.01912,   0.03674,   0.02956,  -0.01548,  -0.02788,  -0.04616,  -0.01222,   0.02630,   0.04392,  -0.03963,  -0.02331,  -0.01874,   0.00933,  -0.01091,   0.03283,  -0.02201,   0.00084,   0.00280,  -0.01940,   0.01063,   0.00280,  -0.01287,   0.02434,   0.04915,  -0.05399,  -0.00569,   0.04458,  -0.01222,  -0.01483,  -0.01874,  -0.00961,  -0.00830,  -0.00373,   0.00084,  -0.03572,   0.04066,  -0.00961,  -0.00438,  -0.03049,  -0.01156,  -0.01744,  -0.02723,   0.01390,   0.01585,  -0.00242,  -0.00177,  -0.01222,   0.00998,  -0.01679,   0.01585,   0.04262,  -0.01287,   0.00476,   0.01912,  -0.00112,  -0.00504,   0.01390,  -0.02136,   0.00410,  -0.00047,   0.01651,   0.03283,   0.02630,  -0.03049,   0.00867,   0.01520,   0.00606,   0.00671,  -0.04486,  -0.01483,   0.04327,  -0.00895,  -0.00373,   0.01455,  -0.00438,  -0.01352,  -0.02397,   0.02565,   0.00671,   0.00671,   0.01259,  -0.00177,   0.01846,   0.03609,  -0.00699,   0.02173,   0.00215,  -0.00242,  -0.00438,  -0.01613,  -0.01548,  -0.00830,   0.01063,  -0.02592,   0.01390,   0.00019,   0.01716,   0.00802,   0.00280,  -0.02005,  -0.00504,  -0.03180,   0.00476,   0.02760,   0.01781,  -0.02527,  -0.01809,  -0.01222,   0.02565,   0.00345,  -0.02462,  -0.00112,   0.00149,  -0.02070,  -0.02005,   0.03283,   0.00084,  -0.00177,   0.02695,   0.01194,   0.03805,   0.02369,   0.03217,  -0.02201,  -0.00699,   0.00476,   0.02826,   0.01520,   0.01585,  -0.00504,  -0.02854,   0.00084,   0.00933,   0.00019,  -0.03506,  -0.03049,   0.00671,  -0.01026,   0.01585,  -0.01156,  -0.01613,   0.04327,  -0.03049,  -0.00438,  -0.02070,   0.01716,   0.00671,  -0.02201,   0.00867,  -0.00961,   0.00671,  -0.03245,  -0.01548,  -0.01222,   0.02042,  -0.04943,  -0.02919,   0.00345,  -0.01156,  -0.00373,  -0.00242,  -0.01091,  -0.00308,   0.00802,   0.00345,   0.04719,   0.02826,   0.04262,   0.01585,  -0.04094,  -0.00373,   0.04001,  -0.00765,  -0.01679,  -0.02397,   0.00737,   0.05567,  -0.02005,   0.00606,  -0.01091,  -0.02136,  -0.03376,  -0.03506,  -0.02527,   0.02434,  -0.01156,   0.00802,   0.00084,  -0.00047,  -0.02788,  -0.01222,  -0.02984,   0.02760,  -0.04159,  -0.00438,  -0.00634,   0.00671,   0.05829,   0.00280,   0.03674,  -0.03311,  -0.00373,  -0.03898,  -0.01287,  -0.02331,  -0.03768,   0.01324,  -0.05204,  -0.01417,   0.00737,  -0.01287,  -0.00569,   0.02369,  -0.00830
