  -0.01239,   0.04031,  -0.03692,   0.00483,   0.00483,   0.01422,   0.05179,   0.03196,   0.01683,  -0.00404,   0.00326,  -0.00352,  -0.00457,  -0.02335,  -0.00613,   0.00639,   0.00430,  -0.02387,  -0.02074,   0.00900,  -0.04422,  -0.01187,  -0.01292,  -0.00665,  -0.00248,   0.01318,   0.03144,   0.01213,  -0.00509,   0.03144,   0.01318,   0.01631,   0.02100,   0.00483,  -0.04005,   0.01004,  -0.01657,  -0.01918,   0.01265,   0.01370,   0.02309,  -0.00874,   0.01578,  -0.04683,   0.03509,  -0.03640,  -0.01135,   0.01370,   0.00691,  -0.00926,   0.01318,  -0.00874,   0.00848,  -0.03587,   0.00013,  -0.03483,  -0.03587,   0.00430,  -0.00509,  -0.01918,   0.00378,  -0.02753,   0.01161,   0.00483,   0.04448,  -0.00196,  -0.01083,   0.01996,   0.01265,   0.01370,   0.00430,  -0.00926,  -0.00665,  -0.00404,  -0.04161,   0.00744,  -0.03013,  -0.01083,  -0.01866,  -0.02492,  -0.02335,   0.00900,   0.01996,  -0.00978,  -0.02857,  -0.01292,   0.01944,   0.00430,  -0.01709,   0.00274,   0.00535,   0.02152,   0.00587,  -0.00457,   0.02257,   0.01265,  -0.01396,  -0.00300,   0.02518,  -0.00926,  -0.03013,  -0.04005,  -0.01239,  -0.02126,  -0.00144,  -0.00874,  -0.00457,  -0.01866,   0.01265,   0.01526,  -0.00770,   0.00222,   0.00065,   0.01787,  -0.00404,   0.01578,   0.02570,   0.01944,  -0.00248,  -0.00457,  -0.00822,   0.03092,   0.01944,  -0.01500,   0.01213,  -0.00457,  -0.01396,   0.00639,  -0.00874,   0.00065,   0.00013,  -0.01918,  -0.01605,   0.01578,  -0.02231,   0.00378,   0.02465,   0.00691,  -0.00300,   0.00952,   0.00639,  -0.01031,  -0.02283,   0.02309,  -0.01031,  -0.03066,   0.02048,  -0.02126,   0.01683,  -0.00561,  -0.01813,  -0.00300,  -0.01031,   0.01265,   0.01370,   0.00013,  -0.00874,  -0.01344,   0.01944,   0.01004,  -0.02596,  -0.00300,   0.00796,   0.00013,  -0.00509,  -0.00039,   0.01109,   0.00378,   0.00483,   0.01526,  -0.01344,   0.03666,   0.01683,  -0.03692,  -0.00822,  -0.00039,   0.03457,   0.00326,  -0.01344,  -0.01135,  -0.00457,   0.00274,   0.00378,   0.01422,   0.00639,   0.02413,   0.00848,   0.03874,  -0.03066,   0.02779,  -0.01761,  -0.00561,  -0.03118,  -0.02179,  -0.01292,  -0.00770,  -0.02857,  -0.02857,  -0.00613,  -0.02335,  -0.02126,  -0.03848,  -0.01239,  -0.03118,   0.01526,   0.02779,   0.00848,  -0.00613,  -0.02857,   0.00535,  -0.03379,  -0.03170,   0.02674,  -0.01552,  -0.00248,   0.00378,  -0.00665,   0.03927,  -0.01813,  -0.02700,   0.02726,   0.01004,  -0.00196,   0.04344,   0.01996,   0.01057,   0.00430,  -0.00404,   0.00535,   0.00430,  -0.02700,  -0.00613,   0.02622,   0.02048,   0.02205,   0.00691,   0.04135,   0.01161,  -0.02126,   0.01161,   0.01839,  -0.00352,   0.00796,   0.01109,  -0.03901,   0.00117,   0.01631,   0.00848,  -0.00039,   0.00065,  -0.03066,   0.00952,  -0.01187,   0.04970,   0.00378,   0.01735,   0.02465,  -0.01083,   0.01892,   0.02048,   0.01839,   0.03248,  -0.00509,   0.00326,  -0.01657,   0.00691,  -0.00926,  -0.00144,  -0.00039,   0.00326,  -0.00039,  -0.00770,   0.01787,  -0.00665,   0.00483,  -0.00770,   0.01004,   0.00013,   0.01526,   0.03039,  -0.03692,  -0.05675,  -0.00561,  -0.01292,   0.00744,  -0.00352,   0.03405,  -0.02231,   0.02257,  -0.02022,  -0.04944,  -0.05518,   0.01578,  -0.02126,   0.00170,   0.02152,  -0.01083,  -0.01031,   0.01787,   0.00378,  -0.03118,  -0.03066,   0.01161,   0.01787,  -0.02596,   0.00326,   0.01057,   0.00691,   0.00117,   0.01839,  -0.00248,  -0.01866,  -0.00874,  -0.02648,   0.00170,  -0.00509,   0.02100,  -0.01396,   0.04083,  -0.00457,   0.00587,  -0.01344,  -0.02335,  -0.02961,  -0.00300,  -0.02961,   0.00691,   0.04031,  -0.01031,   0.02987,   0.01787,  -0.00926,  -0.00978,  -0.01918,   0.00430,   0.01265,  -0.00352,   0.01839,  -0.00665,   0.01370,   0.01578,   0.01318,   0.00900,   0.01683,  -0.00926,   0.01265,   0.02413,   0.04031,  -0.03431,   0.01474,   0.02987,  -0.03796,  -0.02805,  -0.02231,  -0.04527,   0.01996,  -0.01031,   0.01057,   0.00170,   0.00796,  -0.00144,   0.02622,  -0.01552,   0.00013,  -0.05257,   0.01787,   0.02518,   0.01787,   0.02465,  -0.01657,  -0.04005,  -0.03013,   0.00170,   0.01683,  -0.02022,   0.00952,  -0.00822,  -0.01813,   0.02883,  -0.00926,  -0.00978,  -0.02648,  -0.00561,  -0.00457,  -0.00091,   0.01265,   0.01892,   0.01265,  -0.03640,  -0.01344,  -0.00665,  -0.02648,  -0.02439,  -0.02909,  -0.00457,   0.02361,   0.01474,  -0.03796,  -0.01605,  -0.00144,   0.00117,   0.00274,   0.00274,  -0.02596,  -0.01918,   0.00744,  -0.03066,  -0.03118,  -0.00144,  -0.00665,  -0.01448,   0.00222,   0.00796,   0.04292,  -0.06614,   0.02622,  -0.04422,   0.02100,  -0.01396,  -0.02231,  -0.00352,   0.02465,  -0.01396,  -0.01657,   0.00848,   0.01318,   0.03927,  -0.00196,   0.01944,  -0.00561,   0.02100,   0.02465,   0.01892,   0.00900,  -0.00770,  -0.01552,   0.01839,  -0.00561,   0.01787,   0.01213,  -0.02335,   0.00065,   0.00952,   0.02048,   0.01109,   0.01526,  -0.00613,  -0.00509,  -0.00457,   0.01944,   0.00170,  -0.03848,   0.00691,   0.01161,   0.00170,   0.01004,  -0.00248,  -0.02596,   0.01213,  -0.00665,   0.01213,   0.01474,   0.01370,   0.00274,   0.01109,  -0.00561,   0.03979,   0.01057,  -0.00822,   0.01787,  -0.00248,   0.01578,  -0.01761,   0.01839,   0.02361,   0.00378,  -0.02387,  -0.03274,   0.00952,  -0.01918,   0.00483,   0.01109,   0.01265,   0.00535,  -0.01657,   0.02570,   0.01839,   0.01161,   0.00483,  -0.01187,  -0.00039,   0.00378,  -0.02179,   0.00170,   0.01839,   0.02622,   0.01318,  -0.00613,   0.00222,   0.00900,   0.01683,   0.01265,  -0.01657,   0.01735,  -0.01552,   0.01735,  -0.01083,  -0.03170,   0.00639,   0.02309,  -0.00248,   0.03561,   0.01213,  -0.02126,   0.00274,  -0.02335,  -0.03013,  -0.00718,   0.01892,   0.03979,   0.04135,   0.01735,  -0.02439,  -0.03066,   0.01318,   0.01004,   0.01735,  -0.00300,   0.00117,   0.00483,  -0.01709,   0.02100,  -0.01657,   0.00900,   0.02518,  -0.00404,   0.00639,   0.01526,   0.02413,   0.01004,  -0.00770,  -0.03118,  -0.00248,  -0.01135,   0.02570,  -0.00196,  -0.00404,  -0.00770,  -0.01605,   0.02100,   0.00013,  -0.01031,   0.01109,   0.01057,  -0.01761,  -0.02335,   0.02726,  -0.02492,  -0.00196,  -0.01552,  -0.01970,  -0.00144,   0.03927,  -0.01709,  -0.01135,  -0.03796,   0.01318,   0.00326,   0.05075,  -0.00561,   0.01213,  -0.00091,  -0.00509,   0.03092,   0.02465,   0.00587
   0.03457,  -0.00144,   0.02987,   0.00796,   0.00796,   0.02831,  -0.01239,   0.00691,  -0.00248,  -0.03379,   0.00535,  -0.00509,  -0.01918,  -0.02022,  -0.02648,  -0.00039,  -0.02283,  -0.00613,  -0.01552,   0.00430,  -0.02909,  -0.00039,  -0.01187,   0.00796,  -0.00926,  -0.04266,   0.00117,  -0.01344,   0.00170,  -0.00613,   0.00483,   0.00326,  -0.00718,  -0.00352,   0.03718,  -0.00613,  -0.02492,  -0.00718,  -0.00144,  -0.01866,   0.01004,  -0.03953,   0.02361,  -0.04996,   0.00326,  -0.02909,  -0.02753,  -0.03483,  -0.05727,   0.02465,  -0.03066,   0.00587,  -0.01866,   0.01683,   0.01474,  -0.01344,   0.01004,  -0.01709,  -0.01605,   0.02048,  -0.05205,  -0.00509,  -0.00561,  -0.00404,   0.03770,  -0.00248,   0.01474,  -0.02857,   0.01265,   0.04396,   0.00326,  -0.00978,  -0.03118,   0.01996,   0.01631,  -0.00039,  -0.02439,   0.03509,  -0.00770,  -0.01761,  -0.01500,  -0.02283,   0.00483,  -0.01292,   0.01839,  -0.00665,  -0.00770,   0.01370,   0.02726,  -0.00352,   0.02935,   0.02413,   0.00326,   0.01683,   0.01892,  -0.03013,   0.02779,  -0.03118,   0.01787,   0.00117,  -0.01970,   0.00848,   0.00535,   0.00796,   0.02100,  -0.02439,   0.00587,  -0.00509,   0.02831,  -0.02074,  -0.04266,  -0.00457,  -0.00561,  -0.01031,   0.00639,   0.01109,   0.01683,   0.03927,   0.00952,   0.02570,  -0.00822,   0.03248,  -0.00091,   0.02361,   0.00535,  -0.05205,   0.01683,  -0.01552,   0.00952,   0.01631,   0.01004,  -0.00404,   0.00796,   0.02883,   0.00170,   0.00796,   0.00744,  -0.03848,   0.01892,   0.00639,  -0.00926,  -0.01344,   0.03144,  -0.00926,  -0.01083,   0.02779,   0.00222,  -0.03901,   0.03405,   0.02309,  -0.02179,  -0.03327,  -0.01970,   0.00952,  -0.05831,   0.02413,   0.00274,  -0.03222,   0.01161,   0.00430,  -0.00770,   0.00013,   0.01996,  -0.02231,  -0.02179,   0.01526,   0.00378,  -0.01918,   0.00483,   0.00744,  -0.01083,   0.02100,   0.03927,   0.01787,   0.01370,  -0.02700,  -0.00874,  -0.00091,   0.01787,  -0.00144,  -0.00978,  -0.01500,   0.01735,   0.02987,  -0.00561,   0.00691,   0.00483,  -0.00509,   0.00535,  -0.01657,  -0.03066,  -0.01605,  -0.03796,  -0.01292,  -0.00509,  -0.00039,   0.01057,  -0.01083,   0.00691,   0.02048,  -0.02335,  -0.02700,  -0.00613,  -0.00404,  -0.01396,   0.00587,  -0.00509,  -0.00613,  -0.01031,  -0.01500,  -0.00926,   0.00848,  -0.01083,  -0.03431,  -0.01187,   0.01735,  -0.00926,   0.02205,  -0.00248,   0.00587,   0.01109,   0.00326,   0.00848,  -0.00196,  -0.00144,  -0.06718,   0.01892,   0.00744,  -0.00822,  -0.01187,   0.00013,   0.01735,   0.04344,   0.04292,   0.02361,  -0.00039,  -0.00613,   0.02152,   0.03039,   0.01109,   0.03405,  -0.02648,  -0.01396,  -0.05257,  -0.00300,  -0.05883,   0.02152,  -0.01239,   0.02831,  -0.01135,  -0.00978,  -0.00978,   0.01631,  -0.01396,   0.02883,   0.00744,   0.00848,   0.01265,  -0.00457,   0.00222,  -0.01813,  -0.00352,   0.00378,  -0.01918,  -0.00561,  -0.00196,   0.03613,   0.03457,  -0.02857,  -0.00300,  -0.05309,   0.00274,   0.01109,   0.01213,  -0.05779,  -0.03222,   0.00639,   0.00013,  -0.01500,  -0.01344,   0.02518,  -0.00822,   0.02779,   0.01892,  -0.00091,   0.02257,  -0.01396,   0.00639,  -0.00144,  -0.00978,   0.00274,  -0.00248,  -0.00926,  -0.00926,   0.00744,   0.00170,  -0.01031,  -0.00039,   0.03248,   0.01735,  -0.00144,  -0.01918,  -0.00091,   0.03092,  -0.00718,  -0.01239,   0.00222,  -0.00352,   0.01839,  -0.02126,   0.00170,   0.00744,  -0.02492,   0.04814,  -0.01552,   0.02779,   0.00796,   0.02100,   0.02100,  -0.02961,   0.00848,   0.00796,  -0.02335,   0.00744,   0.00744,   0.01474,   0.02465,   0.02100,   0.00796,   0.00535,  -0.02648,   0.00117,  -0.00352,   0.02570,  -0.02439,  -0.02231,   0.00430,  -0.01031,   0.01422,   0.01161,   0.00326,   0.00535,  -0.01448,  -0.00718,  -0.00248,   0.01683,   0.02831,   0.01004,   0.00535,   0.02048,  -0.01031,   0.02152,  -0.02700,   0.01892,  -0.00874,   0.02309,   0.01683,   0.00691,   0.00430,   0.01422,   0.01578,  -0.00561,  -0.03744,  -0.02179,   0.00326,   0.02883,   0.01839,  -0.01135,  -0.01605,  -0.00144,  -0.03848,   0.01996,   0.00952,  -0.00196,  -0.00144,   0.03092,   0.00274,   0.01213,   0.02309,  -0.02283,  -0.00561,  -0.03013,   0.00744,  -0.01918,   0.02883,  -0.00561,  -0.01083,   0.01057,  -0.02335,  -0.00665,   0.00378,   0.03144,   0.00378,  -0.02179,  -0.01918,   0.00222,  -0.01918,   0.01944,  -0.01187,   0.00170,   0.01004,  -0.02961,  -0.00457,   0.02152,  -0.02439,   0.00378,  -0.02022,  -0.02857,   0.01057,   0.00535,  -0.01239,  -0.04318,   0.02361,  -0.00822,  -0.00091,  -0.01135,  -0.01239,  -0.02231,   0.00952,  -0.00039,  -0.03535,  -0.01031,  -0.01396,   0.03666,   0.03874,   0.02465,  -0.00874,  -0.03327,   0.02883,   0.02257,  -0.00978,   0.01370,  -0.00248,  -0.01709,   0.00013,  -0.01500,   0.01318,   0.03770,  -0.01187,   0.01892,   0.02257,  -0.00091,  -0.03327,   0.02152,  -0.01135,   0.02987,   0.00430,   0.01161,   0.01892,  -0.04422,  -0.03640,   0.00900,   0.01265,  -0.00457,   0.00430,  -0.00457,  -0.00926,  -0.00300,  -0.00926,   0.00691,   0.01057,   0.03196,  -0.03327,   0.01578,  -0.02126,  -0.02857,  -0.01657,  -0.00196,  -0.04370,  -0.01187,   0.00483,   0.06327,   0.01109,   0.02622,  -0.04109,  -0.01187,   0.02152,   0.02674,   0.01057,   0.01631,   0.00170,  -0.01239,   0.02935,   0.00326,  -0.00770,  -0.01239,  -0.01292,   0.01370,   0.02152,   0.00535,  -0.00039,   0.00378,   0.00222,   0.02779,   0.01526,   0.02100,  -0.01083,  -0.00770,  -0.00822,   0.02779,  -0.02335,   0.01631,   0.00587,   0.00274,   0.01422,   0.01839,   0.00587,  -0.01344,  -0.00718,   0.01787,   0.00170,  -0.00039,  -0.02022,   0.01892,   0.00587,  -0.00874,   0.03874,  -0.02596,  -0.02648,   0.02205,  -0.01500,   0.01370,   0.01109,  -0.00978,   0.00848,   0.00065,   0.00952,  -0.00352,  -0.00665,  -0.00613,   0.01474,  -0.02648,   0.00378,   0.00430,   0.03822,   0.02257,  -0.01552,   0.01526,   0.00170,  -0.01292,   0.02309,   0.02674,  -0.03013,   0.03353,  -0.00926,  -0.01187,   0.01004,   0.00430,  -0.00926,   0.00900,   0.00065,  -0.00144,  -0.00352,   0.00065,   0.01735,  -0.00978,  -0.01135,  -0.00457,   0.01109,   0.00013,   0.00065,   0.01839,  -0.01292,   0.01839,  -0.00978,  -0.01657,  -0.02387,   0.01370,  -0.01448,  -0.01866,  -0.01709,   0.00639,  -0.03953,   0.00065,  -0.03327,  -0.00718
   0.01161,  -0.01135,  -0.00091,  -0.00196,  -0.02022,   0.01892,  -0.02492,   0.01996,   0.01944,  -0.03170,   0.01892,  -0.01709,  -0.01761,  -0.00404,   0.01109,  -0.01239,   0.00587,   0.02048,  -0.00822,  -0.03013,  -0.02961,   0.00587,  -0.01031,  -0.00926,   0.00796,   0.02048,   0.01735,   0.01370,  -0.00248,   0.02935,  -0.00665,  -0.02700,   0.02048,   0.01213,   0.01578,   0.01839,   0.00744,  -0.03692,  -0.00457,  -0.02283,   0.00378,  -0.02700,   0.01526,  -0.00457,  -0.04109,  -0.02492,  -0.00144,  -0.04109,  -0.00248,  -0.00770,  -0.00613,  -0.01344,  -0.03431,  -0.00822,   0.00900,   0.00378,  -0.00613,   0.00535,   0.00691,  -0.02544,  -0.00196,  -0.00352,   0.01631,  -0.00196,   0.00170,  -0.05831,  -0.02126,   0.01526,  -0.00300,  -0.00822,  -0.01135,  -0.01605,   0.00744,  -0.00665,  -0.00352,   0.01057,   0.00274,  -0.01552,   0.00639,   0.00587,  -0.01813,   0.00952,  -0.00874,  -0.00561,   0.00639,  -0.01135,  -0.01552,  -0.00978,  -0.05049,  -0.01135,   0.02048,   0.02883,  -0.02179,  -0.02335,   0.00952,   0.00483,   0.00117,  -0.02805,  -0.02074,  -0.01448,  -0.02961,  -0.00457,  -0.01500,  -0.02648,   0.02570,  -0.00039,  -0.01448,  -0.00665,  -0.00822,   0.02048,   0.01892,  -0.00822,  -0.02283,  -0.00091,  -0.02909,  -0.01396,  -0.02961,  -0.01605,  -0.00352,  -0.02700,   0.02048,  -0.00665,  -0.00144,  -0.00039,   0.01578,  -0.02753,  -0.02074,   0.03092,  -0.03744,  -0.03587,   0.03405,  -0.00978,  -0.00300,   0.03874,   0.02674,  -0.01709,  -0.01344,   0.00013,   0.00013,   0.01318,  -0.00718,  -0.00352,   0.00274,  -0.01187,   0.04292,   0.00013,  -0.02283,   0.00430,  -0.01970,  -0.00822,   0.01213,   0.00378,   0.02361,   0.00744,   0.01213,   0.00796,  -0.01448,  -0.02387,   0.03666,   0.00326,   0.04240,   0.01578,   0.01892,   0.00117,  -0.00248,   0.00900,   0.01683,  -0.00978,   0.00170,   0.02465,   0.01474,   0.02257,   0.01526,   0.01787,  -0.02544,   0.01370,   0.00639,  -0.01292,   0.01318,  -0.02074,  -0.00718,  -0.01448,  -0.04370,   0.00326,   0.02048,  -0.00039,  -0.01187,   0.00952,  -0.03848,  -0.01031,   0.02935,   0.00065,   0.00848,   0.00013,  -0.00978,  -0.02753,  -0.02909,  -0.04214,   0.02309,   0.00326,   0.02935,   0.00326,   0.01318,  -0.00561,  -0.00822,   0.02100,   0.02048,  -0.02074,  -0.01083,   0.01474,  -0.01187,   0.00430,   0.00691,   0.02570,   0.02257,   0.00535,  -0.01344,  -0.03535,  -0.00404,  -0.01709,   0.00222,  -0.01918,   0.00430,   0.00952,  -0.01396,  -0.02492,  -0.00144,  -0.00978,   0.04605,   0.01526,  -0.00822,   0.01265,  -0.00561,   0.00639,   0.00848,   0.01631,  -0.00822,   0.01787,   0.04187,  -0.00613,  -0.02492,   0.00483,   0.00900,   0.01631,  -0.02857,   0.01057,   0.00065,  -0.00770,   0.02570,   0.03613,  -0.00039,   0.02361,   0.01996,   0.02726,  -0.01396,  -0.04527,   0.02257,  -0.00978,  -0.00039,  -0.00718,   0.02361,   0.00117,  -0.01709,   0.00744,   0.00587,  -0.02074,   0.00848,   0.00378,  -0.00509,   0.00796,   0.00952,   0.00170,   0.01996,   0.03822,  -0.02387,   0.01892,   0.02100,  -0.01396,   0.00326,  -0.00665,   0.00535,  -0.00874,  -0.02492,  -0.00874,   0.00535,  -0.00196,   0.00013,   0.03666,   0.01370,   0.00952,   0.02413,   0.02831,  -0.00874,   0.03144,  -0.01657,   0.00848,  -0.00613,  -0.02179,  -0.00091,  -0.02231,  -0.01709,   0.01213,  -0.00457,  -0.00978,   0.01057,   0.00535,  -0.00144,  -0.00770,  -0.00457,   0.02413,  -0.00091,  -0.00457,  -0.04475,   0.03770,  -0.02596,   0.01004,  -0.00248,   0.01370,   0.01265,  -0.01239,  -0.00770,  -0.00404,   0.03144,   0.02048,   0.03248,   0.04240,  -0.00196,   0.00430,  -0.04788,  -0.03327,   0.00744,   0.02413,   0.00430,  -0.00509,  -0.01135,   0.02205,   0.02205,   0.00952,  -0.00404,  -0.01448,   0.02674,   0.00952,   0.01265,  -0.01813,  -0.02022,   0.01839,  -0.00144,   0.00274,   0.01370,  -0.02387,   0.00900,   0.01578,   0.02309,   0.01683,  -0.00613,  -0.03379,  -0.00248,  -0.03066,   0.01161,   0.00378,  -0.00248,   0.00013,   0.00691,  -0.01239,   0.01631,  -0.00665,  -0.01396,   0.01057,  -0.01031,   0.00744,  -0.00352,  -0.01031,   0.01057,   0.00796,   0.01735,  -0.01813,   0.00952,   0.01370,  -0.03274,   0.04657,  -0.01239,   0.00639,   0.00691,   0.04709,  -0.00613,   0.00117,   0.03039,  -0.02335,  -0.00457,   0.01683,  -0.00144,  -0.01605,  -0.00300,  -0.00718,   0.02674,  -0.00144,  -0.00665,  -0.02387,  -0.03327,   0.02048,  -0.00665,   0.00274,  -0.02231,  -0.00039,   0.01109,  -0.01657,  -0.01918,   0.01057,  -0.02961,   0.01057,   0.01318,  -0.00248,   0.00744,   0.02413,   0.03874,  -0.03953,   0.01526,  -0.02909,  -0.00091,  -0.00770,   0.00483,  -0.00509,  -0.01448,  -0.01918,   0.00065,   0.00900,   0.00900,   0.00065,  -0.00352,  -0.02022,  -0.02283,   0.01787,  -0.02126,   0.02674,   0.03248,  -0.00926,   0.01265,  -0.02753,   0.01787,   0.04031,   0.00900,  -0.01344,  -0.01396,  -0.01657,   0.02361,  -0.02544,  -0.00248,  -0.02231,   0.00013,   0.00535,   0.04448,  -0.02648,  -0.00091,  -0.01448,  -0.01396,  -0.00770,  -0.00091,  -0.00926,  -0.01709,   0.02048,  -0.02335,  -0.01605,   0.00900,  -0.00144,  -0.00039,  -0.03066,  -0.04475,  -0.01396,   0.02205,   0.00483,  -0.01657,   0.00952,  -0.04422,  -0.00248,  -0.00248,   0.00065,   0.00013,  -0.03483,  -0.02909,  -0.00978,  -0.03327,   0.01161,   0.01004,   0.01370,  -0.00665,  -0.00144,   0.01057,   0.02987,  -0.00561,   0.00013,  -0.00300,   0.00691,   0.00430,   0.00848,  -0.02231,  -0.02961,   0.00117,  -0.00404,  -0.01187,  -0.01605,   0.01787,  -0.01970,  -0.01187,  -0.00144,   0.00222,   0.00170,  -0.04005,   0.01683,   0.02361,  -0.00404,   0.01318,   0.02518,   0.00639,  -0.00352,  -0.00248,   0.02726,   0.02100,  -0.01500,  -0.00561,  -0.00613,  -0.00613,  -0.04161,  -0.02961,  -0.00457,  -0.02074,  -0.01605,  -0.00091,  -0.00457,   0.00274,   0.00483,   0.04135,  -0.04057,   0.00013,   0.02152,  -0.01918,  -0.01552,   0.01474,  -0.00561,   0.00796,   0.01318,  -0.01396,   0.02465,  -0.01083,   0.02309,   0.00378,   0.00430,   0.00065,  -0.03587,  -0.01552,   0.01474,   0.02257,   0.01474,  -0.01448,   0.00639,   0.00639,   0.03196,   0.00013,   0.02831,  -0.03587,  -0.01761,  -0.00039,   0.01370,   0.01422,   0.00117,  -0.01396,  -0.02074,   0.00222,  -0.00039,   0.01422,  -0.00613,  -0.03066,   0.03092,  -0.00770,  -0.02909,  -0.00561,  -0.00300
   0.00013,   0.01057,   0.03092,  -0.04996,   0.00013,   0.01422,   0.03979,  -0.03744,   0.04292,   0.00378,  -0.00822,   0.05075,   0.00170,   0.00430,  -0.01344,   0.01109,  -0.00300,  -0.05362,   0.02883,   0.00378,   0.00274,  -0.01918,   0.00848,   0.02831,   0.02831,   0.03092,   0.01318,   0.01474,  -0.02022,  -0.02909,   0.00274,  -0.01292,  -0.00613,  -0.01500,  -0.01135,  -0.00822,   0.04448,  -0.00404,   0.00535,   0.00222,   0.02883,   0.01370,   0.01057,  -0.02231,  -0.00091,   0.04240,   0.01109,  -0.01970,   0.00378,   0.03979,   0.01944,  -0.01813,   0.02205,  -0.03483,   0.00900,  -0.00978,  -0.02805,  -0.00926,  -0.00300,  -0.00352,   0.00222,   0.00013,   0.02726,   0.00587,  -0.02022,  -0.04735,   0.03927,  -0.00561,   0.00065,  -0.02857,   0.00691,  -0.00248,  -0.00561,   0.03092,  -0.00457,   0.01526,   0.03300,   0.01996,   0.01265,   0.00430,   0.01109,  -0.00822,   0.00639,   0.02674,  -0.04266,   0.00326,   0.01578,  -0.00978,  -0.01031,  -0.01135,  -0.02909,  -0.02179,  -0.00091,  -0.01709,   0.00430,   0.01265,   0.02726,  -0.01500,   0.01631,   0.02257,  -0.01292,  -0.01866,   0.01161,   0.01422,   0.01422,   0.01057,  -0.02074,   0.01370,  -0.02961,  -0.02909,  -0.00874,   0.00796,   0.01526,  -0.00300,  -0.00144,   0.01370,   0.01161,   0.01631,   0.00117,  -0.01239,   0.00483,   0.00691,  -0.00874,   0.01735,  -0.00352,  -0.04527,   0.01370,  -0.01031,  -0.00248,  -0.00561,   0.03039,  -0.01866,  -0.04944,   0.02518,   0.01161,   0.00848,   0.01526,   0.01422,  -0.00874,   0.00117,   0.01578,  -0.02074,  -0.01396,   0.03822,  -0.02387,   0.00378,  -0.01970,  -0.04631,   0.02048,  -0.00613,   0.02257,   0.00900,  -0.01396,  -0.06614,  -0.00091,  -0.02179,  -0.02179,  -0.01396,   0.01892,   0.00117,  -0.00404,   0.01787,   0.02205,   0.01265,   0.00430,  -0.01657,  -0.00718,  -0.02387,  -0.01448,   0.00744,   0.03353,  -0.00144,   0.00274,  -0.00404,   0.02361,   0.01422,   0.01892,  -0.01448,  -0.01605,   0.00222,  -0.00352,  -0.02439,   0.03144,  -0.00144,   0.00117,  -0.00613,  -0.01031,  -0.00509,   0.00796,   0.00222,   0.00587,   0.02779,  -0.01918,  -0.00770,  -0.00091,   0.01318,  -0.00718,  -0.00718,   0.01996,   0.00013,   0.03300,   0.01787,   0.01109,   0.00065,  -0.02335,  -0.00874,  -0.02231,   0.00691,  -0.00144,   0.01474,  -0.02179,  -0.00665,  -0.00300,   0.03144,   0.03144,  -0.01552,  -0.01396,   0.02935,   0.02935,  -0.02700,  -0.01292,  -0.00300,  -0.01813,   0.01370,   0.00430,  -0.00822,   0.01735,  -0.01031,  -0.00822,  -0.02961,  -0.00196,   0.00430,  -0.01552,  -0.02179,  -0.02909,  -0.01552,   0.01109,  -0.00613,   0.00848,  -0.00457,  -0.00822,   0.03770,   0.03613,   0.02100,   0.01318,   0.03613,   0.01161,  -0.01187,  -0.00770,   0.00274,  -0.02544,   0.03822,  -0.05049,   0.00691,  -0.01657,  -0.00404,  -0.00091,  -0.01761,   0.00848,  -0.01396,  -0.00718,   0.00483,   0.00483,   0.03144,  -0.01031,   0.00013,  -0.03170,   0.01370,   0.02622,  -0.00718,  -0.01239,   0.00900,  -0.02022,  -0.01709,   0.02570,   0.00848,  -0.01083,  -0.05362,   0.00117,  -0.00144,   0.01318,  -0.02022,   0.00952,   0.00274,   0.01683,   0.01944,   0.00900,  -0.00926,  -0.01761,  -0.03483,   0.00117,   0.01526,  -0.04161,  -0.00509,   0.00848,  -0.01292,  -0.00404,  -0.02335,  -0.00039,  -0.03274,  -0.00196,  -0.00144,  -0.00300,  -0.01552,   0.01839,   0.00378,  -0.01970,  -0.01970,   0.01944,   0.00378,   0.01213,  -0.03953,   0.01161,  -0.01552,   0.04553,  -0.01709,  -0.03013,  -0.00665,  -0.02857,  -0.02022,  -0.03222,  -0.01761,   0.01735,  -0.00248,   0.02831,  -0.02074,   0.00639,  -0.01813,   0.02309,  -0.01187,  -0.00926,   0.00170,  -0.01657,  -0.01135,  -0.01605,   0.04709,  -0.00248,  -0.01448,   0.01213,   0.04344,  -0.00300,   0.03196,  -0.01970,  -0.00091,   0.01735,   0.01057,   0.00222,  -0.00091,   0.03874,  -0.00248,   0.01213,  -0.01709,   0.00274,   0.00378,   0.01683,  -0.03692,  -0.03222,  -0.01083,  -0.00718,  -0.01031,  -0.00300,   0.00170,  -0.00613,  -0.00300,   0.04292,  -0.01344,  -0.00874,  -0.00091,   0.01787,   0.00274,   0.01370,   0.00848,   0.01422,  -0.00248,   0.00326,   0.02309,   0.02883,  -0.02335,   0.01057,   0.06066,   0.00587,  -0.02648,  -0.00665,  -0.01448,   0.03822,  -0.01344,  -0.00091,   0.02361,   0.01161,   0.01213,   0.00796,   0.02674,   0.01996,  -0.05362,  -0.01657,   0.01996,  -0.00822,  -0.02857,   0.00430,  -0.03066,  -0.00091,   0.00117,  -0.01292,   0.02726,  -0.00352,   0.03718,   0.00326,  -0.01709,  -0.01292,  -0.00613,   0.00952,  -0.01813,  -0.00770,  -0.02961,   0.02257,  -0.01083,  -0.00665,   0.01944,  -0.00352,  -0.00874,   0.00900,   0.01161,  -0.05623,   0.02361,  -0.01605,  -0.00248,   0.00378,   0.01318,   0.01213,  -0.01083,   0.00691,   0.00117,  -0.01866,   0.01839,   0.00691,  -0.00665,   0.02570,  -0.02022,   0.00170,   0.01996,  -0.02022,   0.01839,  -0.02544,  -0.00091,  -0.03327,  -0.01031,   0.00378,  -0.00091,  -0.00718,  -0.02596,  -0.02961,   0.01631,   0.01631,   0.00483,  -0.01083,   0.04709,   0.00326,   0.01631,  -0.00039,  -0.03379,  -0.01500,   0.01839,   0.00117,   0.02883,  -0.03796,  -0.04005,  -0.02648,  -0.01918,  -0.01135,   0.01944,  -0.00404,   0.00170,  -0.02231,   0.01787,   0.00483,  -0.00926,  -0.02909,   0.04083,   0.04814,  -0.00039,   0.00170,   0.01318,   0.00744,   0.01683,   0.01526,   0.02935,   0.00796,  -0.02126,   0.00952,   0.02987,   0.00274,   0.00013,  -0.00144,  -0.00978,  -0.01396,  -0.03483,  -0.00091,  -0.01187,  -0.03692,  -0.00404,   0.00117,  -0.02648,   0.00691,  -0.03901,   0.02570,  -0.02961,   0.01474,   0.01109,  -0.00665,  -0.03066,   0.00535,  -0.00509,   0.00430,  -0.03640,  -0.03274,   0.02413,   0.01631,  -0.02439,  -0.04944,   0.01631,  -0.02909,   0.00430,   0.00274,  -0.01813,   0.03874,   0.02048,   0.00065,   0.00430,   0.05283,   0.02205,   0.02309,   0.01526,   0.00535,   0.00744,   0.03509,   0.03718,   0.00535,  -0.03222,   0.01578,  -0.00144,  -0.01918,  -0.02700,   0.03144,  -0.00300,   0.00587,  -0.00718,   0.00952,  -0.01135,  -0.02126,  -0.01135,   0.04083,   0.03509,   0.03770,  -0.03379,   0.02935,  -0.00352,   0.01109,   0.01839,   0.02205,  -0.02857,  -0.00404,   0.01057,   0.00535,   0.01265,  -0.02544,  -0.01918,  -0.00978,  -0.03118,   0.00013,  -0.01813,  -0.00457,  -0.00144,   0.00378,  -0.02648,   0.01265,   0.01735
  -0.03483,   0.03613,   0.04031,   0.04187,   0.01944,  -0.02544,  -0.00561,  -0.02648,  -0.03274,  -0.01761,   0.01318,   0.00170,   0.00483,   0.01683,   0.01787,   0.01213,  -0.00874,  -0.02909,   0.03405,   0.01683,   0.01004,   0.04083,  -0.00770,   0.01109,   0.00744,   0.00274,   0.00274,   0.01057,   0.03405,  -0.00144,   0.01109,  -0.00196,  -0.01396,   0.01526,  -0.00091,  -0.01239,  -0.03587,   0.00170,   0.00744,   0.00483,   0.00326,   0.02883,  -0.01396,   0.01631,  -0.03379,  -0.02126,   0.01265,  -0.00300,   0.03144,  -0.01605,  -0.00665,   0.02257,   0.00378,   0.01578,  -0.02648,   0.00170,  -0.00404,   0.01004,  -0.06144,  -0.01083,  -0.03848,  -0.00665,   0.02257,   0.00639,  -0.00352,   0.04866,  -0.00665,  -0.01918,  -0.02909,   0.01265,   0.00222,   0.05075,  -0.01761,  -0.02283,  -0.00091,  -0.01135,   0.01265,  -0.03170,   0.00378,   0.00483,   0.01213,  -0.01239,   0.00378,  -0.01239,   0.02935,   0.00535,  -0.01605,   0.00170,  -0.02283,   0.01735,  -0.00770,   0.00222,  -0.00613,   0.00587,   0.01474,   0.03927,   0.00013,  -0.00509,  -0.01448,  -0.01031,   0.00848,  -0.00613,  -0.01135,  -0.00613,  -0.00457,  -0.01709,   0.00744,   0.01735,   0.00744,  -0.00352,   0.00378,  -0.00665,   0.01787,  -0.03692,   0.01526,   0.02048,   0.01996,  -0.03796,   0.01422,   0.04396,  -0.01083,  -0.03431,   0.00587,  -0.01344,   0.01057,   0.02257,   0.02831,  -0.00352,   0.01109,  -0.02961,  -0.03118,   0.03248,  -0.02335,  -0.02492,   0.01996,   0.01474,  -0.00926,   0.01631,   0.04240,   0.01735,  -0.00248,   0.04553,   0.00691,   0.01996,  -0.01970,  -0.00091,   0.02518,  -0.02074,   0.03405,   0.00744,   0.01631,  -0.00091,  -0.00196,  -0.00091,  -0.00248,   0.00587,  -0.01031,  -0.00509,   0.00326,  -0.00822,  -0.00248,   0.00848,  -0.00300,  -0.01396,   0.03457,   0.01422,   0.00222,  -0.02961,   0.01004,   0.00483,   0.02413,   0.01318,  -0.02805,   0.01892,   0.01265,  -0.00874,   0.02048,   0.02205,   0.01996,  -0.00039,   0.01631,  -0.01031,  -0.01709,  -0.00196,  -0.01187,   0.00117,   0.00117,   0.02518,  -0.03327,   0.00430,   0.00639,   0.01526,   0.02100,  -0.03535,   0.00013,  -0.03535,  -0.02753,   0.01422,   0.02100,  -0.01605,  -0.02231,   0.00691,  -0.00457,   0.00274,  -0.01344,   0.00900,  -0.00665,   0.00535,  -0.01605,   0.00639,   0.00065,  -0.03170,  -0.01031,  -0.00718,  -0.03013,   0.02935,   0.00065,  -0.02648,  -0.04475,   0.00952,   0.00900,  -0.01031,   0.00013,  -0.03535,   0.01213,  -0.00196,   0.01839,  -0.03222,  -0.01396,  -0.04996,   0.00587,   0.00483,  -0.00352,   0.00013,   0.02048,   0.04448,  -0.03013,  -0.03379,   0.00378,  -0.02492,   0.05022,  -0.02126,  -0.00039,  -0.02283,   0.00430,  -0.00561,  -0.01866,   0.02465,  -0.00822,  -0.02544,   0.00430,  -0.01500,   0.00952,   0.00535,   0.01839,   0.01631,   0.02518,  -0.02126,   0.01161,  -0.02387,  -0.00039,  -0.02074,  -0.01552,  -0.01605,   0.00378,   0.01213,   0.01370,   0.01370,  -0.01657,   0.03300,  -0.01761,  -0.00561,   0.02987,   0.01109,  -0.00457,  -0.03587,  -0.01761,  -0.00248,   0.03457,  -0.00248,  -0.04214,   0.01683,  -0.02335,   0.01370,  -0.03483,   0.01944,  -0.02596,   0.03196,   0.00900,   0.00170,  -0.01031,   0.00065,  -0.00561,   0.00117,  -0.02231,  -0.02961,   0.00274,   0.00222,   0.01944,   0.00170,  -0.01605,  -0.00352,  -0.02700,  -0.01083,  -0.00874,  -0.00457,   0.01996,  -0.01813,   0.02935,  -0.00144,  -0.04214,  -0.01031,  -0.00091,  -0.00718,  -0.01292,  -0.02231,   0.00117,  -0.00822,   0.02048,  -0.01135,  -0.01135,   0.00222,  -0.02544,  -0.00874,   0.01370,   0.02257,  -0.04214,   0.00952,  -0.01552,  -0.00822,  -0.01657,   0.01004,   0.00587,  -0.00822,   0.00117,   0.05596,  -0.00039,  -0.01083,  -0.03013,  -0.01396,   0.01735,   0.01839,  -0.00822,  -0.02753,  -0.01344,  -0.01918,  -0.03483,   0.00691,   0.01474,  -0.00770,   0.03405,   0.00222,   0.00691,   0.00483,  -0.03222,  -0.01918,   0.00117,  -0.00874,   0.01213,  -0.00144,   0.00117,   0.01318,   0.00274,  -0.00926,  -0.02074,   0.00796,  -0.03848,  -0.03640,  -0.02335,   0.04448,  -0.01657,  -0.02492,  -0.01239,  -0.03587,  -0.00248,   0.01265,   0.03353,  -0.01344,   0.03144,  -0.00248,  -0.00978,  -0.01605,   0.01892,  -0.00039,   0.01787,  -0.00561,  -0.00613,   0.04240,   0.01109,   0.01631,  -0.00665,  -0.02126,  -0.02700,   0.01735,   0.02205,   0.02361,   0.00535,   0.01839,  -0.01448,   0.00430,   0.01213,   0.01057,   0.01109,   0.02413,  -0.00613,  -0.04683,  -0.00874,  -0.00613,  -0.00196,   0.01683,   0.02883,   0.00430,  -0.00091,   0.01213,  -0.02231,  -0.00039,  -0.00144,  -0.00874,   0.01578,   0.00744,  -0.02283,  -0.01135,   0.00013,  -0.01970,   0.00326,   0.01839,  -0.00039,  -0.02805,   0.00378,   0.01631,   0.02726,  -0.00196,   0.01318,   0.00587,  -0.01813,  -0.03796,  -0.00300,   0.00535,  -0.01448,   0.00065,  -0.01031,  -0.01709,   0.01944,   0.02413,  -0.01292,   0.00639,   0.01892,   0.01996,  -0.04996,  -0.03170,  -0.00613,   0.00535,  -0.00613,   0.01996,  -0.00196,   0.00274,  -0.00718,   0.01474,  -0.01083,   0.00170,   0.00013,   0.01004,  -0.00665,  -0.01239,   0.00117,   0.00274,   0.04605,   0.02100,  -0.00039,   0.02831,  -0.00248,  -0.01813,   0.01004,   0.06275,  -0.01448,  -0.01135,   0.00326,   0.03248,  -0.00091,  -0.02387,   0.04657,   0.00535,   0.00952,  -0.01970,   0.01057,   0.01004,  -0.00091,  -0.01657,  -0.01083,   0.00326,  -0.00404,   0.00587,  -0.00196,  -0.00509,  -0.02961,   0.00065,   0.00900,  -0.02805,  -0.02074,  -0.04109,   0.03300,  -0.00509,  -0.01918,  -0.00718,   0.01631,  -0.04527,   0.01839,   0.01161,   0.01057,   0.00013,   0.02309,   0.00744,  -0.01396,  -0.00091,  -0.03118,   0.01109,  -0.01083,  -0.00613,  -0.00561,  -0.01761,  -0.00091,   0.02518,  -0.00613,   0.00274,   0.03979,  -0.01448,   0.00117,   0.01109,  -0.04214,   0.02518,   0.00587,   0.04135,  -0.03744,  -0.01918,  -0.00561,   0.02883,   0.03144,   0.00639,   0.00065,  -0.01552,   0.01474,  -0.00718,   0.01944,  -0.01657,  -0.00039,   0.01109,   0.00587,  -0.00978,  -0.02648,   0.03353,   0.02257,  -0.02074,   0.03039,   0.01683,  -0.01709,  -0.04266,   0.00378,   0.00274,  -0.02753,   0.00796,   0.02518,  -0.00091,   0.04814,  -0.00561,  -0.00404,  -0.02126,  -0.01344,  -0.01709,  -0.02909,   0.00535,  -0.04266,   0.01683,   0.00274,   0.01004,  -0.01031,   0.01892
   0.00639,  -0.00248,   0.02361,   0.00013,   0.01318,   0.03561,   0.01683,   0.00796,  -0.01135,   0.02257,  -0.00926,  -0.02439,   0.00796,  -0.01552,  -0.00926,  -0.00613,  -0.02231,  -0.00874,  -0.00248,  -0.00665,   0.03248,   0.00952,  -0.00665,  -0.01344,   0.04135,   0.02726,  -0.03953,  -0.02439,  -0.00196,   0.02152,  -0.00300,  -0.00978,  -0.02544,   0.01892,  -0.04161,  -0.00404,   0.01787,  -0.00144,   0.02257,  -0.00248,  -0.03066,   0.02257,   0.00170,   0.00326,  -0.02022,  -0.01135,   0.01578,  -0.00091,  -0.00770,  -0.01031,   0.00900,   0.00013,   0.04292,  -0.01970,   0.01318,   0.01057,   0.00326,  -0.00874,  -0.01866,   0.01422,  -0.03379,  -0.02596,  -0.01239,  -0.00926,   0.00013,   0.01474,  -0.02335,   0.02413,   0.00013,   0.00378,   0.01318,   0.02674,   0.00900,   0.02570,  -0.01500,  -0.00613,   0.03300,  -0.00144,   0.00848,   0.03457,  -0.01344,  -0.02179,   0.01265,   0.00430,  -0.03327,   0.01057,   0.00013,  -0.00300,   0.02257,   0.00378,  -0.01970,   0.01631,  -0.01239,  -0.01500,   0.00796,  -0.01866,  -0.01448,  -0.04057,   0.05388,   0.00744,  -0.03796,  -0.02596,  -0.02231,  -0.00196,  -0.01657,  -0.01500,   0.02674,   0.01004,   0.01161,  -0.01187,   0.01213,   0.01839,   0.00222,  -0.00822,  -0.03274,   0.01161,  -0.02596,   0.01474,   0.00430,  -0.03483,   0.03300,   0.01735,  -0.00144,  -0.00300,  -0.00091,  -0.02231,  -0.01083,  -0.01657,  -0.01448,   0.03353,   0.02570,  -0.00561,  -0.00718,  -0.00039,  -0.00874,   0.00744,   0.00013,  -0.01761,   0.02152,   0.00483,   0.02205,  -0.01344,   0.01004,   0.00900,  -0.00248,  -0.01135,   0.01109,   0.00013,   0.00065,  -0.02857,  -0.00718,   0.01683,  -0.02544,  -0.01448,  -0.02335,  -0.00039,  -0.00770,  -0.00561,   0.01318,   0.02152,   0.00952,  -0.04475,   0.01892,   0.00587,  -0.01918,   0.00326,  -0.00718,   0.01318,   0.01996,  -0.01239,  -0.00404,  -0.01031,   0.05075,   0.02622,  -0.00352,  -0.01239,  -0.01083,  -0.00457,  -0.01552,  -0.00300,   0.01422,  -0.00352,   0.00900,   0.03300,   0.01996,  -0.04266,   0.00848,  -0.00561,   0.03770,  -0.02805,   0.00065,  -0.02648,  -0.00561,   0.01683,  -0.00874,   0.01265,  -0.00509,  -0.00874,  -0.01448,   0.00848,  -0.01187,  -0.01918,  -0.01813,   0.01578,   0.04657,   0.02570,  -0.00300,  -0.01083,   0.01578,   0.01683,  -0.01083,   0.00900,  -0.01605,  -0.03587,   0.02361,   0.03039,  -0.00822,   0.02726,  -0.00874,   0.00430,  -0.00509,  -0.00091,  -0.03483,   0.00639,  -0.01135,  -0.02231,  -0.03327,   0.00535,   0.00065,   0.02570,  -0.00770,  -0.02074,   0.00900,   0.00378,   0.01265,   0.01631,   0.02309,   0.00274,   0.02361,   0.00013,  -0.00091,   0.01892,   0.00222,   0.00065,   0.00587,   0.01161,  -0.00509,  -0.03222,  -0.00718,   0.02779,   0.00587,   0.00117,   0.00065,  -0.01918,  -0.01031,  -0.01970,   0.00222,   0.01265,   0.00170,  -0.01292,   0.05649,  -0.01344,  -0.00457,   0.02100,  -0.00457,  -0.00978,  -0.01083,  -0.01500,  -0.00978,   0.00013,   0.04448,  -0.01031,  -0.00822,  -0.00770,  -0.00457,  -0.01135,   0.03300,  -0.01239,  -0.01709,   0.01213,   0.00952,   0.02205,   0.02309,   0.00639,   0.00900,   0.02361,   0.03927,   0.00378,   0.01422,   0.00430,   0.00065,  -0.05466,  -0.00978,  -0.02492,  -0.02022,   0.01631,  -0.03170,  -0.01344,   0.00117,   0.00170,  -0.00300,  -0.00144,  -0.02335,  -0.01239,   0.00222,  -0.00091,   0.03144,   0.01526,  -0.01292,   0.01370,   0.04709,   0.01787,  -0.02179,  -0.01344,   0.05022,   0.04448,   0.00535,   0.01526,  -0.01187,   0.03353,  -0.03066,   0.00378,  -0.00091,   0.00326,  -0.02961,  -0.00613,   0.01109,   0.02048,  -0.01500,   0.00691,   0.01318,  -0.01918,  -0.01918,   0.01787,  -0.02648,   0.01631,   0.01944,  -0.03170,  -0.02596,  -0.03483,  -0.02753,   0.03770,   0.00900,   0.01787,   0.02048,   0.02987,   0.01996,   0.02413,  -0.01448,  -0.00613,   0.01631,   0.02726,   0.01735,  -0.01292,   0.02987,  -0.01396,  -0.00718,  -0.00457,   0.01109,   0.00900,  -0.01135,   0.00639,  -0.00039,   0.00378,  -0.02074,   0.04657,  -0.01761,   0.00274,   0.01004,   0.01109,  -0.00718,  -0.02231,  -0.02909,   0.01474,  -0.03118,   0.00900,  -0.01552,   0.00952,  -0.00665,   0.01370,  -0.01866,   0.03039,   0.00013,  -0.01918,  -0.02231,   0.00274,  -0.02492,   0.00587,   0.00430,   0.00013,  -0.02179,   0.04344,   0.00587,   0.01735,   0.02987,  -0.03222,  -0.00665,   0.00430,  -0.02335,   0.00535,  -0.00196,  -0.02126,  -0.02492,   0.00535,  -0.04318,  -0.00822,  -0.00561,   0.01161,   0.03457,  -0.05466,   0.00013,  -0.00978,  -0.01918,   0.01839,  -0.01866,   0.02361,   0.00065,   0.01631,  -0.00613,  -0.00665,   0.00065,  -0.00457,   0.03039,  -0.01709,  -0.04788,  -0.02439,   0.00639,   0.00691,  -0.00613,  -0.02439,   0.01631,  -0.01500,  -0.02544,  -0.01187,   0.01370,   0.00744,  -0.01396,   0.00796,  -0.01187,   0.00744,  -0.00665,   0.02465,  -0.04005,  -0.01083,   0.01057,   0.02518,   0.00117,  -0.00874,  -0.02283,  -0.00770,  -0.01031,  -0.00561,   0.00691,  -0.03744,   0.00483,  -0.01918,  -0.01500,  -0.00144,  -0.00561,  -0.02022,  -0.01605,  -0.00665,   0.01944,  -0.03118,  -0.02387,  -0.03901,  -0.02126,   0.00952,   0.01474,  -0.02492,  -0.01135,  -0.01448,   0.03613,   0.01526,   0.01265,  -0.02231,  -0.01083,  -0.02231,  -0.02231,   0.02048,  -0.01500,   0.00065,   0.02674,  -0.02179,   0.01370,  -0.01657,   0.03405,  -0.00404,  -0.01918,   0.01892,   0.03927,   0.00274,  -0.01396,   0.03405,  -0.00613,  -0.00613,   0.04031,   0.00848,   0.02048,   0.00430,   0.02048,   0.03874,  -0.03587,  -0.02231,   0.00222,   0.01370,  -0.03327,   0.01631,   0.01996,   0.00274,  -0.02857,   0.01265,  -0.02387,   0.02779,  -0.01083,  -0.02126,   0.00222,  -0.01709,  -0.00561,  -0.01031,   0.01631,   0.02935,   0.01370,  -0.01292,  -0.00926,  -0.04266,   0.01265,  -0.00509,  -0.01187,  -0.02909,   0.01004,   0.00587,  -0.01135,  -0.00144,   0.03039,  -0.01187,  -0.00926,   0.02309,   0.02048,  -0.02544,   0.01996,  -0.05466,  -0.03796,  -0.00926,  -0.00091,   0.01318,   0.01944,  -0.02074,  -0.01761,   0.00535,  -0.00874,   0.03300,   0.02361,  -0.05883,   0.00639,  -0.00352,   0.01161,   0.03405,   0.02465,   0.00796,   0.04292,   0.01422,   0.02622,  -0.01866,  -0.02387,  -0.04266,  -0.00039,  -0.00978,   0.02779,  -0.01709,  -0.00718,   0.03248,   0.03353,   0.02518,  -0.00352,  -0.00404
   0.01944,  -0.00978,  -0.00196,  -0.00613,  -0.00300,   0.00483,   0.01683,  -0.00457,  -0.02961,  -0.02231,   0.01526,   0.00952,   0.01839,   0.01265,  -0.02805,   0.03770,   0.04240,  -0.00718,   0.01109,   0.01422,  -0.01866,  -0.02700,   0.01996,   0.01735,  -0.02700,  -0.00091,   0.01370,  -0.01709,  -0.01344,  -0.01657,  -0.01448,  -0.03796,   0.03874,  -0.03274,  -0.03953,   0.02413,  -0.03327,   0.00430,  -0.01866,  -0.00248,   0.00065,   0.02048,  -0.00665,  -0.02857,   0.01318,   0.00274,  -0.00718,   0.00744,  -0.00404,   0.01892,   0.01474,   0.03770,   0.00796,   0.02674,  -0.00248,   0.04083,  -0.01239,  -0.00196,  -0.03013,  -0.01031,   0.01735,   0.03666,   0.01996,   0.01944,   0.02257,  -0.00457,   0.00744,   0.02048,  -0.00144,  -0.00926,  -0.03640,  -0.00718,  -0.05988,  -0.00561,   0.01370,  -0.00874,  -0.00300,  -0.01292,  -0.00248,  -0.05101,  -0.01552,  -0.02179,  -0.01500,  -0.03483,  -0.04422,  -0.01657,  -0.00091,  -0.03640,   0.01526,   0.01526,   0.02257,   0.05022,  -0.00822,   0.01787,   0.00170,  -0.01552,   0.03039,  -0.03327,   0.00535,   0.02779,   0.00744,   0.02883,  -0.00561,   0.02361,  -0.00978,   0.01161,  -0.01135,   0.00639,  -0.02753,  -0.00248,  -0.00039,  -0.00300,   0.03039,  -0.00874,  -0.00770,  -0.01187,  -0.02492,  -0.00665,  -0.00822,   0.01735,   0.00326,   0.00587,   0.01787,  -0.01500,  -0.01552,   0.04135,  -0.01239,  -0.02700,  -0.00822,   0.00170,   0.01004,  -0.00509,   0.01318,   0.00952,   0.00587,   0.00796,  -0.00352,  -0.01552,   0.03979,   0.01631,  -0.02439,  -0.00718,   0.01996,   0.03092,   0.02152,   0.02465,  -0.02179,  -0.00352,  -0.00770,   0.02935,   0.00848,  -0.02596,  -0.00874,  -0.01552,  -0.00978,   0.00691,   0.00326,   0.01631,  -0.00300,  -0.02492,  -0.01292,   0.00483,  -0.01344,  -0.02700,   0.01370,  -0.01239,   0.01213,   0.01004,  -0.00300,   0.04396,   0.03092,   0.03927,  -0.02022,  -0.04422,  -0.03013,  -0.01552,  -0.01657,   0.02674,  -0.01344,  -0.00457,  -0.02074,   0.00013,  -0.01761,   0.02205,  -0.02857,   0.01735,   0.01839,  -0.01083,   0.02152,  -0.00457,   0.00222,   0.00326,  -0.00874,  -0.00874,   0.02518,   0.00691,  -0.01813,   0.02674,  -0.02074,   0.03300,   0.01161,  -0.02335,  -0.01657,   0.03248,   0.02987,   0.00535,   0.01370,   0.02779,   0.00744,  -0.00874,  -0.01396,   0.01526,   0.01578,   0.01265,   0.01474,   0.00013,  -0.02335,   0.04187,  -0.00718,  -0.00404,   0.01057,  -0.01813,   0.01422,   0.02518,  -0.00822,  -0.00978,  -0.00300,   0.01109,  -0.03431,  -0.00509,  -0.01709,   0.00848,   0.01735,   0.01213,   0.00013,  -0.05049,  -0.03848,  -0.00978,  -0.02753,   0.03457,  -0.01135,   0.02048,  -0.00248,   0.00691,   0.01422,  -0.00874,   0.00848,   0.01631,  -0.01918,  -0.00091,  -0.01187,   0.00639,  -0.01344,   0.01318,  -0.00561,  -0.00926,  -0.01239,  -0.01709,   0.00222,   0.01109,  -0.00352,  -0.01918,   0.02048,   0.02048,   0.00691,   0.03561,   0.00430,  -0.01396,  -0.00613,  -0.00039,  -0.01605,  -0.03118,   0.00796,   0.02413,   0.00848,  -0.00352,  -0.00613,  -0.02805,   0.02831,   0.00744,   0.00274,   0.02257,  -0.00718,  -0.00196,   0.00848,  -0.02283,  -0.02335,  -0.02126,  -0.02126,   0.01370,   0.06588,  -0.02283,  -0.00770,   0.00065,  -0.00196,  -0.02231,   0.02257,   0.00796,  -0.00718,  -0.02283,  -0.00404,   0.00535,   0.00639,  -0.01396,  -0.03848,   0.01578,  -0.00144,  -0.01292,   0.00430,  -0.01292,   0.00430,  -0.01031,  -0.00300,   0.00013,   0.00378,  -0.02387,   0.01787,   0.02883,  -0.01970,   0.03822,  -0.01135,   0.02622,   0.01109,   0.01944,   0.01057,   0.03353,  -0.00404,   0.01004,   0.05962,  -0.00926,  -0.01031,   0.02935,   0.01631,  -0.01292,   0.02152,   0.02779,   0.03613,   0.00483,   0.00065,  -0.00457,  -0.02439,   0.02309,  -0.00665,   0.00796,  -0.02126,   0.00952,  -0.04996,   0.01944,  -0.02335,  -0.00039,  -0.00039,  -0.02544,   0.03248,   0.06223,   0.00691,   0.00952,  -0.00509,  -0.00978,   0.03092,  -0.00509,   0.02674,  -0.00039,  -0.00352,   0.01057,   0.05127,  -0.00874,   0.01004,  -0.00770,  -0.02961,  -0.02596,  -0.02283,   0.00796,   0.00170,  -0.01396,   0.00691,  -0.01344,  -0.00978,   0.05022,  -0.00770,  -0.03118,   0.00117,  -0.00770,   0.00065,  -0.01448,   0.00744,  -0.01657,  -0.00457,  -0.00770,   0.03144,   0.00900,  -0.02492,  -0.01239,   0.00744,  -0.02857,   0.04396,   0.00744,  -0.02596,   0.01004,   0.00378,  -0.02387,   0.01683,   0.01787,   0.00796,  -0.00404,   0.04344,  -0.00770,  -0.00718,  -0.01605,  -0.00718,   0.02361,   0.03092,   0.02205,  -0.00144,  -0.00770,   0.03770,   0.00952,  -0.00978,  -0.02700,   0.02100,   0.02726,  -0.00770,  -0.00352,   0.00848,   0.01004,   0.00065,   0.02883,  -0.03013,  -0.01605,   0.00013,  -0.01500,   0.02518,  -0.02492,  -0.02596,  -0.00613,   0.00378,   0.00587,   0.01996,   0.00691,  -0.02387,   0.01161,  -0.01083,  -0.00039,  -0.01239,   0.01683,  -0.00404,  -0.01500,  -0.03587,  -0.00039,  -0.00144,  -0.00457,   0.01996,  -0.00091,   0.01578,   0.01370,   0.01683,   0.01318,   0.00848,   0.01631,  -0.00457,  -0.01135,  -0.01605,   0.00587,   0.00274,   0.00430,   0.03039,  -0.01605,  -0.01813,  -0.03587,   0.01004,  -0.03170,  -0.00300,  -0.00613,   0.00326,  -0.00196,   0.02152,  -0.05466,  -0.01083,  -0.02126,  -0.01448,  -0.03431,   0.01578,   0.01787,   0.02257,   0.05179,  -0.02231,   0.00691,  -0.00457,  -0.02596,  -0.00665,   0.03509,  -0.00300,   0.02518,  -0.00926,   0.01944,  -0.00091,  -0.05988,  -0.01866,  -0.03640,   0.02779,  -0.01135,  -0.00874,  -0.00509,  -0.01657,   0.01370,  -0.02179,   0.01161,   0.02413,   0.03300,   0.01109,   0.02987,   0.02361,  -0.00091,  -0.01344,   0.01265,   0.00535,  -0.01605,  -0.00561,   0.01004,   0.03300,   0.03979,   0.00744,   0.00483,  -0.00770,  -0.01813,  -0.03901,   0.00378,  -0.00248,  -0.01866,  -0.00874,  -0.00457,  -0.01292,   0.00587,  -0.04057,  -0.01657,  -0.00822,  -0.01187,   0.01631,  -0.00926,  -0.00039,   0.01578,  -0.00509,  -0.00926,   0.02100,  -0.00613,   0.03092,   0.00744,  -0.00404,   0.01839,   0.00222,  -0.03640,   0.00430,   0.01735,  -0.00404,   0.02674,  -0.00300,  -0.02596,   0.01318,   0.00013,  -0.01031,   0.00013,   0.01631,  -0.01135,   0.01683,   0.01318,   0.05857,   0.01631,  -0.01657,   0.00848,  -0.00457,   0.00170,   0.03666,   0.00639,   0.00848,  -0.03744,  -0.00561,   0.01422
  -0.00457,   0.00430,  -0.00091,  -0.00196,   0.03457,   0.04083,  -0.01552,  -0.02335,   0.01578,  -0.01448,  -0.00457,  -0.01031,   0.00900,   0.00535,   0.00430,   0.05388,   0.01735,   0.01839,  -0.02126,   0.00065,  -0.00091,   0.03509,   0.00065,   0.01057,  -0.03848,  -0.00457,  -0.03953,   0.01683,   0.01578,   0.02570,  -0.00665,  -0.01292,   0.03196,   0.00691,  -0.02648,   0.02205,   0.02570,   0.01370,  -0.00352,   0.02413,   0.00691,   0.02205,  -0.00665,   0.01422,   0.00744,  -0.00718,   0.00013,  -0.00978,  -0.03170,  -0.01031,   0.00274,  -0.00665,   0.00170,  -0.01187,  -0.03379,   0.01057,  -0.02126,  -0.01292,  -0.00300,   0.03196,  -0.01918,  -0.01083,   0.02100,   0.05022,   0.01526,  -0.00926,  -0.00039,  -0.00196,   0.03770,   0.00378,  -0.02283,   0.02674,   0.00013,   0.00848,  -0.03013,   0.00587,   0.00326,  -0.00561,   0.01318,  -0.02596,  -0.02544,  -0.01239,  -0.00039,   0.02413,  -0.00978,  -0.00978,  -0.00196,  -0.01083,   0.00848,  -0.02492,   0.00587,  -0.01292,  -0.03013,  -0.01605,   0.00274,   0.02257,   0.02674,   0.02152,  -0.02492,   0.00535,  -0.01552,   0.00065,   0.02361,   0.00587,   0.01578,  -0.00561,   0.00952,   0.01109,  -0.02179,   0.04970,  -0.03327,  -0.05153,  -0.00718,  -0.00248,  -0.01918,  -0.00926,  -0.00404,   0.00587,  -0.00039,  -0.01344,   0.00744,   0.02100,   0.02726,   0.01683,   0.01526,   0.03300,  -0.04527,  -0.01657,  -0.00665,  -0.00457,  -0.00404,  -0.00039,  -0.01970,  -0.00978,  -0.00926,  -0.03431,   0.02257,  -0.01500,   0.01787,   0.01683,  -0.01761,   0.02361,   0.02779,  -0.02283,  -0.00561,  -0.00196,   0.01265,  -0.03066,   0.01004,   0.01839,  -0.00822,   0.01578,  -0.02335,   0.00796,  -0.00561,  -0.00091,  -0.00561,   0.01265,   0.01996,  -0.03431,  -0.01239,   0.02465,   0.03509,   0.00326,  -0.02387,  -0.00978,   0.00744,  -0.00926,   0.02465,   0.00744,  -0.01500,   0.02413,   0.00639,   0.00378,  -0.00822,   0.00744,   0.02257,   0.04031,  -0.01239,   0.01787,  -0.00822,  -0.01031,   0.00639,  -0.00144,   0.01161,   0.00952,  -0.02961,   0.00065,   0.02413,  -0.01866,   0.03039,   0.00952,  -0.04996,   0.00900,  -0.03066,  -0.02648,  -0.02231,  -0.03587,   0.03457,  -0.00874,  -0.01657,  -0.01500,  -0.00091,   0.01161,  -0.02387,  -0.00457,  -0.02022,   0.02831,  -0.01761,   0.00900,   0.01839,  -0.00039,  -0.03744,   0.00378,  -0.00404,   0.01318,   0.02726,  -0.00300,   0.01683,  -0.02074,  -0.02648,   0.01370,  -0.00718,   0.00691,  -0.02909,   0.00639,  -0.04996,   0.00378,  -0.04527,  -0.01083,   0.04448,  -0.01918,  -0.02231,   0.01683,  -0.03118,  -0.01500,   0.00170,  -0.01552,  -0.00926,   0.00170,   0.02152,   0.02779,   0.02465,  -0.02231,   0.01004,  -0.03066,  -0.04005,   0.00222,   0.03353,  -0.03274,   0.01578,   0.04396,  -0.00978,  -0.02335,  -0.03379,  -0.03066,   0.01318,   0.00430,  -0.02387,  -0.00665,   0.01474,  -0.01239,  -0.01500,   0.00430,   0.03979,   0.02309,  -0.00404,  -0.02387,  -0.01970,  -0.01135,  -0.01813,   0.00691,   0.01004,   0.01578,  -0.00822,   0.00848,   0.00065,  -0.02439,   0.00796,  -0.00665,   0.01422,   0.01944,  -0.00091,  -0.02857,   0.02831,   0.00065,   0.02152,  -0.02753,  -0.00926,  -0.01709,  -0.02387,  -0.02544,  -0.00561,   0.00691,  -0.02387,   0.02518,   0.04605,   0.00535,   0.00483,   0.03822,   0.02257,  -0.03170,   0.00065,  -0.00770,   0.02831,   0.00796,  -0.01239,   0.01892,   0.03092,  -0.04631,   0.01474,   0.03457,   0.00952,   0.02100,   0.02100,   0.00483,   0.01318,   0.01944,  -0.01605,   0.00535,  -0.03066,   0.00430,  -0.02648,  -0.00665,   0.02100,  -0.00039,   0.00117,  -0.00718,   0.00587,   0.00535,   0.03874,  -0.04161,   0.02935,  -0.00926,   0.00065,   0.02622,   0.01631,  -0.00091,   0.00639,  -0.00978,   0.04135,   0.01787,   0.01892,   0.03822,  -0.04370,   0.01161,  -0.00457,  -0.00144,  -0.00039,  -0.00718,   0.01474,  -0.00404,  -0.00509,  -0.00039,  -0.02857,   0.00274,   0.00691,   0.01422,  -0.02074,  -0.00665,   0.02361,   0.04970,   0.02100,   0.03822,  -0.01813,  -0.02805,   0.00274,  -0.02805,  -0.01813,   0.00691,  -0.01031,   0.02883,  -0.03692,   0.01526,   0.02100,  -0.00718,   0.00274,   0.00483,   0.01109,  -0.02805,  -0.03587,   0.00796,   0.03092,   0.01578,   0.01370,   0.00378,  -0.03379,  -0.01083,   0.01057,  -0.00039,   0.04396,  -0.01657,   0.01370,  -0.03848,  -0.02231,   0.00430,   0.01318,   0.00065,   0.00274,  -0.02335,   0.01109,   0.02570,  -0.01448,   0.03353,   0.02622,   0.04083,   0.02779,  -0.02283,  -0.02283,   0.00378,   0.02309,   0.01944,   0.00117,   0.01004,  -0.02231,   0.00117,  -0.04109,   0.01370,  -0.00613,   0.01370,  -0.02074,   0.01370,  -0.01448,  -0.02805,  -0.00091,   0.00378,  -0.01813,  -0.00300,  -0.00613,  -0.00457,  -0.00613,   0.02152,  -0.00978,   0.01735,   0.02779,   0.03196,  -0.01031,  -0.01761,   0.03353,  -0.01970,  -0.02544,   0.00013,  -0.00874,  -0.00770,  -0.01552,  -0.01761,   0.02779,  -0.00144,   0.00535,   0.00952,  -0.00561,   0.00430,   0.00691,   0.02726,   0.00274,   0.02205,   0.04240,   0.04605,   0.00952,   0.00796,  -0.00091,  -0.04475,  -0.02283,   0.03457,  -0.00822,  -0.02283,  -0.01135,   0.01474,  -0.02126,  -0.02596,   0.00483,   0.01787,  -0.01813,  -0.03379,   0.04553,  -0.03066,   0.01422,   0.02152,  -0.02753,   0.02100,   0.02257,   0.04918,  -0.00300,   0.02622,  -0.00978,  -0.00874,  -0.02492,  -0.03118,  -0.00352,  -0.04005,   0.01422,   0.03300,   0.02413,  -0.05205,   0.03927,   0.02987,  -0.00039,   0.00691,   0.00639,  -0.01344,  -0.01239,  -0.02074,  -0.02596,   0.00013,   0.00483,   0.03666,   0.00848,  -0.01761,  -0.03692,  -0.03587,   0.01735,  -0.02544,  -0.02544,   0.00170,   0.02570,   0.01370,   0.00952,  -0.03274,   0.01474,  -0.02909,  -0.00091,   0.01526,  -0.01866,   0.00326,  -0.01344,   0.00117,   0.01631,   0.01683,   0.01944,  -0.00770,   0.01944,   0.01422,  -0.00926,   0.01213,  -0.01918,  -0.00978,  -0.00300,  -0.02126,  -0.03013,   0.01839,  -0.00352,  -0.00926,   0.01004,  -0.00404,  -0.00978,  -0.02231,   0.01370,   0.01631,   0.02100,   0.02779,   0.00222,   0.02205,   0.02674,   0.01422,   0.02935,  -0.01239,   0.02570,  -0.00196,  -0.01187,  -0.00665,  -0.00561,   0.03196,  -0.02439,  -0.02439,  -0.01813,   0.02622,  -0.00613,  -0.04161,  -0.01083,  -0.00091,  -0.01292,   0.02987,  -0.01552,   0.00639,   0.00117,   0.02779
   0.00483,  -0.00404,  -0.00091,   0.04709,  -0.01918,   0.00535,   0.00430,   0.01787,  -0.00300,   0.02309,   0.01265,   0.01683,   0.02726,  -0.03170,   0.03561,   0.00170,  -0.01135,   0.01787,   0.01892,   0.02622,  -0.00144,   0.00796,   0.02361,  -0.00091,   0.04605,   0.02726,  -0.01187,  -0.02909,  -0.02022,   0.02570,   0.00222,   0.00065,   0.00744,  -0.03483,   0.00013,   0.00587,   0.00274,   0.00483,   0.02570,  -0.00144,   0.00117,  -0.01866,   0.01683,  -0.01083,  -0.02074,  -0.02700,   0.01474,   0.00013,  -0.01500,  -0.06301,   0.01735,   0.00900,  -0.01135,  -0.03901,   0.02674,  -0.03796,  -0.00091,   0.03092,  -0.02231,  -0.00926,   0.03092,   0.04448,   0.01318,  -0.02387,  -0.02439,  -0.00665,   0.01265,   0.01892,   0.02570,   0.01213,  -0.01709,  -0.00718,  -0.04683,   0.01422,   0.01526,  -0.01448,   0.00170,   0.02361,  -0.00874,  -0.00457,  -0.00404,  -0.00613,  -0.00874,  -0.03431,   0.00222,  -0.00196,  -0.00144,  -0.02961,  -0.00561,   0.02570,  -0.01866,   0.00691,  -0.01605,  -0.00248,  -0.01552,  -0.01031,  -0.01866,   0.00535,   0.00587,  -0.01866,  -0.00196,  -0.01709,  -0.01135,   0.04761,  -0.01761,   0.00952,   0.02779,  -0.01083,   0.00691,  -0.01448,  -0.00144,  -0.00509,   0.03248,  -0.01292,   0.01318,   0.01474,  -0.00300,  -0.04475,  -0.02805,  -0.01605,   0.01683,  -0.02387,   0.04761,   0.01787,  -0.00874,   0.03718,  -0.01239,   0.01057,  -0.01031,  -0.01552,   0.01787,   0.01735,   0.01683,   0.01474,  -0.00665,  -0.00665,   0.02674,  -0.00665,  -0.00300,  -0.00457,  -0.02648,  -0.02022,  -0.00300,   0.01004,   0.01839,  -0.01292,  -0.02909,   0.01683,  -0.00509,  -0.00457,  -0.01292,   0.00796,  -0.02857,   0.00274,  -0.01448,  -0.01657,  -0.03118,  -0.00196,  -0.03796,  -0.01083,  -0.00352,  -0.02439,   0.02309,  -0.01344,   0.04501,  -0.00926,  -0.01970,  -0.00561,  -0.00300,  -0.00665,   0.00639,   0.00013,  -0.01500,   0.01318,  -0.01709,   0.00796,  -0.03013,  -0.02283,  -0.02648,  -0.00248,   0.03248,  -0.04683,   0.01370,  -0.02596,  -0.00352,   0.01578,   0.00117,   0.03353,  -0.00718,  -0.01500,  -0.01031,  -0.00457,   0.01161,   0.01526,  -0.01657,  -0.00561,   0.02987,   0.02361,   0.02622,   0.00483,   0.00065,  -0.02492,   0.02257,   0.00900,   0.00744,   0.00326,   0.00170,   0.00639,  -0.01344,  -0.02805,   0.01265,   0.00170,   0.03092,  -0.00300,   0.01578,  -0.02805,  -0.01866,   0.03092,  -0.00978,  -0.04422,  -0.02909,  -0.00874,  -0.02596,  -0.01761,   0.00535,   0.03039,  -0.00613,   0.03144,  -0.00613,  -0.00039,   0.00378,  -0.02126,  -0.00457,   0.02257,  -0.00404,  -0.03170,   0.01422,  -0.03013,   0.00222,  -0.02857,  -0.00613,   0.05492,   0.00117,   0.02779,   0.00117,   0.00848,   0.00744,   0.00691,   0.00326,  -0.00665,   0.00065,   0.02361,   0.00170,   0.02987,  -0.00091,   0.01161,  -0.00665,   0.01735,   0.00117,  -0.00248,   0.00483,   0.01422,   0.00378,   0.01892,   0.01422,   0.00430,   0.05440,   0.00378,  -0.00509,   0.00483,  -0.00978,   0.01213,  -0.03692,   0.00274,  -0.04683,   0.01683,  -0.00665,   0.02205,  -0.00665,   0.03039,   0.01735,   0.00952,   0.02987,  -0.00457,  -0.01448,   0.01683,  -0.02544,   0.01265,   0.02152,   0.00065,   0.00796,  -0.02179,  -0.03013,  -0.01500,  -0.00770,  -0.01448,  -0.02544,   0.02987,  -0.02805,   0.00378,  -0.01031,  -0.01970,   0.05962,   0.00691,   0.00326,   0.00274,  -0.00509,   0.01892,   0.00378,  -0.01761,  -0.00196,  -0.03013,  -0.01657,   0.01892,  -0.00926,  -0.01866,   0.01631,  -0.00248,  -0.03327,   0.00744,   0.01892,  -0.03118,  -0.00300,   0.00378,  -0.02439,  -0.00300,  -0.01448,  -0.01448,  -0.01866,  -0.00561,  -0.00404,   0.01996,   0.01109,  -0.03379,  -0.01500,   0.03196,   0.02570,  -0.00196,   0.01265,   0.03874,  -0.01396,  -0.00196,  -0.02753,  -0.02387,  -0.01918,  -0.01292,   0.00587,   0.02205,   0.00744,   0.01787,   0.03718,   0.00535,   0.01996,   0.00013,   0.01683,   0.00274,  -0.00665,   0.00952,  -0.03431,   0.01422,  -0.00926,  -0.01239,   0.03457,   0.04501,   0.00170,  -0.02909,   0.01735,  -0.02074,   0.01944,   0.01265,  -0.00144,   0.00587,  -0.00718,   0.00744,   0.00587,   0.01161,   0.00587,  -0.04266,   0.03509,   0.03144,   0.02987,   0.02726,   0.02100,  -0.00509,   0.02831,  -0.00613,  -0.00874,   0.02987,   0.00744,   0.00222,  -0.01918,  -0.02126,   0.03457,  -0.01396,   0.03718,   0.02831,   0.00274,  -0.02022,   0.00170,   0.02674,   0.01004,   0.01422,  -0.01552,  -0.00822,   0.00691,   0.00744,   0.02152,   0.01265,  -0.00091,  -0.00196,   0.04240,  -0.00770,  -0.01813,  -0.04527,  -0.00874,  -0.01552,   0.00587,  -0.01344,   0.01892,   0.01996,  -0.01605,   0.03822,  -0.02335,   0.00639,   0.03248,  -0.02022,  -0.00874,   0.01787,   0.02100,   0.01996,  -0.00091,   0.03770,   0.03196,  -0.01187,   0.00117,   0.01265,   0.02309,   0.01161,   0.00587,  -0.02596,   0.00848,   0.01578,   0.00900,  -0.00561,   0.03144,   0.01578,   0.01578,  -0.00926,  -0.01866,  -0.00770,  -0.02700,   0.00587,  -0.02074,  -0.02596,   0.01109,  -0.02335,   0.01631,  -0.02126,   0.02152,  -0.01396,   0.03092,   0.01787,   0.00744,   0.02309,   0.00430,  -0.00196,   0.00639,   0.03561,  -0.01292,  -0.01918,  -0.02387,   0.04344,   0.01474,  -0.00561,   0.01631,  -0.01761,  -0.00457,   0.01004,   0.02309,  -0.01292,   0.00691,   0.02935,  -0.03535,  -0.01135,   0.00744,  -0.00404,   0.02726,   0.01370,  -0.01657,  -0.02022,  -0.00039,  -0.00196,  -0.02074,  -0.00248,   0.02048,   0.00274,  -0.02283,   0.01735,   0.02257,  -0.00561,  -0.04840,  -0.00874,   0.00430,   0.01944,   0.00796,   0.04501,   0.00065,  -0.04266,  -0.01970,   0.02048,  -0.01709,  -0.00613,   0.03353,  -0.00613,  -0.02492,   0.00274,   0.01839,  -0.01292,   0.00170,  -0.01135,   0.01631,   0.00170,  -0.00718,   0.00952,   0.00796,   0.03300,  -0.03692,   0.00900,  -0.02387,   0.02048,  -0.00039,  -0.00770,   0.04187,  -0.02805,   0.01683,   0.03509,  -0.02335,   0.01109,  -0.00822,  -0.01292,  -0.02335,  -0.02022,  -0.01448,  -0.00196,  -0.00509,  -0.03744,   0.05127,   0.00691,  -0.03379,   0.01370,  -0.01344,  -0.00091,  -0.00978,   0.00535,  -0.00196,   0.01318,  -0.02544,   0.04083,   0.02935,  -0.00144,   0.00639,  -0.01970,   0.03248,  -0.01292,   0.03092,  -0.00665,  -0.02544,  -0.02074,   0.01578,  -0.00300,  -0.02648,   0.00587,  -0.00196,  -0.00300,  -0.00404,   0.01944
