   0.04932,  -0.02227,  -0.06478,   0.03589,  -0.05583,  -0.08491,  -0.05359,   0.18354,   0.05155,  -0.10281,   0.05155,   0.07840,   0.07616,  -0.04688,  -0.03346,  -0.04688,  -0.01332,  -0.07596,   0.03366,  -0.12294,  -0.07596,  -0.12742,   0.05379,  -0.00214,  -0.03122,   0.04708,   0.07616,   0.01800,  -0.08715,   0.03366,  -0.06254,   0.10077,   0.05155,  -0.02227,  -0.03793,  -0.07372,   0.14551,   0.03589,   0.02695,  -0.05359,  -0.14084,  -0.02003,  -0.03793,  -0.04688,   0.17012,   0.04932,  -0.07820,  -0.06254,   0.05827,   0.06274,   0.09630,  -0.02451,   0.06274,   0.02247,   0.08064,   0.04708,  -0.11176,  -0.05359,  -0.00437,   0.07393,  -0.01780,   0.12090,   0.02023,   0.02918,   0.03366,   0.11867,   0.11196,  -0.01332,   0.04484,   0.15670,  -0.12965,   0.01800,  -0.04688,   0.03813,   0.02247,  -0.12294,  -0.04688,   0.01352,  -0.00661,  -0.09833,  -0.00885,   0.07840,  -0.03346,   0.04261,   0.10301,   0.03813,  -0.02003,   0.10301,  -0.07596,  -0.04688,  -0.12294,   0.00234,  -0.07372,  -0.13860,   0.00905,  -0.02003,  -0.06925,   0.01352,  -0.08267,  -0.11399,   0.04708,   0.02918,  -0.06925,   0.02918,   0.04037,  -0.03793,  -0.01332,   0.00234,  -0.02227,   0.00681,  -0.04912,  -0.01332,  -0.00661,   0.00681,   0.04932,  -0.02451,   0.12314,   0.02247,   0.04484,  -0.00437,   0.02023,   0.04037,   0.08511,  -0.09833,   0.11419,   0.01129,  -0.09833,  -0.04688,  -0.02674,   0.01352,   0.00457,  -0.05359,   0.12538,   0.06721,  -0.02227,  -0.00661,   0.02471,   0.07169,   0.05155,  -0.01109,   0.04932,  -0.04912,   0.06945,   0.01576,  -0.06254,  -0.07820,   0.12090,   0.05827,   0.06274,  -0.08491,   0.11643,  -0.04240,  -0.00885,   0.08511,   0.06498,   0.12985,  -0.11623,  -0.02451,  -0.00437,  -0.07149,   0.05603,  -0.00885,   0.02023,   0.00905,  -0.05583,   0.00457,   0.00681,   0.02023,   0.03589,   0.03366,  -0.00437,  -0.08715,   0.03142,  -0.07372,   0.04484,   0.01576,  -0.06701,   0.00681,   0.10301,  -0.00214,   0.08511,  -0.04912,  -0.11623,  -0.03122,  -0.05135,  -0.05806,   0.11643,   0.07169,  -0.10057,  -0.06030,  -0.05135,   0.02023,  -0.03346,   0.11419,  -0.03346,  -0.03122,   0.00905,  -0.13189,   0.04932,   0.00681,   0.03813,   0.02918,  -0.09162,   0.01576,   0.02695,  -0.11623,  -0.01780,  -0.09610,   0.06274,   0.01576,   0.01352,  -0.05359,   0.04261,   0.13880,   0.06498,  -0.02227,   0.00681,   0.08735,   0.03813,   0.04484,  -0.03793,   0.10748,  -0.01780,  -0.05583,  -0.07820,  -0.02003,  -0.07149,  -0.07372,   0.01800,  -0.11623,  -0.08044,  -0.16992,   0.08735,   0.06498,   0.10524,   0.04037,   0.05827,  -0.08491,   0.00010,  -0.01332,  -0.06254,   0.01129,   0.05155,   0.06945,  -0.02674,  -0.02003,   0.00234,  -0.03569,   0.10524,   0.07840,  -0.00885,   0.00457,  -0.05359,  -0.02898,   0.02471,  -0.06030,   0.07616,   0.05827,  -0.01109,   0.01576,  -0.02003,   0.10077,  -0.02003,   0.11643,  -0.11399,   0.05603,   0.08511,   0.01129,   0.00234,  -0.04240,  -0.10281,  -0.02898,  -0.05583,   0.05603,   0.03366,   0.02471,   0.02023,   0.06721,  -0.03793,   0.09182,   0.09182,  -0.10281,  -0.01780,  -0.05583,  -0.04688,   0.06050,  -0.03793,  -0.07596,   0.02247,   0.13209,   0.04484,   0.05827,  -0.03122,   0.03589,  -0.01556,   0.08959,   0.03142,   0.05827,  -0.00214,  -0.08267,   0.01576,  -0.03346,  -0.05806,  -0.08044,   0.01800,   0.09406,  -0.01109,   0.10301,   0.00010,  -0.07596,  -0.04464,  -0.03793,   0.03589,  -0.03793,   0.03142,   0.01800,  -0.04464,   0.07393,   0.02695,  -0.01780,  -0.01556,   0.08735,   0.02918,   0.08735,  -0.03346,  -0.05583,   0.08959,   0.09630,   0.02471,  -0.06478,   0.04037,  -0.02227,  -0.07820,   0.06945,  -0.09833,   0.10748,  -0.10281,  -0.04688,   0.02695,   0.02023,   0.10524,   0.03366,   0.08511,  -0.02003,  -0.06478,  -0.01109,   0.04484,  -0.02003,  -0.01780,   0.01800,  -0.08938,  -0.10504,   0.05827,  -0.00214,  -0.11399,   0.07393,  -0.03346,  -0.03793,  -0.12742,   0.02023,  -0.07149,  -0.01780,  -0.07596,  -0.02451,  -0.05806,  -0.05135,  -0.05583,   0.10077,   0.04484,   0.03589,  -0.07372,  -0.02674,  -0.01556,   0.04708,   0.06274,   0.15222,  -0.09833,   0.00905,  -0.01332,   0.00457,  -0.06030,   0.08064,  -0.04688,  -0.10281
  -0.10728,   0.00234,  -0.06254,   0.03142,  -0.04240,   0.00457,   0.04037,  -0.02451,   0.09182,   0.00234,  -0.08267,  -0.12965,  -0.05359,   0.01800,   0.03366,  -0.01556,   0.00681,  -0.02898,  -0.02674,  -0.09386,   0.02695,   0.06721,   0.01129,   0.02695,  -0.00437,  -0.01109,   0.06945,   0.07169,  -0.03793,   0.08511,  -0.04912,  -0.00214,   0.04261,  -0.00214,  -0.06701,   0.00010,   0.06498,  -0.02674,   0.00234,  -0.07596,  -0.07372,   0.06050,  -0.01332,   0.03142,   0.03589,   0.04261,  -0.08715,  -0.03122,   0.00681,   0.09182,   0.03366,  -0.04240,  -0.02451,   0.01129,  -0.12742,  -0.04017,  -0.09162,  -0.15202,  -0.08491,  -0.02227,  -0.06478,   0.01576,   0.04708,   0.03366,  -0.05583,  -0.02003,  -0.09833,  -0.09162,   0.02247,   0.07169,   0.01352,   0.11643,   0.11643,   0.02471,  -0.06254,   0.04484,  -0.01780,   0.16117,   0.03142,  -0.01556,   0.11196,  -0.06925,   0.16788,  -0.05135,   0.06274,   0.00010,   0.07840,   0.03813,  -0.05583,  -0.20124,   0.19249,  -0.03569,  -0.04464,   0.09182,  -0.07596,   0.08959,  -0.05359,  -0.00437,   0.04484,   0.01800,   0.16117,  -0.04240,   0.01576,   0.02918,  -0.08715,   0.10524,   0.02695,  -0.02898,   0.10972,   0.08287,   0.05155,  -0.00437,   0.02695,   0.00905,   0.02247,  -0.15650,  -0.04912,   0.02247,   0.05603,  -0.10057,  -0.10057,   0.00681,  -0.04912,   0.03142,  -0.05135,   0.08064,  -0.00437,   0.07393,   0.08959,  -0.02003,  -0.06478,   0.14999,  -0.01780,   0.00010,  -0.05135,   0.05603,   0.05155,   0.20144,   0.04037,   0.01576,   0.05603,   0.04261,  -0.09386,  -0.04688,  -0.03793,  -0.12070,   0.06498,   0.09182,   0.04037,   0.04708,  -0.02227,   0.06945,   0.10748,  -0.01780,   0.02918,   0.06721,  -0.02898,  -0.10504,  -0.13636,  -0.00214,  -0.11176,   0.06498,   0.01129,  -0.10504,   0.07616,  -0.04912,   0.11867,  -0.01332,  -0.07149,   0.03142,  -0.01109,   0.05603,   0.08287,   0.05603,   0.06050,   0.12314,   0.03142,  -0.00885,   0.12314,  -0.03793,   0.04932,  -0.01780,   0.05379,  -0.08044,  -0.06030,  -0.03346,   0.00010,  -0.04017,  -0.14979,  -0.02674,   0.04484,  -0.02674,   0.12314,   0.00234,   0.05827,  -0.01109,  -0.03122,  -0.08491,  -0.12965,   0.00905,   0.06721,  -0.07372,  -0.02674,  -0.01780,   0.11867,   0.00234,   0.01129,   0.00681,   0.06274,  -0.11399,   0.09630,   0.00905,   0.06721,  -0.04017,   0.04261,  -0.06478,  -0.05583,   0.02695,   0.04037,   0.08511,   0.04484,   0.01800,  -0.00214,   0.09630,  -0.12294,   0.06498,   0.03589,  -0.03346,  -0.04688,   0.02918,  -0.06478,  -0.00214,   0.03813,   0.12985,  -0.04017,   0.00905,  -0.08491,  -0.00214,  -0.04688,   0.04708,   0.07393,  -0.04240,   0.02023,   0.16788,   0.02023,  -0.10281,  -0.04240,   0.06945,   0.07393,  -0.02451,  -0.02227,   0.00010,   0.04708,  -0.02898,  -0.02898,  -0.06701,   0.04484,   0.08511,   0.00234,  -0.11623,  -0.07149,  -0.14531,  -0.01780,   0.02023,   0.04932,   0.01129,   0.01576,  -0.03122,  -0.04688,  -0.02674,  -0.04912,   0.07393,  -0.04688,   0.00234,  -0.09162,  -0.11176,  -0.14084,   0.00457,  -0.13860,   0.04708,   0.01800,   0.13433,  -0.07820,  -0.00214,   0.03366,  -0.02227,  -0.04464,  -0.10952,   0.02918,  -0.08491,  -0.00885,  -0.00661,  -0.02227,  -0.05806,  -0.00437,   0.10077,  -0.14755,   0.00234,   0.08511,   0.02247,   0.05827,  -0.00885,   0.02023,  -0.03569,  -0.03569,  -0.07596,  -0.05806,   0.10972,  -0.05359,  -0.09162,   0.06498,   0.00905,   0.13209,   0.00905,  -0.01332,   0.05155,  -0.03122,  -0.04017,   0.02247,  -0.00437,   0.03589,   0.14775,   0.00234,   0.00905,   0.03142,   0.00905,  -0.06701,   0.09182,  -0.04017,   0.04932,   0.02695,   0.07616,   0.06050,   0.01352,  -0.11623,  -0.07820,   0.00457,  -0.02227,  -0.08044,   0.09406,   0.07169,   0.00457,   0.00681,   0.05379,  -0.09386,   0.01800,  -0.04017,  -0.02898,  -0.04017,  -0.06030,  -0.05359,   0.00681,   0.08064,  -0.02674,   0.01352,   0.06050,  -0.06701,  -0.06478,  -0.00214,  -0.16321,  -0.19677,   0.03813,   0.06498,   0.03366,   0.02247,   0.08959,  -0.00437,  -0.03569,  -0.02674,   0.03589,   0.03366,  -0.09162,  -0.03569,  -0.04464,  -0.05359,  -0.02898,  -0.02674,  -0.07596,  -0.09833,   0.08064,  -0.08938,  -0.09610,   0.03366,  -0.00214
   0.01800,   0.00010,  -0.11847,  -0.07149,  -0.00214,   0.00457,  -0.06478,  -0.02451,  -0.05359,   0.06050,   0.01129,   0.06721,  -0.00661,  -0.03793,  -0.12742,   0.23500,  -0.08044,  -0.10952,   0.07616,  -0.13636,  -0.06478,   0.01576,  -0.02898,   0.07840,  -0.02003,   0.02023,   0.07393,   0.04037,  -0.10952,   0.04261,   0.01129,   0.10748,   0.13209,  -0.12294,  -0.09162,  -0.04464,   0.05827,   0.01129,  -0.02003,  -0.13860,  -0.04688,   0.01129,   0.00010,   0.03589,   0.04708,  -0.04912,  -0.03122,   0.03366,   0.01576,  -0.00437,  -0.16545,  -0.14531,   0.01800,  -0.03122,   0.00457,  -0.01109,  -0.12965,  -0.08491,   0.01129,  -0.04464,  -0.10057,  -0.02227,   0.04484,   0.12538,  -0.16097,  -0.07596,  -0.00437,   0.10972,  -0.01556,  -0.08044,   0.02918,   0.09406,   0.07169,   0.01352,   0.06721,   0.02695,   0.03142,   0.25066,   0.10077,   0.09630,  -0.04464,   0.02918,  -0.02451,   0.02247,   0.02471,  -0.03346,   0.06274,  -0.07820,  -0.02003,  -0.02003,  -0.03569,   0.09630,  -0.01109,   0.04261,  -0.11399,   0.00234,   0.02695,  -0.10057,  -0.08044,  -0.09610,  -0.08715,   0.09853,   0.02471,   0.11196,  -0.02003,  -0.11176,  -0.08715,   0.03366,  -0.13189,   0.05603,  -0.00437,  -0.08267,  -0.07596,  -0.10057,  -0.05135,  -0.06254,  -0.06478,  -0.05359,   0.05827,  -0.02003,   0.02247,  -0.03122,   0.03142,  -0.01780,  -0.04688,  -0.05359,   0.02023,   0.04261,   0.09853,  -0.01332,  -0.04240,   0.06050,  -0.15873,   0.06498,   0.04708,   0.15894,  -0.00885,   0.08511,   0.02695,  -0.10057,  -0.14531,   0.03142,   0.03366,   0.16117,  -0.02674,  -0.00661,   0.00234,  -0.13189,   0.02247,   0.05603,   0.02247,   0.06721,  -0.01780,  -0.01556,   0.03142,  -0.03793,   0.04932,  -0.14755,  -0.00214,   0.12985,   0.15446,  -0.13189,   0.03142,   0.06945,   0.00234,  -0.04240,   0.03589,  -0.07149,  -0.05135,   0.03366,  -0.04017,  -0.10057,  -0.05135,  -0.02003,   0.07169,  -0.08267,   0.07616,  -0.02003,  -0.08715,   0.01576,   0.04037,   0.02023,  -0.00437,  -0.05135,   0.10748,  -0.06925,   0.03142,   0.04484,   0.07616,  -0.00661,  -0.05359,  -0.10728,  -0.06701,  -0.10952,  -0.01109,   0.04932,  -0.07820,   0.00234,   0.06945,   0.01129,  -0.00661,   0.03813,   0.02247,  -0.01780,   0.00457,  -0.02451,  -0.03569,  -0.03569,   0.02247,   0.00010,  -0.06254,   0.04708,  -0.02003,   0.08959,  -0.08938,  -0.02003,   0.02247,   0.03142,   0.00905,   0.00905,  -0.06701,   0.02471,  -0.00437,  -0.01109,   0.00905,   0.06721,   0.06274,  -0.02003,  -0.11847,  -0.04017,  -0.06030,   0.07393,  -0.01780,  -0.05359,  -0.07820,  -0.05583,   0.09182,  -0.06030,  -0.18111,  -0.08715,  -0.01332,  -0.07149,   0.04261,   0.00681,   0.00234,  -0.02227,   0.13209,   0.08959,   0.00010,   0.17683,  -0.05583,  -0.02451,  -0.01780,   0.04261,  -0.00214,   0.05379,   0.14328,   0.05827,   0.09182,  -0.01556,  -0.11176,   0.07169,  -0.01332,  -0.13860,   0.12090,  -0.13860,   0.04932,   0.12762,  -0.07596,   0.01576,   0.02247,  -0.04240,   0.09182,  -0.07596,   0.14551,   0.00010,   0.00234,  -0.02451,  -0.06478,  -0.08267,  -0.00885,   0.03142,   0.02023,  -0.01332,  -0.08267,   0.00010,   0.05379,   0.03142,  -0.10281,   0.00234,   0.01352,  -0.15426,  -0.06925,   0.00234,   0.06274,  -0.04688,   0.01800,  -0.00214,   0.11643,   0.07393,  -0.05583,  -0.00885,  -0.01780,  -0.01109,   0.09630,  -0.06030,   0.11867,  -0.06254,   0.01129,  -0.02674,  -0.00214,  -0.09386,  -0.02003,   0.02247,  -0.07372,  -0.02674,   0.06945,   0.01576,  -0.10952,  -0.09386,   0.00010,   0.05827,   0.03142,   0.05827,  -0.03793,   0.02695,   0.16117,   0.02023,   0.08735,  -0.03346,  -0.08938,   0.00905,   0.02023,   0.00010,  -0.00885,  -0.11399,  -0.02674,   0.05379,  -0.01556,  -0.06030,   0.04708,   0.07840,   0.04484,  -0.00661,  -0.06254,   0.00681,  -0.00885,   0.04261,  -0.07372,   0.03366,   0.02247,  -0.07596,  -0.05806,  -0.06030,   0.01576,  -0.08715,   0.13433,  -0.10504,  -0.11399,   0.06498,   0.06050,   0.07840,  -0.04912,  -0.04240,  -0.03122,  -0.00214,  -0.09610,   0.01129,  -0.05806,  -0.12965,   0.03142,  -0.06478,   0.04037,   0.02918,  -0.01780,   0.04261,   0.14775,  -0.02003,   0.07616,  -0.02898,  -0.09386,   0.13880,   0.10077,   0.16788
  -0.05135,   0.02695,   0.07393,   0.04484,  -0.02451,  -0.02451,   0.05603,  -0.03793,  -0.05135,  -0.02674,   0.14328,  -0.00885,  -0.08938,   0.04037,  -0.04017,   0.07393,  -0.04464,  -0.05135,   0.06050,  -0.02003,   0.01129,   0.00681,  -0.01556,  -0.13189,  -0.12070,   0.02471,   0.02471,  -0.06478,   0.02247,   0.06498,   0.00234,   0.11419,   0.06498,  -0.12518,   0.03813,   0.02023,   0.04261,  -0.01780,   0.09406,  -0.00885,   0.13656,   0.07616,   0.03589,  -0.11176,  -0.00661,  -0.01109,   0.03142,   0.00234,  -0.00661,  -0.00214,  -0.00661,  -0.04912,   0.01800,   0.08735,   0.00457,   0.16788,  -0.02227,   0.03366,   0.07840,   0.08735,   0.07616,   0.00010,   0.03366,  -0.08044,   0.12090,   0.09630,  -0.16097,  -0.06701,   0.01129,   0.05155,  -0.06701,   0.03142,  -0.04464,   0.02918,  -0.01332,  -0.02227,   0.07169,   0.10077,  -0.01332,  -0.01556,   0.05603,   0.15222,   0.02247,  -0.00661,  -0.07372,   0.02471,  -0.04017,  -0.00885,   0.02247,   0.08511,   0.04708,  -0.01556,   0.04037,   0.04484,  -0.12965,   0.03813,   0.00905,   0.08064,   0.00457,  -0.05583,  -0.00437,  -0.13636,   0.01129,   0.06274,  -0.07820,   0.10524,   0.02918,   0.01352,  -0.04688,   0.06498,  -0.01109,  -0.00437,  -0.05583,  -0.08044,  -0.05583,  -0.08715,  -0.07820,   0.05827,  -0.03569,   0.00457,  -0.02674,   0.08735,   0.02918,  -0.02451,   0.06945,   0.02247,  -0.02674,  -0.06030,  -0.05359,  -0.04688,  -0.06254,   0.10524,   0.02471,   0.12314,   0.08064,   0.14775,   0.02471,   0.01129,   0.06050,  -0.13860,   0.00905,   0.01576,   0.06945,   0.03589,  -0.07372,  -0.03346,   0.14104,   0.06498,  -0.13860,  -0.09610,  -0.02451,  -0.10952,   0.06721,   0.01800,   0.00681,  -0.00661,   0.00905,   0.06945,  -0.07149,  -0.01780,  -0.05806,   0.09182,  -0.01780,   0.01129,  -0.05583,  -0.06254,   0.03813,   0.04484,  -0.16097,  -0.05359,   0.06050,  -0.06478,   0.04932,   0.02695,  -0.00661,   0.09630,   0.13880,  -0.00885,  -0.10281,   0.02695,   0.01129,  -0.01780,  -0.03122,   0.03589,   0.02918,  -0.08938,  -0.05583,   0.00905,   0.05603,   0.03589,   0.02695,   0.00234,  -0.11399,   0.09853,   0.10972,  -0.04912,  -0.03793,  -0.01780,  -0.01556,   0.02471,   0.05827,   0.02695,  -0.09386,   0.05155,   0.08959,   0.03366,  -0.01109,  -0.04240,   0.06274,  -0.03122,   0.00234,   0.05379,   0.04261,   0.01800,  -0.04912,   0.06945,  -0.03793,   0.03366,   0.01129,  -0.00885,  -0.00214,  -0.00661,   0.03589,   0.19249,   0.03142,  -0.05583,   0.18802,   0.14551,  -0.14755,  -0.03122,   0.08735,   0.09630,  -0.01109,   0.09182,  -0.10057,  -0.00437,  -0.11623,   0.01576,   0.04932,  -0.00437,  -0.04912,  -0.10057,   0.08511,  -0.04240,   0.04708,  -0.13189,   0.06945,  -0.11623,  -0.11847,   0.04484,  -0.06478,  -0.12294,   0.15894,   0.01352,   0.13209,  -0.08938,  -0.03793,   0.00681,  -0.05359,   0.00905,  -0.02003,  -0.07149,   0.03813,   0.05155,   0.05827,  -0.04912,  -0.07149,   0.04261,  -0.00661,  -0.06254,   0.01129,  -0.04017,  -0.02451,  -0.02003,   0.02471,  -0.01109,  -0.03569,   0.11419,   0.07393,   0.00234,  -0.06030,  -0.01780,  -0.03793,   0.02918,  -0.15426,  -0.03569,   0.05603,  -0.01780,   0.07169,   0.06721,   0.06945,   0.00905,   0.06498,  -0.06030,  -0.10728,  -0.00437,   0.12090,  -0.09386,  -0.02898,  -0.02227,  -0.03569,  -0.17439,  -0.14084,   0.01576,  -0.03793,   0.03142,  -0.05135,  -0.07149,  -0.02003,  -0.04240,   0.01800,   0.12314,   0.05603,  -0.02227,   0.00234,   0.10524,   0.01129,  -0.07372,  -0.03122,   0.00234,  -0.07372,  -0.03122,   0.06498,  -0.10504,  -0.04464,   0.09630,  -0.12070,   0.00010,  -0.02451,   0.04708,   0.00234,  -0.05359,  -0.05806,  -0.01332,  -0.03569,   0.00681,  -0.03569,   0.04708,  -0.07149,  -0.03793,  -0.05359,   0.00905,  -0.05806,   0.08959,   0.01352,   0.16565,  -0.05583,   0.01800,  -0.00214,   0.04708,   0.07393,  -0.02451,  -0.05135,   0.08511,  -0.02674,   0.07840,  -0.02674,   0.05603,  -0.06478,   0.02471,   0.00010,  -0.04688,   0.00010,   0.06498,   0.00905,   0.09853,  -0.01780,   0.10301,   0.02695,   0.04484,  -0.06478,   0.00234,  -0.00214,   0.06274,   0.06945,   0.00681,   0.06274,  -0.08267,   0.03589,   0.00681,  -0.06701,   0.05379,   0.03366,  -0.12742
  -0.02003,  -0.08044,  -0.08267,  -0.00437,  -0.02003,  -0.17663,   0.04932,  -0.05806,  -0.07820,  -0.01332,   0.00681,   0.00234,  -0.17216,  -0.04688,  -0.19453,  -0.06478,  -0.03122,  -0.01780,   0.08959,  -0.04017,   0.07393,   0.08287,  -0.02227,  -0.06701,   0.09182,  -0.02003,  -0.04688,   0.04484,   0.02471,  -0.23927,   0.08287,   0.05379,   0.02471,   0.01576,  -0.09610,  -0.05359,  -0.02003,   0.18354,   0.04484,   0.03142,  -0.10281,  -0.02451,   0.05379,  -0.01556,  -0.04240,  -0.04688,   0.13433,  -0.09162,  -0.01332,  -0.04240,  -0.05583,   0.02023,  -0.02898,   0.10748,  -0.03122,   0.09853,   0.11196,  -0.09162,  -0.05359,  -0.06478,  -0.07820,  -0.00661,   0.05379,   0.07840,  -0.03122,   0.05827,  -0.04240,   0.02023,  -0.01109,  -0.03346,   0.02471,   0.00905,   0.09630,   0.05379,  -0.10504,   0.04932,   0.03813,   0.11196,   0.04484,   0.04932,   0.04484,  -0.03793,  -0.16097,  -0.06701,  -0.07372,  -0.03346,  -0.04464,  -0.05359,  -0.08715,  -0.08044,  -0.05359,   0.09630,  -0.08044,  -0.00885,  -0.08491,  -0.11399,   0.12090,   0.04037,   0.00234,  -0.05135,   0.02023,  -0.04912,  -0.01109,  -0.01780,  -0.10952,  -0.03793,   0.01352,  -0.01556,  -0.04912,   0.07840,  -0.02003,  -0.07596,   0.02695,  -0.07149,   0.05155,  -0.03346,   0.04261,  -0.05359,  -0.12070,  -0.00437,  -0.01780,   0.09630,   0.07169,   0.06050,   0.03366,   0.02023,  -0.05806,   0.11196,  -0.14755,   0.03813,  -0.00661,  -0.00661,   0.03813,  -0.02898,   0.04261,  -0.00885,   0.02023,  -0.00885,  -0.07596,   0.09182,   0.01129,  -0.05806,  -0.01332,  -0.02674,   0.12538,  -0.03346,   0.00234,   0.00681,  -0.05359,   0.00234,   0.02695,   0.03589,  -0.02451,  -0.08267,   0.14999,  -0.10281,  -0.00214,   0.01800,  -0.04912,  -0.03569,   0.04484,  -0.04017,  -0.03793,   0.11643,  -0.06478,   0.08511,   0.06945,  -0.05359,   0.01800,   0.12538,   0.13209,  -0.02674,   0.02023,   0.09406,  -0.04464,  -0.08938,  -0.12742,  -0.02003,   0.09406,  -0.14531,   0.08959,   0.05379,  -0.05135,  -0.04240,   0.09630,   0.01352,   0.03813,   0.02471,  -0.04464,  -0.00437,   0.01800,   0.16788,  -0.04688,   0.04484,  -0.02898,   0.10972,   0.00905,  -0.01109,   0.05603,  -0.07820,  -0.11399,  -0.06478,   0.03589,  -0.07596,  -0.04912,  -0.01556,   0.01129,  -0.07820,   0.00234,   0.03813,   0.02918,  -0.03346,   0.06050,   0.00234,   0.07840,   0.04261,  -0.03122,   0.02695,   0.08959,  -0.08267,  -0.07596,   0.02918,   0.11867,  -0.07820,   0.17460,  -0.00214,  -0.08044,   0.10972,   0.01800,  -0.00661,  -0.06030,   0.07169,   0.03366,   0.01800,   0.07840,  -0.08938,  -0.01109,   0.29987,   0.01576,   0.06498,  -0.02451,  -0.10504,   0.13433,  -0.06254,   0.10524,  -0.06254,   0.08511,   0.02247,   0.03813,   0.05379,  -0.02451,  -0.11847,  -0.02674,   0.02023,  -0.13860,  -0.02227,   0.05379,  -0.15650,  -0.02674,  -0.04464,   0.02247,  -0.12965,  -0.01109,  -0.08044,   0.02695,   0.08287,   0.04261,  -0.03793,  -0.09386,   0.08287,   0.02247,   0.06721,  -0.04464,   0.02695,   0.09630,  -0.02003,  -0.01556,   0.04261,   0.05155,   0.06945,   0.10972,   0.04037,   0.10301,  -0.02898,   0.10524,  -0.05806,  -0.13636,   0.17683,   0.04484,   0.04037,  -0.09833,  -0.04017,  -0.10504,   0.08064,  -0.08938,  -0.06030,  -0.06701,   0.01129,  -0.11847,  -0.09386,  -0.09833,   0.05155,   0.00905,   0.07616,   0.02247,  -0.07596,   0.16341,  -0.00437,   0.06050,   0.08064,   0.02023,  -0.02674,  -0.04240,  -0.06254,  -0.06254,  -0.13413,  -0.09610,   0.04484,   0.08287,  -0.00437,  -0.08938,   0.02695,   0.21039,  -0.07820,   0.08511,  -0.09162,  -0.10281,  -0.13189,  -0.02898,   0.02023,  -0.08491,   0.04484,   0.04932,   0.01352,  -0.05359,  -0.00885,   0.05827,   0.10748,  -0.05806,   0.12985,  -0.08267,   0.00681,  -0.00214,   0.00010,   0.09630,   0.06050,   0.01129,   0.18131,   0.04261,   0.03142,   0.04708,  -0.09386,   0.14104,   0.14551,   0.02695,   0.01129,   0.05603,  -0.04017,  -0.01109,  -0.03122,   0.10301,  -0.10281,   0.03589,  -0.04017,  -0.06701,  -0.00885,   0.03142,  -0.02898,   0.05827,   0.07393,  -0.06925,   0.03142,   0.05603,   0.12090,   0.03366,   0.00010,  -0.04240,   0.07616,   0.14775,  -0.09386,   0.00681,   0.02695,   0.00010,   0.06721
   0.16341,   0.01352,   0.07169,   0.14328,  -0.05583,  -0.01332,   0.06274,   0.02471,   0.09853,  -0.11176,   0.01576,  -0.04688,  -0.01556,  -0.08267,  -0.03346,   0.02023,  -0.01332,  -0.01780,  -0.08491,   0.09853,  -0.04688,  -0.02898,  -0.01109,  -0.00885,   0.07169,  -0.07372,   0.11867,  -0.08715,  -0.10728,  -0.02674,  -0.00885,  -0.12294,   0.00234,   0.00905,  -0.17216,   0.08735,  -0.10952,   0.11643,   0.03813,   0.06050,  -0.12965,   0.03813,   0.01800,  -0.10952,  -0.10728,   0.05379,   0.00234,   0.02695,   0.03142,  -0.06254,   0.06498,  -0.02227,  -0.13189,   0.00457,   0.03589,  -0.12742,   0.03142,  -0.03793,   0.10077,   0.11867,   0.06274,   0.04261,  -0.06925,  -0.01332,  -0.06030,   0.09182,  -0.07149,   0.04484,   0.00681,   0.02695,   0.00905,   0.00234,   0.01576,   0.04484,   0.00905,  -0.07596,  -0.06701,  -0.08715,  -0.07596,   0.07840,   0.12762,  -0.12070,   0.08511,   0.18578,   0.03589,  -0.09162,   0.18131,   0.00010,   0.02023,  -0.12742,  -0.10504,   0.01129,   0.13880,   0.02023,   0.04261,  -0.07596,   0.00681,  -0.03793,  -0.01332,  -0.00885,   0.00234,  -0.09610,  -0.02003,   0.04261,   0.13209,   0.00681,   0.02023,  -0.13860,  -0.04017,  -0.08044,   0.01576,  -0.04017,   0.03142,   0.06945,  -0.03793,   0.09853,   0.08959,  -0.17439,   0.09182,  -0.07149,  -0.02227,   0.02918,  -0.03122,  -0.09833,  -0.07149,   0.10972,  -0.05359,  -0.02003,   0.01800,  -0.10057,  -0.01332,   0.10972,  -0.06030,  -0.08938,   0.00234,   0.02471,   0.06721,   0.08511,  -0.00661,   0.00234,   0.08511,   0.06721,  -0.02227,  -0.02003,   0.03813,  -0.08938,  -0.00437,   0.00234,   0.09853,   0.03142,   0.06498,   0.02695,   0.04932,  -0.00885,   0.07393,  -0.04240,  -0.02003,  -0.02003,   0.05603,  -0.02898,   0.11419,  -0.01332,   0.00010,  -0.02898,  -0.05135,  -0.04240,   0.15670,  -0.08715,   0.04037,  -0.03793,   0.05827,  -0.07372,   0.01576,   0.04484,  -0.01556,  -0.00214,  -0.04688,  -0.05583,  -0.05359,   0.03366,   0.01576,   0.08959,   0.03589,  -0.07820,   0.03366,   0.08735,  -0.13636,  -0.09610,   0.14551,  -0.05135,  -0.02227,  -0.03569,  -0.04240,   0.00905,   0.07393,   0.03366,  -0.10504,  -0.20571,  -0.01109,  -0.09162,   0.08287,  -0.04912,   0.10748,  -0.01109,   0.00234,   0.04037,  -0.07149,  -0.02451,   0.00457,   0.05155,  -0.03569,   0.03589,  -0.17439,   0.09406,  -0.02003,  -0.16545,   0.06945,  -0.02227,   0.06721,  -0.02227,  -0.00885,  -0.02003,  -0.16992,   0.04484,   0.00681,   0.00234,   0.00010,  -0.02674,  -0.07596,   0.01576,  -0.07149,  -0.01556,   0.08287,  -0.04688,   0.01800,   0.05379,  -0.03122,   0.07393,  -0.10504,   0.06274,   0.07840,   0.02695,   0.05379,   0.19920,  -0.10281,   0.05603,   0.09406,  -0.00885,  -0.01556,   0.01352,  -0.01556,  -0.04464,  -0.05135,  -0.03122,  -0.10281,   0.06721,  -0.03569,   0.05155,  -0.03346,   0.05379,  -0.07596,  -0.02898,   0.06945,   0.02918,   0.09630,   0.01576,   0.08287,   0.02023,  -0.05135,  -0.08267,   0.00010,  -0.02003,  -0.01780,   0.01352,  -0.05806,  -0.00214,  -0.01556,   0.12314,  -0.08044,  -0.05583,  -0.05135,   0.03142,  -0.16768,   0.06498,  -0.00437,  -0.01780,   0.06274,  -0.10504,   0.01576,  -0.00214,  -0.07372,   0.07169,   0.01576,  -0.10057,  -0.00214,   0.03142,  -0.08267,  -0.01556,   0.01352,   0.06498,   0.09406,   0.06721,   0.02918,  -0.10728,   0.01576,  -0.03122,   0.16565,   0.06945,   0.00010,  -0.10504,   0.02023,   0.00010,  -0.02227,   0.03142,   0.01576,  -0.01109,   0.00010,  -0.01332,  -0.08491,  -0.08715,  -0.09610,  -0.07372,  -0.04464,  -0.00661,  -0.00214,  -0.00214,   0.06274,   0.05603,  -0.05583,  -0.01109,  -0.04688,   0.03589,  -0.07372,   0.06050,  -0.08491,  -0.04912,   0.00905,  -0.00437,  -0.07372,   0.13433,   0.11419,   0.04932,   0.06498,  -0.05359,  -0.07372,   0.05155,   0.04932,   0.02023,  -0.04688,  -0.05135,  -0.12518,  -0.03346,  -0.11399,   0.07169,  -0.01556,  -0.01780,   0.03589,  -0.00437,   0.03366,  -0.06254,  -0.12518,   0.11867,  -0.07820,  -0.06701,  -0.07149,   0.01352,  -0.15202,   0.19249,   0.07616,   0.13656,   0.13656,   0.00681,  -0.18558,   0.11196,   0.03142,   0.04484,   0.04932,  -0.17663,  -0.05359,  -0.09386,  -0.03793,  -0.07820,   0.04261,   0.06721
  -0.16097,   0.02471,  -0.06030,  -0.11847,  -0.21914,   0.06274,   0.01352,   0.02471,   0.11867,   0.05379,   0.03589,   0.04708,   0.04932,   0.00457,  -0.04688,  -0.07372,  -0.00661,  -0.03346,   0.03142,  -0.04912,   0.00234,  -0.03569,  -0.04912,  -0.11847,  -0.02227,   0.01352,  -0.00214,   0.01352,   0.01129,  -0.00214,  -0.13860,   0.16341,  -0.00437,  -0.06701,   0.08064,  -0.00661,   0.05827,   0.05379,   0.05155,  -0.02003,  -0.01332,   0.00234,  -0.09386,  -0.10728,   0.01800,  -0.05806,  -0.02898,  -0.03346,   0.05155,  -0.01556,  -0.04017,   0.01129,   0.00010,   0.03589,   0.17907,  -0.01780,   0.02918,  -0.05359,   0.07616,  -0.05135,  -0.12742,  -0.03122,   0.13880,   0.01576,   0.12985,  -0.02674,  -0.04240,  -0.12070,   0.03813,   0.01800,   0.02695,   0.14328,   0.04932,  -0.06701,  -0.00437,   0.08064,  -0.12965,  -0.00437,   0.07393,   0.11196,   0.09406,  -0.04017,   0.06050,   0.06498,  -0.05135,   0.05827,   0.02247,   0.00457,   0.03589,  -0.07820,   0.02023,  -0.01556,   0.00234,  -0.17439,   0.02023,  -0.12518,  -0.02003,  -0.06478,  -0.02451,  -0.09162,  -0.06925,  -0.06925,   0.08735,  -0.03122,   0.11643,   0.00457,  -0.12965,  -0.09386,   0.02247,   0.05379,   0.10524,   0.05379,   0.10077,  -0.05583,  -0.15202,  -0.02003,  -0.03122,   0.09630,  -0.01109,   0.01576,   0.04932,   0.17907,  -0.06478,  -0.10057,  -0.08938,   0.09182,  -0.05135,   0.07840,   0.09406,  -0.03122,   0.04932,   0.01800,  -0.02003,  -0.03346,  -0.00214,   0.12762,   0.04484,   0.08959,  -0.07820,  -0.00437,  -0.04240,  -0.01109,   0.02695,   0.00457,   0.10972,   0.10524,   0.08064,  -0.01109,  -0.07596,   0.03366,  -0.04464,  -0.02003,  -0.05359,  -0.00661,   0.07840,   0.16565,  -0.02003,   0.00457,   0.04708,   0.06050,   0.09630,  -0.11399,   0.09182,  -0.01109,   0.05379,   0.06498,  -0.01332,   0.01576,  -0.01556,  -0.06701,   0.13209,   0.18802,  -0.00437,  -0.00437,   0.03142,   0.03813,   0.02023,   0.06721,   0.00681,  -0.01109,   0.01800,  -0.04240,   0.03813,   0.12762,  -0.10952,  -0.03346,  -0.08267,  -0.12965,   0.03589,   0.04484,  -0.05359,  -0.07372,   0.03813,   0.00681,  -0.05135,  -0.06925,  -0.02003,   0.07840,   0.11643,  -0.08938,  -0.18111,   0.01800,   0.01800,   0.12090,   0.12314,   0.06498,  -0.14084,   0.09630,  -0.04240,   0.04932,   0.07169,   0.03813,   0.06945,  -0.10504,  -0.01332,   0.02471,  -0.01332,   0.04037,   0.01800,  -0.01332,   0.07169,  -0.04017,   0.22829,  -0.02674,  -0.08267,   0.01129,  -0.00437,   0.06945,   0.05379,  -0.17216,   0.05603,  -0.01556,   0.00681,   0.03589,  -0.06701,  -0.02451,   0.02918,  -0.10281,  -0.02003,  -0.04912,  -0.03346,   0.01576,  -0.03569,   0.03142,  -0.02451,   0.00905,  -0.11623,   0.04708,   0.04484,   0.06721,   0.07169,  -0.03346,   0.00905,   0.02023,   0.11643,  -0.02003,  -0.01780,  -0.04017,  -0.10504,   0.03366,   0.04261,  -0.13413,  -0.00437,  -0.07820,  -0.02674,  -0.14308,  -0.02898,  -0.07820,  -0.05806,   0.05379,   0.16788,  -0.06701,  -0.09610,  -0.02898,  -0.04240,  -0.02227,  -0.01109,  -0.05583,   0.00681,  -0.10057,  -0.04912,   0.02695,   0.04484,  -0.01332,   0.10301,   0.12762,  -0.02898,  -0.05806,   0.01576,  -0.02898,  -0.02898,   0.05603,  -0.11176,   0.00681,   0.02918,  -0.08044,   0.01352,  -0.01556,  -0.03346,  -0.08491,  -0.12965,   0.04261,  -0.10281,  -0.06478,  -0.02451,  -0.00437,  -0.00437,  -0.05135,   0.07840,  -0.06254,  -0.02451,   0.07393,  -0.05583,   0.11419,   0.01800,   0.04484,   0.13880,   0.05827,   0.09630,  -0.04017,  -0.01780,  -0.02898,   0.09630,  -0.08715,   0.04932,  -0.04017,  -0.03569,  -0.24151,  -0.16545,  -0.06701,  -0.02003,   0.08064,   0.09182,   0.01576,   0.00905,   0.04261,   0.01129,  -0.05806,   0.02471,  -0.03793,  -0.01332,   0.03813,  -0.09162,  -0.00214,  -0.10728,   0.00905,   0.07840,  -0.02227,   0.11419,   0.03366,  -0.00214,   0.05379,   0.01576,  -0.05806,   0.02023,  -0.02003,  -0.06478,  -0.08267,   0.14775,   0.00681,  -0.06478,   0.16341,  -0.00661,  -0.01109,  -0.07596,  -0.06030,  -0.07149,  -0.06030,   0.10077,   0.09182,   0.01352,   0.06498,  -0.05583,   0.04037,  -0.09833,  -0.00437,   0.16117,  -0.01332,  -0.04017,   0.02695,   0.06050,   0.02471,   0.02247,  -0.09610
   0.02918,  -0.05135,  -0.05359,  -0.10281,  -0.00661,  -0.04240,  -0.10952,   0.04484,   0.02471,   0.05603,   0.11419,  -0.01109,  -0.13189,  -0.10057,  -0.04464,  -0.00661,   0.10524,  -0.03793,  -0.05359,  -0.08267,  -0.00437,  -0.04688,  -0.10504,  -0.09833,  -0.07820,   0.21710,   0.02471,  -0.01332,  -0.02898,   0.06274,   0.01576,  -0.05583,   0.10077,   0.10972,  -0.07372,   0.01576,   0.06721,  -0.08267,  -0.08491,   0.06498,  -0.00885,   0.10972,   0.05155,   0.01800,   0.01576,   0.00905,  -0.01556,   0.12538,   0.12090,  -0.05583,  -0.04464,  -0.06030,  -0.04240,   0.09853,   0.02695,  -0.06701,  -0.14531,  -0.09162,   0.01129,  -0.04017,   0.02695,   0.00234,   0.06945,   0.11196,  -0.05806,  -0.15202,  -0.06030,   0.00457,   0.20368,   0.01576,  -0.02003,   0.05155,  -0.01556,  -0.08491,   0.19920,  -0.03793,   0.03366,  -0.06254,  -0.02674,  -0.06925,   0.01352,  -0.08938,   0.12762,  -0.07149,  -0.04464,   0.00905,   0.12762,  -0.08267,  -0.00661,   0.05379,  -0.13636,   0.08287,  -0.02674,   0.04484,  -0.11399,   0.00457,  -0.04017,  -0.05135,  -0.06478,  -0.07149,  -0.04464,  -0.15650,  -0.01556,  -0.05583,   0.06721,  -0.05806,  -0.04912,  -0.09610,  -0.04464,   0.05827,   0.08735,   0.13433,   0.02695,   0.04484,   0.05827,   0.04261,  -0.12294,  -0.00214,  -0.02227,   0.04484,  -0.03793,   0.09182,   0.06498,  -0.02451,  -0.05359,  -0.02674,  -0.15873,   0.07840,   0.02023,   0.12985,   0.00234,   0.00234,  -0.02898,   0.07840,   0.04261,  -0.04464,   0.19473,   0.03366,   0.06050,   0.09182,   0.03589,  -0.10281,   0.04261,  -0.07372,  -0.01780,  -0.02451,  -0.06478,  -0.04017,   0.02918,  -0.01332,   0.02471,  -0.03793,   0.01129,  -0.04240,   0.03813,  -0.17439,  -0.04464,  -0.00437,  -0.09610,   0.06274,  -0.11176,   0.09182,  -0.03346,  -0.01780,  -0.03793,  -0.13413,  -0.02674,  -0.02674,   0.04932,  -0.11847,   0.06274,   0.02695,   0.06721,   0.04484,   0.07616,   0.19697,   0.03142,   0.00010,   0.02918,  -0.01556,  -0.05135,   0.00010,   0.14551,   0.05155,  -0.01332,   0.14775,   0.05603,  -0.04688,   0.09406,   0.04932,   0.02023,   0.04037,   0.03813,  -0.00214,   0.02695,  -0.17663,  -0.03569,   0.04037,   0.01352,  -0.13860,  -0.15873,   0.00905,  -0.17439,  -0.12294,   0.04484,  -0.03122,  -0.04240,  -0.03793,  -0.10281,   0.05379,   0.05827,   0.01129,  -0.02451,  -0.09833,  -0.04017,  -0.04464,   0.00457,   0.06050,  -0.05359,  -0.04464,   0.02471,   0.00234,   0.03366,   0.06945,   0.04484,   0.14104,   0.06721,  -0.11176,  -0.07596,  -0.12294,   0.09182,  -0.07596,   0.09853,  -0.04464,  -0.08491,   0.09630,   0.02471,  -0.00214,   0.02247,  -0.09162,  -0.06701,   0.00457,  -0.05583,  -0.08715,  -0.02003,   0.12538,  -0.08715,   0.06498,  -0.01780,  -0.09162,  -0.02674,   0.08064,  -0.01109,   0.04708,   0.02695,  -0.08491,   0.01576,   0.09853,  -0.03569,  -0.02674,  -0.04240,  -0.05583,   0.06050,   0.01352,   0.00457,   0.06945,  -0.05359,   0.03142,  -0.06478,  -0.06925,   0.12985,   0.04261,  -0.03346,   0.02695,  -0.07372,  -0.03346,   0.01129,  -0.00214,   0.09630,  -0.03122,  -0.11847,   0.10524,  -0.02227,  -0.08715,   0.03366,   0.00010,   0.02471,  -0.02898,  -0.06030,   0.02471,  -0.03122,   0.05379,   0.08064,   0.03142,   0.07616,  -0.03569,   0.09853,   0.01800,  -0.02003,   0.12314,  -0.08267,   0.06498,   0.00234,  -0.06701,  -0.01556,  -0.02227,  -0.05583,  -0.05135,  -0.03793,   0.04037,  -0.06030,  -0.01556,  -0.01556,   0.00681,   0.19026,   0.11196,  -0.10504,  -0.06030,   0.17236,   0.09182,  -0.00437,   0.05155,   0.05379,   0.02247,   0.02247,   0.06945,   0.02918,  -0.12965,   0.02918,   0.03142,  -0.16097,  -0.03793,   0.02918,  -0.05583,  -0.06030,   0.03589,  -0.06701,  -0.02227,   0.16117,  -0.00885,   0.08511,  -0.04464,  -0.00437,   0.04037,   0.03366,  -0.00437,   0.02023,   0.16117,  -0.14531,   0.10748,  -0.03346,  -0.04240,  -0.03122,   0.06498,   0.11867,   0.09853,  -0.07820,  -0.04017,  -0.09833,  -0.04688,  -0.02003,  -0.00214,  -0.00214,   0.05155,  -0.05135,   0.03589,  -0.06254,  -0.07149,  -0.01556,  -0.02451,   0.10301,  -0.00214,  -0.10057,   0.03813,  -0.02227,  -0.00885,  -0.09386,   0.03142,  -0.05583,   0.06050,  -0.02451,  -0.02003,   0.00457,  -0.04464
  -0.07820,  -0.04240,  -0.02898,   0.00234,  -0.07372,   0.01800,   0.04708,  -0.05806,  -0.07820,   0.04037,   0.03142,  -0.04912,   0.01800,  -0.13860,   0.00010,   0.07616,  -0.08491,   0.13209,  -0.05583,  -0.05806,   0.04484,  -0.04017,   0.03142,  -0.05135,   0.03366,  -0.02898,  -0.04912,   0.11419,   0.01352,  -0.04240,  -0.07820,  -0.06030,   0.01352,  -0.03346,   0.07169,  -0.07149,   0.02023,   0.05827,  -0.07820,  -0.06254,  -0.12070,   0.06498,   0.11419,   0.02918,  -0.03569,  -0.12965,  -0.04912,  -0.00885,  -0.06254,  -0.09610,  -0.04464,   0.03813,   0.04037,   0.09630,  -0.11176,   0.01352,  -0.13860,  -0.04912,  -0.01780,   0.10748,   0.09630,   0.03589,  -0.01109,  -0.09386,   0.14328,   0.03589,  -0.04240,  -0.11399,  -0.16768,   0.07616,   0.00457,  -0.06030,   0.01129,  -0.19677,   0.00681,  -0.03569,   0.02023,  -0.18334,  -0.09833,  -0.03122,   0.06274,   0.06274,   0.05379,  -0.04240,   0.06721,  -0.13413,  -0.07596,  -0.01332,   0.09182,  -0.13860,   0.04037,   0.00457,  -0.02003,  -0.00437,   0.04261,   0.04261,   0.03142,  -0.00885,   0.04261,  -0.04464,   0.02471,   0.04932,  -0.03793,  -0.12518,   0.14104,   0.16565,  -0.05359,  -0.15426,   0.02247,  -0.06030,   0.06945,   0.02471,  -0.00437,  -0.02674,  -0.00437,  -0.02674,  -0.08267,  -0.09610,  -0.04240,   0.07840,   0.05603,   0.01352,  -0.14084,   0.04484,  -0.09833,  -0.07596,   0.12538,   0.00234,   0.01576,   0.09630,   0.17460,  -0.03346,  -0.05583,   0.03366,  -0.03346,  -0.17439,   0.01576,  -0.05806,   0.00010,   0.08511,   0.01800,   0.08287,  -0.08267,   0.03813,  -0.09162,   0.05155,   0.05379,  -0.01332,  -0.03122,   0.04261,  -0.00885,   0.03142,  -0.05583,  -0.00885,   0.14328,   0.02695,  -0.09162,  -0.06030,  -0.02898,   0.11196,   0.03589,  -0.08267,  -0.02674,  -0.04912,   0.00681,   0.02695,  -0.00885,   0.10301,   0.01800,  -0.05359,  -0.12742,  -0.01332,  -0.13413,  -0.08267,  -0.01780,   0.00681,   0.07616,   0.05379,  -0.08044,  -0.08938,  -0.02451,   0.01352,   0.04484,  -0.03122,   0.11643,  -0.00214,   0.01352,   0.02918,   0.00457,   0.12090,   0.03366,   0.06274,  -0.00437,   0.19026,  -0.07596,  -0.00661,  -0.09833,  -0.05359,   0.03813,   0.16565,   0.03142,   0.22158,   0.00457,  -0.06701,  -0.00885,  -0.07149,   0.09406,   0.01576,  -0.11623,  -0.09162,  -0.04688,   0.03142,  -0.03122,   0.01800,   0.08511,   0.00457,  -0.07149,   0.07616,  -0.06030,  -0.09610,   0.06721,  -0.13189,   0.01129,   0.01129,  -0.06030,  -0.00885,  -0.02898,  -0.13860,   0.10301,  -0.04688,  -0.11176,  -0.02674,  -0.04464,   0.05603,  -0.01332,  -0.04688,  -0.08044,  -0.07820,  -0.03122,  -0.01332,   0.09853,   0.02471,   0.17012,   0.07840,  -0.06701,   0.03142,   0.08511,  -0.03122,   0.14551,  -0.04017,   0.01800,   0.01129,   0.07840,  -0.09833,  -0.08267,   0.10748,   0.08735,   0.03142,  -0.04017,   0.06945,   0.17907,   0.05603,  -0.02003,  -0.00437,  -0.06030,  -0.01556,   0.04261,  -0.06701,  -0.02003,   0.00234,  -0.02674,  -0.01780,   0.05827,  -0.04912,  -0.00437,   0.06945,   0.01576,   0.12090,  -0.06030,   0.10972,  -0.02003,   0.09406,  -0.00885,  -0.02898,  -0.03346,   0.04037,   0.07840,  -0.00661,   0.00234,   0.08287,  -0.02451,  -0.04464,   0.01352,  -0.21019,   0.06274,  -0.03793,   0.00681,  -0.03793,  -0.01780,  -0.03793,   0.01576,   0.01352,  -0.02451,  -0.02898,  -0.05135,  -0.07149,   0.05379,  -0.04464,   0.03142,  -0.02003,  -0.16545,   0.02918,  -0.03346,   0.06274,   0.02918,   0.00905,  -0.06478,   0.06945,  -0.01332,   0.06945,  -0.02674,   0.17012,   0.06721,   0.07393,  -0.12294,  -0.04912,   0.00010,  -0.06478,   0.03366,  -0.03122,  -0.02003,  -0.05583,   0.04484,  -0.02227,   0.01800,   0.00010,   0.10748,  -0.03793,   0.02695,  -0.05806,  -0.03346,   0.11643,   0.11419,   0.03589,  -0.03122,  -0.05359,  -0.02227,  -0.03569,   0.00234,   0.06498,   0.03813,  -0.08044,  -0.04688,  -0.04688,   0.05379,   0.05603,   0.10524,   0.00457,  -0.09610,   0.08064,  -0.03569,   0.09182,  -0.04017,  -0.04240,  -0.10281,   0.00905,  -0.03346,   0.10748,  -0.12965,  -0.01556,  -0.04240,   0.03813,  -0.05583,  -0.08938,   0.02471,  -0.05806,   0.06050,  -0.08715,  -0.08715,   0.08064,  -0.08044,   0.02471,  -0.07149,   0.00905
   0.05155,  -0.12742,   0.05379,  -0.16768,   0.05603,   0.08511,  -0.08491,   0.07169,   0.00234,  -0.03122,   0.05827,   0.09853,  -0.12518,  -0.01556,   0.05379,  -0.03122,  -0.13636,  -0.04017,   0.00905,   0.00681,  -0.17663,  -0.07372,   0.05827,   0.00681,   0.04708,   0.02695,  -0.02451,  -0.04240,  -0.01109,   0.14328,   0.02918,  -0.00661,   0.01352,  -0.10281,  -0.00214,  -0.09386,  -0.02003,  -0.02451,  -0.06701,  -0.00214,  -0.07372,   0.01129,   0.00905,   0.11419,  -0.04240,   0.06274,  -0.07820,  -0.01556,   0.08287,  -0.01780,   0.04037,  -0.10281,  -0.08491,  -0.09833,  -0.05806,  -0.05583,  -0.06478,  -0.01109,  -0.02227,   0.04484,   0.04261,  -0.06254,  -0.19677,   0.06945,   0.01129,  -0.02003,  -0.01780,  -0.12070,   0.05827,   0.00234,  -0.12070,   0.06721,  -0.01109,   0.07616,  -0.03569,   0.04261,  -0.03346,  -0.01556,  -0.07596,   0.10748,   0.03589,   0.02695,   0.04037,   0.06274,  -0.07149,  -0.10728,   0.05155,   0.05827,  -0.05135,   0.04932,  -0.04240,   0.07840,   0.03589,  -0.04017,   0.11196,   0.03366,  -0.12070,   0.18802,  -0.10504,   0.01800,   0.01800,  -0.12294,   0.02918,  -0.01109,  -0.08267,   0.06945,   0.00905,  -0.04464,  -0.07149,  -0.07596,  -0.06925,   0.17012,  -0.10728,  -0.05135,  -0.06254,  -0.01780,  -0.06254,   0.06945,  -0.00885,   0.04484,   0.06274,   0.02471,  -0.07820,   0.05603,  -0.06478,   0.10077,   0.04484,  -0.02674,   0.05155,   0.04261,  -0.03346,  -0.09386,   0.04708,   0.00010,  -0.08267,   0.04484,   0.08287,  -0.09386,   0.07393,  -0.02898,  -0.05583,  -0.03346,   0.06050,   0.08287,   0.02471,   0.01352,  -0.14531,  -0.01109,  -0.05806,   0.01576,   0.09182,  -0.00661,   0.03366,  -0.06925,  -0.02898,  -0.06478,   0.07169,   0.04037,  -0.00437,  -0.10504,  -0.06030,  -0.03793,   0.03813,   0.04932,   0.00457,  -0.02898,  -0.05359,   0.04037,   0.02471,   0.08064,  -0.03122,   0.08735,   0.10077,  -0.05359,  -0.02898,  -0.02451,  -0.09386,   0.08287,   0.00010,  -0.06030,  -0.00885,  -0.00661,   0.00234,  -0.12965,   0.02918,  -0.08715,   0.00905,  -0.06478,   0.17907,  -0.14084,  -0.01109,   0.00905,  -0.09386,   0.00010,  -0.04912,  -0.09610,  -0.09162,  -0.10952,   0.02023,   0.00457,   0.13880,   0.00010,  -0.00661,  -0.02003,  -0.04688,   0.03366,   0.04261,  -0.06925,  -0.05359,  -0.08715,   0.00681,  -0.00214,  -0.00885,   0.09853,  -0.03346,  -0.00437,  -0.09386,   0.02023,   0.07393,  -0.06478,  -0.02003,   0.04708,   0.08735,   0.15222,   0.05379,  -0.10057,   0.00681,  -0.06254,  -0.02003,   0.12314,  -0.01556,  -0.00214,   0.02471,  -0.03346,  -0.03122,   0.14104,  -0.15873,   0.00234,  -0.00437,   0.00681,   0.19026,  -0.00661,   0.01576,  -0.02898,  -0.02003,  -0.09386,   0.05155,   0.03813,   0.00457,   0.08064,   0.00905,  -0.02898,  -0.07596,  -0.00214,  -0.08267,   0.13880,   0.01352,   0.11643,   0.01576,  -0.12070,  -0.01332,  -0.07149,   0.06498,  -0.05806,   0.03589,  -0.08044,  -0.01780,  -0.10281,   0.04708,  -0.06478,   0.05155,  -0.02674,  -0.00661,   0.03142,  -0.08938,   0.08511,  -0.01109,   0.09182,   0.02247,  -0.08044,   0.11196,   0.01352,  -0.07149,   0.08287,   0.00010,  -0.01780,  -0.08044,  -0.11623,  -0.10057,  -0.09386,   0.14775,  -0.03346,   0.01129,   0.00681,  -0.05359,   0.02471,  -0.00437,   0.02023,  -0.00885,  -0.14084,  -0.01332,   0.02471,  -0.05359,   0.01800,   0.02918,   0.17460,   0.02471,  -0.00885,  -0.01556,  -0.14308,  -0.06701,  -0.04017,   0.00234,  -0.08491,   0.02695,   0.14551,  -0.02451,  -0.17663,   0.16341,   0.06945,  -0.03122,  -0.08044,  -0.02674,   0.02471,   0.05155,   0.04932,   0.04261,   0.11643,   0.02918,  -0.08715,  -0.07149,   0.02918,  -0.07820,   0.09406,  -0.04017,  -0.18782,  -0.06478,  -0.00437,   0.00457,  -0.07596,   0.11419,  -0.01109,   0.05827,   0.09406,   0.02247,   0.03142,   0.16788,   0.04484,   0.03142,  -0.01780,  -0.07149,   0.05603,   0.01800,  -0.00661,   0.02247,   0.07169,   0.02695,   0.01576,  -0.13860,   0.06498,  -0.05583,  -0.08938,   0.15222,   0.00234,   0.07840,   0.00681,   0.09630,   0.05379,   0.11643,  -0.06925,   0.00010,  -0.00214,  -0.03569,   0.02471,  -0.02898,   0.02695,   0.00457,   0.04261,   0.18802,   0.01129,  -0.01556,  -0.03122,  -0.09833,   0.00234
  -0.01332,   0.14104,   0.06050,  -0.18782,   0.05379,  -0.05806,   0.01129,  -0.06030,   0.03366,   0.01576,   0.06274,  -0.12965,   0.01352,  -0.05583,   0.02023,  -0.01780,   0.14551,  -0.07372,   0.14551,   0.02471,  -0.04912,  -0.10952,  -0.07372,   0.18802,   0.09853,  -0.00885,  -0.11847,   0.01576,   0.03813,   0.05379,  -0.01332,  -0.01556,  -0.02674,   0.06274,   0.01800,  -0.04464,  -0.01332,  -0.04017,   0.05379,   0.04484,  -0.00437,  -0.05806,   0.09182,  -0.06478,  -0.03346,   0.04484,   0.06498,   0.05379,   0.09182,   0.02695,  -0.01556,  -0.11847,   0.08287,  -0.05806,   0.00905,   0.07840,   0.10301,  -0.10952,   0.10972,   0.00905,   0.09853,   0.16788,   0.00234,   0.03813,  -0.08044,   0.04261,  -0.09833,   0.01576,   0.00234,   0.15222,   0.06945,   0.04037,  -0.15426,  -0.05806,  -0.09610,  -0.06925,   0.08287,   0.09182,   0.09182,   0.00010,  -0.01556,  -0.06701,  -0.04688,  -0.03569,  -0.10952,   0.08064,  -0.11399,   0.02247,   0.06945,   0.09406,  -0.02003,  -0.00885,   0.09406,  -0.07372,   0.02023,   0.14999,   0.06498,  -0.04464,   0.04932,  -0.00885,   0.00681,  -0.07149,  -0.03793,   0.03813,  -0.02451,  -0.01109,   0.02247,   0.09182,   0.04932,  -0.05806,  -0.00661,   0.04708,   0.01352,  -0.14308,   0.03366,   0.08064,  -0.08491,   0.02247,   0.00010,  -0.06925,   0.02918,   0.00010,  -0.10728,  -0.04240,   0.09853,  -0.00214,  -0.00885,  -0.01556,   0.01576,  -0.11623,  -0.01332,   0.02247,  -0.00437,  -0.16097,  -0.01109,  -0.00885,   0.02695,  -0.09386,  -0.05583,  -0.02674,   0.13880,  -0.04464,   0.08287,  -0.06030,   0.03366,  -0.14755,   0.00905,   0.05603,  -0.17216,  -0.06701,   0.08511,   0.05827,   0.04037,  -0.03793,   0.01129,   0.02918,   0.02918,  -0.11847,   0.01129,   0.08959,  -0.05583,   0.04484,   0.04261,   0.04261,   0.08511,  -0.03569,   0.04708,  -0.00214,   0.03366,  -0.01332,  -0.08938,   0.09406,  -0.03122,  -0.03122,   0.03142,  -0.06925,   0.08959,   0.07169,   0.01352,   0.12314,  -0.02674,  -0.03793,   0.11867,  -0.08044,  -0.10281,   0.00681,  -0.07820,  -0.01556,   0.11196,   0.08735,   0.07616,  -0.08715,   0.03142,   0.03366,   0.01352,   0.10748,  -0.09162,   0.05155,   0.14775,   0.06945,  -0.05806,   0.06498,   0.00010,   0.07616,  -0.01780,  -0.09610,   0.00010,  -0.10952,  -0.04017,   0.10524,  -0.10728,   0.10524,   0.15894,   0.02247,   0.01129,   0.06945,   0.08959,  -0.01780,  -0.03569,  -0.02451,  -0.01109,   0.20815,  -0.03569,  -0.05806,  -0.05583,  -0.03793,  -0.01109,   0.03366,   0.04932,   0.03366,   0.03366,  -0.08044,  -0.06030,   0.15222,   0.05379,  -0.06254,   0.09406,   0.00905,   0.06274,   0.00010,   0.06050,   0.02471,   0.06498,  -0.01109,  -0.09386,   0.06498,  -0.03569,   0.04037,  -0.01780,  -0.12742,  -0.10057,   0.01129,   0.05155,  -0.16768,   0.04708,   0.03589,   0.06274,  -0.02003,  -0.13413,   0.07840,   0.03589,  -0.00661,   0.03589,  -0.08267,   0.12314,  -0.05359,  -0.12070,  -0.06254,   0.05827,   0.17907,  -0.08715,  -0.01109,  -0.04017,   0.00457,   0.07840,  -0.03122,   0.03589,   0.00681,  -0.00661,  -0.04240,  -0.08044,  -0.02674,   0.01129,  -0.23480,  -0.04688,  -0.01332,   0.11867,  -0.04464,   0.13880,  -0.19900,   0.08287,   0.05603,  -0.05135,   0.00234,  -0.00214,  -0.10057,   0.06945,   0.02471,  -0.09833,   0.08959,   0.14775,  -0.06701,  -0.04464,  -0.03793,   0.03589,   0.01352,  -0.08938,  -0.07596,  -0.03569,  -0.04464,   0.01129,   0.04484,  -0.08267,  -0.06030,  -0.06925,  -0.04464,  -0.11399,  -0.05359,  -0.02898,  -0.00885,  -0.05583,   0.06721,   0.01576,   0.04932,   0.02023,   0.03366,   0.01352,   0.02471,   0.11196,  -0.08044,  -0.07149,  -0.08267,   0.06721,   0.10748,   0.04708,   0.09853,  -0.02898,  -0.00437,   0.08064,  -0.03793,   0.06721,  -0.06478,  -0.07820,  -0.08938,   0.03366,   0.06945,  -0.02003,   0.12985,   0.04484,   0.12985,   0.02247,  -0.01780,   0.06050,   0.08287,  -0.03122,  -0.06478,  -0.02674,   0.04708,  -0.02451,  -0.06701,  -0.11847,   0.09406,  -0.02227,   0.10524,  -0.10504,   0.09406,  -0.00214,  -0.08044,   0.00457,  -0.06925,   0.05379,  -0.09386,  -0.02898,  -0.02674,  -0.07596,   0.00010,   0.06498,   0.07840,  -0.00885,   0.08735,   0.15670,  -0.07372,  -0.15873,  -0.04912
   0.03813,  -0.13636,   0.05379,  -0.07596,   0.00010,  -0.03346,  -0.00214,  -0.16545,  -0.04240,  -0.06030,  -0.00661,   0.05379,  -0.06478,  -0.10504,  -0.01780,  -0.11399,   0.10524,   0.00457,  -0.13636,  -0.07596,   0.03366,  -0.20124,   0.06721,   0.01576,  -0.01332,   0.04037,  -0.08491,   0.03589,  -0.04017,  -0.11176,  -0.16992,  -0.08491,   0.00457,  -0.09162,   0.07169,   0.02471,  -0.07149,   0.04484,   0.01129,  -0.02003,  -0.07820,  -0.02003,   0.01576,   0.01352,   0.05827,  -0.19229,  -0.00437,  -0.08715,   0.03813,  -0.13636,  -0.05135,  -0.09162,  -0.05806,   0.09182,  -0.10504,   0.05379,   0.14104,  -0.01332,   0.01129,   0.11419,  -0.00661,   0.08959,  -0.08044,   0.19920,   0.04932,   0.00905,  -0.07372,   0.02695,   0.01352,   0.09630,  -0.00214,   0.03589,  -0.09162,   0.04932,   0.05379,  -0.05806,  -0.02003,  -0.04464,   0.11196,  -0.01780,   0.06274,   0.06721,  -0.02003,   0.08287,   0.06721,  -0.05583,  -0.01109,  -0.06030,   0.12090,   0.11419,   0.02918,  -0.04688,  -0.15202,  -0.02227,   0.01352,  -0.02227,   0.14104,  -0.13189,   0.04484,  -0.07372,  -0.04017,   0.08287,  -0.02003,   0.10972,   0.01800,   0.02247,   0.16117,   0.15446,  -0.06254,  -0.10952,  -0.12965,   0.02918,   0.03589,   0.21710,  -0.03122,  -0.08267,   0.01129,   0.08064,   0.04037,  -0.02227,  -0.00214,   0.01129,   0.00457,   0.01352,   0.05827,   0.02247,   0.03589,   0.07616,   0.04708,  -0.16321,   0.00457,  -0.13189,  -0.01780,  -0.08267,   0.04261,   0.09406,  -0.08938,  -0.05359,  -0.04017,  -0.06701,   0.00905,  -0.01556,  -0.09610,   0.04484,   0.07169,   0.05827,  -0.04464,   0.01129,  -0.05359,   0.00457,   0.02247,   0.02247,  -0.03122,   0.03142,  -0.03346,   0.02023,   0.09630,  -0.04240,  -0.02898,   0.10524,  -0.07149,  -0.01332,   0.08511,  -0.04688,   0.11419,   0.04484,   0.02247,   0.00905,   0.02695,   0.12762,   0.01800,  -0.07372,  -0.01556,   0.06945,   0.04037,  -0.06701,  -0.08044,   0.03813,   0.05603,  -0.01109,  -0.10952,  -0.06030,  -0.16545,   0.03142,   0.02023,  -0.15426,   0.00905,   0.01352,  -0.13636,  -0.04017,   0.09182,  -0.10057,   0.09853,  -0.03569,  -0.02451,   0.00905,  -0.03122,  -0.07372,  -0.08044,   0.01352,   0.00010,   0.02023,  -0.03569,  -0.03122,   0.03142,  -0.00214,   0.01129,   0.07169,   0.00234,  -0.03346,   0.04708,   0.06945,   0.12314,   0.02247,  -0.07372,  -0.06254,   0.04932,   0.09182,   0.06721,   0.11643,  -0.01780,   0.12314,  -0.09610,  -0.05359,   0.04261,   0.00681,   0.06050,  -0.04017,  -0.02003,  -0.02674,   0.02471,  -0.05359,  -0.00214,   0.01576,   0.00234,   0.03589,  -0.00437,  -0.03793,   0.06945,  -0.13860,   0.03589,   0.10524,   0.09182,   0.00681,   0.03366,  -0.12742,   0.09853,   0.02023,  -0.03793,   0.03142,   0.08064,  -0.18111,  -0.08044,   0.09853,   0.02918,  -0.14755,  -0.04912,   0.05155,  -0.09833,  -0.03122,  -0.06254,   0.18131,   0.13209,   0.03142,   0.02471,   0.01129,   0.03589,  -0.00214,  -0.04017,  -0.08491,  -0.04912,  -0.03569,   0.03142,  -0.08267,  -0.02003,   0.04261,   0.01576,  -0.01332,  -0.06030,  -0.06030,   0.06945,   0.05155,   0.02918,  -0.13860,  -0.11176,  -0.02227,   0.04261,   0.03589,   0.00457,  -0.04688,  -0.06925,  -0.05806,   0.03813,  -0.08491,  -0.02227,  -0.04017,   0.09406,  -0.06030,  -0.04240,  -0.08044,   0.05155,   0.13209,  -0.05806,   0.06498,   0.08511,  -0.11623,   0.00681,   0.09630,   0.06050,  -0.03122,  -0.12742,   0.08959,  -0.04464,   0.01352,   0.05603,  -0.12742,   0.00905,   0.06721,  -0.15650,   0.13433,  -0.00214,   0.04261,   0.10524,  -0.07596,   0.20144,   0.03366,  -0.02003,   0.04484,   0.04261,  -0.07149,   0.06498,  -0.03346,   0.02695,  -0.06478,  -0.11176,  -0.00437,  -0.14755,  -0.01556,  -0.04464,  -0.11623,  -0.04688,   0.12538,   0.03813,  -0.02003,   0.04261,  -0.09162,  -0.01556,   0.05379,  -0.12518,   0.03813,   0.00905,  -0.21243,  -0.01332,   0.07840,   0.01352,   0.06274,  -0.05135,   0.14328,   0.12090,   0.00010,   0.05827,   0.08287,  -0.00661,   0.08287,   0.05155,  -0.01780,   0.07393,  -0.04912,   0.09853,  -0.14979,  -0.03569,   0.07393,  -0.04017,   0.01576,  -0.02674,   0.08511,   0.00681,  -0.10952,  -0.02898,  -0.08491,  -0.05359,   0.10972,  -0.12965,  -0.00885
  -0.00885,  -0.20795,   0.12090,   0.12762,   0.01800,  -0.00661,   0.04261,  -0.01109,  -0.02898,   0.04708,  -0.04240,  -0.03793,   0.14999,   0.12314,   0.08511,   0.01129,   0.05379,   0.12090,  -0.02003,   0.01129,   0.08511,  -0.05583,   0.12314,  -0.10281,   0.03813,  -0.09162,  -0.14531,  -0.05806,  -0.06478,   0.03589,  -0.00885,   0.02023,   0.00681,  -0.04240,   0.00681,   0.13433,  -0.04688,   0.04708,  -0.06030,  -0.01109,   0.05155,  -0.13413,   0.00457,  -0.03793,   0.12090,  -0.01332,  -0.06030,   0.04932,   0.02247,  -0.06030,  -0.00214,   0.01129,  -0.07820,  -0.00885,   0.01576,   0.04261,   0.02247,   0.08064,   0.05155,   0.00234,   0.07393,  -0.06478,  -0.02674,  -0.01109,   0.00457,   0.01576,   0.01800,   0.04484,  -0.12518,  -0.18334,   0.00234,  -0.07149,  -0.10281,  -0.04912,   0.05379,  -0.09162,  -0.07372,   0.06498,  -0.00661,   0.05603,   0.09182,   0.02023,   0.07840,   0.02695,   0.05827,   0.12985,  -0.10952,  -0.07372,   0.09182,  -0.02674,   0.03142,  -0.08715,  -0.08491,  -0.11623,   0.11643,   0.10748,   0.13209,  -0.01109,   0.00234,  -0.07820,  -0.02674,  -0.04017,   0.11196,  -0.07372,  -0.11176,  -0.16321,   0.03589,  -0.08938,   0.00457,   0.11867,   0.10077,   0.05827,   0.01800,   0.03589,   0.02023,  -0.10728,   0.00457,   0.02695,  -0.07596,  -0.05806,  -0.07596,   0.14104,  -0.01109,   0.02918,   0.08735,   0.08959,   0.04708,  -0.02227,  -0.05806,  -0.06701,   0.03589,  -0.00661,  -0.04688,   0.09853,  -0.10728,   0.10972,   0.03142,  -0.03122,   0.01352,  -0.07820,   0.06721,   0.00234,   0.01129,   0.07616,   0.03813,   0.03589,   0.08511,  -0.00885,   0.16117,  -0.07149,  -0.01556,  -0.02003,   0.00905,   0.00681,  -0.06030,   0.00457,   0.06945,  -0.02003,  -0.02898,  -0.03122,  -0.00214,   0.04484,  -0.11176,   0.06274,   0.03813,  -0.09386,  -0.07596,   0.04484,   0.05155,  -0.02674,   0.03813,   0.04708,  -0.00885,   0.10972,   0.00681,  -0.08044,  -0.07372,   0.04932,  -0.03569,   0.18578,   0.09182,  -0.06478,  -0.00885,  -0.04240,  -0.13636,  -0.01109,   0.04708,   0.07616,  -0.01780,   0.09630,  -0.04240,  -0.07372,  -0.14084,  -0.02451,  -0.00885,   0.07393,   0.02023,   0.08511,  -0.05806,  -0.04240,   0.04261,   0.01352,  -0.04017,   0.09182,   0.12090,  -0.05806,   0.03813,  -0.06478,  -0.05806,   0.00010,  -0.12742,   0.07393,   0.00234,   0.01800,   0.00010,   0.02023,  -0.06925,   0.06498,  -0.02003,  -0.08715,   0.06498,   0.02918,  -0.04688,  -0.11623,   0.09182,   0.01576,   0.03142,   0.02023,  -0.10281,   0.12985,   0.02695,   0.04932,   0.02023,  -0.04464,   0.01800,   0.05379,   0.03366,  -0.01109,  -0.08715,  -0.12294,  -0.06030,   0.00681,   0.04932,   0.02471,  -0.08044,  -0.09386,  -0.00437,   0.00905,  -0.01780,   0.09630,   0.05603,  -0.00214,   0.03142,  -0.03122,  -0.04912,   0.09406,   0.10301,   0.02918,  -0.06701,   0.06050,  -0.04240,   0.04932,   0.05827,   0.05603,   0.00010,  -0.05359,   0.07169,   0.01352,   0.04708,   0.13656,  -0.02227,  -0.00885,   0.02247,   0.00010,  -0.06925,   0.06274,  -0.10281,   0.06050,  -0.07820,  -0.15202,  -0.11623,   0.02247,   0.03142,   0.08959,   0.04261,   0.02471,  -0.13636,  -0.00885,  -0.00214,   0.03366,   0.02247,   0.03366,  -0.11399,   0.07169,   0.06274,  -0.01780,  -0.01109,   0.11196,   0.11196,  -0.01556,   0.09853,   0.03366,  -0.03346,  -0.06701,   0.16117,   0.03142,   0.02247,  -0.02898,   0.02471,  -0.01332,  -0.04240,  -0.07820,   0.09182,   0.08959,   0.10301,  -0.03793,  -0.01556,   0.02695,   0.15222,  -0.01780,   0.02023,  -0.04017,   0.06945,  -0.17216,  -0.07149,   0.15894,  -0.04688,   0.08511,   0.10077,  -0.05806,   0.01800,   0.08959,   0.07169,  -0.04017,   0.07393,  -0.01109,   0.02695,  -0.04912,  -0.04017,   0.03142,  -0.09610,   0.00457,  -0.03793,   0.06721,  -0.08715,  -0.09162,   0.04708,  -0.02451,   0.04932,   0.03813,  -0.02898,  -0.06925,  -0.16768,  -0.04240,   0.00010,   0.04932,   0.03589,  -0.14084,   0.01352,  -0.00437,  -0.11623,  -0.08491,   0.10524,  -0.04464,  -0.06254,   0.10524,   0.04932,   0.04484,   0.00905,   0.08735,  -0.00214,   0.09406,  -0.07149,  -0.07596,   0.14104,  -0.01780,   0.02918,  -0.12070,  -0.04464,   0.08511,   0.15222,  -0.03122,  -0.03346,  -0.00214
   0.02695,   0.12538,  -0.00214,   0.04708,   0.02247,  -0.09386,  -0.13636,  -0.03569,  -0.07149,  -0.11176,   0.00010,  -0.06030,  -0.02451,   0.06498,   0.03366,  -0.00214,   0.01800,   0.05827,   0.01576,  -0.06030,   0.01129,  -0.00885,  -0.07596,   0.02918,   0.13209,  -0.16097,  -0.03569,  -0.08267,  -0.06478,  -0.08491,   0.14104,   0.17236,  -0.11623,   0.10524,  -0.00661,   0.07616,  -0.00885,   0.00010,  -0.01332,   0.01800,   0.01576,  -0.05806,  -0.08044,  -0.01332,   0.03589,  -0.02003,   0.06274,   0.09853,   0.05827,  -0.00885,   0.00457,  -0.04912,  -0.07149,   0.10301,  -0.11847,  -0.07596,  -0.11176,  -0.01556,   0.00905,  -0.00437,  -0.09833,  -0.05359,  -0.06701,   0.01576,  -0.01780,   0.03142,   0.00905,  -0.12070,   0.03813,  -0.09833,  -0.06701,  -0.05135,   0.07616,  -0.04240,  -0.05806,  -0.01556,  -0.02451,   0.00681,   0.00457,   0.03142,   0.11867,  -0.03569,   0.04708,  -0.08715,   0.08064,  -0.04017,   0.01800,   0.05379,   0.05603,   0.03589,   0.00234,   0.09853,  -0.01109,   0.11643,  -0.02003,   0.06050,  -0.02898,   0.02247,   0.06274,  -0.01780,  -0.04017,   0.03813,  -0.09386,  -0.01109,  -0.02674,  -0.02674,  -0.07149,   0.01800,  -0.12742,   0.08287,  -0.10728,   0.00010,  -0.12742,  -0.01332,   0.03366,   0.01576,  -0.02451,  -0.03569,  -0.01556,   0.00905,   0.04484,   0.02695,   0.11196,  -0.12965,   0.07169,  -0.04240,   0.02023,   0.01576,  -0.06925,  -0.02003,   0.02471,   0.01576,  -0.08491,  -0.04017,   0.07169,  -0.13413,  -0.06701,  -0.00885,   0.06945,  -0.06701,   0.04484,  -0.15426,  -0.02003,  -0.00885,  -0.03793,   0.17907,  -0.02003,  -0.04912,  -0.10057,  -0.15202,   0.08735,  -0.04912,  -0.14755,  -0.01109,  -0.09162,   0.17012,   0.06498,   0.11196,  -0.01556,   0.09406,  -0.09162,  -0.08044,   0.05155,   0.00457,  -0.03793,   0.05603,   0.14775,  -0.05135,   0.03366,  -0.07372,   0.05155,  -0.02451,   0.00457,   0.02247,   0.03142,  -0.05806,   0.03589,   0.03813,   0.00010,  -0.01109,  -0.06030,  -0.06925,  -0.02003,  -0.11623,  -0.10057,   0.03142,   0.02247,   0.03813,   0.02918,  -0.00885,  -0.01556,   0.07393,  -0.05806,  -0.11623,  -0.02898,   0.02918,   0.01800,   0.14328,  -0.08491,   0.00681,  -0.13636,   0.05155,  -0.03793,   0.09182,   0.11419,   0.03589,  -0.01332,   0.03366,   0.04932,   0.02695,  -0.01109,  -0.05806,   0.07616,   0.04484,   0.07840,   0.01576,  -0.05135,   0.01800,  -0.02227,   0.11643,  -0.10281,   0.06721,  -0.01556,   0.08959,   0.02023,  -0.13189,   0.04037,  -0.14084,  -0.05806,  -0.06478,  -0.02898,   0.01129,   0.09853,  -0.08267,   0.09630,  -0.10057,  -0.00885,  -0.04688,   0.01129,   0.04037,  -0.05583,  -0.02003,   0.09182,  -0.11623,   0.08287,   0.02247,   0.04261,  -0.02674,  -0.09386,   0.03813,  -0.14531,   0.03813,   0.03589,  -0.06030,   0.14104,   0.00905,  -0.06254,   0.12985,   0.15894,  -0.00214,  -0.02898,  -0.05806,   0.08511,  -0.00214,  -0.05583,  -0.02898,   0.06721,  -0.00885,  -0.13189,  -0.00661,   0.02695,   0.00457,  -0.01332,  -0.04912,  -0.00885,   0.03813,  -0.09386,   0.00681,   0.09182,  -0.02898,   0.08735,  -0.09162,   0.03366,   0.16565,   0.03589,  -0.10504,  -0.09833,  -0.04688,  -0.03793,  -0.11176,   0.04261,  -0.02898,  -0.00214,   0.02247,  -0.08938,  -0.01556,   0.01800,   0.01576,  -0.08267,  -0.04240,  -0.10057,  -0.01780,  -0.01109,   0.08511,   0.10077,  -0.01332,  -0.08491,   0.02695,  -0.00214,   0.00681,  -0.04912,  -0.06254,  -0.11399,   0.17012,   0.04708,  -0.04688,  -0.06030,  -0.01556,   0.01129,   0.00457,   0.13433,   0.01352,  -0.07372,  -0.04017,   0.08735,   0.01352,   0.05155,   0.01576,   0.03142,   0.01576,   0.03366,   0.02247,  -0.01780,  -0.08938,   0.03366,   0.00905,  -0.00885,  -0.05135,  -0.02451,  -0.08715,   0.01129,  -0.08267,   0.01576,   0.16565,  -0.02898,   0.15894,  -0.08938,  -0.02227,   0.12314,   0.15446,   0.00234,  -0.03122,  -0.08938,   0.05155,   0.08735,  -0.02451,   0.02023,  -0.06701,  -0.10728,  -0.05583,  -0.03793,   0.00010,   0.06945,  -0.05135,   0.00681,   0.09630,  -0.08267,  -0.03122,   0.06274,   0.03813,   0.07169,  -0.14308,  -0.03569,  -0.02674,   0.02247,   0.06274,   0.01129,  -0.00214,  -0.00437,  -0.04017,   0.02247,  -0.02451,   0.08511,  -0.02674
  -0.00885,  -0.04240,   0.00681,  -0.02227,  -0.15650,   0.03589,   0.04261,  -0.00885,  -0.09610,  -0.07372,   0.02471,   0.09182,  -0.07820,  -0.00885,  -0.02227,   0.07169,  -0.13413,  -0.13189,   0.00681,   0.03813,  -0.02003,   0.00010,   0.01576,   0.04037,  -0.15202,   0.04932,   0.08735,   0.14775,  -0.04912,  -0.04240,   0.06050,   0.10748,  -0.01780,   0.03589,  -0.01109,  -0.02227,  -0.02898,   0.06721,   0.02247,  -0.10281,  -0.03793,  -0.03793,  -0.13189,  -0.12965,  -0.12518,   0.03142,  -0.09833,  -0.15873,  -0.02674,  -0.03122,  -0.02451,  -0.06254,   0.10077,  -0.07596,  -0.02898,   0.00681,  -0.02451,  -0.12294,  -0.05359,   0.06945,   0.04037,  -0.03569,   0.06050,   0.09630,   0.02471,  -0.03346,   0.20815,   0.09406,  -0.05359,  -0.02898,   0.06721,  -0.09162,  -0.09386,  -0.03793,   0.05603,  -0.06254,   0.03589,  -0.11176,  -0.08491,   0.12538,   0.07840,   0.00010,  -0.06030,  -0.05359,   0.04261,  -0.06254,  -0.00214,   0.03142,  -0.07596,   0.00234,  -0.10504,  -0.02451,   0.00681,   0.14551,  -0.05583,  -0.08491,  -0.04017,   0.08064,  -0.04688,   0.10077,   0.00905,  -0.00885,  -0.00885,  -0.01556,  -0.13636,   0.03366,  -0.24375,   0.11196,  -0.13413,   0.05603,   0.08511,   0.17236,   0.10301,  -0.03793,   0.04037,  -0.08715,   0.02247,  -0.09386,   0.10972,  -0.02898,   0.07840,  -0.04688,  -0.09610,  -0.19005,   0.04932,  -0.05583,  -0.02674,  -0.02451,  -0.11399,   0.00905,  -0.11176,   0.04484,  -0.01780,   0.01800,  -0.02674,   0.02918,   0.02023,   0.15670,  -0.01556,   0.06274,   0.12314,  -0.07149,   0.05827,  -0.11847,   0.09853,   0.03142,   0.17460,   0.04708,   0.15222,  -0.17216,  -0.04912,   0.08064,  -0.05135,   0.00457,  -0.15426,   0.04484,   0.04484,   0.12985,  -0.05359,   0.08287,  -0.08715,  -0.08491,  -0.05135,  -0.01109,   0.04932,   0.02247,   0.22381,  -0.12965,  -0.04912,  -0.10281,  -0.06030,  -0.08715,  -0.03346,  -0.05135,  -0.07820,   0.01576,   0.11196,   0.06721,  -0.04240,   0.01352,  -0.10728,  -0.00885,   0.14999,  -0.07149,   0.01129,   0.00234,   0.02695,   0.03589,   0.06945,  -0.08267,   0.02918,  -0.06925,   0.12538,  -0.09386,   0.07393,  -0.07372,   0.03366,  -0.07149,  -0.00437,  -0.02898,  -0.12742,   0.04932,  -0.05583,  -0.10504,   0.02695,   0.05155,   0.01800,   0.01800,   0.12985,  -0.10728,  -0.01109,   0.07169,   0.06274,   0.03813,   0.12985,  -0.00214,  -0.01780,  -0.01109,  -0.01556,   0.04708,   0.10301,   0.16117,   0.01352,  -0.06701,   0.01129,   0.01800,   0.03366,  -0.11623,   0.03366,  -0.06254,  -0.11847,   0.06274,   0.01352,   0.05379,  -0.05135,  -0.00661,   0.02023,   0.03366,   0.02695,   0.05603,  -0.06254,  -0.04017,  -0.00661,  -0.01109,   0.05379,  -0.15873,   0.04708,  -0.03122,  -0.07372,  -0.13413,  -0.03569,   0.02918,   0.03366,   0.17236,   0.04708,   0.06050,  -0.01332,  -0.08044,  -0.02898,   0.00681,  -0.01780,   0.09630,   0.02023,   0.04037,   0.09853,   0.14104,  -0.05135,   0.04708,   0.05155,  -0.01780,   0.04708,  -0.00885,   0.10972,   0.01352,  -0.01780,  -0.02227,  -0.04912,   0.06498,   0.03589,  -0.01109,   0.06721,   0.13433,   0.01576,   0.11867,  -0.08267,   0.02918,  -0.12070,  -0.03569,   0.12090,  -0.06925,   0.04037,  -0.06478,  -0.12965,   0.00457,   0.08511,   0.03589,   0.02023,  -0.13189,  -0.06254,  -0.17216,  -0.01780,   0.09406,  -0.03346,  -0.02003,   0.07169,  -0.09162,  -0.03346,  -0.04912,  -0.10057,   0.06721,  -0.07149,   0.02471,   0.08511,  -0.01780,  -0.15873,   0.02918,   0.03366,  -0.09833,   0.02023,   0.08287,   0.08064,   0.00010,   0.09182,   0.11419,   0.00010,   0.00681,  -0.05135,  -0.01109,   0.10524,  -0.03793,  -0.00661,   0.00010,   0.02247,   0.17907,   0.01352,   0.05379,  -0.04017,   0.01800,  -0.01780,  -0.05806,   0.02247,  -0.02227,  -0.00885,  -0.02227,  -0.05583,   0.02023,   0.08959,   0.01352,  -0.04240,   0.10301,   0.08511,  -0.01556,  -0.25046,   0.00010,  -0.09162,   0.00457,   0.10077,  -0.02227,   0.12314,  -0.00214,   0.11196,   0.02918,  -0.07372,  -0.02674,   0.14328,  -0.04464,   0.01800,  -0.04464,  -0.12965,  -0.02451,   0.08064,   0.00010,  -0.00437,  -0.02674,  -0.00437,   0.03366,   0.07840,  -0.03122,   0.00010,  -0.08715,   0.05603,  -0.04240,  -0.00661,   0.09406
  -0.00661,  -0.04017,  -0.04240,   0.04484,  -0.04240,   0.02023,  -0.07372,   0.05603,   0.00234,   0.04037,   0.01576,  -0.03793,  -0.05135,   0.11867,   0.02471,  -0.08044,  -0.01109,  -0.03346,  -0.01332,   0.08287,   0.10748,  -0.02898,  -0.07372,  -0.01780,   0.00905,  -0.04912,   0.06498,  -0.00885,   0.00010,   0.05155,  -0.00661,   0.00681,  -0.01780,   0.00457,   0.00234,  -0.00885,  -0.00885,   0.00905,   0.00681,  -0.12742,  -0.01332,   0.04261,  -0.04464,  -0.13636,   0.06050,   0.08511,   0.08287,   0.02247,   0.17460,   0.03366,   0.21710,  -0.04464,   0.05603,   0.02247,   0.02247,   0.01129,  -0.06478,   0.15222,  -0.16768,  -0.04240,  -0.04017,   0.08735,  -0.01109,  -0.05806,   0.09182,   0.05827,  -0.06030,  -0.00885,   0.06498,  -0.06030,   0.11643,   0.03589,  -0.02003,  -0.03793,   0.01129,   0.03366,  -0.02227,   0.14999,   0.01800,   0.11419,  -0.04688,  -0.02898,   0.03142,  -0.07372,   0.00905,   0.02023,  -0.00214,  -0.01780,  -0.05135,  -0.08715,   0.12762,  -0.02003,   0.02023,  -0.14755,  -0.00885,  -0.07596,  -0.07820,  -0.06030,  -0.16321,  -0.01332,  -0.15202,  -0.12518,   0.03813,   0.08064,   0.00905,   0.00457,  -0.11847,   0.05155,  -0.00437,  -0.01780,  -0.03122,   0.05827,  -0.16097,   0.02471,   0.01129,  -0.02674,   0.00234,  -0.12518,  -0.00437,   0.06945,   0.11419,   0.07169,  -0.07596,  -0.02451,   0.00905,   0.03366,  -0.05359,  -0.02674,   0.02918,   0.03142,   0.01576,  -0.00437,  -0.03122,   0.03589,   0.05155,   0.01800,   0.07840,   0.07169,   0.02471,  -0.04912,  -0.03569,   0.06050,   0.06498,  -0.01556,  -0.10504,   0.04484,   0.02471,   0.04708,   0.02695,  -0.06254,   0.01129,   0.12314,   0.04037,   0.05603,   0.08735,   0.01800,  -0.09162,   0.02918,   0.11419,   0.08735,  -0.03793,   0.06050,  -0.04464,  -0.01332,  -0.06925,  -0.10057,  -0.08491,  -0.01556,  -0.09833,  -0.01780,  -0.05359,   0.07840,  -0.00661,   0.09406,   0.02247,   0.05155,   0.01576,  -0.01109,   0.00681,  -0.14084,   0.00457,  -0.03346,  -0.02674,   0.23052,  -0.00885,  -0.03569,  -0.01332,  -0.09386,  -0.04464,   0.11419,  -0.01332,  -0.05806,  -0.06925,   0.10972,   0.23052,   0.08959,  -0.03122,  -0.01780,  -0.04017,  -0.00437,   0.10301,   0.06050,   0.06050,   0.09182,   0.09406,   0.04037,  -0.01780,  -0.09162,  -0.06254,   0.07169,   0.10972,   0.05603,  -0.05359,  -0.07820,  -0.00661,   0.01129,  -0.08715,   0.09630,  -0.08044,  -0.01780,   0.03813,   0.09182,   0.14104,  -0.08044,  -0.12294,  -0.11847,  -0.01556,  -0.08491,  -0.09833,  -0.06925,  -0.10728,   0.02023,  -0.06701,  -0.02227,   0.05379,   0.12762,   0.01576,   0.04037,   0.07393,  -0.01780,  -0.06925,  -0.04464,  -0.08267,   0.00905,  -0.01109,   0.10972,   0.01576,   0.08511,  -0.04240,  -0.04912,  -0.08267,   0.17460,  -0.01556,   0.00457,  -0.12742,  -0.05806,   0.02918,   0.00234,   0.05827,  -0.06030,   0.08064,   0.05827,  -0.04912,   0.01800,  -0.03793,   0.14104,  -0.06701,   0.03142,   0.11867,  -0.01780,   0.22381,  -0.09386,  -0.01332,  -0.01109,  -0.14531,  -0.05806,   0.05827,   0.04932,  -0.07820,  -0.03346,   0.02247,   0.07169,  -0.09162,  -0.07596,   0.12985,   0.06498,   0.02247,  -0.08267,  -0.00437,  -0.01556,  -0.06030,  -0.01780,   0.15222,  -0.12742,   0.04932,   0.05827,  -0.00437,   0.17012,   0.06498,   0.00905,  -0.06030,   0.02918,   0.01352,  -0.01556,   0.11419,  -0.03122,   0.05827,   0.00681,   0.04037,  -0.08938,  -0.06254,   0.07169,   0.00905,  -0.03569,   0.02918,  -0.10504,  -0.03122,  -0.08938,  -0.11399,  -0.14531,  -0.04464,  -0.05359,   0.00010,  -0.01109,   0.04932,  -0.04464,  -0.01109,  -0.06254,  -0.03122,   0.00457,  -0.04017,   0.10524,  -0.02227,   0.10972,   0.08064,  -0.05359,   0.05379,   0.04484,   0.12538,   0.02918,  -0.02003,  -0.06254,  -0.10952,  -0.06701,   0.01129,  -0.05135,  -0.06254,   0.01576,  -0.08938,  -0.02898,   0.09630,   0.02471,  -0.02674,   0.02918,   0.01352,  -0.04017,   0.03589,   0.04037,  -0.13189,   0.08511,   0.04484,  -0.02674,  -0.11623,   0.03589,   0.00905,   0.04708,  -0.01109,  -0.09162,   0.02023,  -0.01332,  -0.02003,  -0.02674,   0.02471,  -0.06478,   0.03813,  -0.04464,   0.04261,  -0.06925,   0.10077,  -0.01556,  -0.11399,  -0.05806,   0.03813,   0.02471
  -0.04017,   0.06274,   0.01352,  -0.06925,   0.08959,   0.09853,  -0.01780,  -0.01109,  -0.07596,  -0.03793,  -0.01109,  -0.06254,   0.09406,  -0.11847,  -0.12518,   0.02471,   0.08511,  -0.12070,   0.05827,   0.04037,  -0.00437,   0.06050,   0.05379,  -0.07596,  -0.06478,   0.13880,  -0.10728,  -0.06478,  -0.11847,  -0.16768,   0.08735,   0.06945,  -0.07149,   0.16117,   0.11196,  -0.06925,   0.12090,  -0.04464,  -0.01109,  -0.08715,   0.03142,   0.05379,   0.00010,  -0.11623,   0.02023,  -0.05806,   0.00457,   0.08511,  -0.00885,   0.03142,  -0.13860,  -0.01780,   0.02695,  -0.08044,  -0.04240,   0.10077,  -0.03122,   0.05155,   0.02023,   0.01129,  -0.04464,  -0.04688,   0.10524,  -0.07372,   0.09853,   0.18578,   0.00457,   0.06050,  -0.01556,  -0.11176,  -0.08267,  -0.15202,  -0.10057,  -0.11399,  -0.15650,  -0.05359,  -0.06701,  -0.08044,   0.01576,  -0.14979,   0.11419,  -0.00661,   0.08959,   0.00234,   0.01352,  -0.02898,  -0.01109,  -0.03793,  -0.06254,  -0.01556,   0.08064,   0.10301,  -0.03569,  -0.00885,  -0.06030,   0.10972,  -0.13189,   0.00457,   0.04708,   0.00457,  -0.07149,   0.01800,   0.09630,   0.01800,   0.06274,   0.02023,  -0.05583,  -0.02227,  -0.13413,  -0.02451,  -0.00885,  -0.09610,  -0.08715,   0.09630,   0.08287,   0.14775,   0.01800,   0.08511,   0.10972,  -0.02674,   0.06274,   0.00681,   0.02471,   0.02247,   0.03589,   0.02471,   0.09182,  -0.02451,  -0.01332,   0.08064,  -0.12742,   0.00010,   0.01352,   0.02695,  -0.04688,  -0.01109,  -0.01332,   0.02918,  -0.06254,   0.14775,   0.04708,   0.00457,  -0.08267,  -0.01780,   0.08064,  -0.04017,   0.01129,   0.05827,   0.15446,   0.06498,  -0.04017,  -0.01332,   0.04932,   0.00905,   0.00457,  -0.12294,  -0.00885,   0.02471,  -0.10504,   0.04261,  -0.06701,  -0.07149,  -0.09162,   0.00457,  -0.05359,   0.02918,   0.00681,  -0.15650,   0.07840,   0.05827,   0.03366,  -0.04240,   0.03366,   0.02023,   0.07616,  -0.02451,   0.14104,   0.04037,   0.02695,  -0.00661,  -0.12518,   0.02695,   0.04037,  -0.03569,   0.03589,  -0.04017,   0.09182,   0.07840,   0.04932,  -0.01780,  -0.02003,  -0.02674,   0.08735,  -0.02003,   0.12538,   0.00905,   0.06945,  -0.02898,  -0.02674,   0.11196,  -0.19677,   0.00457,   0.01352,   0.01576,   0.05603,   0.07393,  -0.01780,   0.05155,  -0.02898,   0.11419,  -0.16768,   0.00457,   0.08064,   0.10301,  -0.00214,   0.11867,  -0.02898,  -0.01109,   0.05827,  -0.04240,  -0.02674,  -0.05359,   0.07616,  -0.06478,   0.00010,  -0.08267,   0.05155,  -0.04912,   0.10748,  -0.05135,  -0.02003,   0.05603,  -0.04688,   0.03813,   0.01800,  -0.12518,   0.06721,   0.02023,   0.03589,  -0.05583,  -0.03793,   0.00681,  -0.00437,   0.06945,  -0.01109,   0.04932,  -0.04017,   0.05827,  -0.02451,   0.00457,   0.01576,  -0.05359,  -0.04017,  -0.08715,   0.15446,  -0.05806,  -0.05135,   0.01800,   0.07169,  -0.04688,  -0.01556,  -0.01556,   0.06274,  -0.07372,  -0.02674,  -0.07820,  -0.12965,   0.00234,   0.03142,  -0.01780,   0.14775,   0.02023,  -0.01332,  -0.05359,  -0.07372,  -0.11176,  -0.00885,  -0.02227,   0.00457,  -0.02898,  -0.03793,   0.05827,   0.02695,   0.03142,  -0.13189,  -0.05359,   0.08735,   0.12985,   0.05155,  -0.01109,   0.07169,  -0.03346,   0.05379,   0.12762,  -0.00885,  -0.07149,  -0.03346,   0.10524,  -0.13413,   0.00905,  -0.00661,  -0.02227,  -0.04912,  -0.04912,   0.03142,   0.09182,  -0.08267,  -0.02003,   0.07393,   0.08959,   0.06498,  -0.05806,  -0.02227,   0.03366,   0.14999,  -0.17663,  -0.15873,  -0.02003,  -0.11399,   0.03142,   0.17907,  -0.08267,  -0.00661,  -0.05583,   0.06498,   0.00457,   0.01576,  -0.15650,   0.02023,  -0.11623,  -0.03346,   0.06274,  -0.08044,   0.04484,  -0.02227,   0.05379,   0.04037,   0.03813,  -0.01109,   0.04261,   0.05379,   0.06050,   0.24171,   0.03366,  -0.04688,  -0.11399,  -0.01332,  -0.04688,   0.00681,   0.05603,   0.00457,   0.04932,  -0.03793,   0.02247,   0.01576,  -0.00885,   0.04484,   0.00457,  -0.01332,   0.03589,   0.02471,   0.00681,  -0.12742,  -0.01109,   0.02918,   0.04708,  -0.06701,  -0.02898,   0.07616,   0.02023,   0.00457,   0.13433,   0.07393,  -0.08267,   0.04484,  -0.05359,   0.02023,  -0.08044,   0.05379,  -0.05359,   0.08735,   0.01352,   0.09853,   0.02471
  -0.01332,  -0.01332,  -0.00214,   0.02023,   0.13656,  -0.01556,  -0.12742,  -0.04240,   0.03366,   0.05827,  -0.11176,   0.12985,   0.07393,   0.04708,   0.02918,  -0.07149,   0.15222,  -0.03122,  -0.01109,   0.01576,  -0.06030,  -0.10504,   0.01576,   0.06274,   0.03142,   0.02247,  -0.08491,  -0.07149,   0.00010,   0.04484,   0.07169,   0.07616,  -0.00437,  -0.05806,   0.04037,  -0.08715,   0.17236,   0.02023,   0.02247,   0.01352,   0.03589,   0.05379,  -0.06030,   0.06050,  -0.02451,   0.01129,  -0.06254,  -0.04240,  -0.03346,   0.04708,   0.10077,   0.11643,  -0.01556,   0.02247,   0.05155,   0.06945,  -0.03122,  -0.10952,  -0.03793,   0.03142,   0.02247,   0.07616,   0.00905,   0.01800,  -0.08715,   0.01576,   0.00905,   0.05603,   0.01576,   0.05155,   0.02023,  -0.03793,   0.02471,  -0.02451,  -0.03346,   0.02023,  -0.05583,   0.00905,   0.07393,   0.07393,   0.00905,  -0.13413,  -0.04240,   0.06945,   0.08287,   0.00681,  -0.05583,   0.04484,  -0.09610,   0.05379,   0.08735,  -0.00214,   0.22829,   0.01576,  -0.07372,   0.02918,  -0.01780,  -0.15650,   0.01576,   0.06945,  -0.04464,   0.12090,  -0.10504,  -0.01556,  -0.12518,   0.13209,  -0.02003,  -0.03346,   0.01576,  -0.15202,  -0.13636,   0.00681,   0.01800,  -0.04688,  -0.00214,   0.17236,   0.00234,  -0.10281,  -0.03793,  -0.02898,  -0.03346,  -0.04688,  -0.00214,   0.09630,   0.06498,   0.05379,   0.06274,  -0.02451,   0.01352,  -0.06254,   0.02695,  -0.06701,  -0.03569,   0.07616,   0.17907,  -0.01332,  -0.03569,   0.03366,   0.02023,  -0.02674,  -0.02451,  -0.00661,   0.09182,   0.03142,   0.20368,   0.03366,   0.09182,   0.02023,   0.00457,  -0.09610,  -0.03122,  -0.04688,   0.06498,   0.13209,   0.10748,  -0.08044,   0.09630,   0.10972,   0.03813,  -0.09833,   0.03366,  -0.02451,  -0.07372,  -0.03122,   0.06050,   0.03142,  -0.06478,  -0.10281,   0.03589,   0.04261,  -0.04688,   0.01800,   0.02247,  -0.04688,  -0.01332,  -0.00661,  -0.00661,   0.03366,  -0.00437,   0.04037,  -0.02674,   0.04484,   0.08511,  -0.14979,   0.08287,   0.05603,   0.04037,   0.00681,  -0.01780,  -0.08491,  -0.02674,  -0.00661,  -0.00661,   0.08064,   0.01800,  -0.05135,   0.01576,  -0.02003,   0.09182,   0.10301,  -0.04017,   0.03366,   0.00234,  -0.01332,  -0.18782,  -0.04240,  -0.05135,  -0.01780,  -0.00437,  -0.03346,   0.02695,   0.02023,  -0.03122,   0.07169,   0.01352,   0.08511,  -0.15426,  -0.07820,  -0.04912,   0.04708,   0.03589,   0.03813,  -0.04464,  -0.05583,   0.09630,   0.04708,   0.08287,  -0.15426,   0.00457,   0.17907,   0.02023,  -0.02003,   0.05379,  -0.02451,  -0.00885,  -0.10504,  -0.04688,  -0.00885,  -0.02003,   0.04708,   0.03366,   0.01129,   0.01576,  -0.08044,  -0.03793,  -0.05806,  -0.04240,  -0.07149,  -0.03122,  -0.03346,   0.07616,   0.03813,   0.00234,   0.03589,   0.09630,   0.03813,   0.08064,   0.00457,  -0.03569,   0.04037,  -0.06925,  -0.05359,  -0.02674,  -0.07596,   0.02247,   0.07840,   0.12090,   0.04484,  -0.10728,  -0.11176,  -0.00437,   0.08959,  -0.00437,   0.07840,  -0.01109,   0.03589,  -0.01109,   0.02023,   0.05827,   0.08511,  -0.14531,  -0.02227,  -0.10057,   0.03142,  -0.13860,   0.01352,  -0.02451,  -0.06030,  -0.02227,   0.01800,   0.01576,   0.05603,   0.01800,   0.14551,   0.09853,  -0.04688,  -0.03122,   0.13880,  -0.18558,  -0.00885,  -0.06701,   0.14328,  -0.02003,   0.00234,  -0.10057,  -0.05135,  -0.04017,   0.01576,   0.04484,  -0.04688,  -0.03122,   0.02247,  -0.05583,   0.00234,   0.05155,   0.04037,  -0.00661,   0.08064,  -0.03793,  -0.06254,   0.10077,  -0.05359,   0.12314,  -0.14531,   0.13880,   0.08287,  -0.02003,   0.06498,   0.08287,  -0.02898,  -0.06925,  -0.12742,  -0.02674,  -0.05583,   0.00905,   0.10077,   0.10524,   0.05379,   0.04708,   0.04484,  -0.04688,   0.09182,  -0.10952,  -0.03569,  -0.09386,   0.02023,  -0.01556,   0.07393,   0.08287,  -0.03569,  -0.02451,   0.06050,   0.02471,  -0.15650,   0.10301,  -0.21690,  -0.07820,   0.03142,  -0.01780,  -0.07372,   0.15894,   0.04484,  -0.08938,   0.04037,   0.05379,   0.12985,   0.05603,  -0.14084,   0.03813,   0.09406,  -0.00661,   0.03366,   0.00905,   0.00457,  -0.05583,  -0.13413,   0.02471,  -0.14531,  -0.07372,  -0.07820,  -0.07596,   0.00681,  -0.06925,   0.00457
  -0.10504,  -0.08044,   0.04708,   0.05603,   0.00905,  -0.02674,   0.13209,   0.07616,   0.06498,  -0.02003,  -0.05806,  -0.10952,   0.05155,  -0.08491,   0.01800,  -0.00885,   0.14551,   0.13433,   0.00681,   0.09406,  -0.03122,   0.06050,   0.04261,  -0.07596,  -0.02674,   0.03589,   0.04484,   0.11867,  -0.00214,  -0.03569,  -0.11623,   0.02695,  -0.04688,   0.02695,   0.02471,   0.00681,  -0.06254,  -0.00661,  -0.11399,   0.05379,   0.02918,  -0.08491,   0.04261,   0.02695,   0.04484,  -0.01556,  -0.05359,   0.00905,  -0.04017,   0.00010,  -0.03346,  -0.06701,   0.13880,   0.05827,  -0.10728,   0.07393,   0.01129,   0.10748,  -0.03122,   0.02247,  -0.04912,  -0.03569,  -0.02003,   0.01576,  -0.01780,   0.05155,   0.03366,  -0.08938,   0.05155,   0.00681,  -0.04912,   0.01352,  -0.04912,  -0.03346,  -0.02674,  -0.00437,   0.02695,  -0.14755,  -0.00661,  -0.05359,   0.01800,   0.01800,   0.01576,   0.09182,   0.00234,  -0.04464,   0.10524,   0.05155,   0.05827,  -0.18334,   0.04932,  -0.03569,  -0.10504,  -0.03793,  -0.15873,   0.03142,  -0.06478,  -0.04464,  -0.07596,  -0.03793,   0.08064,  -0.10952,   0.01129,  -0.08491,   0.00681,  -0.15202,   0.13209,   0.01800,  -0.01109,  -0.04464,  -0.03122,   0.05603,  -0.02898,  -0.01332,   0.00457,   0.02918,  -0.02674,   0.02471,  -0.01556,  -0.05806,   0.02918,   0.10301,   0.01576,  -0.09833,   0.04932,  -0.06030,   0.03366,  -0.11623,  -0.00885,   0.06274,   0.05379,  -0.05135,  -0.02003,   0.06274,  -0.06030,   0.09630,  -0.00661,   0.01129,  -0.12518,  -0.03793,   0.06721,  -0.09386,   0.01576,   0.00234,  -0.02898,  -0.00214,  -0.09162,   0.01352,   0.02918,  -0.07149,  -0.06701,  -0.04912,  -0.13636,  -0.01332,   0.04708,   0.08735,  -0.07372,  -0.02898,   0.01352,   0.08064,  -0.05806,  -0.16097,   0.01800,  -0.14979,   0.06721,   0.03142,  -0.04240,  -0.01109,  -0.02003,   0.06498,   0.00234,   0.08511,   0.06945,   0.07616,   0.00681,  -0.06701,  -0.07149,   0.03589,   0.04708,   0.06721,   0.04932,  -0.06030,   0.06498,  -0.13860,  -0.01556,  -0.10728,   0.12538,  -0.05583,  -0.02451,  -0.00661,  -0.02227,  -0.04912,  -0.13189,   0.02471,   0.09630,   0.02023,   0.04932,   0.03813,  -0.02898,   0.00010,   0.04261,   0.08735,   0.04708,  -0.00437,  -0.00885,  -0.03569,   0.09182,  -0.06925,  -0.02003,   0.00905,  -0.10057,   0.04932,  -0.02898,  -0.06701,   0.00681,  -0.05583,   0.04484,   0.12985,   0.00010,  -0.06030,  -0.07820,  -0.02674,  -0.09833,  -0.02003,  -0.03346,   0.06274,   0.05379,  -0.01556,  -0.14979,  -0.14531,  -0.04464,  -0.01780,  -0.14531,  -0.14308,  -0.04240,  -0.02227,  -0.08044,   0.01129,   0.04261,   0.03142,  -0.05359,  -0.02451,  -0.01780,  -0.06925,  -0.02227,   0.03813,  -0.05806,  -0.15426,   0.09406,   0.01576,  -0.10057,  -0.04017,  -0.02227,   0.00457,   0.10748,  -0.01556,   0.05379,  -0.07372,  -0.03569,  -0.01332,  -0.02003,   0.01576,  -0.05135,   0.07616,  -0.05359,  -0.00437,  -0.01780,   0.04037,   0.03142,  -0.07596,  -0.01556,  -0.07596,   0.02918,  -0.01109,   0.05827,   0.02918,   0.04484,  -0.11623,  -0.03122,   0.01576,   0.07393,   0.02247,   0.03589,  -0.02451,  -0.05806,   0.01800,   0.10748,  -0.03569,   0.12090,  -0.09386,  -0.01780,   0.00905,  -0.01109,  -0.12965,  -0.07820,  -0.03346,   0.04484,   0.02023,   0.01129,   0.02695,   0.04708,   0.03142,   0.06050,  -0.00661,   0.12314,   0.02023,   0.05379,  -0.05359,  -0.01780,  -0.07596,  -0.02674,  -0.02674,  -0.12070,   0.00681,   0.00010,  -0.02227,  -0.05583,  -0.07820,  -0.09162,   0.06945,  -0.05359,  -0.05806,   0.09853,  -0.00437,  -0.11399,   0.07169,   0.06274,   0.00457,   0.09406,  -0.07372,  -0.06701,  -0.01109,  -0.07149,  -0.02898,  -0.08491,   0.07169,   0.01800,   0.05379,   0.07840,  -0.02898,  -0.12742,   0.07840,  -0.09386,  -0.02898,  -0.02003,   0.15222,   0.02471,   0.00905,  -0.01109,  -0.02451,   0.04037,   0.03589,   0.01352,  -0.14979,   0.02247,   0.09853,   0.17683,  -0.09162,  -0.10728,  -0.02674,  -0.00661,   0.00681,  -0.03122,  -0.11399,   0.06498,  -0.02898,   0.01129,   0.10524,   0.09630,   0.04261,  -0.03346,  -0.07372,   0.09853,  -0.01332,  -0.06925,  -0.00661,   0.03366,  -0.04240,   0.01352,   0.02918,  -0.08491,  -0.11399,  -0.02451,   0.01129
   0.07840,  -0.13189,   0.05379,  -0.02898,   0.06274,   0.09630,  -0.03569,   0.09182,  -0.11623,   0.08511,   0.03366,  -0.01332,   0.04037,   0.05379,   0.07393,  -0.01332,  -0.00661,   0.05827,  -0.04688,  -0.00214,   0.02247,  -0.06030,   0.12090,  -0.00661,   0.10077,   0.00457,   0.10524,   0.08511,  -0.06478,  -0.08715,   0.04932,   0.11419,  -0.05359,  -0.02898,   0.06721,   0.01800,  -0.06254,  -0.07149,   0.01576,   0.05379,  -0.08491,  -0.06925,   0.01352,   0.00457,   0.00234,   0.06050,   0.03142,   0.03142,  -0.03122,  -0.04688,   0.06050,   0.01576,  -0.01556,  -0.08715,   0.06945,  -0.04912,  -0.01332,  -0.12294,  -0.02898,   0.01352,  -0.11399,  -0.10281,  -0.13189,  -0.10952,  -0.04240,   0.06945,  -0.13413,  -0.04240,   0.01129,  -0.18334,   0.01800,   0.08287,   0.05155,  -0.08491,   0.07169,  -0.05135,  -0.09162,  -0.05583,   0.00234,  -0.00885,  -0.00214,   0.00681,   0.16117,   0.00010,   0.14551,  -0.11623,   0.09182,   0.05827,   0.09853,   0.04261,   0.15222,   0.01800,  -0.05135,   0.00457,  -0.04240,   0.03142,   0.02695,  -0.11623,  -0.01109,  -0.10504,  -0.10281,   0.00234,  -0.00661,   0.04484,  -0.04464,   0.05603,  -0.02227,  -0.03346,   0.06721,   0.03589,   0.07169,  -0.01109,  -0.10281,   0.08287,  -0.07820,   0.08287,  -0.11623,   0.01576,   0.02471,  -0.07596,   0.00010,   0.12985,   0.02247,   0.10524,  -0.11399,   0.01576,   0.05827,  -0.00437,   0.04037,  -0.04240,   0.02247,  -0.03793,  -0.12518,   0.11643,   0.00010,  -0.03569,  -0.04017,   0.04037,  -0.06701,   0.17012,   0.08287,   0.06945,  -0.19005,  -0.02674,   0.01129,   0.00905,  -0.02227,   0.03142,  -0.00437,  -0.04240,   0.01576,   0.10524,  -0.04017,  -0.19005,   0.11419,   0.08959,  -0.06925,   0.07169,   0.18131,  -0.00214,   0.02023,   0.08064,  -0.05806,  -0.03569,   0.06721,   0.00905,   0.09406,  -0.10504,  -0.02227,  -0.00661,  -0.05359,   0.00457,  -0.03793,  -0.04464,  -0.03346,  -0.02898,   0.05155,   0.09853,  -0.02003,   0.00457,   0.04708,  -0.06701,  -0.02451,  -0.02451,  -0.02451,   0.09182,   0.02695,  -0.00885,  -0.03569,  -0.02674,  -0.09610,  -0.13413,  -0.15202,   0.02023,  -0.02674,   0.05155,   0.02023,   0.03142,   0.11196,  -0.10281,  -0.05135,   0.03589,   0.03366,   0.02471,   0.17460,   0.03813,   0.02695,  -0.05806,  -0.07596,   0.00681,   0.08735,   0.05827,  -0.04017,   0.00457,   0.03366,   0.01800,  -0.05583,  -0.01332,   0.03142,  -0.07149,   0.07840,   0.01576,   0.06945,   0.00010,   0.10972,  -0.02674,   0.04708,  -0.10281,  -0.05583,   0.06945,   0.04037,   0.02023,   0.17907,   0.06945,  -0.11176,   0.03589,   0.00681,  -0.02451,   0.00010,  -0.13636,   0.08959,   0.04037,  -0.08044,   0.09406,  -0.08044,  -0.00214,  -0.03793,   0.02471,  -0.04464,  -0.00214,  -0.12070,   0.08959,   0.07616,  -0.02898,   0.02471,  -0.04017,  -0.02227,   0.02695,   0.00234,  -0.01780,   0.08959,  -0.14308,   0.03589,  -0.04688,  -0.00214,  -0.04017,   0.06721,   0.01129,  -0.02898,   0.00457,   0.05603,  -0.05583,  -0.11399,   0.07393,   0.02695,  -0.06701,  -0.00885,   0.02023,   0.00010,   0.06274,  -0.11847,   0.02918,   0.07393,   0.08064,   0.00457,   0.02023,   0.01800,   0.05827,  -0.08715,  -0.02898,   0.09853,  -0.00885,  -0.00214,   0.11867,   0.01800,  -0.07149,   0.05155,  -0.01109,   0.06050,   0.00681,   0.04484,   0.08511,  -0.10728,  -0.10281,   0.06050,   0.00234,  -0.01780,  -0.07596,  -0.08491,   0.06050,   0.08064,   0.10524,  -0.11623,  -0.06701,  -0.00437,   0.07393,  -0.01556,  -0.11623,  -0.00885,   0.05603,  -0.11623,  -0.06925,  -0.09833,   0.01129,  -0.02451,   0.02918,  -0.04017,  -0.00885,  -0.04912,   0.00905,   0.07169,   0.09182,   0.16788,  -0.02898,  -0.01109,  -0.05806,  -0.18111,  -0.00214,  -0.05583,  -0.07149,  -0.02227,  -0.10728,   0.02695,   0.07393,  -0.00885,  -0.08491,  -0.12518,   0.00010,   0.00905,  -0.07596,   0.00234,  -0.09162,  -0.01780,  -0.02451,   0.02023,   0.02247,   0.01352,   0.06945,   0.07840,   0.05827,  -0.06701,  -0.02451,   0.04932,  -0.07372,  -0.07149,  -0.06030,  -0.01556,  -0.02003,  -0.01780,  -0.01780,  -0.04017,   0.04037,   0.06498,  -0.07372,   0.07840,   0.00010,   0.10077,   0.02023,  -0.13636,   0.03813,   0.01576,   0.05379,  -0.01556,   0.08735
   0.01576,   0.02247,  -0.12294,   0.07393,  -0.02003,   0.02247,  -0.10281,   0.04261,  -0.07149,  -0.08044,   0.00681,   0.09853,  -0.10504,  -0.03569,   0.10972,  -0.09833,   0.08287,   0.00457,  -0.04017,   0.00010,   0.05603,   0.06050,   0.02471,   0.06050,   0.03813,   0.02023,  -0.13860,   0.01352,  -0.01109,   0.02247,   0.06721,   0.00457,  -0.06925,  -0.05135,   0.00681,  -0.15873,   0.01576,   0.10748,   0.06945,   0.09182,  -0.03346,   0.08511,  -0.08267,   0.03142,  -0.09386,  -0.03122,  -0.06478,   0.01576,   0.06498,   0.01352,  -0.06254,   0.07393,   0.04708,  -0.03122,   0.04484,   0.10524,  -0.09162,  -0.01109,   0.00234,   0.15670,   0.00234,  -0.08491,  -0.03793,   0.07616,   0.02918,  -0.14084,  -0.01109,  -0.02003,   0.09630,   0.04037,  -0.01556,  -0.05359,  -0.02898,  -0.01332,  -0.06254,  -0.08267,   0.08735,   0.02247,   0.04932,   0.04037,   0.01576,  -0.00885,   0.03366,   0.01129,   0.04261,   0.03813,   0.10524,   0.05827,   0.06498,  -0.12294,   0.07393,   0.10077,   0.02695,   0.09406,  -0.03793,  -0.03346,   0.09630,  -0.06478,  -0.00661,  -0.03793,   0.01800,   0.01352,   0.06498,  -0.05583,  -0.10952,   0.12090,  -0.04688,   0.05379,   0.08735,   0.02918,   0.04708,  -0.06925,   0.09406,   0.13433,   0.04484,  -0.07149,   0.00457,  -0.04017,   0.00681,  -0.05806,   0.05155,   0.00457,   0.04708,   0.05603,  -0.02003,   0.03589,   0.09630,   0.06945,  -0.02227,  -0.02451,  -0.04017,  -0.10728,   0.05827,   0.02918,   0.04037,  -0.05135,  -0.02003,   0.02695,  -0.13413,  -0.00437,   0.13209,   0.10524,  -0.01332,  -0.03793,  -0.06478,   0.01800,  -0.05583,   0.04708,   0.00234,  -0.01556,   0.04037,   0.02918,   0.05155,  -0.06030,   0.03142,  -0.06701,   0.05379,   0.00905,  -0.08715,   0.02023,  -0.02227,   0.00905,   0.07616,  -0.02674,   0.06274,   0.03366,   0.01576,   0.04708,   0.13209,  -0.12742,   0.19697,   0.15222,   0.03366,   0.02695,   0.01352,   0.04037,   0.08511,  -0.01556,   0.00234,  -0.05135,  -0.08044,   0.05155,  -0.00661,   0.05155,   0.12762,   0.07840,   0.00905,   0.14328,  -0.08938,  -0.02898,  -0.07372,  -0.06925,  -0.03346,  -0.03793,   0.04708,   0.07169,   0.00905,  -0.05583,  -0.07820,   0.04708,  -0.14531,  -0.05359,   0.01352,  -0.08938,   0.10748,  -0.05583,   0.05379,  -0.05806,   0.01352,  -0.10504,   0.05379,   0.04484,   0.04708,   0.03366,   0.01352,  -0.00661,  -0.05359,   0.07840,   0.03589,  -0.12742,   0.09182,   0.06274,   0.07840,  -0.08491,   0.00905,  -0.02003,   0.03142,   0.07169,  -0.02451,  -0.08715,   0.06945,   0.06050,   0.01576,  -0.08044,   0.05827,  -0.10504,  -0.01556,  -0.12294,   0.06274,   0.09853,  -0.12518,   0.08064,  -0.03793,  -0.10281,  -0.05359,  -0.06701,   0.06050,  -0.03793,  -0.02451,  -0.01109,  -0.07596,  -0.08715,  -0.00214,  -0.06925,   0.00681,   0.11196,  -0.02227,  -0.02898,   0.05603,  -0.05135,   0.04932,   0.09182,  -0.03569,  -0.07149,  -0.05583,  -0.09386,   0.11419,  -0.11176,  -0.10728,   0.09406,   0.11196,   0.00234,  -0.04464,  -0.04017,   0.08735,   0.00681,  -0.07149,  -0.05583,   0.01352,   0.05379,  -0.03122,  -0.07372,   0.02471,  -0.03122,   0.05603,   0.01800,  -0.00214,   0.10524,  -0.17663,   0.08511,   0.06498,  -0.05583,  -0.04688,   0.07393,   0.13880,  -0.00885,   0.01352,   0.02471,   0.02023,  -0.02003,   0.08735,   0.05155,   0.08287,  -0.00885,   0.04037,  -0.09162,  -0.04688,   0.03142,   0.01352,  -0.04912,  -0.11176,   0.10524,   0.00681,   0.05827,  -0.04240,  -0.05806,   0.00234,  -0.08715,  -0.01780,  -0.00885,   0.05155,   0.02918,  -0.03346,   0.00457,   0.07616,   0.10301,  -0.11623,  -0.05359,   0.00234,  -0.00885,   0.00681,   0.19697,  -0.11847,   0.10524,  -0.04688,   0.03366,  -0.14755,   0.01352,  -0.08044,   0.05827,  -0.11176,   0.00905,   0.10748,   0.05827,   0.01129,  -0.02898,   0.05603,  -0.11399,   0.01129,  -0.00437,   0.12762,   0.10301,   0.10077,  -0.08491,   0.07840,   0.09182,   0.05603,  -0.02898,  -0.01109,   0.07616,  -0.04017,  -0.02898,   0.08064,  -0.02003,  -0.05806,  -0.05135,   0.00457,  -0.05583,   0.00681,   0.07616,  -0.21019,  -0.05135,   0.15222,  -0.04912,  -0.14084,  -0.00437,   0.10301,   0.05827,  -0.05806,  -0.08715,   0.00010,  -0.02674,  -0.02674,  -0.05583
  -0.01556,   0.02918,   0.00234,  -0.06478,   0.03142,   0.00905,  -0.05583,  -0.00437,  -0.03346,   0.06274,   0.12314,  -0.06478,   0.06721,  -0.07372,   0.10077,  -0.10281,   0.02918,  -0.05583,  -0.01109,  -0.14979,  -0.11176,   0.06721,   0.03589,  -0.06701,   0.08064,  -0.13636,  -0.00885,  -0.00661,  -0.04017,   0.01576,   0.00905,   0.03142,  -0.04240,  -0.02227,   0.10748,  -0.09833,  -0.05135,  -0.07149,   0.06274,   0.09406,  -0.11623,   0.04932,   0.04932,  -0.00661,   0.00905,   0.02918,  -0.04912,  -0.01780,  -0.00885,  -0.04912,  -0.02898,  -0.06254,   0.00010,  -0.12518,  -0.03122,  -0.06254,  -0.01109,  -0.04464,  -0.09162,  -0.06254,  -0.02451,   0.04037,  -0.10504,  -0.01556,   0.02918,  -0.03346,   0.02247,   0.00010,  -0.06254,  -0.05135,  -0.00885,   0.04261,  -0.06478,   0.06274,  -0.03569,   0.09630,   0.00457,   0.04484,   0.04037,  -0.04688,  -0.09610,   0.05603,   0.02023,   0.01129,   0.02023,  -0.02898,   0.00457,   0.06945,  -0.02674,  -0.00437,   0.07616,   0.04484,  -0.01109,   0.05603,  -0.02674,  -0.01332,   0.00457,   0.04037,  -0.02674,  -0.14755,   0.04037,   0.04037,   0.02695,  -0.10952,   0.04037,  -0.00661,  -0.04912,  -0.06701,  -0.09162,   0.18578,  -0.00437,  -0.05135,   0.07169,   0.06498,  -0.04464,   0.04484,  -0.03346,   0.10301,  -0.01780,  -0.02003,  -0.06030,   0.10077,   0.01129,  -0.00437,   0.00457,   0.06721,   0.01129,   0.07169,   0.08064,   0.05155,   0.02918,  -0.09162,  -0.02003,   0.03589,   0.02023,   0.06945,  -0.07596,  -0.03122,  -0.08491,   0.06050,   0.01129,   0.04261,   0.02023,  -0.05583,   0.06050,  -0.02003,   0.04708,  -0.00661,  -0.08938,   0.09853,  -0.06030,   0.06498,  -0.11623,   0.04932,   0.01129,  -0.00885,  -0.00885,  -0.04688,  -0.01780,  -0.00661,   0.03366,   0.04484,  -0.12294,   0.00234,  -0.00214,  -0.03569,  -0.06925,  -0.05806,  -0.01109,   0.08735,  -0.07372,  -0.06925,  -0.09833,  -0.04912,  -0.02003,  -0.02451,   0.10077,  -0.04240,  -0.10281,   0.05827,  -0.08938,   0.03589,  -0.08938,  -0.09833,   0.08287,  -0.07820,   0.03366,   0.02471,  -0.06701,   0.06945,   0.06498,   0.07169,  -0.05135,   0.09182,  -0.06030,  -0.05806,   0.00681,   0.00457,  -0.09833,   0.14104,   0.06498,  -0.12294,  -0.07820,  -0.04240,  -0.03346,  -0.02003,   0.16117,   0.11419,   0.02471,  -0.02227,   0.03142,   0.07393,  -0.07372,   0.05155,   0.03589,   0.06721,  -0.05806,  -0.11623,  -0.05135,  -0.01556,  -0.07820,  -0.01780,  -0.02674,  -0.04017,   0.06945,  -0.10504,  -0.14755,  -0.00885,   0.06721,   0.05827,   0.07169,   0.04261,  -0.02451,  -0.03793,   0.08959,   0.07840,   0.07169,  -0.03122,  -0.02674,  -0.02451,  -0.02003,  -0.03346,  -0.03346,   0.01352,   0.04708,  -0.08938,   0.08735,  -0.08044,  -0.01556,  -0.07149,  -0.08044,   0.03142,   0.03366,  -0.02674,  -0.06925,   0.03142,  -0.02227,  -0.04017,  -0.06030,   0.05827,  -0.11623,   0.06498,   0.02918,  -0.01556,   0.07616,   0.01352,  -0.07820,  -0.06030,  -0.06701,   0.06498,   0.04037,   0.03589,  -0.04017,   0.00457,   0.08064,  -0.03122,   0.12985,  -0.04688,  -0.02898,   0.08511,  -0.08715,   0.05379,   0.00010,   0.08287,   0.08511,   0.11867,   0.00457,   0.22381,  -0.05359,   0.02023,   0.03142,  -0.02227,   0.06274,  -0.00437,   0.02023,  -0.19453,  -0.01780,  -0.14084,   0.11196,   0.05155,  -0.07820,  -0.08044,   0.00681,  -0.05806,   0.12762,  -0.05583,  -0.11399,  -0.07372,  -0.11176,   0.02023,   0.05155,   0.02695,   0.06274,   0.03142,  -0.11399,   0.08064,  -0.06478,  -0.02898,  -0.02003,  -0.02003,   0.07840,  -0.02227,   0.02918,  -0.01109,   0.08064,  -0.04464,   0.04037,  -0.01556,  -0.00661,   0.08959,   0.10972,   0.04932,   0.01129,  -0.05806,  -0.05806,   0.04932,   0.03142,   0.11419,   0.01576,   0.01352,  -0.12294,   0.06050,  -0.04912,  -0.04017,   0.02918,  -0.06478,  -0.00885,  -0.00437,   0.00905,  -0.04688,   0.10748,   0.10524,   0.04932,   0.07169,   0.19249,  -0.04688,  -0.02898,   0.01352,   0.02247,   0.14104,  -0.10504,  -0.05359,   0.05603,   0.02247,   0.02471,   0.04037,  -0.09162,  -0.05359,  -0.03569,   0.04932,   0.08287,  -0.08715,  -0.03122,   0.02247,   0.09182,  -0.03569,  -0.00661,  -0.04688,   0.00681,   0.01352,  -0.05583,   0.02247,  -0.03569,   0.04484
  -0.06254,   0.05155,  -0.05583,   0.06050,   0.02918,   0.00681,   0.02247,   0.00234,   0.02023,   0.07393,   0.04484,   0.03142,   0.04484,   0.08064,  -0.06701,  -0.13413,  -0.04464,  -0.14755,   0.03366,  -0.05583,  -0.01556,  -0.05359,   0.07616,  -0.08715,   0.06274,   0.05603,  -0.06701,   0.09182,  -0.07372,   0.14775,   0.04261,  -0.05135,   0.13880,   0.00457,   0.10972,  -0.03346,  -0.03122,  -0.12742,   0.04932,  -0.12518,   0.05827,  -0.01332,  -0.01780,   0.08735,   0.09853,  -0.00661,   0.02023,   0.02023,   0.06050,  -0.06701,  -0.05135,   0.04037,   0.11867,  -0.02227,   0.05155,   0.07169,   0.12090,   0.10301,  -0.06254,   0.07840,   0.07169,   0.01129,  -0.00661,  -0.16545,   0.04708,  -0.11847,  -0.06925,   0.01352,   0.19697,  -0.01556,   0.00010,  -0.04240,   0.07169,   0.00681,   0.10301,  -0.12294,   0.04037,  -0.05135,   0.05827,   0.15894,  -0.00214,  -0.01109,   0.11196,  -0.01109,  -0.05806,  -0.10504,  -0.19453,   0.03142,   0.02695,   0.04708,   0.10524,   0.08511,  -0.03793,  -0.09162,  -0.09610,  -0.03569,   0.02023,  -0.14979,  -0.12294,   0.09853,   0.10077,   0.01800,  -0.02003,   0.08511,   0.03589,   0.05603,   0.05379,   0.04932,  -0.05135,  -0.02451,   0.10524,  -0.12070,   0.06498,  -0.02674,  -0.04912,  -0.15650,   0.04484,   0.02918,   0.13209,   0.01576,  -0.04464,   0.12090,   0.12090,   0.09853,  -0.14308,   0.06498,  -0.07149,  -0.05583,  -0.26388,   0.03813,   0.12762,   0.09853,   0.01576,  -0.02898,   0.05827,  -0.07372,  -0.12965,  -0.06030,   0.03366,  -0.02003,  -0.04688,   0.00457,   0.06721,  -0.06478,  -0.01556,  -0.02003,  -0.01332,   0.10524,  -0.01556,   0.06721,  -0.04912,  -0.04464,  -0.02451,   0.04708,   0.01129,  -0.07596,   0.06050,  -0.01109,  -0.03346,   0.08511,  -0.10504,   0.09182,  -0.01332,   0.08287,  -0.01109,  -0.02674,  -0.02674,   0.10301,  -0.09162,  -0.03122,   0.05827,  -0.01556,   0.01129,   0.00457,   0.13656,   0.17460,  -0.03122,   0.02023,   0.02471,  -0.03793,   0.06274,   0.08959,  -0.01556,  -0.03569,  -0.07820,   0.02023,  -0.04464,   0.00010,   0.01129,   0.05155,   0.16341,  -0.02898,  -0.02451,   0.02023,   0.08511,  -0.10504,  -0.03793,  -0.04240,  -0.05135,  -0.05359,  -0.08715,  -0.02003,  -0.05583,  -0.00885,  -0.00437,  -0.00437,   0.07840,  -0.07596,   0.04261,  -0.01109,  -0.06925,   0.03589,   0.03813,  -0.01556,   0.06945,   0.06945,  -0.09833,  -0.22137,  -0.00214,   0.07393,  -0.04688,  -0.04912,   0.08511,   0.00905,   0.03366,   0.01576,   0.14999,   0.01352,   0.08735,   0.03142,   0.02247,  -0.00885,   0.00905,  -0.01332,   0.00457,   0.03142,  -0.05806,  -0.04017,   0.00457,   0.08511,   0.12090,  -0.02003,   0.05155,   0.02918,  -0.02003,  -0.09386,   0.02918,  -0.09386,  -0.07372,   0.03589,  -0.11623,  -0.04688,   0.02695,  -0.12742,   0.04708,  -0.14979,   0.00905,  -0.00661,   0.10972,  -0.00661,   0.02247,   0.12762,   0.03589,   0.15446,  -0.09610,  -0.05806,  -0.04464,  -0.00437,   0.01576,   0.03366,  -0.18782,  -0.05583,   0.03589,  -0.02003,   0.10748,  -0.10728,  -0.14308,  -0.00437,  -0.08715,  -0.08491,   0.03366,  -0.03569,   0.04261,   0.01800,  -0.02674,   0.06945,   0.06721,   0.16341,   0.02023,  -0.08044,  -0.14308,  -0.11847,  -0.00885,   0.00905,   0.03813,  -0.05359,  -0.04912,   0.00681,   0.14551,  -0.02898,  -0.03793,   0.02471,  -0.08267,  -0.08267,  -0.04464,  -0.06478,   0.05379,   0.04708,  -0.10504,  -0.01780,   0.00010,  -0.00214,   0.02918,  -0.02898,  -0.01109,  -0.11623,  -0.17439,  -0.03793,  -0.00885,  -0.07149,   0.07616,   0.04261,  -0.08267,   0.07169,  -0.12518,   0.07169,  -0.02227,   0.00457,   0.00234,  -0.09610,  -0.01780,  -0.05806,   0.00681,   0.11419,   0.08735,  -0.11399,   0.04708,  -0.07596,  -0.13189,   0.16117,  -0.03122,   0.09853,   0.05379,   0.00457,  -0.03346,  -0.15873,   0.03589,   0.02695,  -0.00885,  -0.03569,   0.02471,  -0.10952,  -0.07149,  -0.03793,  -0.10952,   0.07169,  -0.14531,   0.06498,   0.00010,   0.10748,   0.03366,   0.09853,  -0.02003,  -0.09610,  -0.06254,  -0.07372,   0.03589,   0.05155,   0.05379,   0.06274,   0.10077,   0.00457,  -0.04912,  -0.07372,   0.06945,   0.02023,  -0.10728,   0.13433,  -0.00437,   0.09630,  -0.01332,  -0.01109,   0.00681,  -0.09162
